{"learner":{"attributes":{"best_iteration":"32","best_score":"0.08819690646540633"},"feature_names":["loeuf","clin_ot","hgmd","ot_genetics_portal","expression_atlas","impc","europepmc","mantis"],"feature_types":["float","float","float","float","float","float","float","float"],"gradient_booster":{"model":{"gbtree_model_param":{"num_parallel_tree":"1","num_trees":"48"},"iteration_indptr":[0,1,2,3,4,5,6,7,8,9,10,11,12,13,14,15,16,17,18,19,20,21,22,23,24,25,26,27,28,29,30,31,32,33,34,35,36,37,38,39,40,41,42,43,44,45,46,47,48],"tree_info":[0,0,0,0,0,0,0,0,0,0,0,0,0,0,0,0,0,0,0,0,0,0,0,0,0,0,0,0,0,0,0,0,0,0,0,0,0,0,0,0,0,0,0,0,0,0,0,0],"trees":[{"base_weights":[-1.0537431E0,-1.0736185E0,-8.7737525E-1,-1.0745088E0,-1.9105752E-1,-8.897114E-1,-4.1158076E-2,-3.223613E-1,-0E0,-3.4611246E-1,-0E0,-8.920812E-1,-0E0,-3.3204094E-1,3.880769E-1,-1.2854266E-1,-0E0,-2.6782638E-1,-0E0,-0E0,-4.0261075E-1,-0E0,4.495274E-1,-4.7455686E-1,-0E0,-0E0,1.4690074E-1,-0E0,-5.109561E-1,-0E0,-1.5727353E-1],"categories":[],"categories_nodes":[],"categories_segments":[],"categories_sizes":[],"default_left":[0,1,0,0,1,0,0,0,0,0,0,0,0,0,0,0,0,0,0,0,0,0,0,0,0,0,0,0,0,0,0],"id":0,"left_children":[1,3,5,7,9,11,13,-1,-1,15,-1,17,-1,19,21,-1,-1,-1,-1,-1,23,-1,25,27,-1,-1,-1,-1,29,-1,-1],"loss_changes":[7.357031E1,1.0302734E1,2.254712E1,1.71875E-1,1.8816583E0,7.010254E0,7.105384E0,0E0,0E0,1.5298631E0,0E0,1.9335938E0,0E0,1.8101149E0,6.26503E-1,0E0,0E0,0E0,0E0,0E0,1.7636366E0,0E0,2.1342182E-1,1.0190382E0,0E0,0E0,0E0,0E0,1.87253E-1,0E0,0E0],"parents":[2147483647,0,0,1,1,2,2,3,3,4,4,5,5,6,6,9,9,11,11,13,13,14,14,20,20,22,22,23,23,28,28],"right_children":[2,4,6,8,10,12,14,-1,-1,16,-1,18,-1,20,22,-1,-1,-1,-1,-1,24,-1,26,28,-1,-1,-1,-1,30,-1,-1],"split_conditions":[1.21586155E-2,9.751E-1,1.2063738E-1,5.453663E-1,8E-1,4.2992485E-1,3.4694612E-1,-3.223613E-1,-0E0,6.082725E-2,-0E0,8.770888E-1,-0E0,1.6718097E-2,4.8929986E-2,-1.2854266E-1,-0E0,-2.6782638E-1,-0E0,-0E0,8.499211E-1,-0E0,4E-1,1.2867987E-1,-0E0,-0E0,1.4690074E-1,-0E0,3.365E-1,-0E0,-1.5727353E-1],"split_indices":[6,7,1,3,0,3,5,0,0,2,0,2,0,6,6,0,0,0,0,0,2,0,0,1,0,0,0,0,7,0,0],"split_type":[0,0,0,0,0,0,0,0,0,0,0,0,0,0,0,0,0,0,0,0,0,0,0,0,0,0,0,0,0,0,0],"sum_hessian":[2.564441E4,2.298967E4,2.6547395E3,2.2959322E4,3.0347902E1,2.6098115E3,4.4927856E1,2.2958242E4,1.0799966E0,2.0087934E1,1.0259967E1,2.6047356E3,5.0759835E0,3.466789E1,1.0259967E1,1.9007938E1,1.0799966E0,2.6032236E3,1.5119951E0,2.1599932E0,3.2507896E1,1.2959958E0,8.963971E0,2.9267906E1,3.2399895E0,1.6199948E0,7.3439765E0,1.0799966E0,2.818791E1,1.0799966E0,2.7107912E1],"tree_param":{"num_deleted":"0","num_feature":"8","num_nodes":"31","size_leaf_vector":"1"}},{"base_weights":[-9.913698E-1,-1.0157332E0,-7.852126E-1,-1.0168104E0,-1.3520214E-1,-7.992402E-1,-0E0,-1.0170493E0,-0E0,-2.7854604E-1,-0E0,-8.022267E-1,-0E0,-2.500218E-1,2.7365944E-1,-3.0512488E-1,-0E0,-1.0918962E-1,-0E0,-2.4243964E-1,-1.4415592E-1,-0E0,-3.412333E-1,-0E0,3.540121E-1,-3.1351748E-1,-0E0,-4.105842E-1,-0E0,-0E0,3.842347E-1,-3.3741352E-1,-0E0,-0E0,-4.4744375E-1,-0E0,1.2562372E-1,-1.10437915E-1,-0E0,-1.4759667E-1,-0E0],"categories":[],"categories_nodes":[],"categories_segments":[],"categories_sizes":[],"default_left":[0,1,0,0,1,0,0,0,0,0,0,0,0,0,0,0,0,0,0,0,0,0,0,0,0,0,0,0,0,0,0,1,0,0,0,0,0,0,0,0,0],"id":1,"left_children":[1,3,5,7,9,11,13,15,-1,17,-1,19,-1,21,23,-1,-1,-1,-1,-1,25,-1,27,-1,29,31,-1,33,-1,-1,35,37,-1,-1,39,-1,-1,-1,-1,-1,-1],"loss_changes":[8.596094E1,1.0214844E1,2.0036621E1,4.296875E-1,1.3131347E0,6.047241E0,3.8599856E0,9.765625E-2,0E0,1.2456398E0,0E0,2.6535645E0,0E0,1.850245E0,8.092911E-1,0E0,0E0,0E0,0E0,0E0,1.351126E0,0E0,1.374291E0,0E0,5.228734E-2,1.965344E-1,0E0,8.1164455E-1,0E0,0E0,1.3824534E-1,1.3570094E-1,0E0,0E0,7.663655E-1,0E0,0E0,0E0,0E0,0E0,0E0],"parents":[2147483647,0,0,1,1,2,2,3,3,4,4,5,5,6,6,7,7,9,9,11,11,13,13,14,14,20,20,22,22,24,24,25,25,27,27,30,30,31,31,34,34],"right_children":[2,4,6,8,10,12,14,16,-1,18,-1,20,-1,22,24,-1,-1,-1,-1,-1,26,-1,28,-1,30,32,-1,34,-1,-1,36,38,-1,-1,40,-1,-1,-1,-1,-1,-1],"split_conditions":[1.21586155E-2,9.751E-1,8.042492E-3,1.3208677E-1,8E-1,3.6025178E-1,3.4694612E-1,5.453663E-1,-0E0,6.082725E-2,-0E0,3.0413625E-1,-0E0,1.6718097E-2,1.6084984E-1,-3.0512488E-1,-0E0,-1.0918962E-1,-0E0,-2.4243964E-1,8.923E-1,-0E0,8.499211E-1,-0E0,7.494872E-2,3.49811E-1,-0E0,3.511E-1,-0E0,-0E0,4E-1,1.2E0,-0E0,-0E0,2E0,-0E0,1.2562372E-1,-1.10437915E-1,-0E0,-1.4759667E-1,-0E0],"split_indices":[6,7,1,1,0,3,5,3,0,2,0,2,0,6,1,0,0,0,0,0,7,0,2,0,6,5,0,7,0,0,0,0,0,0,0,0,0,0,0,0,0],"split_type":[0,0,0,0,0,0,0,0,0,0,0,0,0,0,0,0,0,0,0,0,0,0,0,0,0,0,0,0,0,0,0,0,0,0,0,0,0,0,0,0,0],"sum_hessian":[2.001195E4,1.7850637E4,2.1613125E3,1.7822074E4,2.8563065E1,2.1172344E3,4.4078045E1,1.781411E4,7.9641466E0,1.8303097E1,1.0259967E1,2.1108442E3,6.3903184E0,3.2539986E1,1.1538056E1,1.781303E4,1.0799966E0,1.72231E1,1.0799966E0,2.0829578E3,2.7886314E1,2.42286E0,3.0117126E1,1.0028151E0,1.0535241E1,1.4121458E1,1.3764856E1,2.6789515E1,3.327612E0,2.2958717E0,8.239369E0,1.296199E1,1.1594675E0,1.283678E0,2.5505836E1,1.6199948E0,6.6193743E0,1.0771433E1,2.190558E0,2.30522E1,2.453637E0],"tree_param":{"num_deleted":"0","num_feature":"8","num_nodes":"41","size_leaf_vector":"1"}},{"base_weights":[-9.338937E-1,-9.64015E-1,-6.943251E-1,-9.655485E-1,-1.6711101E-1,-7.096668E-1,-0E0,-9.656111E-1,-0E0,-3.2588118E-1,-0E0,-7.1424806E-1,-0E0,-1.805377E-1,2.1948965E-1,-9.6573186E-1,-0E0,-3.9090675E-1,-0E0,-7.295205E-1,-3.3769813E-1,-0E0,-2.7364787E-1,-0E0,8.824101E-2,-2.8973138E-1,-0E0,-1.3292156E-1,-0E0,-2.19344E-1,-0E0,-3.950823E-1,-0E0,-3.4149298E-1,-0E0,-0E0,-4.6813872E-1,-0E0,-3.7854797E-1,-3.0374402E-2,6.4669945E-3,-1.4776719E-1,-0E0,-1.2632994E-1,-0E0],"categories":[],"categories_nodes":[],"categories_segments":[],"categories_sizes":[],"default_left":[0,1,0,0,0,0,0,0,0,0,0,1,0,0,0,0,0,0,0,0,0,0,0,0,0,0,0,0,0,0,0,0,0,0,0,0,0,0,0,0,0,0,0,0,0],"id":2,"left_children":[1,3,5,7,9,11,13,15,-1,17,-1,19,-1,21,23,25,-1,27,-1,29,31,-1,33,-1,-1,-1,-1,-1,-1,-1,-1,35,-1,37,-1,39,41,-1,43,-1,-1,-1,-1,-1,-1],"loss_changes":[9.9697266E1,1.0112305E1,1.7286316E1,5.439453E-1,2.4838715E0,5.483032E0,2.1277547E0,3.7304688E-1,0E0,1.4378574E0,0E0,2.9102173E0,0E0,1.3822169E0,6.474886E-1,4.1992188E-2,0E0,2.4023724E-1,0E0,4.492798E-1,2.768918E0,0E0,1.0539539E0,0E0,0E0,0E0,0E0,0E0,0E0,0E0,0E0,1.8702736E0,0E0,6.491566E-1,0E0,1.6988905E-1,9.403763E-1,0E0,5.836921E-1,0E0,0E0,0E0,0E0,0E0,0E0],"parents":[2147483647,0,0,1,1,2,2,3,3,4,4,5,5,6,6,7,7,9,9,11,11,13,13,14,14,15,15,17,17,19,19,20,20,22,22,31,31,33,33,35,35,36,36,38,38],"right_children":[2,4,6,8,10,12,14,16,-1,18,-1,20,-1,22,24,26,-1,28,-1,30,32,-1,34,-1,-1,-1,-1,-1,-1,-1,-1,36,-1,38,-1,40,42,-1,44,-1,-1,-1,-1,-1,-1],"split_conditions":[1.21586155E-2,9.673E-1,8.042492E-3,6.917349E-1,1.1E0,3.850362E-2,3.4694612E-1,1.5648139E-1,-0E0,4.9168694E-1,-0E0,8.923E-1,-0E0,1.6718097E-2,1.6084984E-1,5.453663E-1,-0E0,8E-1,-0E0,6.7961425E-1,4.9168694E-1,-0E0,8.499211E-1,-0E0,8.824101E-2,-2.8973138E-1,-0E0,-1.3292156E-1,-0E0,-2.19344E-1,-0E0,4E-1,-0E0,3.511E-1,-0E0,3E-1,2.1869119E-1,-0E0,2E0,-3.0374402E-2,6.4669945E-3,-1.4776719E-1,-0E0,-1.2632994E-1,-0E0],"split_indices":[6,7,1,5,0,3,5,4,0,2,0,7,0,6,1,3,0,0,0,6,2,0,2,0,0,0,0,0,0,0,0,0,0,7,0,0,6,0,0,0,0,0,0,0,0],"split_type":[0,0,0,0,0,0,0,0,0,0,0,0,0,0,0,0,0,0,0,0,0,0,0,0,0,0,0,0,0,0,0,0,0,0,0,0,0,0,0,0,0,0,0,0,0],"sum_hessian":[1.5607216E4,1.3826723E4,1.7804932E3,1.3792426E4,3.4296997E1,1.7383674E3,4.212568E1,1.379122E4,1.2061007E0,2.724845E1,7.0485477E0,1.7267971E3,1.1570325E1,2.9975044E1,1.2150636E1,1.378817E4,3.0504014E0,2.621155E1,1.0368991E0,1.6404232E3,8.637389E1,2.42286E0,2.7552183E1,1.0028151E0,1.1147821E1,1.378709E4,1.0799966E0,2.0075327E1,6.136223E0,1.6339438E3,6.479387E0,7.89586E1,7.415294E0,2.4224571E1,3.327612E0,1.620143E1,6.275717E1,1.283678E0,2.2940893E1,8.925538E0,7.2758923E0,5.988822E1,2.8689485E0,2.0487257E1,2.453637E0],"tree_param":{"num_deleted":"0","num_feature":"8","num_nodes":"45","size_leaf_vector":"1"}},{"base_weights":[-8.7615556E-1,-9.131652E-1,-6.035425E-1,-9.1659796E-1,-3.3600718E-1,-6.2229633E-1,-0E0,-9.1713405E-1,-0E0,-5.0513434E-1,1.4402959E-1,-4.997967E-1,-7.008916E-1,-2.4006811E-1,3.1901914E-1,-9.3666756E-1,-8.3563375E-1,-1.7140546E-1,-0E0,-0E0,7.377774E-2,-5.8339256E-1,-1.17341384E-1,-7.0711094E-1,-0E0,-3.1495816E-1,-0E0,4.0110216E-1,-0E0,-2.810193E-1,-0E0,-8.3643275E-1,-0E0,-5.870561E-1,-0E0,-1.9334798E-1,-0E0,-7.108537E-1,-0E0,-0E0,-9.661338E-2,1.2856749E-1,-0E0,-2.5117257E-1,-0E0,-0E0,-5.9062E-1,-2.2273356E-1,-0E0,-0E0,8.481671E-2,-7.1282625E-1,-0E0,-1.777148E-1,-0E0,-7.304262E-2,-0E0,2.784137E-2,-0E0,-2.1532688E-1,-0E0],"categories":[],"categories_nodes":[],"categories_segments":[],"categories_sizes":[],"default_left":[0,1,0,0,1,1,0,1,0,0,0,0,0,0,0,0,0,0,0,0,0,0,1,0,0,0,0,1,0,0,0,0,0,0,0,1,0,1,0,0,0,0,0,0,0,0,0,0,0,0,1,0,0,0,0,0,0,0,0,0,0],"id":3,"left_children":[1,3,5,7,9,11,13,15,-1,17,19,21,23,25,27,29,31,-1,-1,-1,-1,33,35,37,-1,39,-1,41,-1,-1,-1,43,-1,45,-1,47,49,51,-1,-1,-1,-1,-1,-1,-1,-1,53,55,-1,-1,57,59,-1,-1,-1,-1,-1,-1,-1,-1,-1],"loss_changes":[1.119209E2,1.2850586E1,1.5871643E1,3.8330078E0,9.064574E0,5.5081787E0,4.6074634E0,2.6171875E0,0E0,4.3146305E0,2.5795466E-1,1.5715179E1,5.0925903E0,1.2394645E0,7.7558136E-1,1.1621094E-1,2.13208E0,0E0,0E0,0E0,0E0,1.7050476E0,1.8985801E0,1.5758972E0,0E0,5.2587986E-2,0E0,9.087753E-2,0E0,0E0,0E0,8.8549805E-1,0E0,9.845581E-1,0E0,1.0899363E0,2.3906706E-1,4.7225952E-1,0E0,0E0,0E0,0E0,0E0,0E0,0E0,0E0,6.335144E-1,8.6462927E-1,0E0,0E0,3.618656E-2,1.4318848E0,0E0,0E0,0E0,0E0,0E0,0E0,0E0,0E0,0E0],"parents":[2147483647,0,0,1,1,2,2,3,3,4,4,5,5,6,6,7,7,9,9,10,10,11,11,12,12,13,13,14,14,15,15,16,16,21,21,22,22,23,23,25,25,27,27,31,31,33,33,35,35,36,36,37,37,46,46,47,47,50,50,51,51],"right_children":[2,4,6,8,10,12,14,16,-1,18,20,22,24,26,28,30,32,-1,-1,-1,-1,34,36,38,-1,40,-1,42,-1,-1,-1,44,-1,46,-1,48,50,52,-1,-1,-1,-1,-1,-1,-1,-1,54,56,-1,-1,58,60,-1,-1,-1,-1,-1,-1,-1,-1,-1],"split_conditions":[1.21586155E-2,9.165E-1,3.487243E-1,8.042492E-3,1.1E0,7E-1,9.277362E-2,3.13E-2,-0E0,6.082725E-2,1.5E0,9.7268924E-2,5.304809E-1,2.4529602E-1,6.106209E-1,5.1965636E-1,1.494176E-1,-1.7140546E-1,-0E0,-0E0,7.377774E-2,4.029452E-1,6E-1,6.7039125E-2,-0E0,2.644E-1,-0E0,1.2E0,-0E0,-2.810193E-1,-0E0,4.4232497E-1,-0E0,4.65E-2,-0E0,9.751E-1,8.403E-1,9.902E-1,-0E0,-0E0,-9.661338E-2,1.2856749E-1,-0E0,-2.5117257E-1,-0E0,-0E0,9.432419E-2,3.6025178E-1,-0E0,-0E0,9.395E-1,4.9168694E-1,-0E0,-1.777148E-1,-0E0,-7.304262E-2,-0E0,2.784137E-2,-0E0,-2.1532688E-1,-0E0],"split_indices":[6,7,5,1,0,0,6,7,0,2,0,6,1,1,5,3,4,0,0,0,0,3,0,3,0,7,0,0,0,0,0,5,0,7,0,7,7,7,0,0,0,0,0,0,0,0,4,3,0,0,7,2,0,0,0,0,0,0,0,0,0],"split_type":[0,0,0,0,0,0,0,0,0,0,0,0,0,0,0,0,0,0,0,0,0,0,0,0,0,0,0,0,0,0,0,0,0,0,0,0,0,0,0,0,0,0,0,0,0,0,0,0,0,0,0,0,0,0,0,0,0,0,0,0,0],"sum_hessian":[1.2220027E4,1.0728721E4,1.4913068E3,1.0652583E4,7.61383E1,1.4433451E3,4.796165E1,1.064468E4,7.90247E0,6.3733513E1,1.2404784E1,6.091094E2,8.342357E2,3.1481037E1,1.6480612E1,8.477937E3,2.1667434E3,6.150529E1,2.2282202E0,8.4837675E0,3.9210172E0,4.8610666E2,1.2300274E2,8.2968787E2,4.547878E0,2.7851593E1,3.6294448E0,1.2674421E1,3.8061912E0,8.476922E3,1.014981E0,2.1656401E3,1.1033367E0,4.8491867E2,1.1879961E0,9.1669014E1,3.1333723E1,8.24019E2,5.668859E0,1.0098561E0,2.6841738E1,1.072905E1,1.9453715E0,2.1627065E3,2.9335942E0,3.0961568E0,4.818225E2,8.932132E1,2.3476949E0,5.1016893E0,2.6232035E1,8.203555E2,3.6634507E0,4.807232E2,1.0993193E0,8.819446E1,1.1268642E0,2.4959085E1,1.272949E0,8.118085E2,8.547049E0],"tree_param":{"num_deleted":"0","num_feature":"8","num_nodes":"61","size_leaf_vector":"1"}},{"base_weights":[-8.148556E-1,-8.5955644E-1,-5.14301E-1,-8.637508E-1,-2.464099E-1,-5.3325987E-1,-0E0,-8.8805795E-1,-7.65372E-1,-4.1712525E-1,1.2700815E-1,-5.966212E-1,-3.833296E-1,-1.8587993E-1,2.4558719E-1,-8.8829964E-1,-0E0,-7.680301E-1,-0E0,-1.4685616E-1,-0E0,-0E0,6.41075E-2,-1.7966375E-1,-0E0,-1.7353506E-1,-5.094988E-1,-2.597115E-1,-0E0,2.9630813E-1,-0E0,-2.6651222E-1,-0E0,-7.689898E-1,-0E0,-2.0842302E-1,-0E0,-5.352184E-1,-0E0,-0E0,-7.9656266E-2,1.0532881E-1,-0E0,-2.309909E-1,-0E0,-2.3845005E-1,-0E0,-5.517981E-1,-0E0,-7.835299E-2,-0E0,-1.6941437E-1,-0E0],"categories":[],"categories_nodes":[],"categories_segments":[],"categories_sizes":[],"default_left":[0,1,0,1,1,0,0,0,0,0,0,0,1,0,0,0,0,0,0,0,0,0,0,0,0,0,0,0,0,0,0,0,0,0,0,1,0,0,0,0,0,0,0,0,0,0,0,0,0,0,0,0,0],"id":4,"left_children":[1,3,5,7,9,11,13,15,17,19,21,23,25,27,29,31,-1,33,-1,-1,-1,-1,-1,-1,-1,35,37,39,-1,41,-1,-1,-1,43,-1,45,-1,47,-1,-1,-1,-1,-1,-1,-1,49,-1,51,-1,-1,-1,-1,-1],"loss_changes":[1.1976367E2,1.4512695E1,1.2122223E1,6.8535156E0,6.5919747E0,5.2330627E0,2.7382565E0,2.2216797E-1,3.3795776E0,3.5472584E0,1.9308293E-1,1.8591309E0,6.816971E0,9.4997215E-1,5.570611E-1,6.7871094E-2,0E0,1.9026489E0,0E0,0E0,0E0,0E0,0E0,0E0,0E0,1.7236767E0,4.533371E0,2.8541565E-2,0E0,3.9439297E-1,0E0,0E0,0E0,5.7318115E-1,0E0,1.6342049E0,0E0,3.1775284E0,0E0,0E0,0E0,0E0,0E0,0E0,0E0,1.5932655E0,0E0,2.2761917E0,0E0,0E0,0E0,0E0,0E0],"parents":[2147483647,0,0,1,1,2,2,3,3,4,4,5,5,6,6,7,7,8,8,9,9,10,10,11,11,12,12,13,13,14,14,15,15,17,17,25,25,26,26,27,27,29,29,33,33,35,35,37,37,45,45,47,47],"right_children":[2,4,6,8,10,12,14,16,18,20,22,24,26,28,30,32,-1,34,-1,-1,-1,-1,-1,-1,-1,36,38,40,-1,42,-1,-1,-1,44,-1,46,-1,48,-1,-1,-1,-1,-1,-1,-1,50,-1,52,-1,-1,-1,-1,-1],"split_conditions":[1.21586155E-2,9.165E-1,3.487243E-1,3.13E-2,1.1E0,6.79419E-2,9.277362E-2,8.042492E-3,3.7082258E-1,6.082725E-2,1.5E0,4.7825E-1,7E-1,2.4529602E-1,4.2337325E-1,5.1965636E-1,-0E0,1.494176E-1,-0E0,-1.4685616E-1,-0E0,-0E0,6.41075E-2,-1.7966375E-1,-0E0,3.622259E-1,1.2465863E-1,2.644E-1,-0E0,6.106209E-1,-0E0,-2.6651222E-1,-0E0,1.2465863E-1,-0E0,9.322E-1,-0E0,2E0,-0E0,-0E0,-7.9656266E-2,1.0532881E-1,-0E0,-2.309909E-1,-0E0,3.1641074E-2,-0E0,5.5966962E-2,-0E0,-7.835299E-2,-0E0,-1.6941437E-1,-0E0],"split_indices":[6,7,5,7,0,6,6,1,5,2,0,3,0,1,6,3,0,4,0,0,0,0,0,0,0,6,1,7,0,5,0,0,0,1,0,7,0,0,0,0,0,0,0,0,0,3,0,3,0,0,0,0,0],"split_type":[0,0,0,0,0,0,0,0,0,0,0,0,0,0,0,0,0,0,0,0,0,0,0,0,0,0,0,0,0,0,0,0,0,0,0,0,0,0,0,0,0,0,0,0,0,0,0,0,0,0,0,0,0],"sum_hessian":[9.648856E3,8.373785E3,1.2750708E3,8.305951E3,6.7834114E1,1.228158E3,4.6912857E1,6.5745234E3,1.731428E3,5.5178623E1,1.2655494E1,8.2521405E2,4.0294388E2,2.9316864E1,1.7595993E1,6.5712246E3,3.298978E0,1.7251449E3,6.283106E0,5.2950405E1,2.2282202E0,8.4837675E0,4.171726E0,8.2413403E2,1.0799966E0,1.7245024E2,2.3049362E2,2.5687418E1,3.6294448E0,1.6240953E1,1.3550408E0,6.5702095E3,1.014981E0,1.7240415E3,1.1033367E0,1.5708128E2,1.5368965E1,2.2404239E2,6.451236E0,1.0098561E0,2.4677563E1,1.2752939E1,3.4880135E0,1.7206056E3,3.4359074E0,1.4710066E2,9.980617E0,2.2080273E2,3.2396483E0,1.4480617E2,2.2945044E0,2.1763863E2,3.164103E0],"tree_param":{"num_deleted":"0","num_feature":"8","num_nodes":"53","size_leaf_vector":"1"}},{"base_weights":[-7.478143E-1,-8.006121E-1,-4.2672962E-1,-8.3493996E-1,-6.732448E-1,-4.5554426E-1,-2.3632072E-2,-8.352153E-1,-0E0,-6.8748623E-1,-4.69617E-2,-5.63406E-1,-3.4112293E-1,-1.2592106E-1,1.1396571E-1,-2.5059E-1,-0E0,-6.90545E-1,-0E0,-2.665829E-1,3.8662605E-2,-5.73059E-1,-0E0,-3.7083313E-1,-0E0,-0E0,-2.5632614E-1,1.89976E-1,-0E0,-6.916539E-1,-0E0,-1.04247294E-1,-0E0,1.2851312E-2,-0E0,-5.80277E-1,-0E0,-2.2575958E-1,-4.547671E-1,1.7124227E-1,-1.9876197E-1,-0E0,1.3527851E-1,-2.9588035E-1,-0E0,2.234869E-1,-0E0,-6.9333553E-1,-0E0,-1.746237E-1,-0E0,-2.574719E-1,-0E0,-0E0,-4.7777748E-1,2.9920316E-1,-0E0,-2.6520216E-1,-0E0,-1.012495E-3,-0E0,6.689723E-2,-0E0,-0E0,-9.626549E-2,7.196299E-2,-0E0,-2.0849523E-1,-0E0,-8.089933E-2,-0E0,-1.4744192E-1,-0E0,1.1469477E-1,-0E0,-8.320118E-2,-0E0],"categories":[],"categories_nodes":[],"categories_segments":[],"categories_sizes":[],"default_left":[0,1,1,0,0,0,0,0,0,0,0,0,0,0,0,0,0,0,0,0,0,0,0,1,0,0,0,0,0,0,0,0,0,0,0,0,0,0,0,0,0,0,0,0,0,0,0,0,0,0,0,0,0,0,0,1,0,0,0,0,0,0,0,0,0,0,0,0,0,0,0,0,0,0,0,0,0],"id":5,"left_children":[1,3,5,7,9,11,13,15,-1,17,19,21,23,25,27,-1,-1,29,-1,31,33,35,-1,37,39,41,43,45,-1,47,-1,-1,-1,-1,-1,49,-1,51,53,55,57,59,61,63,-1,65,-1,67,-1,-1,-1,69,-1,-1,71,73,-1,75,-1,-1,-1,-1,-1,-1,-1,-1,-1,-1,-1,-1,-1,-1,-1,-1,-1,-1,-1],"loss_changes":[1.22248535E2,1.7396484E1,1.0511398E1,6.25E-2,9.204102E0,6.858841E0,1.4766163E0,1.8554688E-2,0E0,3.248291E0,2.1140318E0,4.0633698E0,6.012829E0,2.251154E0,4.0913603E-1,0E0,0E0,1.6519165E0,0E0,1.384357E0,5.383607E-3,2.5997772E0,0E0,1.9815063E0,1.7790487E0,4.051612E-1,8.744073E-1,1.6600275E-1,0E0,1.6029663E0,0E0,0E0,0E0,0E0,0E0,6.674957E-1,0E0,2.4041061E0,4.4976044E0,1.4822328E0,5.6845343E-1,1.775955E-4,4.591326E-1,2.6045465E-1,0E0,3.0786335E-2,0E0,4.272461E-1,0E0,0E0,0E0,1.1242647E0,0E0,0E0,2.6129684E0,1.2385547E0,0E0,2.6491523E-2,0E0,0E0,0E0,0E0,0E0,0E0,0E0,0E0,0E0,0E0,0E0,0E0,0E0,0E0,0E0,0E0,0E0,0E0,0E0],"parents":[2147483647,0,0,1,1,2,2,3,3,4,4,5,5,6,6,7,7,9,9,10,10,11,11,12,12,13,13,14,14,17,17,19,19,20,20,21,21,23,23,24,24,25,25,26,26,27,27,29,29,35,35,37,37,38,38,39,39,40,40,41,41,42,42,43,43,45,45,47,47,51,51,54,54,55,55,57,57],"right_children":[2,4,6,8,10,12,14,16,-1,18,20,22,24,26,28,-1,-1,30,-1,32,34,36,-1,38,40,42,44,46,-1,48,-1,-1,-1,-1,-1,50,-1,52,54,56,58,60,62,64,-1,66,-1,68,-1,-1,-1,70,-1,-1,72,74,-1,76,-1,-1,-1,-1,-1,-1,-1,-1,-1,-1,-1,-1,-1,-1,-1,-1,-1,-1,-1],"split_conditions":[1.21586155E-2,3.13E-2,8.618E-1,8.042492E-3,9.471E-1,3.848314E-2,1.2370078E-1,5.1965636E-1,-0E0,1.8248175E-1,8E-1,4.544498E-1,2.7022523E-1,5E-1,2.4621198E-1,-2.5059E-1,-0E0,1.494176E-1,-0E0,6.082725E-2,2E0,8.042492E-3,-0E0,7E-1,4.3527085E-1,3E-1,8.437937E-1,9.902E-1,-0E0,1.2465863E-1,-0E0,-1.04247294E-1,-0E0,1.2851312E-2,-0E0,4.4140124E-1,-0E0,3.622259E-1,4.052872E-2,1.2E0,8.1636447E-1,2.4529602E-1,9.673E-1,1.519827E-2,-0E0,1.3E0,-0E0,3.7082258E-1,-0E0,-1.746237E-1,-0E0,3.1641074E-2,-0E0,-0E0,2E0,7.591E-1,-0E0,2.9857007E-1,-0E0,-1.012495E-3,-0E0,6.689723E-2,-0E0,-0E0,-9.626549E-2,7.196299E-2,-0E0,-2.0849523E-1,-0E0,-8.089933E-2,-0E0,-1.4744192E-1,-0E0,1.1469477E-1,-0E0,-8.320118E-2,-0E0],"split_indices":[6,7,7,1,7,6,6,3,0,2,0,5,5,0,6,0,0,4,0,2,0,1,0,0,5,0,2,7,0,1,0,0,0,0,0,3,0,6,6,0,1,1,7,6,0,0,0,5,0,0,0,3,0,0,0,7,0,6,0,0,0,0,0,0,0,0,0,0,0,0,0,0,0,0,0,0,0],"split_type":[0,0,0,0,0,0,0,0,0,0,0,0,0,0,0,0,0,0,0,0,0,0,0,0,0,0,0,0,0,0,0,0,0,0,0,0,0,0,0,0,0,0,0,0,0,0,0,0,0,0,0,0,0,0,0,0,0,0,0,0,0,0,0,0,0,0,0,0,0,0,0,0,0,0,0,0,0],"sum_hessian":[7.7072905E3,6.596554E3,1.1107362E3,5.1345527E3,1.4620018E3,1.024208E3,8.652818E1,5.1312534E3,3.298978E0,1.4210206E3,4.0981216E1,4.9058325E2,5.336248E2,7.081601E1,1.5712177E1,5.130239E3,1.014981E0,1.4152096E3,5.8110785E0,2.3726074E1,1.7255142E1,4.8633447E2,4.248768E0,4.941923E2,3.943255E1,2.4774157E1,4.604185E1,1.25098E1,3.2023766E0,1.4141062E3,1.1033367E0,2.2548248E1,1.1778257E0,1.569131E1,1.5638319E0,4.8185858E2,4.4758782E0,2.12427E2,2.817653E2,2.559295E1,1.3839596E1,9.634532E0,1.5139626E1,4.2796238E1,3.245612E0,1.0421251E1,2.0885494E0,1.4105554E3,3.550826E0,4.8080658E2,1.0520153E0,1.9796854E2,1.4458464E1,7.441945E0,2.7432333E2,2.0233206E1,5.359745E0,1.2788226E1,1.0513699E0,8.591531E0,1.0430018E0,1.0381518E1,4.7581067E0,4.928766E0,3.7867474E1,8.656981E0,1.7642697E0,1.4047228E3,5.832537E0,1.9531322E2,2.6553288E0,2.6968054E2,4.642787E0,1.8153282E1,2.0799246E0,1.1438838E1,1.3493879E0],"tree_param":{"num_deleted":"0","num_feature":"8","num_nodes":"77","size_leaf_vector":"1"}},{"base_weights":[-6.746677E-1,-7.34897E-1,-3.4678677E-1,-7.750552E-1,-5.917689E-1,-4.0298143E-1,-1.335923E-1,-2.3259054E-1,-0E0,-6.174508E-1,-1.6944635E-1,-4.142434E-1,-0E0,-0E0,-2.583504E-1,-6.20817E-1,-0E0,-3.3201465E-1,1.7426316E-1,-4.3230462E-1,-1.9074176E-2,-3.19728E-2,6.2000632E-2,-3.3544362E-1,1.1424926E-1,-6.2217987E-1,-0E0,-3.8603026E-1,-0E0,-0E0,7.843149E-2,-4.3494537E-1,-0E0,-0E0,-1.3697974E-1,-0E0,-8.6641155E-2,-0E0,1.3594669E-1,-0E0,-3.694331E-1,2.0211104E-1,-0E0,-0E0,-6.245071E-1,-4.183953E-1,-0E0,-2.3928286E-1,-4.753653E-1,7.012734E-2,-0E0,-1.7233405E-1,-0E0,-1.24808855E-1,-0E0,1.8247658E-1,-0E0,-3.9035457E-1,-0E0,6.952035E-2,-0E0,-1.8757503E-1,-0E0,-0E0,-1.3506365E-1,6.1181374E-3,-9.178026E-2,-1.440702E-1,-0E0,4.9242884E-2,-0E0,-5.85404E-2,-0E0,-6.366222E-2,-0E0,-0E0,5.8894925E-2,-1.2228317E-1,-0E0],"categories":[],"categories_nodes":[],"categories_segments":[],"categories_sizes":[],"default_left":[0,1,0,0,0,0,1,0,0,0,1,1,0,0,0,0,0,0,0,0,0,0,0,0,0,0,0,0,0,0,0,0,0,1,0,0,1,0,0,0,0,0,0,0,0,0,0,0,0,0,0,0,0,0,0,0,0,0,0,0,0,0,0,0,0,0,0,0,0,0,0,0,0,0,0,0,0,0,0],"id":6,"left_children":[1,3,5,7,9,11,13,-1,-1,15,17,19,-1,21,23,25,-1,27,29,31,33,35,37,39,41,43,-1,45,-1,-1,-1,47,-1,49,51,-1,53,-1,55,-1,57,59,-1,-1,61,63,-1,65,67,69,-1,71,-1,73,-1,75,-1,77,-1,-1,-1,-1,-1,-1,-1,-1,-1,-1,-1,-1,-1,-1,-1,-1,-1,-1,-1,-1,-1],"loss_changes":[1.1646777E2,2.0252197E1,8.895515E0,1.3427734E-1,8.476013E0,3.6214294E0,4.121484E0,0E0,0E0,2.373352E0,6.237861E0,3.0214233E0,0E0,2.693698E-1,4.969824E0,1.4994812E0,0E0,2.4533806E0,1.4171773E-1,1.4090118E0,6.3905436E-1,4.4864386E-1,6.269667E-1,1.900219E0,2.917647E-1,1.1723938E0,0E0,1.6529827E0,0E0,0E0,0E0,1.1782837E0,0E0,1.0553947E-1,3.50527E-1,0E0,5.3003156E-1,0E0,2.581526E-1,0E0,1.3825731E0,8.3427936E-2,0E0,0E0,1.8032837E-1,1.3297338E0,0E0,4.160569E0,1.1439209E0,4.1800436E-1,0E0,1.8792748E-1,0E0,9.0282345E-1,0E0,7.825148E-2,0E0,1.0771351E0,0E0,0E0,0E0,0E0,0E0,0E0,0E0,0E0,0E0,0E0,0E0,0E0,0E0,0E0,0E0,0E0,0E0,0E0,0E0,0E0,0E0],"parents":[2147483647,0,0,1,1,2,2,3,3,4,4,5,5,6,6,9,9,10,10,11,11,13,13,14,14,15,15,17,17,18,18,19,19,20,20,21,21,22,22,23,23,24,24,25,25,27,27,31,31,33,33,34,34,36,36,38,38,40,40,41,41,44,44,45,45,47,47,48,48,49,49,51,51,53,53,55,55,57,57],"right_children":[2,4,6,8,10,12,14,-1,-1,16,18,20,-1,22,24,26,-1,28,30,32,34,36,38,40,42,44,-1,46,-1,-1,-1,48,-1,50,52,-1,54,-1,56,-1,58,60,-1,-1,62,64,-1,66,68,70,-1,72,-1,74,-1,76,-1,78,-1,-1,-1,-1,-1,-1,-1,-1,-1,-1,-1,-1,-1,-1,-1,-1,-1,-1,-1,-1,-1],"split_conditions":[1.21586155E-2,3.34E-2,1.0030858E-1,2.262296E-1,8.618E-1,8.042492E-3,7E-1,-2.3259054E-1,-0E0,3.7082258E-1,1.1E0,8.923E-1,-0E0,6E-1,3.347267E-1,1.494176E-1,-0E0,2.2810219E-1,1.5E0,4.8201513E-1,9.395E-1,1.0790772E-1,8.179E-1,1.05932616E-1,4.6087793E-1,3.53E-2,-0E0,8.042492E-3,-0E0,-0E0,7.843149E-2,5E-1,-0E0,1.1E0,8.014497E-1,-0E0,9.751E-1,-0E0,7E-1,-0E0,5.322384E-1,1.8541889E-1,-0E0,-0E0,5.4744524E-1,8.693E-1,-0E0,4.313E-1,4.544498E-1,2.5758028E-1,-0E0,2.941169E-1,-0E0,2.0447688E-1,-0E0,1.0942754E-1,-0E0,5.5966962E-2,-0E0,6.952035E-2,-0E0,-1.8757503E-1,-0E0,-0E0,-1.3506365E-1,6.1181374E-3,-9.178026E-2,-1.440702E-1,-0E0,4.9242884E-2,-0E0,-5.85404E-2,-0E0,-6.366222E-2,-0E0,-0E0,5.8894925E-2,-1.2228317E-1,-0E0],"split_indices":[6,7,6,3,7,1,0,0,0,5,0,7,0,0,5,4,0,2,0,3,7,6,7,6,5,7,0,1,0,0,0,0,0,0,2,0,7,0,0,0,2,6,0,0,2,7,0,7,5,5,0,5,0,6,0,6,0,3,0,0,0,0,0,0,0,0,0,0,0,0,0,0,0,0,0,0,0,0,0],"split_type":[0,0,0,0,0,0,0,0,0,0,0,0,0,0,0,0,0,0,0,0,0,0,0,0,0,0,0,0,0,0,0,0,0,0,0,0,0,0,0,0,0,0,0,0,0,0,0,0,0,0,0,0,0,0,0,0,0,0,0,0,0,0,0,0,0,0,0,0,0,0,0,0,0,0,0,0,0,0,0],"sum_hessian":[6.254914E3,5.264015E3,9.9089935E2,4.0592495E3,1.2047656E3,7.607053E2,2.3019403E2,4.0568882E3,2.361276E0,1.1214929E3,8.327263E1,7.40634E2,2.007129E1,1.1202104E2,1.1817299E2,1.1154462E3,6.04674E0,6.6571075E1,1.6701551E1,6.95534E2,4.5100033E1,6.921502E1,4.2806026E1,1.09611046E2,8.561941E0,1.1144077E3,1.0384345E0,6.388605E1,2.6850274E0,1.1097622E1,5.6039295E0,6.944771E2,1.0568432E0,1.7031343E1,2.806869E1,6.0701914E0,6.3144825E1,5.5225663E0,3.728346E1,6.5474024E0,1.03063644E2,5.1152196E0,3.4467218E0,5.3363953E0,1.1090714E3,6.2786087E1,1.0999653E0,1.4837463E2,5.461025E2,1.4460518E1,2.5708253E0,2.6958578E1,1.1101116E0,6.0828846E1,2.3159807E0,2.5331884E1,1.1951574E1,1.0065524E2,2.4084063E0,3.769305E0,1.3459145E0,1.1068821E3,2.1893065E0,2.9547465E0,5.9831337E1,1.5975246E1,1.3239938E2,5.399047E2,6.1977706E0,1.2431605E1,2.0289125E0,2.4421787E1,2.5367906E0,3.6511543E1,2.4317305E1,2.367555E0,2.296433E1,9.821619E1,2.4390533E0],"tree_param":{"num_deleted":"0","num_feature":"8","num_nodes":"79","size_leaf_vector":"1"}},{"base_weights":[-5.9582615E-1,-6.619938E-1,-2.7418426E-1,-7.055195E-1,-4.996709E-1,-2.0989448E-1,-4.8421067E-1,-2.1176587E-1,-0E0,-5.2304965E-1,-2.5240323E-2,-2.8279686E-1,-1.9596053E-2,-5.453315E-1,-0E0,-3.738006E-1,-6.067637E-1,-2.324521E-1,9.503027E-2,-0E0,-3.1938347E-1,-8.233236E-2,1.9769907E-1,-5.709515E-1,-0E0,-3.5071485E-2,-0E0,-3.8425443E-1,-0E0,-0E0,-6.1427075E-1,-3.2433152E-1,-0E0,-0E0,4.312391E-2,1.2152055E-1,-9.994216E-2,-3.539336E-1,-0E0,-9.992896E-2,-0E0,-0E0,2.586902E-1,-1.7299351E-1,-0E0,1.5749887E-1,-0E0,-2.153413E-1,-4.975925E-1,-6.1824894E-1,-0E0,-9.990507E-2,-0E0,2.5400782E-1,-0E0,-1.6749425E-1,-0E0,-4.3297577E-1,-1.5762913E-1,8.971041E-3,-1.6926196E-1,-0E0,-1.53437E-1,2.9239157E-1,-0E0,5.2279014E-2,-0E0,-0E0,-8.1158504E-2,-1.5282391E-1,-0E0,-1.8630293E-1,-0E0,-0E0,1.0698006E-1,-0E0,-6.1190367E-2,-1.3459758E-1,-0E0,-6.787083E-2,-0E0,-0E0,1.8009167E-2,-0E0,-6.493058E-2,-2.1254689E-2,1.6372466E-2,-5.7315078E-2,-0E0,1.13392286E-1,-0E0],"categories":[],"categories_nodes":[],"categories_segments":[],"categories_sizes":[],"default_left":[0,1,1,0,0,0,0,0,0,1,1,0,0,0,0,0,0,0,0,0,1,0,1,1,0,0,0,0,0,0,0,0,0,0,0,0,0,0,0,0,0,0,0,0,0,1,0,0,0,0,0,0,0,0,0,0,0,0,1,1,0,0,1,0,0,0,0,0,0,0,0,0,0,0,0,0,0,0,0,0,0,0,0,0,0,0,0,0,0,0,0],"id":7,"left_children":[1,3,5,7,9,11,13,-1,-1,15,17,19,21,23,25,27,29,31,33,35,37,39,41,43,-1,-1,45,47,-1,-1,49,51,-1,-1,-1,53,55,57,59,61,-1,-1,63,-1,-1,65,-1,67,69,71,-1,-1,-1,73,-1,75,-1,77,79,81,83,85,87,89,-1,-1,-1,-1,-1,-1,-1,-1,-1,-1,-1,-1,-1,-1,-1,-1,-1,-1,-1,-1,-1,-1,-1,-1,-1,-1,-1],"loss_changes":[1.04206665E2,2.1710693E1,8.078011E0,3.363037E-1,7.727844E0,8.517878E0,3.1920128E0,0E0,0E0,4.7181854E0,2.3898249E0,4.680088E0,2.6390283E0,3.7574997E0,3.6750108E-1,2.4675255E0,3.7414246E0,1.8570251E0,1.5497443E-1,9.011017E-1,3.4031677E0,5.981976E-1,6.6746473E-1,2.5460052E-1,0E0,0E0,3.1919894E-1,2.5646553E0,0E0,0E0,4.7973633E-1,1.5084267E-2,0E0,0E0,0E0,9.27796E-1,4.1675568E-1,2.5751038E0,7.7217376E-1,9.141712E-1,0E0,0E0,4.2896223E-1,0E0,0E0,3.5390586E-2,0E0,3.0052347E0,1.9229164E0,1.7727661E-1,0E0,0E0,0E0,7.2256696E-1,0E0,3.0079287E-1,0E0,2.8842163E0,2.6071277E0,1.2346848E-1,3.6603665E-1,3.5246235E-1,9.2490196E-1,7.968993E-1,0E0,0E0,0E0,0E0,0E0,0E0,0E0,0E0,0E0,0E0,0E0,0E0,0E0,0E0,0E0,0E0,0E0,0E0,0E0,0E0,0E0,0E0,0E0,0E0,0E0,0E0,0E0],"parents":[2147483647,0,0,1,1,2,2,3,3,4,4,5,5,6,6,9,9,10,10,11,11,12,12,13,13,14,14,15,15,16,16,17,17,18,18,19,19,20,20,21,21,22,22,23,23,26,26,27,27,30,30,31,31,35,35,36,36,37,37,38,38,39,39,42,42,45,45,47,47,48,48,49,49,53,53,55,55,57,57,58,58,59,59,60,60,61,61,62,62,63,63],"right_children":[2,4,6,8,10,12,14,-1,-1,16,18,20,22,24,26,28,30,32,34,36,38,40,42,44,-1,-1,46,48,-1,-1,50,52,-1,-1,-1,54,56,58,60,62,-1,-1,64,-1,-1,66,-1,68,70,72,-1,-1,-1,74,-1,76,-1,78,80,82,84,86,88,90,-1,-1,-1,-1,-1,-1,-1,-1,-1,-1,-1,-1,-1,-1,-1,-1,-1,-1,-1,-1,-1,-1,-1,-1,-1,-1,-1],"split_conditions":[1.21586155E-2,6.47E-2,1.2E0,8.042492E-3,9.085E-1,8.105744E-2,1.9E0,-2.1176587E-1,-0E0,7E-1,8E-1,4.355E-1,2.627477E-1,5.322384E-1,7.7744216E-2,3.7220564E-1,6.65E-2,6.082725E-2,1.1E0,6E-1,8.253E-1,3.693057E-2,3E-1,9.54E-1,-0E0,-3.5071485E-2,1.9130874E-1,3.475E-1,-0E0,-0E0,2E0,8E-1,-0E0,-0E0,4.312391E-2,3.647585E-2,2.585E-1,3.848314E-2,9.54E-1,1.2370078E-1,-0E0,-0E0,8.877198E-1,-1.7299351E-1,-0E0,2.998E-1,-0E0,3E-1,2.1709373E-2,8.844E-1,-0E0,-9.990507E-2,-0E0,1.682E-1,-0E0,7E-1,-0E0,4.6524945E-1,1E0,3E-1,1.519827E-2,1.0030858E-1,4.975E-1,4.6087793E-1,-0E0,5.2279014E-2,-0E0,-0E0,-8.1158504E-2,-1.5282391E-1,-0E0,-1.8630293E-1,-0E0,-0E0,1.0698006E-1,-0E0,-6.1190367E-2,-1.3459758E-1,-0E0,-6.787083E-2,-0E0,-0E0,1.8009167E-2,-0E0,-6.493058E-2,-2.1254689E-2,1.6372466E-2,-5.7315078E-2,-0E0,1.13392286E-1,-0E0],"split_indices":[6,7,0,1,7,6,0,0,0,0,0,7,5,2,6,5,7,2,0,0,7,3,0,7,0,0,6,7,0,0,0,0,0,0,0,6,7,6,7,6,0,0,2,0,0,7,0,0,4,7,0,0,0,7,0,0,0,5,0,0,6,6,7,5,0,0,0,0,0,0,0,0,0,0,0,0,0,0,0,0,0,0,0,0,0,0,0,0,0,0,0],"split_type":[0,0,0,0,0,0,0,0,0,0,0,0,0,0,0,0,0,0,0,0,0,0,0,0,0,0,0,0,0,0,0,0,0,0,0,0,0,0,0,0,0,0,0,0,0,0,0,0,0,0,0,0,0,0,0,0,0,0,0,0,0,0,0,0,0,0,0,0,0,0,0,0,0,0,0,0,0,0,0,0,0,0,0,0,0,0,0,0,0,0,0],"sum_hessian":[5.169048E3,4.2680737E3,9.009741E2,3.3228489E3,9.4522485E2,7.187611E2,1.8221297E2,3.3200652E3,2.7836447E0,8.901063E2,5.5118526E1,4.982189E2,2.205422E2,1.5290941E2,2.9303568E1,3.5506485E2,5.3504144E2,3.3112827E1,2.20057E1,6.3239193E1,4.349797E2,1.9236229E2,2.8179924E1,1.5040688E2,2.5025325E0,1.989013E1,9.413438E0,3.5234436E2,2.7204914E0,3.25209E0,5.3178937E2,3.125882E1,1.8540068E0,8.828696E0,1.3177003E1,2.0120358E1,4.3118835E1,3.8006836E2,5.491136E1,1.8823712E2,4.1251636E0,4.6591463E0,2.3520779E1,1.4807957E2,2.3272974E0,5.867866E0,3.5455723E0,1.6735019E2,1.8499417E2,5.26133E2,5.656403E0,2.9425205E1,1.8336148E0,1.3587253E1,6.533105E0,2.5699572E1,1.7419262E1,2.4678862E2,1.3327974E2,3.507723E1,1.9834133E1,7.359674E1,1.1464038E2,2.1908058E1,1.6127203E0,4.6765256E0,1.1913402E0,2.281517E1,1.4453502E2,1.8359743E2,1.396732E0,5.218629E2,4.2700872E0,4.459569E0,9.127684E0,3.4189878E0,2.2280584E1,2.4368472E2,3.103895E0,1.1203715E2,2.1242598E1,6.8756356E0,2.8201595E1,2.6086447E0,1.7225489E1,3.7858204E1,3.5738537E1,9.679867E1,1.7841715E1,1.5877131E1,6.0309267E0],"tree_param":{"num_deleted":"0","num_feature":"8","num_nodes":"91","size_leaf_vector":"1"}},{"base_weights":[-5.1460594E-1,-5.836628E-1,-2.1536648E-1,-6.335443E-1,-4.250236E-1,-1.5974595E-1,-4.0514392E-1,-6.3682634E-1,-0E0,-4.521784E-1,-4.2819615E-2,-2.1252151E-1,-0E0,-4.2652845E-1,-0E0,-6.372567E-1,-0E0,-0E0,-6.8495445E-2,-2.9417583E-1,-5.2104986E-1,-1.9096455E-1,1.410986E-1,-0E0,-2.3740141E-1,-2.0055642E-2,1.1387973E-1,-4.894747E-1,-0E0,-1.9127859E-1,-0E0,-0E0,-3.5997827E-2,-3.0795833E-1,-0E0,-0E0,-5.26286E-1,-2.5008655E-1,-0E0,-0E0,6.308606E-2,-9.233365E-2,1.189236E-1,-2.6207817E-1,-0E0,2.5666032E-2,-6.8475835E-2,-0E0,2.1332458E-1,-1.4840685E-1,-0E0,-2.5113653E-2,-0E0,-1.4840825E-1,-4.2713526E-1,-1.591556E-1,-0E0,-0E0,-2.8327918E-1,-0E0,-6.739769E-2,-0E0,2.2384219E-1,-2.8253776E-1,-0E0,1.2115363E-2,-1.14433385E-1,6.9154136E-2,-0E0,-1.0392088E-1,-0E0,7.684778E-2,-0E0,1.3563518E-1,-0E0,-0E0,-5.6821495E-2,-1.3315238E-1,-0E0,-9.879133E-2,-0E0,1.2689047E-2,-0E0,1.05992265E-1,-0E0,-8.570008E-2,-0E0,2.0976394E-2,-0E0,-0E0,-4.5856766E-2,-0E0,3.0682724E-2,-4.1359723E-2,-0E0,2.9591085E-2,-0E0,4.4967156E-2,-0E0],"categories":[],"categories_nodes":[],"categories_segments":[],"categories_sizes":[],"default_left":[0,1,1,0,0,0,0,0,0,0,1,0,0,0,0,0,0,0,0,0,0,0,0,0,1,0,0,1,0,0,0,0,0,0,0,0,1,0,0,0,0,0,0,0,0,0,0,0,0,0,0,0,0,0,0,0,0,0,0,1,0,0,0,0,0,0,0,0,0,0,0,0,0,1,0,0,0,0,0,0,0,0,0,0,0,0,0,0,0,0,0,0,0,0,0,0,0,0,0],"id":8,"left_children":[1,3,5,7,9,11,13,15,17,19,21,23,25,27,-1,29,-1,-1,31,33,35,37,39,41,43,45,47,49,51,-1,-1,-1,-1,53,-1,-1,55,57,-1,-1,-1,59,61,63,65,67,69,-1,71,-1,-1,-1,73,75,77,-1,-1,-1,79,81,-1,-1,83,85,-1,87,89,91,-1,93,95,-1,-1,97,-1,-1,-1,-1,-1,-1,-1,-1,-1,-1,-1,-1,-1,-1,-1,-1,-1,-1,-1,-1,-1,-1,-1,-1,-1],"loss_changes":[8.5573975E1,2.0824219E1,5.6459045E0,2.6693115E0,6.6446533E0,5.65168E0,2.4620686E0,4.1223145E-1,1.24472156E-1,3.7701874E0,2.59316E0,2.4851513E0,3.703619E-1,2.5907612E0,0E0,3.5583496E-1,0E0,0E0,2.162673E-1,2.1712627E0,1.1491089E0,1.4482954E0,9.43872E-2,7.6220965E-1,1.9295597E0,5.88669E-1,4.986596E-1,1.24752045E-1,1.8215296E-1,0E0,0E0,0E0,0E0,2.0923958E0,0E0,0E0,7.2135925E-1,8.3618903E-1,0E0,0E0,0E0,1.136039E0,5.8459103E-1,2.1922855E0,3.8060692E-1,1.4254327E-1,7.84493E-1,0E0,2.2746676E-1,0E0,0E0,0E0,2.4092484E-1,1.1951137E0,1.8423252E0,0E0,0E0,0E0,7.5080395E-1,3.138538E-2,0E0,0E0,1.1144509E0,5.764046E-1,0E0,1.5483552E-1,2.33067E-1,1.6797662E-1,0E0,6.628952E-1,8.5826814E-2,0E0,0E0,2.6537925E-2,0E0,0E0,0E0,0E0,0E0,0E0,0E0,0E0,0E0,0E0,0E0,0E0,0E0,0E0,0E0,0E0,0E0,0E0,0E0,0E0,0E0,0E0,0E0,0E0,0E0],"parents":[2147483647,0,0,1,1,2,2,3,3,4,4,5,5,6,6,7,7,8,8,9,9,10,10,11,11,12,12,13,13,15,15,18,18,19,19,20,20,21,21,22,22,23,23,24,24,25,25,26,26,27,27,28,28,33,33,36,36,37,37,41,41,42,42,43,43,44,44,45,45,46,46,48,48,52,52,53,53,54,54,58,58,59,59,62,62,63,63,65,65,66,66,67,67,69,69,70,70,73,73],"right_children":[2,4,6,8,10,12,14,16,18,20,22,24,26,28,-1,30,-1,-1,32,34,36,38,40,42,44,46,48,50,52,-1,-1,-1,-1,54,-1,-1,56,58,-1,-1,-1,60,62,64,66,68,70,-1,72,-1,-1,-1,74,76,78,-1,-1,-1,80,82,-1,-1,84,86,-1,88,90,92,-1,94,96,-1,-1,98,-1,-1,-1,-1,-1,-1,-1,-1,-1,-1,-1,-1,-1,-1,-1,-1,-1,-1,-1,-1,-1,-1,-1,-1,-1],"split_conditions":[1.21586155E-2,3.13E-2,1.2E0,2.8697374E-1,8.618E-1,1.0030858E-1,5.322384E-1,8.042492E-3,3E-1,7E-1,1.1E0,3.774E-1,3.347267E-1,1.9E0,-0E0,2.262296E-1,-0E0,-0E0,3.065795E-1,3.7220564E-1,3.53E-2,2.2810219E-1,1.5E0,2.585E-1,8.618E-1,1.1761772E-1,6E-1,9.54E-1,7.7744216E-2,-1.9127859E-1,-0E0,-0E0,-3.5997827E-2,3.475E-1,-0E0,-0E0,2E0,8.693E-1,-0E0,-0E0,6.308606E-2,2.4317231E-2,2.3874793E-2,2.7022523E-1,9.54E-1,2.7022523E-1,3.693057E-2,-0E0,6.106209E-1,-1.4840685E-1,-0E0,-2.5113653E-2,1.9130874E-1,3E-1,2.1709373E-2,-1.591556E-1,-0E0,-0E0,9.825E-1,9E-1,-6.739769E-2,-0E0,7.041865E-2,5.5990267E-1,-0E0,9E-1,1.519827E-2,3E-1,-0E0,3.622259E-1,4.570689E-1,7.684778E-2,-0E0,2.998E-1,-0E0,-0E0,-5.6821495E-2,-1.3315238E-1,-0E0,-9.879133E-2,-0E0,1.2689047E-2,-0E0,1.05992265E-1,-0E0,-8.570008E-2,-0E0,2.0976394E-2,-0E0,-0E0,-4.5856766E-2,-0E0,3.0682724E-2,-4.1359723E-2,-0E0,2.9591085E-2,-0E0,4.4967156E-2,-0E0],"split_indices":[6,7,0,5,7,6,2,1,0,0,0,7,5,0,0,3,0,0,5,5,7,2,0,7,7,6,0,7,6,0,0,0,0,7,0,0,0,7,0,0,0,6,6,5,7,5,3,0,5,0,0,0,6,0,4,0,0,0,7,0,0,0,6,1,0,0,6,0,0,6,3,0,0,7,0,0,0,0,0,0,0,0,0,0,0,0,0,0,0,0,0,0,0,0,0,0,0,0,0],"split_type":[0,0,0,0,0,0,0,0,0,0,0,0,0,0,0,0,0,0,0,0,0,0,0,0,0,0,0,0,0,0,0,0,0,0,0,0,0,0,0,0,0,0,0,0,0,0,0,0,0,0,0,0,0,0,0,0,0,0,0,0,0,0,0,0,0,0,0,0,0,0,0,0,0,0,0,0,0,0,0,0,0,0,0,0,0,0,0,0,0,0,0,0,0,0,0,0,0,0,0],"sum_hessian":[4.3700244E3,3.5316477E3,8.3837665E2,2.6468994E3,8.8474817E2,6.787001E2,1.5967654E2,2.6261975E3,2.0702036E1,8.1264764E2,7.2100525E1,5.0555838E2,1.731417E2,1.5691574E2,2.7608085E0,2.6236572E3,2.5401726E0,1.1713295E0,1.9530706E1,2.799332E2,5.327145E2,5.4842808E1,1.7257715E1,5.7709023E1,4.4784937E2,1.5665932E2,1.648238E1,1.2828107E2,2.8634672E1,2.621739E3,1.918264E0,2.865387E0,1.666532E1,2.7771924E2,2.2139506E0,6.537407E0,5.2617706E2,5.221572E1,2.6270864E0,1.1202033E1,6.0556817E0,3.7853832E1,1.9855188E1,3.9431946E2,5.3529915E1,2.9155499E1,1.27503815E2,5.832646E0,1.0649734E1,1.25953766E2,2.3272974E0,1.8993155E1,9.641518E0,1.4340492E2,1.3431433E2,5.2026624E2,5.910784E0,2.643765E0,4.9571957E1,1.4768811E1,2.3085022E1,7.6077485E0,1.2247439E1,3.657646E2,2.855486E1,3.1900898E1,2.1629017E1,2.7786758E1,1.3687391E0,1.2404005E2,3.4637666E0,8.707072E0,1.9426614E0,6.095946E0,3.5455723E0,2.4749792E1,1.1865513E2,1.3322864E2,1.08569E0,4.178707E1,7.784885E0,1.0543326E1,4.225485E0,9.653952E0,2.593488E0,3.647062E2,1.0583934E0,2.5838165E1,6.0627327E0,2.6086447E0,1.9020372E1,2.8243608E0,2.4962399E1,1.0233196E2,2.1708082E1,1.821526E0,1.6422404E0,4.9046054E0,1.1913402E0],"tree_param":{"num_deleted":"0","num_feature":"8","num_nodes":"99","size_leaf_vector":"1"}},{"base_weights":[-4.3326414E-1,-5.021889E-1,-1.6440642E-1,-5.535734E-1,-3.4717768E-1,-6.925595E-2,-2.3808074E-1,-5.5713236E-1,-0E0,-3.7360018E-1,-0E0,-2.1559536E-1,-0E0,-3.7723616E-1,-1.23864785E-1,-5.575605E-1,-0E0,-0E0,-5.862148E-2,-2.2928348E-1,-4.3946007E-1,-1.4126796E-1,1.11094326E-1,-2.5680628E-1,-0E0,8.098244E-2,-9.0622015E-2,-3.8812622E-1,-0E0,3.648942E-2,-1.6807972E-1,-1.6736934E-1,-0E0,-0E0,-2.8499147E-2,-2.4372779E-1,-0E0,-0E0,-4.439189E-1,-2.1035136E-1,-0E0,1.4968157E-1,-0E0,-0E0,-2.9725406E-1,-0E0,1.7773809E-1,-1.9665042E-1,8.457496E-3,-3.9512837E-1,-0E0,1.3406733E-1,-0E0,-1.9774067E-1,4.187213E-2,-1.051318E-1,-3.4888515E-1,-1.3433056E-1,-0E0,-0E0,-2.4677335E-1,-0E0,6.824644E-2,-3.0779472E-1,-0E0,-7.533233E-2,6.353538E-2,2.1797799E-1,-0E0,-0E0,-3.056042E-1,-0E0,1.1378314E-1,-1.2072706E-1,-0E0,-0E0,1.9452871E-1,-2.1547346E-1,-0E0,1.0628575E-1,-0E0,-0E0,-4.2200223E-2,-1.1011901E-1,-0E0,-8.6607784E-2,-0E0,-9.586566E-2,-0E0,-2.5589162E-2,-0E0,3.333687E-2,-0E0,-0E0,7.863615E-2,-8.009153E-3,7.889924E-3,-9.3893014E-2,-0E0,-0E0,-3.0866345E-2,-0E0,7.105583E-2,6.8225466E-2,-0E0,-6.861468E-2,-0E0,4.2609077E-2,-0E0],"categories":[],"categories_nodes":[],"categories_segments":[],"categories_sizes":[],"default_left":[0,1,1,0,0,1,0,0,0,0,0,0,0,0,0,0,0,0,0,0,0,0,0,0,0,0,0,0,0,1,0,0,0,0,0,0,0,0,1,0,0,0,0,0,0,1,0,0,0,1,0,0,0,0,0,0,0,0,0,0,0,0,0,0,0,0,0,0,0,0,0,0,0,0,0,0,0,0,0,1,0,0,0,0,0,0,0,0,0,0,0,0,0,0,0,0,0,0,0,0,0,0,0,0,0,0,0,0,0],"id":9,"left_children":[1,3,5,7,9,11,13,15,17,19,21,23,25,27,29,31,-1,-1,33,35,37,39,41,43,-1,45,47,49,-1,51,53,-1,-1,-1,-1,55,-1,-1,57,59,-1,61,-1,-1,63,65,67,69,71,73,-1,75,-1,77,79,81,83,-1,-1,-1,85,-1,-1,87,-1,89,91,93,-1,95,97,99,101,-1,-1,-1,103,105,-1,107,-1,-1,-1,-1,-1,-1,-1,-1,-1,-1,-1,-1,-1,-1,-1,-1,-1,-1,-1,-1,-1,-1,-1,-1,-1,-1,-1,-1,-1],"loss_changes":[6.6217834E1,1.7998596E1,3.9379368E0,1.9146118E0,5.424736E0,3.2571616E0,3.7941933E0,2.5994873E-1,9.530771E-2,2.7912827E0,1.4439764E0,1.6534266E0,2.1686254E0,1.1320629E0,2.538249E0,2.2601318E-1,0E0,0E0,1.3020329E-1,1.671814E0,1.1195145E0,1.2484093E0,2.0395637E-1,1.6500716E0,0E0,1.381567E0,2.5875552E0,6.0708046E-1,0E0,5.068876E-1,2.2622862E0,0E0,0E0,0E0,0E0,1.2876778E0,0E0,0E0,3.9107513E-1,7.317114E-1,0E0,1.2598419E-1,0E0,0E0,4.6384048E-1,3.9376834E-1,9.847548E-1,2.0112352E0,5.2975714E-1,7.336235E-1,0E0,5.0377584E-1,0E0,1.0069456E0,1.10063665E-1,7.6628995E-1,1.4842491E0,0E0,0E0,0E0,5.1547337E-1,0E0,0E0,4.7581577E-1,0E0,6.58637E-2,2.1439075E-1,9.970081E-1,0E0,3.5952456E-2,9.155846E-2,2.6396072E-1,1.4986861E0,0E0,0E0,0E0,2.7099454E-1,9.9499226E-1,0E0,8.311032E-2,0E0,0E0,0E0,0E0,0E0,0E0,0E0,0E0,0E0,0E0,0E0,0E0,0E0,0E0,0E0,0E0,0E0,0E0,0E0,0E0,0E0,0E0,0E0,0E0,0E0,0E0,0E0,0E0,0E0],"parents":[2147483647,0,0,1,1,2,2,3,3,4,4,5,5,6,6,7,7,8,8,9,9,10,10,11,11,12,12,13,13,14,14,15,15,18,18,19,19,20,20,21,21,22,22,23,23,25,25,26,26,27,27,29,29,30,30,35,35,38,38,39,39,41,41,44,44,45,45,46,46,47,47,48,48,49,49,51,51,53,53,54,54,55,55,56,56,60,60,63,63,65,65,66,66,67,67,69,69,70,70,71,71,72,72,76,76,77,77,79,79],"right_children":[2,4,6,8,10,12,14,16,18,20,22,24,26,28,30,32,-1,-1,34,36,38,40,42,44,-1,46,48,50,-1,52,54,-1,-1,-1,-1,56,-1,-1,58,60,-1,62,-1,-1,64,66,68,70,72,74,-1,76,-1,78,80,82,84,-1,-1,-1,86,-1,-1,88,-1,90,92,94,-1,96,98,100,102,-1,-1,-1,104,106,-1,108,-1,-1,-1,-1,-1,-1,-1,-1,-1,-1,-1,-1,-1,-1,-1,-1,-1,-1,-1,-1,-1,-1,-1,-1,-1,-1,-1,-1,-1],"split_conditions":[1.21586155E-2,3.34E-2,7E-1,2.7618295E-1,8.618E-1,3E-1,3.3436194E-2,8.042492E-3,3E-1,7E-1,1.1E0,8.042492E-3,5E-1,4.6524945E-1,4.052872E-2,2.262296E-1,-0E0,-0E0,2.934482E-1,3.7220564E-1,3.53E-2,2.2810219E-1,2E0,3.333E-1,-0E0,4.627029E-2,8.2102746E-2,1.0053115E-2,-0E0,4.446E-1,5.304809E-1,-1.6736934E-1,-0E0,-0E0,-2.8499147E-2,3.475E-1,-0E0,-0E0,2E0,8.693E-1,-0E0,1.5E0,-0E0,-0E0,1.7331654E-2,1.233E-1,4.031299E-1,3.022767E-2,6E-1,9.825E-1,-0E0,8E-1,-0E0,3.2329378E-1,8.5956466E-1,3E-1,2.1709373E-2,-1.3433056E-1,-0E0,-0E0,9.825E-1,-0E0,6.824644E-2,4.7114637E-1,-0E0,3.2645884E-1,2.4961638E-1,5.705E-1,-0E0,2.1277579E-2,3.6597434E-1,1.0236204E-1,8.403E-1,-1.2072706E-1,-0E0,-0E0,1.8E0,2E0,-0E0,9.751E-1,-0E0,-0E0,-4.2200223E-2,-1.1011901E-1,-0E0,-8.6607784E-2,-0E0,-9.586566E-2,-0E0,-2.5589162E-2,-0E0,3.333687E-2,-0E0,-0E0,7.863615E-2,-8.009153E-3,7.889924E-3,-9.3893014E-2,-0E0,-0E0,-3.0866345E-2,-0E0,7.105583E-2,6.8225466E-2,-0E0,-6.861468E-2,-0E0,4.2609077E-2,-0E0],"split_indices":[6,7,0,5,7,0,6,1,0,0,0,1,0,5,6,3,0,0,5,5,7,2,0,7,0,6,6,1,0,7,1,0,0,0,0,7,0,0,0,7,0,0,0,0,4,7,1,6,0,7,0,0,0,5,1,0,4,0,0,0,7,0,0,6,0,5,5,7,0,6,5,6,7,0,0,0,0,0,0,7,0,0,0,0,0,0,0,0,0,0,0,0,0,0,0,0,0,0,0,0,0,0,0,0,0,0,0,0,0],"split_type":[0,0,0,0,0,0,0,0,0,0,0,0,0,0,0,0,0,0,0,0,0,0,0,0,0,0,0,0,0,0,0,0,0,0,0,0,0,0,0,0,0,0,0,0,0,0,0,0,0,0,0,0,0,0,0,0,0,0,0,0,0,0,0,0,0,0,0,0,0,0,0,0,0,0,0,0,0,0,0,0,0,0,0,0,0,0,0,0,0,0,0,0,0,0,0,0,0,0,0,0,0,0,0,0,0,0,0,0,0],"sum_hessian":[3.7774092E3,2.9869883E3,7.9042096E2,2.2056016E3,7.813867E2,3.804787E2,4.0994223E2,2.1835918E3,2.2009714E1,7.1268E2,6.870674E1,1.0305829E2,2.774204E2,1.5779529E2,2.5214696E2,2.1810654E3,2.526485E0,1.2755898E0,2.0734125E1,2.5694116E2,4.557388E2,4.8578663E1,2.0128077E1,9.564047E1,7.4178104E0,1.2878877E2,1.4863165E2,1.5619225E2,1.6030343E0,3.0321007E1,2.2182596E2,2.1791472E3,1.918264E0,2.7452583E0,1.7988867E1,2.5472722E2,2.2139506E0,3.568111E0,4.521707E2,4.6281242E1,2.297418E0,1.7047308E1,3.080768E0,7.3579936E0,8.828248E1,6.3866276E1,6.492249E1,9.2845535E1,5.578611E1,1.5434798E2,1.8442732E0,2.3965738E1,6.3552685E0,2.1559052E2,6.235435E0,1.3644312E2,1.1828412E2,4.4625992E2,5.910784E0,2.5516646E0,4.372958E1,1.1202033E1,5.845275E0,8.676423E1,1.5182495E0,4.149308E1,2.2373196E1,6.1544388E1,3.378104E0,3.6967777E1,5.587776E1,2.1520609E1,3.42655E1,1.5308124E2,1.2667415E0,2.9447064E0,2.102103E1,2.02149E2,1.3441514E1,4.797204E0,1.4382309E0,2.4593105E1,1.11850006E2,1.17198425E2,1.08569E0,3.6251854E1,7.4777274E0,8.465099E1,2.1132355E0,3.9877144E1,1.6159338E0,1.9964266E1,2.4089293E0,6.6315527E0,5.4912838E1,2.619814E1,1.0769638E1,5.388505E1,1.9927084E0,3.5854917E0,1.7935118E1,5.027317E0,2.9238184E1,1.8741974E1,2.2790575E0,1.9765237E2,4.496633E0,3.7264009E0,1.0708035E0],"tree_param":{"num_deleted":"0","num_feature":"8","num_nodes":"109","size_leaf_vector":"1"}},{"base_weights":[-3.5567757E-1,-4.208603E-1,-1.2447303E-1,-4.691016E-1,-2.694011E-1,-8.0062315E-2,-2.8214562E-1,-4.719582E-1,-0E0,-2.953323E-1,-0E0,-1.5152983E-1,-0E0,-3.074041E-1,-0E0,-4.88247E-1,-9.212764E-2,-0E0,-5.4132372E-2,-9.342458E-2,-3.4167323E-1,-8.784046E-2,1.05125144E-1,-0E0,-1.9634277E-1,1.4442348E-1,-3.3917632E-2,-3.671553E-1,-0E0,-4.886467E-1,-0E0,-0E0,-2.9814817E-2,-0E0,-2.2363889E-1,-0E0,-3.5068464E-1,-1.4921084E-1,-0E0,3.6127098E-2,-0E0,1.791571E-1,-2.1898624E-2,-2.3468083E-1,-0E0,2.233341E-1,-0E0,-1.3784373E-1,-0E0,-0E0,-3.78973E-1,-9.031219E-3,-0E0,-1.4673175E-1,-0E0,-0E0,5.0048325E-2,-2.7085245E-1,-0E0,-3.5595587E-1,-0E0,-0E0,-1.8144013E-1,2.2576985E-1,-0E0,-0E0,-5.3946845E-2,-2.4735226E-1,-0E0,6.8216965E-2,-0E0,2.6976147E-1,-0E0,-2.1577108E-1,-0E0,-1.1865516E-2,1.18855484E-1,-1.15204714E-1,-0E0,-0E0,-1.0132957E-2,1.3407919E-1,-0E0,-1.6204448E-2,-0E0,2.980064E-2,-0E0,-9.174909E-2,-0E0,-1.07465535E-1,-0E0,-6.475803E-2,-0E0,-0E0,8.7088555E-2,-3.269101E-2,-0E0,-8.103876E-2,-0E0,-0E0,3.705485E-2,-0E0,-1.0370659E-2,-0E0,8.800089E-2,-0E0,-9.4407156E-2,3.046897E-2,-0E0,-0E0,-1.7837897E-2,4.875991E-2,-0E0,4.4853143E-2,-0E0],"categories":[],"categories_nodes":[],"categories_segments":[],"categories_sizes":[],"default_left":[0,1,1,0,0,0,0,1,0,0,1,0,0,0,0,0,0,0,0,0,0,0,0,0,1,1,0,0,0,0,0,0,0,0,0,0,0,0,0,0,0,0,0,0,0,0,0,1,0,0,1,0,0,0,0,0,0,0,0,0,0,0,0,0,0,0,0,0,0,1,0,0,0,0,1,0,0,0,0,0,0,1,0,0,0,0,0,0,0,0,0,0,0,0,0,0,0,0,0,0,0,0,0,0,0,0,0,0,0,0,0,0,0,0,0],"id":10,"left_children":[1,3,5,7,9,11,13,15,17,19,21,23,25,27,-1,29,-1,-1,31,33,35,37,39,41,43,45,47,49,51,53,-1,-1,-1,55,57,-1,59,61,-1,-1,-1,63,65,67,69,71,-1,73,75,-1,77,79,81,-1,-1,83,85,87,-1,89,-1,-1,91,93,-1,-1,95,97,-1,99,101,103,-1,105,107,109,111,-1,-1,-1,-1,113,-1,-1,-1,-1,-1,-1,-1,-1,-1,-1,-1,-1,-1,-1,-1,-1,-1,-1,-1,-1,-1,-1,-1,-1,-1,-1,-1,-1,-1,-1,-1,-1,-1],"loss_changes":[4.7363525E1,1.4360992E1,3.3745174E0,6.664429E-1,4.0040894E0,2.9560204E0,1.7421923E0,1.0568237E-1,7.661345E-2,3.2283554E0,7.0181036E-1,2.9464726E0,1.1894197E0,1.9481649E0,0E0,2.3495483E-1,0E0,0E0,1.7138535E-1,2.3829355E0,2.554203E0,7.454138E-1,2.5248408E-2,9.4163066E-1,2.3734827E0,8.505342E-1,1.3563836E0,3.4491062E-1,1.9702432E-3,1.6452026E-1,0E0,0E0,0E0,1.3755737E-1,1.6176887E0,0E0,1.4335289E0,4.7384465E-1,0E0,0E0,0E0,4.4245547E-1,5.0563306E-2,1.1360664E0,9.809439E-2,6.919607E-1,0E0,1.8865178E0,5.502405E-1,0E0,8.1707E-2,1.8930802E-2,2.321042E-1,0E0,0E0,5.763562E-2,2.1591218E-1,1.1292725E0,0E0,6.1624527E-1,0E0,0E0,3.2084846E-1,5.902579E-1,0E0,0E0,1.8812966E-1,6.500521E-1,0E0,1.8220223E-1,2.749156E-2,2.5575638E-1,0E0,1.52707E0,1.762016E-1,2.1853273E-1,3.6308038E-1,0E0,0E0,0E0,0E0,3.3942476E-2,0E0,0E0,0E0,0E0,0E0,0E0,0E0,0E0,0E0,0E0,0E0,0E0,0E0,0E0,0E0,0E0,0E0,0E0,0E0,0E0,0E0,0E0,0E0,0E0,0E0,0E0,0E0,0E0,0E0,0E0,0E0,0E0,0E0],"parents":[2147483647,0,0,1,1,2,2,3,3,4,4,5,5,6,6,7,7,8,8,9,9,10,10,11,11,12,12,13,13,15,15,18,18,19,19,20,20,21,21,22,22,23,23,24,24,25,25,26,26,27,27,28,28,29,29,33,33,34,34,36,36,37,37,41,41,42,42,43,43,44,44,45,45,47,47,48,48,50,50,51,51,52,52,55,55,56,56,57,57,59,59,62,62,63,63,66,66,67,67,69,69,70,70,71,71,73,73,74,74,75,75,76,76,81,81],"right_children":[2,4,6,8,10,12,14,16,18,20,22,24,26,28,-1,30,-1,-1,32,34,36,38,40,42,44,46,48,50,52,54,-1,-1,-1,56,58,-1,60,62,-1,-1,-1,64,66,68,70,72,-1,74,76,-1,78,80,82,-1,-1,84,86,88,-1,90,-1,-1,92,94,-1,-1,96,98,-1,100,102,104,-1,106,108,110,112,-1,-1,-1,-1,114,-1,-1,-1,-1,-1,-1,-1,-1,-1,-1,-1,-1,-1,-1,-1,-1,-1,-1,-1,-1,-1,-1,-1,-1,-1,-1,-1,-1,-1,-1,-1,-1,-1],"split_conditions":[1.21586155E-2,6.47E-2,1.2E0,2.8697374E-1,8.618E-1,4.7347676E-2,6.082725E-2,1.5E0,3E-1,5E-1,1.1E0,4.446E-1,6.079308E-2,1.9E0,-0E0,2.262296E-1,-9.212764E-2,-0E0,2.934482E-1,3.475E-1,6.65E-2,2.2810219E-1,9.825E-1,7E-1,8.253E-1,8.02E-1,8.105744E-2,1.233E-1,7.7744216E-2,8.042492E-3,-0E0,-0E0,-2.9814817E-2,1.443E-1,3.6968273E-1,-0E0,2.1709373E-2,8.693E-1,-0E0,3.6127098E-2,-0E0,2.4961638E-1,9E-1,4.6524945E-1,9.165E-1,3.6141485E-1,-0E0,1E0,2.627477E-1,-0E0,9.54E-1,1.9757751E-2,1.9130874E-1,-1.4673175E-1,-0E0,4E-1,4E-1,8.332E-1,-0E0,1.296852E-1,-0E0,-0E0,9.825E-1,1.013E-1,-0E0,-0E0,3.9515503E-2,3.848314E-2,-0E0,3E-1,1.519827E-2,3E-1,-0E0,5E-1,3.441E-1,1.8541889E-1,6.106209E-1,-1.15204714E-1,-0E0,-0E0,-1.0132957E-2,2.998E-1,-0E0,-1.6204448E-2,-0E0,2.980064E-2,-0E0,-9.174909E-2,-0E0,-1.07465535E-1,-0E0,-6.475803E-2,-0E0,-0E0,8.7088555E-2,-3.269101E-2,-0E0,-8.103876E-2,-0E0,-0E0,3.705485E-2,-0E0,-1.0370659E-2,-0E0,8.800089E-2,-0E0,-9.4407156E-2,3.046897E-2,-0E0,-0E0,-1.7837897E-2,4.875991E-2,-0E0,4.4853143E-2,-0E0],"split_indices":[6,7,0,5,7,6,2,0,0,0,0,7,6,0,0,3,0,0,5,7,7,2,7,0,7,7,6,7,6,1,0,0,0,7,5,0,4,7,0,0,0,5,0,5,7,5,0,0,5,0,7,6,6,0,0,0,0,7,0,1,0,0,7,7,0,0,6,6,0,0,6,0,0,0,7,6,5,0,0,0,0,7,0,0,0,0,0,0,0,0,0,0,0,0,0,0,0,0,0,0,0,0,0,0,0,0,0,0,0,0,0,0,0,0,0],"split_type":[0,0,0,0,0,0,0,0,0,0,0,0,0,0,0,0,0,0,0,0,0,0,0,0,0,0,0,0,0,0,0,0,0,0,0,0,0,0,0,0,0,0,0,0,0,0,0,0,0,0,0,0,0,0,0,0,0,0,0,0,0,0,0,0,0,0,0,0,0,0,0,0,0,0,0,0,0,0,0,0,0,0,0,0,0,0,0,0,0,0,0,0,0,0,0,0,0,0,0,0,0,0,0,0,0,0,0,0,0,0,0,0,0,0,0],"sum_hessian":[3.3410513E3,2.5849246E3,7.5612683E2,1.924317E3,6.6060754E2,6.2293427E2,1.3319255E2,1.9040005E3,2.031647E1,5.944253E2,6.618229E1,2.975945E2,3.2533978E2,1.2953702E2,3.6555207E0,1.6927028E3,2.1129778E2,1.1713295E0,1.914514E1,1.3504431E2,4.5938098E2,4.825892E1,1.792337E1,4.674156E1,2.5085295E2,3.3544548E1,2.9179523E2,1.0316476E2,2.6372265E1,1.6909077E3,1.7950778E0,1.0362333E0,1.8108906E1,6.96107E1,6.54336E1,2.8916261E0,4.5648935E2,4.5631832E1,2.6270864E0,1.3734167E1,4.1892033E0,2.1860472E1,2.488109E1,2.165827E2,3.4270245E1,2.7007257E1,6.5372915E0,8.247576E1,2.0931947E2,4.361965E0,9.8802795E1,1.7156113E1,9.216153E0,1.688409E3,2.4985714E0,2.1693953E1,4.7916748E1,6.443313E1,1.0004766E0,4.5417758E2,2.3117495E0,2.643765E0,4.2988068E1,1.98539E1,2.0065708E0,9.253619E0,1.5627472E1,2.1283023E2,3.7524724E0,1.4079456E1,2.019079E1,2.5817617E1,1.1896405E0,7.003729E1,1.2438471E1,1.7922485E2,3.009462E1,9.6596405E1,2.2063897E0,5.835576E0,1.1320536E1,5.911012E0,3.3051412E0,1.2754455E1,8.939498E0,2.8821465E1,1.9095284E1,6.1101513E1,3.3316147E0,4.531727E2,1.0048971E0,3.5203182E1,7.784885E0,3.6068892E0,1.6247011E1,1.4388881E1,1.2385906E0,1.862301E2,2.6600132E1,2.706872E0,1.1372584E1,4.18542E0,1.600537E1,2.0906878E0,2.3726929E1,2.5399385E1,4.4637905E1,1.0081927E1,2.3565435E0,1.1699706E2,6.2227787E1,2.6580751E1,3.5138679E0,4.901853E0,1.009159E0],"tree_param":{"num_deleted":"0","num_feature":"8","num_nodes":"115","size_leaf_vector":"1"}},{"base_weights":[-2.850631E-1,-3.4329647E-1,-9.468389E-2,-3.908917E-1,-2.0992208E-1,-5.8217544E-2,-2.2365233E-1,-2.5850123E-1,-4.163481E-1,-2.3228292E-1,-0E0,-1.1269437E-1,-0E0,-2.4920972E-1,-0E0,-2.662388E-1,-0E0,-4.39707E-1,-2.3931658E-1,-1.1996587E-1,-3.0106884E-1,-5.403142E-2,7.9612255E-2,-0E0,-1.4885059E-1,-9.506378E-2,1.3611823E-2,-2.77247E-1,-0E0,-8.0751725E-2,-0E0,-0E0,-4.444962E-1,-2.4160083E-1,-0E0,-1.517106E-1,-0E0,-3.040034E-1,-0E0,-1.259099E-1,-0E0,1.0902419E-1,-0E0,1.069368E-1,-3.4133073E-2,-0E0,-1.9737676E-1,-2.0966828E-1,-0E0,-0E0,1.5267508E-1,-8.360927E-2,-0E0,-4.4651082E-1,-0E0,-6.1079394E-2,-2.9933038E-1,-1.6280329E-1,-0E0,-0E0,2.01417E-2,-3.0915853E-1,-0E0,-0E0,-1.6149367E-1,-0E0,5.233365E-2,1.601109E-1,-0E0,-8.913041E-2,-0E0,-4.6493206E-2,1.1067472E-1,-2.254939E-1,-0E0,-0E0,-2.3836344E-1,-0E0,4.1738976E-2,-2.3176994E-3,9.090724E-2,-0E0,2.0334655E-1,-1.3431323E-1,-0E0,-2.7682994E-2,-0E0,-9.0762086E-2,-0E0,-1.0684552E-2,-7.8773916E-2,-0E0,-4.1826613E-2,3.482733E-2,-0E0,-1.374252E-2,-1.0103115E-1,-5.763281E-2,-0E0,6.1618015E-2,-0E0,-0E0,-3.2707747E-2,-3.9536845E-2,-0E0,4.200359E-2,-0E0,-7.070237E-2,-0E0,1.0921326E-4,-8.646446E-3,-7.578573E-2,-0E0,3.9716043E-2,-0E0,9.596737E-3,-1.1868348E-2,3.785655E-2,-0E0,8.603295E-2,-0E0],"categories":[],"categories_nodes":[],"categories_segments":[],"categories_sizes":[],"default_left":[0,1,1,0,0,0,0,0,1,1,0,0,0,0,0,0,0,0,0,1,0,0,0,0,0,0,0,1,0,0,0,0,1,0,0,0,0,0,0,0,0,0,0,0,0,0,1,0,0,0,1,0,0,0,0,0,1,0,0,0,0,0,0,0,0,0,0,0,0,0,0,0,0,0,0,0,0,0,0,1,0,0,0,0,0,0,0,0,0,0,0,0,0,0,0,0,0,0,0,0,0,0,0,0,0,0,0,0,0,0,0,0,0,0,0,0,0,0,0,0,0],"id":11,"left_children":[1,3,5,7,9,11,13,15,17,19,21,23,25,27,-1,29,-1,31,33,35,37,39,41,43,45,47,49,51,-1,-1,-1,-1,53,55,-1,57,59,61,-1,63,-1,65,-1,67,69,71,73,75,77,79,81,-1,-1,83,-1,85,87,89,-1,91,93,95,-1,-1,97,-1,-1,99,-1,101,-1,103,105,107,109,-1,111,-1,113,115,117,-1,119,-1,-1,-1,-1,-1,-1,-1,-1,-1,-1,-1,-1,-1,-1,-1,-1,-1,-1,-1,-1,-1,-1,-1,-1,-1,-1,-1,-1,-1,-1,-1,-1,-1,-1,-1,-1,-1,-1],"loss_changes":[3.1154877E1,1.0997437E1,1.9754629E0,1.4551086E0,2.9128895E0,1.6205406E0,1.3468099E0,1.0222759E0,1.4352417E0,2.1393528E0,3.2426667E-1,1.7050297E0,6.776907E-1,1.2780738E0,0E0,4.1971016E-1,0E0,1.5024567E0,9.743786E-2,1.0781999E0,4.6769333E-1,6.1956626E-1,1.1868429E-1,4.7713873E-1,1.5960336E0,1.2965064E0,4.316739E-1,1.3161659E-2,0E0,0E0,0E0,0E0,4.542694E-1,1.04159355E-1,0E0,6.9948435E-1,7.78649E-3,4.6100998E-1,0E0,4.286496E-1,0E0,1.1106962E-1,0E0,5.0702107E-1,1.4059879E-1,3.485459E-1,8.922763E-1,3.7398112E-1,4.373099E-2,9.949315E-2,2.977741E-1,0E0,0E0,4.38385E-2,0E0,1.3894284E-1,7.104111E-2,1.0886598E0,0E0,6.492304E-1,2.2892699E-1,3.170185E-1,0E0,0E0,2.2059965E-1,0E0,0E0,5.208931E-1,0E0,7.0335135E-2,0E0,7.9527307E-1,1.0506852E-1,5.5670166E-1,1.3803638E-2,0E0,2.1720433E-1,0E0,3.2399106E-1,3.6600298E-1,7.041375E-2,0E0,5.6962717E-1,0E0,0E0,0E0,0E0,0E0,0E0,0E0,0E0,0E0,0E0,0E0,0E0,0E0,0E0,0E0,0E0,0E0,0E0,0E0,0E0,0E0,0E0,0E0,0E0,0E0,0E0,0E0,0E0,0E0,0E0,0E0,0E0,0E0,0E0,0E0,0E0,0E0,0E0],"parents":[2147483647,0,0,1,1,2,2,3,3,4,4,5,5,6,6,7,7,8,8,9,9,10,10,11,11,12,12,13,13,15,15,17,17,18,18,19,19,20,20,21,21,22,22,23,23,24,24,25,25,26,26,27,27,32,32,33,33,35,35,36,36,37,37,39,39,41,41,43,43,44,44,45,45,46,46,47,47,48,48,49,49,50,50,53,53,55,55,56,56,57,57,59,59,60,60,61,61,64,64,67,67,69,69,71,71,72,72,73,73,74,74,76,76,78,78,79,79,80,80,82,82],"right_children":[2,4,6,8,10,12,14,16,18,20,22,24,26,28,-1,30,-1,32,34,36,38,40,42,44,46,48,50,52,-1,-1,-1,-1,54,56,-1,58,60,62,-1,64,-1,66,-1,68,70,72,74,76,78,80,82,-1,-1,84,-1,86,88,90,-1,92,94,96,-1,-1,98,-1,-1,100,-1,102,-1,104,106,108,110,-1,112,-1,114,116,118,-1,120,-1,-1,-1,-1,-1,-1,-1,-1,-1,-1,-1,-1,-1,-1,-1,-1,-1,-1,-1,-1,-1,-1,-1,-1,-1,-1,-1,-1,-1,-1,-1,-1,-1,-1,-1,-1,-1,-1],"split_conditions":[1.21586155E-2,4.1E-2,1.2E0,5E-1,8.618E-1,4.7347676E-2,6.082725E-2,2.8697374E-1,1.5E0,7E-1,1.1E0,4.446E-1,8.618E-1,2E0,-0E0,5.8447435E-2,-0E0,2.73E-2,2.756966E-1,6E-1,6.082725E-2,2.2810219E-1,2E0,9E-1,1.8237924E-2,8E-1,1.9768856E-1,9.751E-1,-0E0,-8.0751725E-2,-0E0,-0E0,3.34E-2,1.7E0,-0E0,4.4232497E-1,5.223E-1,2.530816E-1,-0E0,8.693E-1,-0E0,1.5E0,-0E0,4.162637E-2,3.9515503E-2,1.3678443E-2,8.253E-1,5.5743773E-2,2.644E-1,3.693057E-2,2E-1,-8.360927E-2,-0E0,3.8941008E-1,-0E0,1.6E0,3.13E-2,3.475E-1,-0E0,1.572E-1,8.02E-1,9.53E-2,-0E0,-0E0,9.825E-1,-0E0,5.233365E-2,2.4961638E-1,-0E0,5.26E-2,-0E0,1.1E0,1.1E0,4.6524945E-1,9.471E-1,-0E0,9.233636E-3,-0E0,7.656E-1,4E-1,5.2031195E-1,-0E0,7.1452206E-1,-1.3431323E-1,-0E0,-2.7682994E-2,-0E0,-9.0762086E-2,-0E0,-1.0684552E-2,-7.8773916E-2,-0E0,-4.1826613E-2,3.482733E-2,-0E0,-1.374252E-2,-1.0103115E-1,-5.763281E-2,-0E0,6.1618015E-2,-0E0,-0E0,-3.2707747E-2,-3.9536845E-2,-0E0,4.200359E-2,-0E0,-7.070237E-2,-0E0,1.0921326E-4,-8.646446E-3,-7.578573E-2,-0E0,3.9716043E-2,-0E0,9.596737E-3,-1.1868348E-2,3.785655E-2,-0E0,8.603295E-2,-0E0],"split_indices":[6,7,0,0,7,6,2,5,0,0,0,7,7,0,0,3,0,7,5,0,2,2,0,0,6,0,2,7,0,0,0,0,7,0,0,5,7,5,0,7,0,0,0,6,6,6,7,6,7,3,0,0,0,5,0,0,7,7,0,7,7,7,0,0,7,0,0,5,0,7,0,0,0,5,7,0,4,0,7,0,3,0,1,0,0,0,0,0,0,0,0,0,0,0,0,0,0,0,0,0,0,0,0,0,0,0,0,0,0,0,0,0,0,0,0,0,0,0,0,0,0],"split_type":[0,0,0,0,0,0,0,0,0,0,0,0,0,0,0,0,0,0,0,0,0,0,0,0,0,0,0,0,0,0,0,0,0,0,0,0,0,0,0,0,0,0,0,0,0,0,0,0,0,0,0,0,0,0,0,0,0,0,0,0,0,0,0,0,0,0,0,0,0,0,0,0,0,0,0,0,0,0,0,0,0,0,0,0,0,0,0,0,0,0,0,0,0,0,0,0,0,0,0,0,0,0,0,0,0,0,0,0,0,0,0,0,0,0,0,0,0,0,0,0,0],"sum_hessian":[3.0212373E3,2.2891453E3,7.3209204E2,1.6495077E3,6.396376E2,6.088627E2,1.2322936E2,3.1028952E2,1.3392181E3,5.751191E2,6.451846E1,2.8495804E2,3.2390463E2,1.19573845E2,3.6555207E0,3.0653708E2,3.752452E0,1.1489824E3,1.902357E2,2.5334402E2,3.2177505E2,4.3718468E1,2.0799995E1,4.7654835E1,2.3730319E2,6.248646E1,2.6141815E2,1.1189541E2,7.6784396E0,3.055329E2,1.0041757E0,1.7171722E1,1.1318107E3,1.8819305E2,2.042652E0,2.0263676E2,5.0707256E1,3.20519E2,1.256062E0,4.142105E1,2.297418E0,1.7808762E1,2.9912345E0,3.2463535E1,1.51913E1,6.439121E1,1.7291199E2,3.6776836E1,2.5709627E1,2.477655E2,1.365266E1,1.10830444E2,1.0649581E0,1.123836E3,7.9745846E0,7.00772E1,1.18115845E2,2.014333E2,1.2034577E0,3.8513966E1,1.2193293E1,3.145108E2,6.0082126E0,2.5516646E0,3.8869385E1,1.1468735E1,6.340027E0,3.038197E1,2.0815651E0,1.395271E1,1.2385906E0,5.363676E1,1.0754453E1,1.483904E2,2.4521591E1,3.3234565E0,3.3453377E1,7.607775E0,1.810185E1,2.4288876E2,4.8767343E0,1.8090242E0,1.18436365E1,1.1180015E3,5.8346405E0,4.3087524E1,2.6989681E1,1.1625118E2,1.8646667E0,1.1475817E2,8.667513E1,1.2114774E1,2.639919E1,1.0564074E1,1.6292185E0,4.879742E1,2.6571338E2,3.1391659E1,7.4777274E0,2.8063368E1,2.3186004E0,1.0321511E0,1.2920559E1,4.6334965E1,7.301793E0,9.453354E0,1.3010986E0,1.4527827E2,3.112119E0,1.4907773E1,9.613818E0,3.242011E1,1.0332682E0,1.3981196E1,4.1206546E0,5.7061947E1,1.8582681E2,3.585878E0,1.2908566E0,9.400726E0,2.4429097E0],"tree_param":{"num_deleted":"0","num_feature":"8","num_nodes":"121","size_leaf_vector":"1"}},{"base_weights":[-2.2498009E-1,-2.759994E-1,-6.755815E-2,-3.1707254E-1,-1.5716216E-1,-1.0424625E-1,-0E0,-3.2025528E-1,-0E0,-1.87335E-1,-0E0,-0E0,-1.3809294E-1,-2.8217236E-2,2.0558514E-1,-3.206203E-1,-0E0,-0E0,-2.9002385E-2,-5.4710962E-2,-2.6432472E-1,-4.219115E-2,7.502667E-2,5.468944E-2,-4.6964105E-2,-0E0,-1.6308981E-1,7.025081E-2,-5.440295E-2,-0E0,1.2700364E-1,-9.626226E-2,-0E0,-0E0,-6.3306496E-2,-0E0,-8.045957E-2,-0E0,-3.154776E-1,-7.627715E-2,-0E0,-0E0,4.677121E-2,-0E0,9.808145E-2,-1.0447223E-1,-0E0,-6.8442166E-2,9.516902E-2,-0E0,-1.8288328E-1,1.3423222E-1,-0E0,-0E0,-1.1418639E-1,-2.0566575E-2,-0E0,-0E0,1.4059209E-2,-0E0,-1.0197478E-1,-0E0,-8.9276165E-2,-3.4843856E-1,-0E0,-0E0,-1.382773E-1,-0E0,1.3602836E-1,-0E0,-1.8278125E-1,6.4871185E-2,-0E0,-9.7744964E-2,-0E0,1.816587E-1,-0E0,-5.7948634E-2,6.0878694E-2,-1.8594542E-1,-0E0,1.85249E-1,-0E0,-1.2744465E-1,2.7379582E-2,-1.4481418E-1,-0E0,-1.1247391E-2,-0E0,-3.262452E-2,-0E0,-0E0,3.9759614E-3,-3.8256638E-2,-0E0,-1.1094969E-1,-0E0,1.6021816E-2,-0E0,-5.236466E-2,-0E0,5.5861704E-2,-0E0,-6.0161944E-2,-0E0,-0E0,4.3539226E-2,-0E0,-3.0266767E-2,-0E0,7.114248E-2,-0E0,-4.0003013E-2,-0E0,2.7101284E-2,-5.6413166E-2,-0E0,-0E0,7.257159E-2,-4.0650405E-2,-0E0,-0E0,3.4613125E-2,-4.866811E-2,-0E0,8.070612E-3,-0E0],"categories":[],"categories_nodes":[],"categories_segments":[],"categories_sizes":[],"default_left":[0,1,0,0,0,0,0,0,0,0,1,0,0,0,0,0,0,0,0,0,1,0,0,0,0,0,0,1,0,0,0,0,0,0,1,0,0,0,0,0,0,0,0,0,0,0,0,0,1,0,0,1,0,0,1,0,0,0,0,0,0,0,0,0,0,1,0,0,0,0,0,0,0,0,0,1,0,0,0,1,0,0,0,0,0,0,0,0,0,0,0,0,0,0,0,0,0,0,0,0,0,0,0,0,0,0,0,0,0,0,0,0,0,0,0,0,0,0,0,0,0,0,0,0,0,0,0],"id":12,"left_children":[1,3,5,7,9,11,13,15,17,19,21,23,25,27,29,31,-1,-1,33,35,37,39,41,43,45,47,49,51,53,-1,-1,-1,-1,-1,55,57,59,61,63,65,-1,-1,-1,-1,67,69,71,73,75,77,79,81,-1,83,85,-1,-1,87,-1,-1,89,91,93,95,-1,97,99,-1,101,-1,103,105,-1,107,-1,109,-1,111,113,115,-1,117,-1,119,121,123,125,-1,-1,-1,-1,-1,-1,-1,-1,-1,-1,-1,-1,-1,-1,-1,-1,-1,-1,-1,-1,-1,-1,-1,-1,-1,-1,-1,-1,-1,-1,-1,-1,-1,-1,-1,-1,-1,-1,-1,-1],"loss_changes":[2.0641068E1,7.473999E0,1.3870628E0,5.048523E-1,2.1393337E0,1.3964186E0,1.0881857E0,1.15356445E-1,2.5625357E-2,3.105503E0,2.8820533E-1,3.1566852E-1,6.3917255E-1,6.7659867E-1,1.8968331E0,5.647278E-2,0E0,0E0,8.932002E-2,4.4318426E-1,2.5365372E0,4.168324E-1,2.614236E-1,2.932812E-1,4.992605E-1,4.457559E-1,6.712475E-1,2.7012116E-1,8.4225005E-1,0E0,0E0,0E0,0E0,0E0,1.3655432E-2,6.0831413E-2,6.118002E-1,3.0969334E-1,2.7079773E0,8.8681823E-1,0E0,0E0,0E0,0E0,3.4853536E-1,3.2702404E-1,6.707827E-2,2.6905397E-1,2.9876417E-1,1.5832666E-1,1.1220884E-1,2.9231244E-1,0E0,5.688528E-1,7.898487E-1,0E0,0E0,2.7310912E-2,0E0,0E0,1.9819725E-1,5.186763E-3,3.05753E-1,9.835777E-1,0E0,7.5394966E-2,8.5734737E-1,0E0,5.477258E-1,0E0,1.4059818E-1,2.4586916E-1,0E0,1.7635882E-2,0E0,2.3632112E-1,0E0,3.282947E-1,5.4531347E-2,1.071291E-1,0E0,3.440919E-1,0E0,7.48381E-3,6.2558967E-1,5.63056E-1,9.788006E-3,0E0,0E0,0E0,0E0,0E0,0E0,0E0,0E0,0E0,0E0,0E0,0E0,0E0,0E0,0E0,0E0,0E0,0E0,0E0,0E0,0E0,0E0,0E0,0E0,0E0,0E0,0E0,0E0,0E0,0E0,0E0,0E0,0E0,0E0,0E0,0E0,0E0,0E0,0E0,0E0],"parents":[2147483647,0,0,1,1,2,2,3,3,4,4,5,5,6,6,7,7,8,8,9,9,10,10,11,11,12,12,13,13,14,14,15,15,18,18,19,19,20,20,21,21,22,22,23,23,24,24,25,25,26,26,27,27,28,28,34,34,35,35,36,36,37,37,38,38,39,39,44,44,45,45,46,46,47,47,48,48,49,49,50,50,51,51,53,53,54,54,57,57,60,60,61,61,62,62,63,63,65,65,66,66,68,68,70,70,71,71,73,73,75,75,77,77,78,78,79,79,81,81,83,83,84,84,85,85,86,86],"right_children":[2,4,6,8,10,12,14,16,18,20,22,24,26,28,30,32,-1,-1,34,36,38,40,42,44,46,48,50,52,54,-1,-1,-1,-1,-1,56,58,60,62,64,66,-1,-1,-1,-1,68,70,72,74,76,78,80,82,-1,84,86,-1,-1,88,-1,-1,90,92,94,96,-1,98,100,-1,102,-1,104,106,-1,108,-1,110,-1,112,114,116,-1,118,-1,120,122,124,126,-1,-1,-1,-1,-1,-1,-1,-1,-1,-1,-1,-1,-1,-1,-1,-1,-1,-1,-1,-1,-1,-1,-1,-1,-1,-1,-1,-1,-1,-1,-1,-1,-1,-1,-1,-1,-1,-1,-1,-1],"split_conditions":[1.21586155E-2,6.47E-2,6.79419E-2,2.518657E-1,6.92E-1,5E-1,5.3975177E-1,8.042492E-3,3E-1,2.217E-1,1.5E0,9.54E-1,1.6718097E-2,7.29517E-2,6E-1,2.262296E-1,-0E0,-0E0,2.6049834E-1,5E-1,4E-1,3.497567E-1,8.253E-1,1.193E-1,4.8634462E-2,1.3678443E-2,3.441E-1,1.5E0,8E-1,-0E0,1.2700364E-1,-9.626226E-2,-0E0,-0E0,1.8E0,1.443E-1,6.65E-2,3.545E-1,6.279E-1,7.878E-1,-0E0,-0E0,4.677121E-2,-0E0,2E-1,2.8707843E-2,4E-1,4.00001E0,5.278E-1,2.585E-1,4.6524945E-1,8.766E-1,-0E0,8.618E-1,1.9E0,-2.0566575E-2,-0E0,4E-1,1.4059209E-2,-0E0,2.6049834E-1,2.272E-1,2.563644E-1,1.6E0,-0E0,9E-1,1.2465863E-1,-0E0,2.4961638E-1,-0E0,3.1856334E-1,2E-1,-0E0,7.41E-2,-0E0,6E-1,-0E0,8E-1,2.3874793E-2,9.902E-1,-0E0,7.175E-1,-0E0,7E-1,6E-1,5.5966962E-2,1.9130874E-1,-1.1247391E-2,-0E0,-3.262452E-2,-0E0,-0E0,3.9759614E-3,-3.8256638E-2,-0E0,-1.1094969E-1,-0E0,1.6021816E-2,-0E0,-5.236466E-2,-0E0,5.5861704E-2,-0E0,-6.0161944E-2,-0E0,-0E0,4.3539226E-2,-0E0,-3.0266767E-2,-0E0,7.114248E-2,-0E0,-4.0003013E-2,-0E0,2.7101284E-2,-5.6413166E-2,-0E0,-0E0,7.257159E-2,-4.0650405E-2,-0E0,-0E0,3.4613125E-2,-4.866811E-2,-0E0,8.070612E-3,-0E0],"split_indices":[6,7,6,5,7,0,1,1,0,7,0,7,6,6,0,3,0,0,5,0,0,2,7,7,6,6,7,0,0,0,0,0,0,0,0,7,7,7,7,7,0,0,0,0,0,6,0,0,7,7,5,7,0,7,0,0,0,0,0,0,5,7,5,0,0,0,1,0,5,0,5,0,0,7,0,0,0,0,6,7,0,7,0,0,0,3,6,0,0,0,0,0,0,0,0,0,0,0,0,0,0,0,0,0,0,0,0,0,0,0,0,0,0,0,0,0,0,0,0,0,0,0,0,0,0,0,0],"split_type":[0,0,0,0,0,0,0,0,0,0,0,0,0,0,0,0,0,0,0,0,0,0,0,0,0,0,0,0,0,0,0,0,0,0,0,0,0,0,0,0,0,0,0,0,0,0,0,0,0,0,0,0,0,0,0,0,0,0,0,0,0,0,0,0,0,0,0,0,0,0,0,0,0,0,0,0,0,0,0,0,0,0,0,0,0,0,0,0,0,0,0,0,0,0,0,0,0,0,0,0,0,0,0,0,0,0,0,0,0,0,0,0,0,0,0,0,0,0,0,0,0,0,0,0,0,0,0],"sum_hessian":[2.7931257E3,2.0814941E3,7.116317E2,1.5069152E3,5.7457886E2,4.2245163E2,2.8918008E2,1.4818962E3,2.5018967E1,4.63283E2,1.1129588E2,1.1149153E2,3.1096008E2,2.7576025E2,1.3419814E1,1.47963E3,2.2661784E0,1.553873E0,2.3465094E1,1.9841223E2,2.6487076E2,1.013646E2,9.931283E0,4.2510494E1,6.898104E1,6.596782E1,2.4499228E2,1.53426895E1,2.6041757E2,5.0205264E0,8.399288E0,1.4778271E3,1.8029274E0,1.7840523E0,2.1681042E1,4.1976254E1,1.5643599E2,5.5530766E1,2.0933998E2,9.779719E1,3.5674112E0,2.254706E0,7.6765766E0,3.6305356E0,3.887996E1,5.4097588E1,1.488345E1,5.669448E1,9.273337E0,3.152509E1,2.1346718E2,1.4111121E1,1.2315685E0,1.4211812E2,1.1829944E2,2.0362906E1,1.3181347E0,2.1278236E1,2.0698015E1,2.8565116E0,1.5357947E2,2.3674524E1,3.185624E1,1.9265053E2,1.6689455E1,2.6528276E1,7.126891E1,3.1912751E0,3.5688683E1,3.1348995E1,2.2748594E1,8.939629E0,5.9438214E0,5.239034E1,4.3041415E0,6.5198684E0,2.753469E0,2.2867865E1,8.657225E0,2.09511E2,3.9561808E0,1.2602384E1,1.508738E0,2.2163797E1,1.1995433E2,1.08566864E2,9.732575E0,1.2430101E1,8.848135E0,1.5095758E2,2.621888E0,1.1451234E0,2.2529402E1,3.084592E1,1.0103197E0,1.7741138E2,1.5239147E1,1.9433914E1,7.0943623E0,7.025977E1,1.0091348E0,3.1578794E1,4.109889E0,2.120923E1,1.5393642E0,1.081898E0,7.857731E0,1.9115275E0,5.0478813E1,1.3839842E0,5.1358843E0,5.7631764E0,1.7104689E1,1.8645519E0,6.7926726E0,2.0773529E2,1.7757109E0,2.2267456E0,1.0375638E1,1.9206442E1,2.9573555E0,7.281017E1,4.7144157E1,1.0648393E2,2.0829322E0,6.5245795E0,3.2079961E0],"tree_param":{"num_deleted":"0","num_feature":"8","num_nodes":"127","size_leaf_vector":"1"}},{"base_weights":[-1.7219995E-1,-2.0409617E-1,-8.290054E-3,-2.1813111E-1,-0E0,-1.8815936E-1,-0E0,-9.681508E-2,-2.4685371E-1,-0E0,-1.5360534E-2,-0E0,-2.0844272E-1,1.0696808E-1,-1.6077008E-2,-1.3635786E-1,-0E0,-3.0327109E-1,-1.6988496E-1,-0E0,5.7297137E-2,-1.07064076E-1,-0E0,-2.261846E-1,-0E0,1.400211E-1,-0E0,-4.4208154E-2,2.1932346E-1,-2.1083727E-1,-0E0,1.174321E-1,-7.15827E-2,-1.5360912E-2,-3.2512078E-1,-0E0,-1.9899721E-1,-3.3962995E-2,-0E0,-3.872072E-2,-0E0,5.247798E-2,-0E0,-2.5008827E-1,-0E0,-0E0,1.7450456E-1,2.5370324E-2,-7.056829E-2,-0E0,3.4597665E-1,-2.1836111E-1,-0E0,1.4385109E-1,-0E0,-1.19616896E-1,-0E0,-0E0,-1.444028E-1,-3.3548716E-1,-0E0,-0E0,-7.107252E-2,-0E0,-2.1882233E-1,-8.0058426E-2,-0E0,-0E0,3.850194E-2,-2.649154E-1,-0E0,1.9157073E-1,-0E0,-1.7677208E-2,2.1482441E-1,-7.869273E-2,-0E0,-0E0,1.1088531E-1,-6.992144E-2,-0E0,5.636354E-2,-0E0,-4.006806E-2,-0E0,-0E0,1.665136E-2,-0E0,-5.6920536E-2,-1.0253069E-1,-0E0,8.451961E-3,-0E0,-2.2981953E-2,-0E0,-6.703623E-2,-0E0,-0E0,-3.9047405E-2,-8.235061E-2,-0E0,6.0390122E-2,-0E0,-1.8253572E-2,-0E0,9.223871E-2,-0E0,-2.5652034E-2,-0E0],"categories":[],"categories_nodes":[],"categories_segments":[],"categories_sizes":[],"default_left":[0,1,0,0,0,0,0,1,0,0,1,0,0,0,0,0,0,0,0,0,0,0,0,0,0,0,0,0,0,0,0,0,0,0,0,1,0,0,0,0,0,0,0,1,0,0,0,1,0,0,0,0,0,0,0,0,0,0,0,1,0,0,0,0,0,0,0,0,0,0,0,0,0,0,1,0,0,0,0,0,0,0,0,0,0,0,0,0,0,0,0,0,0,0,0,0,0,0,0,0,0,0,0,0,0,0,0,0,0],"id":13,"left_children":[1,3,5,7,9,11,13,15,17,19,21,-1,23,25,27,29,31,33,35,37,-1,39,41,43,-1,45,-1,47,49,51,-1,53,55,57,59,61,63,65,-1,-1,-1,67,-1,69,-1,-1,71,73,75,-1,77,79,-1,81,-1,83,-1,85,87,89,-1,91,93,-1,95,97,-1,-1,-1,99,-1,101,-1,103,105,107,-1,-1,-1,-1,-1,-1,-1,-1,-1,-1,-1,-1,-1,-1,-1,-1,-1,-1,-1,-1,-1,-1,-1,-1,-1,-1,-1,-1,-1,-1,-1,-1,-1],"loss_changes":[1.2653961E1,5.9540253E0,1.408631E0,5.176773E0,1.4261879E-2,2.7688217E-1,1.0948578E0,2.1434698E0,4.2255173E0,5.821461E-1,5.432322E-1,0E0,2.4577022E-1,6.320635E-1,1.4835889E0,2.9275637E0,1.1164727E0,3.7822037E0,3.182003E0,9.9041075E-2,0E0,2.2946876E-1,4.7454305E-2,3.286327E-1,0E0,6.56332E-1,0E0,8.5087556E-1,1.1376576E0,4.289055E-1,0E0,3.9814955E-1,4.5919576E-1,7.627998E-1,3.3238373E0,1.2782276E-1,2.5268574E0,4.3888912E-1,0E0,0E0,0E0,1.9922897E-1,0E0,1.4976645E-1,0E0,0E0,4.2104745E-1,1.3774166E0,3.305123E-1,0E0,9.825802E-2,5.382223E-1,0E0,1.6140628E-1,0E0,1.406653E-1,0E0,1.471886E-1,4.6951604E-1,2.380455E0,0E0,8.007155E-2,1.3842449E-2,0E0,6.2988853E-1,5.542076E-1,0E0,0E0,0E0,2.1704912E-2,0E0,2.2888207E-1,0E0,6.478446E-2,1.0575626E0,3.1526554E-1,0E0,0E0,0E0,0E0,0E0,0E0,0E0,0E0,0E0,0E0,0E0,0E0,0E0,0E0,0E0,0E0,0E0,0E0,0E0,0E0,0E0,0E0,0E0,0E0,0E0,0E0,0E0,0E0,0E0,0E0,0E0,0E0,0E0],"parents":[2147483647,0,0,1,1,2,2,3,3,4,4,5,5,6,6,7,7,8,8,9,9,10,10,12,12,13,13,14,14,15,15,16,16,17,17,18,18,19,19,21,21,22,22,23,23,25,25,27,27,28,28,29,29,31,31,32,32,33,33,34,34,35,35,36,36,37,37,41,41,43,43,46,46,47,47,48,48,50,50,51,51,53,53,55,55,57,57,58,58,59,59,61,61,62,62,64,64,65,65,69,69,71,71,73,73,74,74,75,75],"right_children":[2,4,6,8,10,12,14,16,18,20,22,-1,24,26,28,30,32,34,36,38,-1,40,42,44,-1,46,-1,48,50,52,-1,54,56,58,60,62,64,66,-1,-1,-1,68,-1,70,-1,-1,72,74,76,-1,78,80,-1,82,-1,84,-1,86,88,90,-1,92,94,-1,96,98,-1,-1,-1,100,-1,102,-1,104,106,108,-1,-1,-1,-1,-1,-1,-1,-1,-1,-1,-1,-1,-1,-1,-1,-1,-1,-1,-1,-1,-1,-1,-1,-1,-1,-1,-1,-1,-1,-1,-1,-1,-1],"split_conditions":[3.3436194E-2,6.92E-1,3E-1,5E-1,9E-1,3.031E-1,5E-1,1.443E-1,1.1E0,8E-1,1.5E0,-0E0,5.532564E-1,2.8148723E-1,5.304809E-1,4E-1,3.475E-1,1.467E-1,1.2E0,2.2810219E-1,5.7297137E-2,1.6224611E-1,1.21586155E-2,3.7082258E-1,-0E0,5.705E-1,-0E0,4.052872E-2,7.3604934E-2,2.557565E-1,-0E0,2.7134383E-1,3.2372314E-1,9E-1,2.601336E-1,1.704E-1,1.153E-1,1.0053115E-2,-0E0,-3.872072E-2,-0E0,8.253E-1,-0E0,9.825E-1,-0E0,-0E0,3.838713E-2,8E-1,3.693057E-2,-0E0,6E-1,1.519827E-2,-0E0,4E-1,-0E0,2.4317231E-2,-0E0,3.53E-2,1.9E-2,6.466E-1,-0E0,1.3678443E-2,6.345E-1,-0E0,2.7356885E-2,7.878E-1,-0E0,-0E0,3.850194E-2,2.705292E-1,-0E0,4.6087793E-1,-0E0,3.9515503E-2,4.925E-1,9.857473E-2,-0E0,-0E0,1.1088531E-1,-6.992144E-2,-0E0,5.636354E-2,-0E0,-4.006806E-2,-0E0,-0E0,1.665136E-2,-0E0,-5.6920536E-2,-1.0253069E-1,-0E0,8.451961E-3,-0E0,-2.2981953E-2,-0E0,-6.703623E-2,-0E0,-0E0,-3.9047405E-2,-8.235061E-2,-0E0,6.0390122E-2,-0E0,-1.8253572E-2,-0E0,9.223871E-2,-0E0,-2.5652034E-2,-0E0],"split_indices":[6,7,0,0,0,7,0,7,0,0,0,0,6,1,1,0,7,7,0,2,0,1,6,5,0,7,0,6,6,5,0,5,5,0,5,7,7,1,0,0,0,7,0,7,0,0,4,0,3,0,0,6,0,0,0,6,0,7,7,7,0,6,7,0,6,7,0,0,0,6,0,5,0,6,7,4,0,0,0,0,0,0,0,0,0,0,0,0,0,0,0,0,0,0,0,0,0,0,0,0,0,0,0,0,0,0,0,0,0],"split_type":[0,0,0,0,0,0,0,0,0,0,0,0,0,0,0,0,0,0,0,0,0,0,0,0,0,0,0,0,0,0,0,0,0,0,0,0,0,0,0,0,0,0,0,0,0,0,0,0,0,0,0,0,0,0,0,0,0,0,0,0,0,0,0,0,0,0,0,0,0,0,0,0,0,0,0,0,0,0,0,0,0,0,0,0,0,0,0,0,0,0,0,0,0,0,0,0,0,0,0,0,0,0,0,0,0,0,0,0,0],"sum_hessian":[2.618757E3,2.1651975E3,4.535595E2,2.0197981E3,1.4539937E2,3.368142E1,4.198781E2,4.258411E2,1.5939569E3,9.195384E1,5.3445522E1,1.1594464E0,3.2521973E1,8.087013E1,3.3900797E2,3.264805E2,9.93606E1,8.70411E2,7.2354596E2,8.299473E1,8.959112E0,4.1635433E1,1.181009E1,3.1368946E1,1.1530278E0,7.652016E1,4.3499804E0,3.2687152E2,1.2136446E1,1.983462E2,1.2813431E2,5.4803627E1,4.4556976E1,7.837908E1,7.92032E2,1.1776099E2,6.05785E2,7.8862465E1,4.132266E0,4.024001E1,1.3954211E0,1.0231435E1,1.5786549E0,2.9639208E1,1.7297391E0,8.193998E0,6.832616E1,3.776694E1,2.8910458E2,1.941987E0,1.0194459E1,1.9343439E2,4.91181E0,5.3427773E1,1.3758551E0,4.3556873E1,1.0001028E0,4.783163E1,3.054745E1,7.7294696E2,1.9084991E1,9.945607E1,1.8304913E1,5.3234478E1,5.525505E2,7.6928955E1,1.9335121E0,2.254706E0,7.976729E0,2.7786667E1,1.8525392E0,6.697592E1,1.3502321E0,1.4440929E1,2.3326012E1,2.8449225E2,4.6123376E0,1.4099764E0,8.784482E0,1.7883984E2,1.4594542E1,3.299756E1,2.0430214E1,4.1437458E1,2.1194148E0,7.054816E0,4.0776817E1,2.7562785E0,2.779117E1,7.649188E2,8.028125E0,9.388018E1,5.5758924E0,1.7139702E1,1.1652098E0,5.422091E2,1.0341356E1,1.9462214E1,5.746674E1,2.5687386E1,2.0992832E0,6.5645996E1,1.3299277E0,1.2308924E1,2.1320052E0,1.8991886E1,4.3341246E0,2.830049E2,1.4873185E0],"tree_param":{"num_deleted":"0","num_feature":"8","num_nodes":"109","size_leaf_vector":"1"}},{"base_weights":[-1.2984861E-1,-1.6489929E-1,-2.9144239E-2,-1.7905703E-1,-0E0,-2.5481996E-3,-1.1837325E-1,-7.5270325E-2,-2.021435E-1,-3.742756E-2,8.222348E-3,-1.5500113E-1,5.2076797E-3,-1.4356661E-1,-0E0,-9.6750595E-2,-0E0,-2.60925E-1,-1.2698017E-1,-0E0,-9.433716E-2,-0E0,3.0626193E-2,-0E0,-1.9838047E-1,-4.7504254E-2,3.003917E-2,-1.9432509E-1,-0E0,-1.5449318E-1,-0E0,5.6186415E-2,-2.4952883E-2,-7.686387E-2,-2.881174E-1,-0E0,-1.5131515E-1,-1.412255E-1,-0E0,1.471364E-2,-5.185344E-2,-2.2142601E-1,-0E0,-0E0,-9.4440825E-2,1.0360988E-1,-0E0,-0E0,-2.0513493E-1,-4.927995E-2,-0E0,-0E0,1.9515937E-2,-0E0,-2.2005385E-2,-0E0,-1.4518102E-1,-2.9699907E-1,-0E0,-1.8862842E-1,-0E0,-5.2867968E-2,-0E0,1.15144245E-1,-0E0,-6.7368746E-2,-0E0,-0E0,-2.5591668E-1,-1.21647045E-1,-0E0,1.4434116E-1,-0E0,-3.7143454E-2,3.440976E-2,-6.269167E-2,-0E0,-3.5073387E-3,-0E0,-0E0,-5.4577693E-2,-8.942971E-2,-0E0,-7.3213756E-2,-1.7475832E-2,-0E0,-2.1673735E-2,-0E0,3.776762E-2,-0E0,-2.4706773E-2,-8.152655E-2,-0E0,-0E0,-4.115845E-2,4.880864E-2,-0E0,-2.4343247E-2,-0E0,-0E0,1.9314393E-2],"categories":[],"categories_nodes":[],"categories_segments":[],"categories_sizes":[],"default_left":[0,1,1,0,1,0,0,1,0,0,0,0,0,0,0,0,0,0,0,0,0,0,0,0,0,0,1,0,0,0,0,0,0,0,0,0,1,0,0,0,0,0,0,0,0,0,0,0,1,0,0,0,0,0,0,0,0,0,0,1,1,0,0,0,0,0,0,0,0,0,0,0,0,0,0,0,0,0,0,0,0,0,0,0,0,0,0,0,0,0,0,0,0,0,0,0,0,0,0,0,0],"id":14,"left_children":[1,3,5,7,9,11,13,15,17,19,21,23,25,27,-1,29,31,33,35,-1,37,39,-1,-1,41,43,45,47,-1,49,-1,51,53,55,57,-1,59,61,-1,63,65,67,-1,-1,69,71,73,-1,75,-1,-1,-1,-1,-1,-1,77,79,81,-1,83,85,-1,-1,87,-1,89,-1,-1,91,93,-1,95,-1,97,99,-1,-1,-1,-1,-1,-1,-1,-1,-1,-1,-1,-1,-1,-1,-1,-1,-1,-1,-1,-1,-1,-1,-1,-1,-1,-1],"loss_changes":[7.822605E0,3.8996468E0,1.0330293E0,2.4895058E0,1.0748092E-1,1.443516E0,6.860616E-1,6.3676095E-1,3.644188E0,4.7261575E-1,3.4954762E-1,7.5559866E-1,6.1636513E-1,1.0111792E0,0E0,1.415381E0,1.4093311E-1,1.496952E0,1.8487301E0,0E0,6.9064415E-1,1.5816921E-1,0E0,0E0,4.880879E-1,4.2158884E-1,5.017071E-1,2.1562243E-1,0E0,4.695158E-1,0E0,1.9951135E-2,1.6284187E-1,3.238641E-1,1.9140396E0,0E0,2.3879871E0,6.636505E-1,0E0,2.087762E-1,1.0057856E-1,4.4015765E-1,0E0,0E0,3.9363718E-1,7.255223E-1,4.4863778E-1,0E0,4.5629025E-2,0E0,0E0,0E0,0E0,0E0,0E0,8.061191E-3,5.123801E-1,2.7437973E-1,0E0,1.3074999E0,1.9336799E-1,0E0,0E0,2.3399249E-2,0E0,9.4094485E-2,0E0,0E0,3.1257486E-1,2.3488486E-1,0E0,3.969413E-1,0E0,5.1331466E-1,4.372924E-1,0E0,0E0,0E0,0E0,0E0,0E0,0E0,0E0,0E0,0E0,0E0,0E0,0E0,0E0,0E0,0E0,0E0,0E0,0E0,0E0,0E0,0E0,0E0,0E0,0E0,0E0],"parents":[2147483647,0,0,1,1,2,2,3,3,4,4,5,5,6,6,7,7,8,8,9,9,10,10,11,11,12,12,13,13,15,15,16,16,17,17,18,18,20,20,21,21,24,24,25,25,26,26,27,27,29,29,31,31,32,32,33,33,34,34,36,36,37,37,39,39,40,40,41,41,44,44,45,45,46,46,48,48,55,55,56,56,57,57,59,59,60,60,63,63,65,65,68,68,69,69,71,71,73,73,74,74],"right_children":[2,4,6,8,10,12,14,16,18,20,22,24,26,28,-1,30,32,34,36,-1,38,40,-1,-1,42,44,46,48,-1,50,-1,52,54,56,58,-1,60,62,-1,64,66,68,-1,-1,70,72,74,-1,76,-1,-1,-1,-1,-1,-1,78,80,82,-1,84,86,-1,-1,88,-1,90,-1,-1,92,94,-1,96,-1,98,100,-1,-1,-1,-1,-1,-1,-1,-1,-1,-1,-1,-1,-1,-1,-1,-1,-1,-1,-1,-1,-1,-1,-1,-1,-1,-1],"split_conditions":[1.21586155E-2,5.487E-1,1.2E0,5E-1,6E-1,3E-1,6.082725E-2,1.443E-1,1.1E0,6.036E-1,9.085E-1,3.333E-1,7.252E-1,1.9E0,-0E0,4E-1,2.465E-1,2.585E-1,1.2E0,-0E0,1.2465863E-1,7E-1,3.0626193E-2,-0E0,9.233636E-3,6E-1,4E-1,1.233E-1,-0E0,2.8697374E-1,-0E0,1.572E-1,3E-1,9E-1,2.530816E-1,-0E0,2.31E-2,5.4744524E-1,-0E0,8.02E-1,2E0,1.6718097E-2,-0E0,-0E0,1.1771081E-2,3.6056376E-1,6E-1,-0E0,9.54E-1,-4.927995E-2,-0E0,-0E0,1.9515937E-2,-0E0,-2.2005385E-2,8E-1,1.9E-2,6.4197496E-2,-0E0,1.5E0,1.7E0,-5.2867968E-2,-0E0,5.762E-1,-0E0,5.762E-1,-0E0,-0E0,5.532564E-1,4.47E-2,-0E0,1.8858014E-2,-0E0,2.8250545E-1,3.3436194E-2,-6.269167E-2,-0E0,-3.5073387E-3,-0E0,-0E0,-5.4577693E-2,-8.942971E-2,-0E0,-7.3213756E-2,-1.7475832E-2,-0E0,-2.1673735E-2,-0E0,3.776762E-2,-0E0,-2.4706773E-2,-8.152655E-2,-0E0,-0E0,-4.115845E-2,4.880864E-2,-0E0,-2.4343247E-2,-0E0,-0E0,1.9314393E-2],"split_indices":[6,7,0,0,0,0,2,7,0,7,7,7,7,0,0,0,7,7,0,0,1,0,0,0,4,0,0,7,0,5,0,7,0,0,5,0,7,2,0,7,0,6,0,0,1,5,0,0,7,0,0,0,0,0,0,0,7,4,0,0,0,0,0,7,0,7,0,0,6,7,0,4,0,5,6,0,0,0,0,0,0,0,0,0,0,0,0,0,0,0,0,0,0,0,0,0,0,0,0,0,0],"split_type":[0,0,0,0,0,0,0,0,0,0,0,0,0,0,0,0,0,0,0,0,0,0,0,0,0,0,0,0,0,0,0,0,0,0,0,0,0,0,0,0,0,0,0,0,0,0,0,0,0,0,0,0,0,0,0,0,0,0,0,0,0,0,0,0,0,0,0,0,0,0,0,0,0,0,0,0,0,0,0,0,0,0,0,0,0,0,0,0,0,0,0,0,0,0,0,0,0,0,0,0,0],"sum_hessian":[2.493587E3,1.809625E3,6.839619E2,1.6553378E3,1.5428722E2,5.75624E2,1.0833784E2,3.460497E2,1.3092881E3,6.508403E1,8.9203186E1,5.264226E1,5.229818E2,1.0469572E2,3.6421251E0,2.7471115E2,7.133857E1,6.8767224E2,6.216158E2,7.631792E0,5.745224E1,6.203912E1,2.7164062E1,4.032165E0,4.8610096E1,1.0094613E2,4.2203564E2,8.074322E1,2.3952496E1,1.627823E2,1.11928856E2,2.7644087E1,4.3694477E1,1.1563292E2,5.720393E2,1.05189606E2,5.164262E2,5.6387295E1,1.0649468E0,1.17207985E1,5.031832E1,4.7591904E1,1.0181918E0,3.3365936E1,6.758019E1,7.579902E1,3.4623663E2,3.8797517E0,7.6863464E1,1.6058043E2,2.201872E0,4.085889E0,2.3558199E1,1.4562172E1,2.9132307E1,7.28934E1,4.2739517E1,5.5962415E2,1.2415165E1,3.96941E2,1.1948518E2,5.5078182E1,1.3091128E0,9.052642E0,2.6681566E0,4.9118137E1,1.2001851E0,7.002794E0,4.058911E1,6.455176E1,3.0284333E0,7.048592E1,5.3130956E0,1.0601488E2,2.4022176E2,7.4856705E1,2.006766E0,5.1977493E1,2.091591E1,2.5820942E0,4.0157425E1,5.58538E2,1.0861392E0,2.4734909E2,1.4959192E2,8.943763E1,3.0047554E1,1.1475269E0,7.9051147E0,4.693207E0,4.442493E1,3.943608E1,1.1530278E0,2.81948E0,6.1732277E1,6.898511E1,1.500816E0,9.463975E1,1.1375131E1,7.110134E1,1.691204E2],"tree_param":{"num_deleted":"0","num_feature":"8","num_nodes":"101","size_leaf_vector":"1"}},{"base_weights":[-9.835913E-2,-1.1885353E-1,-0E0,-1.284544E-1,2.0446451E-2,-7.362864E-2,1.7163017E-3,-7.1074605E-2,-1.6717504E-1,-0E0,6.170787E-2,-1.1279016E-1,-0E0,-0E0,8.606646E-2,-1.1137095E-1,7.950282E-2,-2.2329126E-1,-1.02287866E-1,-1.0216886E-2,-0E0,9.8908916E-2,-0E0,-1.3095357E-1,-0E0,1.8498933E-2,-2.0116061E-2,2.043164E-1,-0E0,-6.619347E-2,-2.806585E-1,1.0376426E-1,-0E0,-2.3255083E-1,-0E0,-0E0,-1.2191647E-1,3.5177138E-2,-0E0,-1.437956E-1,-0E0,7.28173E-2,-0E0,-4.0715035E-2,4.8705298E-3,3.124764E-1,-0E0,-3.0140249E-2,-0E0,-0E0,-8.8047884E-2,-3.1485745E-1,-0E0,-0E0,1.10086106E-1,-2.42268E-1,-0E0,-0E0,-3.0940123E-2,-0E0,-1.3730185E-1,-4.689642E-2,-0E0,-0E0,1.2094741E-1,-8.987449E-2,-0E0,5.5899795E-2,-0E0,3.5787067E-1,-0E0,-8.621725E-2,-0E0,-2.3789175E-2,3.17186E-2,-3.4296837E-2,-0E0,-0E0,-1.0103203E-1,3.3496995E-2,-0E0,-0E0,-7.4090965E-2,-0E0,6.2657525E-3,-4.451812E-2,-0E0,4.917818E-2,-0E0,-4.7837786E-2,-0E0,2.2760374E-2,-8.655678E-3,-0E0,2.2610346E-2,1.1896234E-1,-0E0,-3.1649474E-2,-0E0],"categories":[],"categories_nodes":[],"categories_segments":[],"categories_sizes":[],"default_left":[0,1,1,1,0,0,0,1,0,0,0,0,0,0,0,1,0,0,0,0,0,0,0,1,0,1,0,1,0,0,0,0,0,1,0,1,0,0,0,0,0,0,0,0,0,0,0,1,0,0,1,0,0,0,0,0,0,0,0,0,1,0,0,0,0,0,0,0,0,0,0,0,0,0,0,0,0,0,0,0,0,0,0,0,0,0,0,0,0,0,0,0,0,0,0,0,0,0,0],"id":15,"left_children":[1,3,5,7,9,11,13,15,17,19,21,23,-1,25,27,29,31,33,35,-1,-1,37,-1,39,-1,41,43,45,47,49,51,53,-1,55,-1,57,59,-1,-1,61,-1,63,-1,65,67,69,-1,71,-1,73,75,77,-1,-1,79,81,-1,83,-1,-1,85,-1,-1,-1,87,89,91,93,-1,95,-1,97,-1,-1,-1,-1,-1,-1,-1,-1,-1,-1,-1,-1,-1,-1,-1,-1,-1,-1,-1,-1,-1,-1,-1,-1,-1,-1,-1],"loss_changes":[4.415352E0,3.1881657E0,3.3204702E-1,2.8893433E0,2.9438007E-1,4.0214652E-1,3.6123985E-1,5.1926103E0,2.0783405E0,1.8894117E-2,4.8259902E-1,2.3490435E-1,0E0,1.4205378E-1,1.1110717E0,3.3014927E0,6.222947E-1,1.4018173E0,6.241865E-1,0E0,0E0,3.1449723E-1,0E0,1.4795226E-1,0E0,3.6601454E-1,3.1790802E-1,1.583961E0,1.717535E-2,1.0590434E0,1.8466349E0,1.7848337E-1,0E0,1.4527931E0,0E0,2.8340462E-1,8.568454E-1,0E0,0E0,1.4890218E-1,0E0,6.045327E-1,0E0,5.021918E-1,4.794954E-2,6.5539503E-1,0E0,1.10099554E-1,0E0,1.1063437E0,6.631932E-1,6.6023254E-1,0E0,0E0,1.7279148E-2,8.4607124E-1,0E0,4.3734524E-2,0E0,0E0,4.927168E-1,0E0,0E0,0E0,4.982797E-1,1.0703146E0,3.3503395E-1,2.9323146E-2,0E0,5.4040074E-1,0E0,5.1848188E-2,0E0,0E0,0E0,0E0,0E0,0E0,0E0,0E0,0E0,0E0,0E0,0E0,0E0,0E0,0E0,0E0,0E0,0E0,0E0,0E0,0E0,0E0,0E0,0E0,0E0,0E0,0E0],"parents":[2147483647,0,0,1,1,2,2,3,3,4,4,5,5,6,6,7,7,8,8,9,9,10,10,11,11,13,13,14,14,15,15,16,16,17,17,18,18,21,21,23,23,25,25,26,26,27,27,28,28,29,29,30,30,31,31,33,33,35,35,36,36,39,39,41,41,43,43,44,44,45,45,47,47,49,49,50,50,51,51,54,54,55,55,57,57,60,60,64,64,65,65,66,66,67,67,69,69,71,71],"right_children":[2,4,6,8,10,12,14,16,18,20,22,24,-1,26,28,30,32,34,36,-1,-1,38,-1,40,-1,42,44,46,48,50,52,54,-1,56,-1,58,60,-1,-1,62,-1,64,-1,66,68,70,-1,72,-1,74,76,78,-1,-1,80,82,-1,84,-1,-1,86,-1,-1,-1,88,90,92,94,-1,96,-1,98,-1,-1,-1,-1,-1,-1,-1,-1,-1,-1,-1,-1,-1,-1,-1,-1,-1,-1,-1,-1,-1,-1,-1,-1,-1,-1,-1],"split_conditions":[3.3436194E-2,8.332E-1,3E-1,7E-1,3E-1,4.7450703E-1,2.8250545E-1,6E-1,1.1E0,9.825E-1,2.4961638E-1,1.7331654E-2,-0E0,5.8625918E-2,4.394069E-1,5E-1,2.8707843E-2,2.530816E-1,1.2E0,-1.0216886E-2,-0E0,6.5561885E-1,-0E0,9.751E-1,-0E0,3.584E-1,1.9768856E-1,9.673E-1,8.1636447E-1,3.475E-1,2.1277579E-2,3.53E-2,-0E0,6.728E-1,-0E0,1.704E-1,1.233E-1,3.5177138E-2,-0E0,4.7114637E-1,-0E0,2.585E-1,-0E0,1.0030858E-1,2.1869119E-1,1.2E0,-0E0,9.085E-1,-0E0,1.616E-1,4E-1,1.233E-1,-0E0,-0E0,3.065795E-1,1.9E-2,-0E0,8.59E-2,-3.0940123E-2,-0E0,3.403E-1,-4.689642E-2,-0E0,-0E0,1.2E0,1E0,1.2370078E-1,7.175E-1,-0E0,6.5561885E-1,-0E0,2.9857007E-1,-0E0,-2.3789175E-2,3.17186E-2,-3.4296837E-2,-0E0,-0E0,-1.0103203E-1,3.3496995E-2,-0E0,-0E0,-7.4090965E-2,-0E0,6.2657525E-3,-4.451812E-2,-0E0,4.917818E-2,-0E0,-4.7837786E-2,-0E0,2.2760374E-2,-8.655678E-3,-0E0,2.2610346E-2,1.1896234E-1,-0E0,-3.1649474E-2,-0E0],"split_indices":[6,7,0,0,0,1,5,0,0,7,5,4,0,6,5,0,6,5,0,0,0,2,0,7,0,7,2,7,1,7,6,7,0,7,0,7,7,0,0,6,0,7,0,6,6,0,0,7,0,7,0,7,0,0,5,7,0,7,0,0,7,0,0,0,0,0,6,7,0,2,0,6,0,0,0,0,0,0,0,0,0,0,0,0,0,0,0,0,0,0,0,0,0,0,0,0,0,0,0],"split_type":[0,0,0,0,0,0,0,0,0,0,0,0,0,0,0,0,0,0,0,0,0,0,0,0,0,0,0,0,0,0,0,0,0,0,0,0,0,0,0,0,0,0,0,0,0,0,0,0,0,0,0,0,0,0,0,0,0,0,0,0,0,0,0,0,0,0,0,0,0,0,0,0,0,0,0,0,0,0,0,0,0,0,0,0,0,0,0,0,0,0,0,0,0,0,0,0,0,0,0],"sum_hessian":[2.4076965E3,1.9593076E3,4.4838885E2,1.8670641E3,9.2243546E1,5.4031902E1,3.9435696E2,8.123011E2,1.054763E3,1.1039297E1,8.120425E1,5.061933E1,3.4125686E0,3.5243018E2,4.19268E1,6.684452E2,1.438559E2,5.15124E2,5.396389E2,9.290408E0,1.748889E0,7.666256E1,4.5416927E0,4.9442062E1,1.1772716E0,9.267695E1,2.597532E2,2.8297327E1,1.3629473E1,5.586357E2,1.09809525E2,1.3935521E2,4.500699E0,5.0029388E2,1.4830177E1,1.1985448E2,4.1978442E2,7.540212E1,1.2604364E0,4.696617E1,2.475891E0,6.846169E1,2.4215258E1,2.4964587E2,1.0107338E1,2.4313065E1,3.984262E0,1.1906532E1,1.72294E0,1.0933768E2,4.4929797E2,1.0444E2,5.3695264E0,1.5990484E0,1.3775615E2,4.8516785E2,1.5126041E1,1.00210106E2,1.9644367E1,4.4836224E1,3.749482E2,4.4757675E1,2.208494E0,6.7825356E0,6.1679157E1,1.0784321E2,1.4180267E2,8.4747715E0,1.6325673E0,2.1990463E1,2.3226013E0,1.0122E1,1.7845333E0,4.8698364E1,6.0639317E1,3.1440085E2,1.3489714E2,8.210958E0,9.622904E1,1.3509856E2,2.6576006E0,4.6903887E0,4.8047745E2,6.951773E0,9.325833E1,3.4235886E2,3.2589355E1,4.8929188E1,1.2749968E1,7.157518E1,3.6268024E1,3.4705315E1,1.0709735E2,1.7997178E0,6.675053E0,2.0048582E1,1.9418819E0,9.093895E0,1.0281045E0],"tree_param":{"num_deleted":"0","num_feature":"8","num_nodes":"99","size_leaf_vector":"1"}},{"base_weights":[-7.465709E-2,-9.664209E-2,-1.2092783E-2,-1.0659409E-1,-0E0,-0E0,-7.1855344E-2,-2.0486599E-2,-1.1877852E-1,-1.893678E-3,7.882309E-3,-8.321356E-2,8.107907E-3,-9.653401E-2,-0E0,-2.1226274E-2,3.637455E-2,-1.3023715E-1,-1.7268703E-3,-9.994602E-2,-0E0,5.1067237E-2,-0E0,-1.21481E-1,-0E0,4.5845326E-2,-0E0,-1.4021255E-1,-0E0,7.690811E-2,-0E0,-3.9518956E-2,-1.5464376E-1,1.1919671E-2,-1.1249194E-1,-0E0,-4.7015946E-2,2.3086399E-2,-0E0,-8.327777E-2,-0E0,-0E0,-1.4917734E-1,6.5893404E-2,-0E0,-3.9868172E-2,-0E0,-0E0,-1.491047E-1,2.6195677E-2,-0E0,-4.5661326E-2,-0E0,-1.5574062E-1,-0E0,-0E0,1.00116156E-1,-0E0,-3.8242072E-2,-3.0570323E-2,-0E0,-0E0,6.6412576E-2,-1.7231777E-1,-0E0,8.553983E-2,-0E0,-2.6580235E-2,-0E0,-0E0,-1.3068612E-1,-3.622253E-2,2.6850423E-2,-0E0,-1.6360429E-1,-0E0,-1.6374027E-2,-0E0,-4.8035797E-2,4.6210634E-3,-2.8190395E-2,-0E0,3.721847E-2,2.453916E-2,-0E0,-5.8023382E-2,-0E0,3.0424973E-2,-0E0,-1.9530145E-2,-0E0,-5.3148344E-2,-0E0,-1.798344E-2,-0E0,1.3559341E-2,-0E0,-5.0674744E-2,-0E0],"categories":[],"categories_nodes":[],"categories_segments":[],"categories_sizes":[],"default_left":[0,1,1,0,1,0,0,0,1,0,0,0,1,0,0,0,1,0,0,0,0,0,0,0,0,0,0,0,0,0,0,0,0,0,0,0,0,0,0,0,0,0,0,1,1,0,0,0,0,0,0,0,0,0,0,0,0,0,0,0,0,0,0,0,0,0,0,0,0,0,1,0,1,0,1,0,0,0,0,0,0,0,0,0,0,0,0,0,0,0,0,0,0,0,0,0,0,0,0],"id":16,"left_children":[1,3,5,7,9,11,13,15,17,19,21,23,25,27,-1,-1,29,31,33,35,-1,37,39,41,-1,43,45,47,-1,49,-1,51,53,55,57,-1,-1,-1,-1,59,61,-1,63,65,67,69,71,-1,73,-1,-1,75,-1,77,-1,79,81,-1,-1,-1,-1,-1,83,85,-1,87,-1,89,-1,-1,91,93,95,-1,97,-1,-1,-1,-1,-1,-1,-1,-1,-1,-1,-1,-1,-1,-1,-1,-1,-1,-1,-1,-1,-1,-1,-1,-1],"loss_changes":[2.6852875E0,1.723115E0,4.6750367E-1,8.9577484E-1,8.368376E-3,4.1789284E-1,4.220441E-1,9.029118E-1,1.0705223E0,2.6919663E-1,2.0282318E-1,4.174571E-1,3.325248E-1,6.320496E-1,0E0,0E0,3.189625E-1,1.5041561E0,7.558165E-1,3.4019867E-1,0E0,1.8830925E-1,1.7028502E-1,3.1981558E-1,0E0,3.475312E-1,9.512308E-2,1.2590575E-1,0E0,1.1306244E-1,0E0,1.442276E-1,2.547016E-1,2.7262825E-1,1.524437E-1,0E0,0E0,0E0,0E0,6.426716E-2,1.1274917E-1,0E0,3.0242884E-1,4.1551208E-1,1.0559698E-2,4.9896607E-1,2.7152732E-1,0E0,1.1666036E-1,0E0,0E0,1.7654908E-1,0E0,2.3741531E-1,0E0,2.6081052E-1,1.2284723E-1,0E0,0E0,0E0,0E0,0E0,2.963125E-2,2.5503254E-1,0E0,4.2948985E-1,0E0,4.8524603E-2,0E0,0E0,4.5639753E-1,1.5656847E-1,2.9518133E-1,0E0,6.989789E-2,0E0,0E0,0E0,0E0,0E0,0E0,0E0,0E0,0E0,0E0,0E0,0E0,0E0,0E0,0E0,0E0,0E0,0E0,0E0,0E0,0E0,0E0,0E0,0E0],"parents":[2147483647,0,0,1,1,2,2,3,3,4,4,5,5,6,6,7,7,8,8,9,9,10,10,11,11,12,12,13,13,16,16,17,17,18,18,19,19,21,21,22,22,23,23,25,25,26,26,27,27,29,29,31,31,32,32,33,33,34,34,39,39,40,40,42,42,43,43,44,44,45,45,46,46,48,48,51,51,53,53,55,55,56,56,62,62,63,63,65,65,67,67,70,70,71,71,72,72,74,74],"right_children":[2,4,6,8,10,12,14,16,18,20,22,24,26,28,-1,-1,30,32,34,36,-1,38,40,42,-1,44,46,48,-1,50,-1,52,54,56,58,-1,-1,-1,-1,60,62,-1,64,66,68,70,72,-1,74,-1,-1,76,-1,78,-1,80,82,-1,-1,-1,-1,-1,84,86,-1,88,-1,90,-1,-1,92,94,96,-1,98,-1,-1,-1,-1,-1,-1,-1,-1,-1,-1,-1,-1,-1,-1,-1,-1,-1,-1,-1,-1,-1,-1,-1,-1],"split_conditions":[1.21586155E-2,5.592E-1,1.2E0,2.217E-1,3E-1,3E-1,6.082725E-2,1.549E-1,1.5E0,9.825E-1,9E-1,1.5490598E-2,5E-1,1.9E0,-0E0,-2.1226274E-2,1.7E0,5E-1,1.9E0,6.036E-1,-0E0,9.395E-1,1.1E0,3.333E-1,-0E0,3.6056376E-1,6E-1,1.233E-1,-0E0,2.608023E-1,-0E0,2.8697374E-1,1.3208677E-1,1.8E0,3.901E-1,-0E0,-4.7015946E-2,2.3086399E-2,-0E0,9.825E-1,8.693E-1,-0E0,3.7082258E-1,9.395E-1,9.471E-1,5.9984192E-2,8.253E-1,-0E0,1.6718097E-2,2.6195677E-2,-0E0,3.475E-1,-0E0,2.998E-1,-0E0,1.7E0,4.975E-1,-0E0,-3.8242072E-2,-3.0570323E-2,-0E0,-0E0,9.825E-1,2.705292E-1,-0E0,1.8858014E-2,-0E0,2.57554E-1,-0E0,-0E0,9.751E-1,3.2329378E-1,9.673E-1,-0E0,9.54E-1,-0E0,-1.6374027E-2,-0E0,-4.8035797E-2,4.6210634E-3,-2.8190395E-2,-0E0,3.721847E-2,2.453916E-2,-0E0,-5.8023382E-2,-0E0,3.0424973E-2,-0E0,-1.9530145E-2,-0E0,-5.3148344E-2,-0E0,-1.798344E-2,-0E0,1.3559341E-2,-0E0,-5.0674744E-2,-0E0],"split_indices":[6,7,0,7,0,0,2,7,0,7,0,4,0,0,0,0,0,0,0,7,0,7,0,7,0,5,0,7,0,5,0,5,1,0,7,0,0,0,0,7,7,0,5,7,7,6,7,0,6,0,0,7,0,7,0,0,7,0,0,0,0,0,7,6,0,4,0,6,0,0,7,5,7,0,7,0,0,0,0,0,0,0,0,0,0,0,0,0,0,0,0,0,0,0,0,0,0,0,0],"split_type":[0,0,0,0,0,0,0,0,0,0,0,0,0,0,0,0,0,0,0,0,0,0,0,0,0,0,0,0,0,0,0,0,0,0,0,0,0,0,0,0,0,0,0,0,0,0,0,0,0,0,0,0,0,0,0,0,0,0,0,0,0,0,0,0,0,0,0,0,0,0,0,0,0,0,0,0,0,0,0,0,0,0,0,0,0,0,0,0,0,0,0,0,0,0,0,0,0,0,0],"sum_hessian":[2.3464695E3,1.6743683E3,6.7210114E2,1.5267194E3,1.4764893E2,5.6932166E2,1.0277947E2,2.4245027E2,1.284269E3,2.161058E1,1.26038345E2,4.833747E1,5.209842E2,9.911397E1,3.665503E0,1.7445122E2,6.7999054E1,1.1301315E3,1.5413756E2,1.9959017E1,1.6515629E0,7.394328E1,5.2095066E1,4.725268E1,1.0847894E0,1.6772386E2,3.532603E2,7.5448746E1,2.3665222E1,6.3702354E1,4.296697E0,2.869074E2,8.432241E2,1.0260276E2,5.1534794E1,2.143438E0,1.781558E1,6.0442898E1,1.3500384E1,1.7553772E1,3.4541294E1,3.903852E0,4.334883E1,1.576187E2,1.0105156E1,5.284574E1,3.0041458E2,3.877539E0,7.1571205E1,6.2676727E1,1.0256253E0,2.8232822E2,4.5791807E0,8.4179126E2,1.4328531E0,8.0849556E1,2.1753204E1,3.5689092E0,4.7965885E1,1.558822E1,1.9655535E0,1.5978242E1,1.8563051E1,4.091923E1,2.4296002E0,1.4747137E2,1.014732E1,7.9463043E0,2.1588511E0,2.506069E1,2.7785051E1,6.8874825E1,2.3153975E2,8.951282E0,6.2619923E1,2.7566042E1,2.5476218E2,3.6527992E1,8.052633E2,6.0116096E1,2.0733461E1,2.0466588E0,1.9706547E1,1.4280084E1,4.2829676E0,3.7854626E1,3.064604E0,1.4464978E2,2.821603E0,6.941313E0,1.0049919E0,2.6469837E1,1.3152131E0,6.4275986E1,4.5988355E0,2.2167926E2,9.860493E0,6.076016E1,1.8597648E0],"tree_param":{"num_deleted":"0","num_feature":"8","num_nodes":"99","size_leaf_vector":"1"}},{"base_weights":[-5.656646E-2,-6.172047E-2,1.0510536E-1,-3.8376357E-2,-8.9742474E-2,-0E0,1.4704874E-1,-6.2907174E-2,1.06009744E-1,-1.6872472E-1,-4.1752346E-2,2.5258708E-1,-0E0,-3.2843947E-2,-2.4548285E-1,1.2649614E-1,-0E0,-2.1075086E-1,-0E0,4.5725782E-3,-6.628675E-2,2.9743406E-1,-0E0,-6.3344605E-2,6.628237E-2,-2.8761342E-1,-0E0,-0E0,1.5616284E-1,-2.297629E-1,-0E0,4.729981E-2,-6.2080212E-2,-3.663081E-2,6.46654E-2,-0E0,-7.975727E-2,-0E0,3.348043E-1,-2.7652293E-2,-1.9861726E-1,9.8150685E-2,-0E0,-2.925957E-1,-0E0,6.520531E-2,-3.3472188E-2,4.921425E-2,-0E0,-0E0,-2.3739418E-1,-0E0,7.914504E-2,-9.190479E-2,-0E0,-2.6433202E-2,-0E0,8.766366E-2,-0E0,-0E0,6.88967E-2,-1.1528738E-1,-0E0,1.0502363E-1,-0E0,-1.6268604E-2,-0E0,-6.399118E-2,-0E0,3.2711506E-2,-0E0,-7.248949E-3,-0E0,-8.842227E-2,-0E0,-0E0,2.8723551E-2,-1.0615738E-2,-0E0,-7.2136775E-2,-0E0,3.261843E-2,-0E0,-3.3500724E-2,-0E0,2.9067695E-2,-0E0,-0E0,-1.3486942E-2,2.5713807E-2,-0E0,-3.819538E-2,-0E0,7.444789E-2,-2.6847387E-2],"categories":[],"categories_nodes":[],"categories_segments":[],"categories_sizes":[],"default_left":[0,1,1,1,0,0,0,1,0,0,0,0,0,1,0,0,0,0,0,0,0,0,0,1,1,0,0,0,0,0,0,0,0,0,0,0,0,0,0,1,0,0,0,0,0,0,0,0,0,0,1,0,0,0,0,0,0,1,0,0,0,1,0,0,0,0,0,0,0,0,0,0,0,0,0,0,0,0,0,0,0,0,0,0,0,0,0,0,0,0,0,0,0,0,0],"id":17,"left_children":[1,3,5,7,9,-1,11,13,15,17,19,21,-1,23,25,27,-1,29,31,33,35,37,-1,39,41,43,-1,45,47,49,-1,51,53,55,57,59,61,-1,63,65,67,69,71,73,-1,75,77,-1,-1,-1,79,-1,81,83,-1,-1,-1,85,-1,87,89,91,93,-1,-1,-1,-1,-1,-1,-1,-1,-1,-1,-1,-1,-1,-1,-1,-1,-1,-1,-1,-1,-1,-1,-1,-1,-1,-1,-1,-1,-1,-1,-1,-1],"loss_changes":[1.7523079E0,8.214226E-1,3.7532648E-1,4.6089954E0,2.4229841E0,0E0,6.4319056E-1,5.067345E0,5.8481133E-1,2.3957262E0,1.0234499E0,3.9738655E-1,0E0,3.1917267E0,1.798274E0,3.233037E-1,0E0,1.7731228E0,1.9537729E-1,5.3588593E-1,6.5173316E-1,3.8226056E-1,0E0,2.913446E0,5.5233103E-1,2.7773857E-1,0E0,1.7071171E-1,2.6074743E-1,7.2491074E-1,0E0,1.8437314E-1,9.294251E-2,2.814516E-1,3.7014744E-1,1.1981367E-1,7.133298E-1,0E0,6.932306E-2,4.0399945E-1,6.1374664E-1,2.8013837E-1,2.2064319E-2,6.982899E-2,0E0,1.5069088E-1,1.0030307E-3,0E0,0E0,0E0,2.4254417E-1,0E0,2.480771E-1,6.458545E-2,0E0,0E0,0E0,1.7388827E-1,0E0,5.0005924E-2,4.0914886E-2,5.907831E-1,3.4388623E0,0E0,0E0,0E0,0E0,0E0,0E0,0E0,0E0,0E0,0E0,0E0,0E0,0E0,0E0,0E0,0E0,0E0,0E0,0E0,0E0,0E0,0E0,0E0,0E0,0E0,0E0,0E0,0E0,0E0,0E0,0E0,0E0],"parents":[2147483647,0,0,1,1,2,2,3,3,4,4,6,6,7,7,8,8,9,9,10,10,11,11,13,13,14,14,15,15,17,17,18,18,19,19,20,20,21,21,23,23,24,24,25,25,27,27,28,28,29,29,31,31,32,32,33,33,34,34,35,35,36,36,38,38,39,39,40,40,41,41,42,42,43,43,45,45,46,46,50,50,52,52,53,53,57,57,59,59,60,60,61,61,62,62],"right_children":[2,4,6,8,10,-1,12,14,16,18,20,22,-1,24,26,28,-1,30,32,34,36,38,-1,40,42,44,-1,46,48,50,-1,52,54,56,58,60,62,-1,64,66,68,70,72,74,-1,76,78,-1,-1,-1,80,-1,82,84,-1,-1,-1,86,-1,88,90,92,94,-1,-1,-1,-1,-1,-1,-1,-1,-1,-1,-1,-1,-1,-1,-1,-1,-1,-1,-1,-1,-1,-1,-1,-1,-1,-1,-1,-1,-1,-1,-1,-1],"split_conditions":[1.8248175E-1,9E-1,2E-1,8E-1,1.1E0,-0E0,6.5561885E-1,7E-1,7.98397E-2,3.1462952E-2,1.2E0,2.4172157E-1,-0E0,6E-1,7.7744216E-2,6.92E-1,-0E0,2.573371E-1,1.2370078E-1,8.693E-1,1.233E-1,2.844E-1,-0E0,5E-1,1.378E-1,4.766357E-1,-0E0,3.475E-1,9.233636E-3,1.9E-2,-0E0,2.163E-1,2.9629406E-1,1.1550685E-1,2.819279E-1,7.41E-2,1.6E0,-0E0,1.4E0,3E-1,2.8935987E-1,3.065795E-1,5.592E-1,1.974635E-2,-0E0,3.53E-2,6.532E-1,4.921425E-2,-0E0,-0E0,9.825E-1,-0E0,4.084079E-1,4.7114637E-1,-0E0,-2.6433202E-2,-0E0,9.825E-1,-0E0,1.4E0,1.9E0,9.085E-1,1.7E0,1.0502363E-1,-0E0,-1.6268604E-2,-0E0,-6.399118E-2,-0E0,3.2711506E-2,-0E0,-7.248949E-3,-0E0,-8.842227E-2,-0E0,-0E0,2.8723551E-2,-1.0615738E-2,-0E0,-7.2136775E-2,-0E0,3.261843E-2,-0E0,-3.3500724E-2,-0E0,2.9067695E-2,-0E0,-0E0,-1.3486942E-2,2.5713807E-2,-0E0,-3.819538E-2,-0E0,7.444789E-2,-2.6847387E-2],"split_indices":[2,0,0,0,0,0,2,0,6,6,0,1,0,0,6,7,0,5,6,7,7,7,0,0,7,5,0,7,4,7,0,7,5,6,5,7,0,0,0,0,5,5,7,4,0,7,7,0,0,0,7,0,5,6,0,0,0,7,0,0,0,7,0,0,0,0,0,0,0,0,0,0,0,0,0,0,0,0,0,0,0,0,0,0,0,0,0,0,0,0,0,0,0,0,0],"split_type":[0,0,0,0,0,0,0,0,0,0,0,0,0,0,0,0,0,0,0,0,0,0,0,0,0,0,0,0,0,0,0,0,0,0,0,0,0,0,0,0,0,0,0,0,0,0,0,0,0,0,0,0,0,0,0,0,0,0,0,0,0,0,0,0,0,0,0,0,0,0,0,0,0,0,0,0,0,0,0,0,0,0,0,0,0,0,0,0,0,0,0,0,0,0,0],"sum_hessian":[2.3017935E3,2.2648457E3,3.6947586E1,1.341941E3,9.229047E2,4.137745E0,3.280984E1,1.1800356E3,1.6190541E2,3.0278375E2,6.20121E2,1.6573772E1,1.6236069E1,1.0438059E3,1.3622975E2,1.4817398E2,1.373143E1,2.4549185E2,5.7291912E1,1.4612096E2,4.74E2,1.449274E1,2.0810335E0,8.387074E2,2.0509846E2,1.19080444E2,1.7149305E1,4.010021E1,1.0807378E2,2.3902275E2,6.4691095E0,4.2099598E1,1.5192313E1,3.894573E1,1.07175224E2,4.63013E1,4.276987E2,1.1200058E0,1.3372734E1,6.995273E2,1.3918016E2,1.4706088E2,5.8037582E1,1.1806736E2,1.0130813E0,2.8160131E1,1.1940077E1,1.0696701E2,1.106761E0,2.7000341E0,2.3632271E2,2.1287725E0,3.9970825E1,1.4129561E1,1.0627517E0,3.7194344E1,1.7513841E0,1.03291916E2,3.8833117E0,2.8060127E1,1.824117E1,2.5471834E2,1.7298038E2,1.2199376E1,1.173358E0,3.1409E2,3.854373E2,1.3323259E2,5.9475636E0,1.4139253E2,5.668345E0,3.079053E1,2.7247053E1,1.1705727E2,1.0100915E0,2.414647E0,2.5745483E1,1.0748015E1,1.1920614E0,2.3436063E2,1.9620849E0,3.887283E1,1.0979971E0,1.2491292E1,1.6382686E0,1.01804794E2,1.4871204E0,1.0318002E1,1.7742125E1,1.4877761E1,3.3634102E0,2.4404042E2,1.0677928E1,2.923728E1,1.4374309E2],"tree_param":{"num_deleted":"0","num_feature":"8","num_nodes":"95","size_leaf_vector":"1"}},{"base_weights":[-4.187889E-2,-5.0707668E-2,9.5449865E-4,-5.636838E-2,-0E0,-0E0,8.5537404E-2,-8.707516E-3,-6.528605E-2,-0E0,1.5690634E-2,2.9477496E-3,-3.2364763E-2,-0E0,1.1841237E-1,-8.9766644E-2,-0E0,-7.51364E-2,-0E0,-7.9426296E-2,-0E0,1.250581E-1,-0E0,-0E0,1.1536327E-1,-0E0,-1.13358654E-1,4.6252534E-2,-0E0,-1.2059652E-1,-0E0,3.860761E-2,-3.089846E-2,-7.716051E-2,-0E0,2.6154067E-2,-3.2915276E-2,-1.1956276E-1,-0E0,2.2556418E-1,-0E0,-3.6166515E-2,-0E0,-0E0,-9.039187E-2,-0E0,2.091517E-1,-0E0,6.770802E-2,-1.4077753E-1,-0E0,-3.867982E-2,-0E0,5.396339E-2,-0E0,-6.687399E-2,-0E0,-7.798638E-2,-0E0,-0E0,2.7007472E-2,-3.4493707E-2,-0E0,-4.253588E-2,-0E0,-0E0,7.820793E-2,-7.597714E-2,-0E0,-0E0,2.4853453E-2,4.0891662E-2,-1.1489902E-2,-1.636189E-1,-0E0,2.576329E-1,-0E0,-0E0,1.4803997E-1,-0E0,-1.5614724E-1,1.8815026E-2,-0E0,-0E0,-3.9622206E-2,-2.435698E-2,-0E0,1.5959866E-2,-9.64417E-3,-0E0,-3.356061E-2,-0E0,-8.110674E-3,2.4334708E-2,-0E0,-0E0,2.2085307E-2,-0E0,-4.383934E-2,-0E0,-5.5612747E-2,-0E0,8.77775E-2,-0E0,5.9760723E-2,-5.320048E-2,-0E0],"categories":[],"categories_nodes":[],"categories_segments":[],"categories_sizes":[],"default_left":[0,1,0,0,0,0,0,0,1,0,1,0,0,0,0,0,0,0,0,0,0,0,0,0,0,0,0,0,0,0,0,0,0,0,0,0,0,0,0,0,0,0,0,1,0,0,1,0,0,0,0,0,0,0,0,0,0,0,0,0,0,0,0,0,0,0,0,0,0,0,0,0,0,0,0,0,0,0,0,0,1,0,0,0,0,0,0,0,0,0,0,0,0,0,0,0,0,0,0,0,0,0,0,0,0,0,0],"id":18,"left_children":[1,3,5,7,9,11,13,15,17,19,21,23,25,-1,27,29,31,33,35,37,-1,39,41,43,45,47,49,-1,-1,51,-1,53,55,57,-1,59,61,63,-1,65,-1,67,69,71,73,-1,75,-1,77,79,-1,-1,-1,81,-1,83,-1,85,-1,-1,-1,-1,87,-1,-1,-1,-1,89,-1,91,93,95,97,99,-1,101,-1,-1,103,-1,105,-1,-1,-1,-1,-1,-1,-1,-1,-1,-1,-1,-1,-1,-1,-1,-1,-1,-1,-1,-1,-1,-1,-1,-1,-1,-1],"loss_changes":[1.1090326E0,7.051401E-1,2.0131788E-1,4.0216017E-1,3.59403E-2,8.8144846E-2,1.6234788E-1,5.6615686E-1,8.6536264E-1,1.3880903E-1,6.935382E-1,5.047541E-1,7.3766756E-1,0E0,2.1874562E-1,3.960687E-1,4.122944E-1,2.7478456E-1,1.9164272E-1,1.6142365E-1,0E0,1.3317515E0,5.9189755E-2,3.216075E-1,9.927792E-1,1.0679849E-1,3.9657497E-1,0E0,0E0,6.776005E-2,0E0,2.579006E-1,3.4533232E-1,1.5111351E-1,0E0,1.911229E-1,2.5934583E-1,1.0152686E-1,0E0,5.6332517E-1,0E0,1.8594256E-1,2.3570344E-2,2.088063E-1,6.800748E-1,0E0,5.0076973E-1,0E0,3.54383E-1,2.4887109E-1,0E0,0E0,0E0,1.8247515E-1,0E0,6.777193E-1,0E0,1.5688086E-1,0E0,0E0,0E0,0E0,1.5665792E-1,0E0,0E0,0E0,0E0,1.8194748E-1,0E0,2.2834864E-2,2.1325691E-1,4.3642485E-1,4.087709E-1,2.4686599E-1,0E0,4.643309E-1,0E0,0E0,2.2975019E-1,0E0,2.8401268E-1,0E0,0E0,0E0,0E0,0E0,0E0,0E0,0E0,0E0,0E0,0E0,0E0,0E0,0E0,0E0,0E0,0E0,0E0,0E0,0E0,0E0,0E0,0E0,0E0,0E0,0E0],"parents":[2147483647,0,0,1,1,2,2,3,3,4,4,5,5,6,6,7,7,8,8,9,9,10,10,11,11,12,12,14,14,15,15,16,16,17,17,18,18,19,19,21,21,22,22,23,23,24,24,25,25,26,26,29,29,31,31,32,32,33,33,35,35,36,36,37,37,39,39,41,41,42,42,43,43,44,44,46,46,48,48,49,49,53,53,55,55,57,57,62,62,67,67,69,69,70,70,71,71,72,72,73,73,75,75,78,78,80,80],"right_children":[2,4,6,8,10,12,14,16,18,20,22,24,26,-1,28,30,32,34,36,38,-1,40,42,44,46,48,50,-1,-1,52,-1,54,56,58,-1,60,62,64,-1,66,-1,68,70,72,74,-1,76,-1,78,80,-1,-1,-1,82,-1,84,-1,86,-1,-1,-1,-1,88,-1,-1,-1,-1,90,-1,92,94,96,98,100,-1,102,-1,-1,104,-1,106,-1,-1,-1,-1,-1,-1,-1,-1,-1,-1,-1,-1,-1,-1,-1,-1,-1,-1,-1,-1,-1,-1,-1,-1,-1,-1],"split_conditions":[6.3966036E-2,7.175E-1,1.9768856E-1,3.511E-1,3E-1,1.8541889E-1,7.250926E-2,6.47E-2,1.4E0,9.825E-1,5E-1,1.459034E-1,5E-1,-0E0,3.4023026E-1,2E0,1E0,3.6682543E-1,1.7E0,5.7584558E-2,-0E0,9.673E-1,8E-1,1.2006391E-1,4E-1,9.322E-1,3.693057E-2,4.6252534E-2,-0E0,6.08E-2,-0E0,2.7134383E-1,2.585E-1,1.272224E-1,-0E0,1.6E0,1.8E0,2.7995214E-1,-0E0,7.391E-1,-0E0,6.082725E-2,9.085E-1,7.953E-1,3.8632482E-1,-0E0,5.813E-1,-0E0,2.0447688E-1,1.982E-1,-0E0,-3.867982E-2,-0E0,5.5743773E-2,-0E0,1.233E-1,-0E0,3.848314E-2,-0E0,-0E0,2.7007472E-2,-3.4493707E-2,1.9E0,-4.253588E-2,-0E0,-0E0,7.820793E-2,8.02E-1,-0E0,7.531E-1,2.4961638E-1,2.059E-1,4E-1,2.785E-1,-0E0,3.698E-1,-0E0,-0E0,3E-1,-0E0,6.663E-1,1.8815026E-2,-0E0,-0E0,-3.9622206E-2,-2.435698E-2,-0E0,1.5959866E-2,-9.64417E-3,-0E0,-3.356061E-2,-0E0,-8.110674E-3,2.4334708E-2,-0E0,-0E0,2.2085307E-2,-0E0,-4.383934E-2,-0E0,-5.5612747E-2,-0E0,8.77775E-2,-0E0,5.9760723E-2,-5.320048E-2,-0E0],"split_indices":[6,7,2,7,0,6,6,7,0,7,0,6,0,0,6,0,0,5,0,6,0,7,0,6,0,7,3,0,0,7,0,5,7,4,0,0,0,5,0,7,0,2,7,7,5,0,7,0,6,7,0,0,0,6,0,7,0,6,0,0,0,0,0,0,0,0,0,7,0,7,5,7,0,7,0,7,0,0,0,0,7,0,0,0,0,0,0,0,0,0,0,0,0,0,0,0,0,0,0,0,0,0,0,0,0,0,0],"split_type":[0,0,0,0,0,0,0,0,0,0,0,0,0,0,0,0,0,0,0,0,0,0,0,0,0,0,0,0,0,0,0,0,0,0,0,0,0,0,0,0,0,0,0,0,0,0,0,0,0,0,0,0,0,0,0,0,0,0,0,0,0,0,0,0,0,0,0,0,0,0,0,0,0,0,0,0,0,0,0,0,0,0,0,0,0,0,0,0,0,0,0,0,0,0,0,0,0,0,0,0,0,0,0,0,0,0,0],"sum_hessian":[2.2669382E3,1.9752466E3,2.916915E2,1.8190331E3,1.5621358E2,2.7113928E2,2.0552235E1,3.772616E2,1.4417715E3,1.7231098E1,1.3898248E2,1.956709E2,7.546837E1,1.5965115E0,1.8955723E1,6.687543E1,3.1038617E2,1.2400891E3,2.0168231E2,1.50033655E1,2.2277334E0,3.9643257E1,9.9339226E1,1.646119E2,3.1059006E1,1.834078E1,5.712759E1,1.7513435E1,1.4422874E0,6.1165104E1,5.7103252E0,1.844742E2,1.2591197E2,1.2216721E3,1.8417006E1,9.824014E1,1.0344217E2,1.4002263E1,1.0011023E0,3.3512234E1,6.1310253E0,3.8251526E1,6.10877E1,1.3225078E2,3.236112E1,3.7850623E0,2.7273943E1,2.044593E0,1.6296186E1,5.459083E1,2.5367584E0,5.671168E1,4.4534254E0,1.7957043E2,4.903752E0,9.859294E1,2.7319035E1,1.2206333E3,1.0388745E0,7.277528E1,2.5464857E1,2.1668354E1,8.177382E1,1.2984714E1,1.0175498E0,1.8936256E0,3.1618607E1,3.546535E1,2.7861748E0,2.9929104E1,3.1158598E1,1.1604222E2,1.620856E1,3.0416489E1,1.9446298E0,2.3132921E1,4.141021E0,2.2528863E0,1.4043301E1,1.320966E0,5.3269863E1,1.7751686E2,2.0535796E0,3.9669144E1,5.8923798E1,1.1494655E3,7.116785E1,2.5102999E1,5.667082E1,8.338841E0,2.7126509E1,5.687951E0,2.4241152E1,2.8993322E1,2.1652753E0,4.5516562E0,1.1149056E2,3.9227648E0,1.2285795E1,1.083657E0,2.9332832E1,1.3465849E0,2.1786337E1,3.6314077E0,1.0411893E1,4.875961E1,4.510253E0],"tree_param":{"num_deleted":"0","num_feature":"8","num_nodes":"107","size_leaf_vector":"1"}},{"base_weights":[-3.0805614E-2,-3.4681845E-2,5.172895E-2,-3.0079568E-2,-7.634442E-2,-0E0,9.909503E-2,-3.4826506E-2,1.3667521E-1,-9.30444E-3,-0E0,1.8454702E-1,-0E0,-1.7614642E-2,-5.4155704E-2,2.0320866E-1,-0E0,-0E0,-7.939142E-3,-0E0,2.4618247E-1,-3.665809E-2,8.063144E-2,-1.2210343E-1,-1.3246205E-2,-0E0,7.1356885E-2,7.870148E-2,-0E0,-1.41351E-2,-1.7298193E-1,9.499184E-2,-0E0,-1.4698514E-1,-0E0,-0E0,-5.9828885E-2,-1.3571868E-2,8.978505E-3,-6.256335E-2,-0E0,3.246727E-2,-0E0,-4.7752343E-2,-0E0,1.1016349E-2,-2.0105498E-2,-4.097596E-3,5.0665546E-2,-6.087244E-2,-0E0],"categories":[],"categories_nodes":[],"categories_segments":[],"categories_sizes":[],"default_left":[0,0,0,0,0,0,0,1,0,0,0,1,0,1,0,0,0,0,0,0,0,1,0,0,0,0,0,0,0,0,0,0,0,0,0,0,0,0,0,0,0,0,0,0,0,0,0,0,0,0,0],"id":19,"left_children":[1,3,5,7,-1,9,11,13,15,17,-1,19,-1,21,23,25,-1,-1,-1,-1,27,29,31,33,35,-1,-1,-1,-1,37,39,41,-1,43,45,47,49,-1,-1,-1,-1,-1,-1,-1,-1,-1,-1,-1,-1,-1,-1],"loss_changes":[6.464665E-1,7.5827384E-1,2.1461082E-1,1.2607877E0,0E0,1.2694782E-3,4.872711E-1,3.557465E-1,5.4706514E-1,7.7148164E-3,0E0,4.1954064E-1,0E0,2.221861E0,1.7608042E0,3.2650423E-1,0E0,0E0,0E0,0E0,5.7727575E-2,2.52105E0,3.987677E-1,7.187333E-1,4.6566862E-1,0E0,0E0,0E0,0E0,1.4703689E0,1.0377882E0,3.988464E-1,0E0,7.620826E-1,1.9929746E-1,1.2982148E0,9.745522E-1,0E0,0E0,0E0,0E0,0E0,0E0,0E0,0E0,0E0,0E0,0E0,0E0,0E0,0E0],"parents":[2147483647,0,0,1,1,2,2,3,3,5,5,6,6,7,7,8,8,9,9,11,11,13,13,14,14,15,15,20,20,21,21,22,22,23,23,24,24,29,29,30,30,31,31,33,33,34,34,35,35,36,36],"right_children":[2,4,6,8,-1,10,12,14,16,18,-1,20,-1,22,24,26,-1,-1,-1,-1,28,30,32,34,36,-1,-1,-1,-1,38,40,42,-1,44,46,48,50,-1,-1,-1,-1,-1,-1,-1,-1,-1,-1,-1,-1,-1,-1],"split_conditions":[1.8248175E-1,4.878632E-1,8.253E-1,3.6682543E-1,-7.634442E-2,1E0,9E-1,9E-1,1.2E0,4.9168694E-1,-0E0,8.475E-1,-0E0,8E-1,1.1E0,3.627E-1,-0E0,-0E0,-7.939142E-3,-0E0,7.1452206E-1,7E-1,2.7168426E-1,3.1462952E-2,1.7E0,-0E0,7.1356885E-2,7.870148E-2,-0E0,6E-1,7.7744216E-2,1.6533522E-1,-0E0,2.573371E-1,7.599135E-2,1.6E0,1.8E0,-1.3571868E-2,8.978505E-3,-6.256335E-2,-0E0,3.246727E-2,-0E0,-4.7752343E-2,-0E0,1.1016349E-2,-2.0105498E-2,-4.097596E-3,5.0665546E-2,-6.087244E-2,-0E0],"split_indices":[2,5,7,5,0,0,0,0,0,2,0,7,0,0,0,7,0,0,0,0,1,0,5,6,0,0,0,0,0,0,6,6,0,5,6,0,0,0,0,0,0,0,0,0,0,0,0,0,0,0,0],"split_type":[0,0,0,0,0,0,0,0,0,0,0,0,0,0,0,0,0,0,0,0,0,0,0,0,0,0,0,0,0,0,0,0,0,0,0,0,0,0,0,0,0,0,0,0,0,0,0,0,0,0,0],"sum_hessian":[2.2408638E3,2.2020823E3,3.87815E1,2.1869956E3,1.5086526E1,1.1451274E1,2.7330227E1,2.1610015E3,2.5994137E1,7.663744E0,3.7875304E0,1.7205696E1,1.0124532E1,1.2870188E3,8.739827E2,2.1173733E1,4.8204045E0,1.8351406E0,5.8286033E0,3.6807904E0,1.3524905E1,1.1243601E3,1.6265866E2,2.7729755E2,5.966852E2,1.8389965E0,1.9334736E1,1.1913551E1,1.6113538E0,1.0030436E3,1.2131649E2,1.5943211E2,3.2265575E0,2.2245987E2,5.4837673E1,4.4400003E2,1.5268518E2,6.5439264E2,3.4865094E2,1.0514714E2,1.6169352E1,1.5527457E2,4.157545E0,2.1874055E2,3.7193186E0,2.7961338E1,2.6876337E1,4.0819983E2,3.5800205E1,3.0553572E1,1.221316E2],"tree_param":{"num_deleted":"0","num_feature":"8","num_nodes":"51","size_leaf_vector":"1"}},{"base_weights":[-2.3087423E-2,-2.8948875E-2,-0E0,-0E0,-3.6050666E-2,-0E0,5.9103347E-2,-2.6097996E-2,-0E0,-1.2026699E-1,-2.5103107E-2,4.114201E-2,-1.2162923E-2,-0E0,6.55366E-2,3.0069752E-2,-7.562413E-4,-1.7800938E-1,-0E0,3.7580278E-2,-3.8425807E-2,1.12076975E-1,-0E0,-5.29658E-2,-0E0,-0E0,9.230906E-2,-0E0,-6.0585134E-2,-0E0,-5.6591745E-2,1.7288899E-2,-0E0,8.7279335E-2,-7.205974E-2,-1.5203625E-1,-2.2355549E-2,1.8227763E-1,-0E0,-6.39056E-2,-0E0,1.0551011E-1,-0E0,3.900592E-2,-4.9107283E-2,-0E0,5.4329734E-2,-0E0,3.6255356E-3,-1.726128E-1,-0E0,4.1194912E-2,-0E0,-0E0,9.283379E-2,-0E0,-3.109461E-2,-0E0,-1.6884142E-1,