{"learner":{"attributes":{"best_iteration":"35","best_score":"0.08528009754146738"},"feature_names":["loeuf","clin_ot","hgmd","ot_genetics_portal","expression_atlas","impc","europepmc","mantis"],"feature_types":["float","float","float","float","float","float","float","float"],"gradient_booster":{"model":{"gbtree_model_param":{"num_parallel_tree":"1","num_trees":"51"},"iteration_indptr":[0,1,2,3,4,5,6,7,8,9,10,11,12,13,14,15,16,17,18,19,20,21,22,23,24,25,26,27,28,29,30,31,32,33,34,35,36,37,38,39,40,41,42,43,44,45,46,47,48,49,50,51],"tree_info":[0,0,0,0,0,0,0,0,0,0,0,0,0,0,0,0,0,0,0,0,0,0,0,0,0,0,0,0,0,0,0,0,0,0,0,0,0,0,0,0,0,0,0,0,0,0,0,0,0,0,0],"trees":[{"base_weights":[-1.0525848E0,-1.0725187E0,-8.75253E-1,-1.0735513E0,-3.4008121E-1,-8.8019735E-1,1.5129726E-2,-1.0736107E0,-0E0,-4.8002744E-1,-0E0,-8.9062566E-1,-3.5704005E-1,-0E0,8.991872E-2,-3.220953E-1,-0E0,-5.157504E-1,-0E0,-8.9117765E-1,-0E0,-5.822505E-1,-0E0,-0E0,1.14159726E-1,-1.601453E-1,-0E0,-2.6776522E-1,-0E0,-0E0,-6.114299E-1,1.9690086E-1,-1.3928961E-2,-0E0,4.253053E-2,-0E0,-1.8613936E-1,1.2296499E-1,-0E0,-2.9025039E-2,-0E0,-0E0,-1.0504232E-2],"categories":[],"categories_nodes":[],"categories_segments":[],"categories_sizes":[],"default_left":[0,1,0,0,1,0,0,0,0,0,0,0,0,0,1,0,0,0,0,0,0,0,0,0,0,0,0,0,0,0,0,0,0,0,0,0,0,0,0,1,0,0,0],"id":0,"left_children":[1,3,5,7,9,11,13,15,-1,17,-1,19,21,-1,23,-1,-1,25,-1,27,-1,29,31,-1,33,-1,-1,-1,-1,-1,35,37,39,-1,-1,-1,-1,-1,-1,41,-1,-1,-1],"loss_changes":[7.44043E1,7.783203E0,1.6113647E1,1.1835938E0,2.3904371E0,5.9799805E0,1.1496664E-1,7.4609375E-1,0E0,9.359884E-1,0E0,1.3381348E0,8.000757E0,0E0,5.8498353E-2,0E0,0E0,2.7548313E-1,0E0,8.967285E-1,0E0,8.4646034E-1,7.729639E-1,0E0,5.0428167E-2,0E0,0E0,0E0,0E0,0E0,1.2372017E-1,1.930926E0,9.1707455E-3,0E0,0E0,0E0,0E0,0E0,0E0,4.128387E-3,0E0,0E0,0E0],"parents":[2147483647,0,0,1,1,2,2,3,3,4,4,5,5,6,6,7,7,9,9,11,11,12,12,14,14,17,17,19,19,21,21,22,22,24,24,30,30,31,31,32,32,39,39],"right_children":[2,4,6,8,10,12,14,16,-1,18,-1,20,22,-1,24,-1,-1,26,-1,28,-1,30,32,-1,34,-1,-1,-1,-1,-1,36,38,40,-1,-1,-1,-1,-1,-1,42,-1,-1,-1],"split_conditions":[1.21586155E-2,9.701E-1,8.4482986E-1,5.1965636E-1,8E-1,3.521591E-1,3E-1,8.4440744E-1,-0E0,4.714112E-1,-0E0,1.9159025E-1,8.4097095E-2,-0E0,3.615E-1,-3.220953E-1,-0E0,8E-1,-0E0,3.6261937E-1,-0E0,3.5638422E-1,5.0356656E-1,-0E0,7.397673E-2,-1.601453E-1,-0E0,-2.6776522E-1,-0E0,-0E0,1.881E-1,1.2E0,2.9533523E-1,-0E0,4.253053E-2,-0E0,-1.8613936E-1,1.2296499E-1,-0E0,3E-1,-0E0,-0E0,-1.0504232E-2],"split_indices":[6,7,2,3,0,5,0,2,0,2,0,4,6,0,7,0,0,0,0,3,0,5,5,0,6,0,0,0,0,0,7,0,6,0,0,0,0,0,0,0,0,0,0],"split_type":[0,0,0,0,0,0,0,0,0,0,0,0,0,0,0,0,0,0,0,0,0,0,0,0,0,0,0,0,0,0,0,0,0,0,0,0,0,0,0,0,0,0,0],"sum_hessian":[2.5655035E4,2.3005463E4,2.6495728E3,2.2963E4,4.246145E1,2.6406052E3,8.967686E0,2.2961488E4,1.5126216E0,2.8199589E1,1.4261861E1,2.5748062E3,6.579904E1,1.2965329E0,7.6711526E0,2.2960408E4,1.080444E0,2.70111E1,1.1884884E0,2.5732935E3,1.5126216E0,4.397407E1,2.1824968E1,1.080444E0,6.5907083E0,2.5714567E1,1.2965329E0,2.5664868E3,6.806797E0,2.485021E0,4.148905E1,1.2857284E1,8.967686E0,2.2689323E0,4.321776E0,1.080444E0,4.0408607E1,9.075729E0,3.781554E0,7.563108E0,1.4045773E0,1.1884884E0,6.3746195E0],"tree_param":{"num_deleted":"0","num_feature":"8","num_nodes":"43","size_leaf_vector":"1"}},{"base_weights":[-9.899705E-1,-1.014348E0,-7.834658E-1,-1.0161402E0,-4.3591067E-1,-7.8963745E-1,-0E0,-1.0162803E0,-0E0,-5.593462E-1,-0E0,-6.7786044E-1,-8.617211E-1,-0E0,5.1105108E-2,-1.0163519E0,-0E0,-1.7827012E-1,-0E0,-7.378327E-1,-4.20329E-1,-8.644611E-1,-0E0,-4.8562745E-3,-0E0,-3.049202E-1,-0E0,-7.4170935E-1,-0E0,-4.5013165E-1,-0E0,-8.6532414E-1,-0E0,-7.436057E-1,-0E0,-4.7537124E-1,-0E0,-2.599904E-1,-0E0,-2.2419578E-1,-0E0,-0E0,-1.4717393E-1],"categories":[],"categories_nodes":[],"categories_segments":[],"categories_sizes":[],"default_left":[0,1,0,0,1,1,0,0,0,0,0,0,0,0,0,0,0,0,0,0,1,0,0,0,0,0,0,0,0,0,0,0,0,0,0,0,0,0,0,0,0,0,0],"id":1,"left_children":[1,3,5,7,9,11,13,15,-1,17,-1,19,21,23,-1,25,-1,-1,-1,27,29,31,-1,-1,-1,-1,-1,33,-1,35,-1,37,-1,39,-1,41,-1,-1,-1,-1,-1,-1,-1],"loss_changes":[8.632031E1,8.169922E0,1.3921509E1,1.3417969E0,4.700797E0,5.5897217E0,2.899535E-1,1.03125E0,0E0,1.8119297E0,0E0,6.023651E0,2.5673218E0,3.4621346E-3,0E0,6.464844E-1,0E0,0E0,0E0,2.9916077E0,3.7772331E0,9.1412354E-1,0E0,0E0,0E0,0E0,0E0,1.2995605E0,0E0,2.6988869E0,0E0,4.8962402E-1,0E0,1.1891785E0,0E0,2.073162E0,0E0,0E0,0E0,0E0,0E0,0E0,0E0],"parents":[2147483647,0,0,1,1,2,2,3,3,4,4,5,5,6,6,7,7,9,9,11,11,12,12,13,13,15,15,19,19,20,20,21,21,27,27,29,29,31,31,33,33,35,35],"right_children":[2,4,6,8,10,12,14,16,-1,18,-1,20,22,24,-1,26,-1,-1,-1,28,30,32,-1,-1,-1,-1,-1,34,-1,36,-1,38,-1,40,-1,42,-1,-1,-1,-1,-1,-1,-1],"split_conditions":[1.21586155E-2,9.483E-1,6.817425E-1,1.5452196E-1,1E0,7E-1,3.5880232E-1,5.1965636E-1,-0E0,4.714112E-1,-0E0,9.154393E-2,9.9002294E-2,8.1441516E-1,5.1105108E-2,8.4440744E-1,-0E0,-1.7827012E-1,-0E0,8.558942E-1,9.632E-1,5.2969867E-1,-0E0,-4.8562745E-3,-0E0,-3.049202E-1,-0E0,9.249707E-2,-0E0,3.521591E-1,-0E0,4.167829E-1,-0E0,3.659334E-1,-0E0,9.379865E-2,-0E0,-2.599904E-1,-0E0,-2.2419578E-1,-0E0,-0E0,-1.4717393E-1],"split_indices":[6,7,1,4,0,0,5,3,0,2,0,6,4,2,0,2,0,0,0,2,7,1,0,0,0,0,0,4,0,5,0,3,0,1,0,6,0,0,0,0,0,0,0],"split_type":[0,0,0,0,0,0,0,0,0,0,0,0,0,0,0,0,0,0,0,0,0,0,0,0,0,0,0,0,0,0,0,0,0,0,0,0,0,0,0,0,0,0,0],"sum_hessian":[2.0030244E4,1.786921E4,2.161032E3,1.7800121E4,6.909044E1,2.149602E3,1.1429998E1,1.7796514E4,3.6072216E0,5.4237797E1,1.4852639E1,8.98511E2,1.2510911E3,8.438232E0,2.9917665E0,1.7795002E4,1.5126216E0,5.238962E1,1.8481771E0,7.02457E2,1.9605402E2,1.2465636E3,4.5274134E0,6.212352E0,2.2258804E0,1.779392E4,1.080444E0,7.0049817E2,1.958786E0,1.8869832E2,7.35569E0,1.2452853E3,1.2783647E0,6.9924457E2,1.2535996E0,1.8041216E2,8.286161E0,1.2421528E3,3.1324346E0,6.943725E2,4.872122E0,2.8256738E0,1.7758649E2],"tree_param":{"num_deleted":"0","num_feature":"8","num_nodes":"43","size_leaf_vector":"1"}},{"base_weights":[-9.3216777E-1,-9.6225554E-1,-6.9296646E-1,-9.644471E-1,-3.5443857E-1,-7.0624673E-1,-0E0,-9.6461433E-1,-0E0,-5.170761E-1,-0E0,-7.185463E-1,-1.5835565E-1,-1.18371256E-1,4.356911E-2,-9.6470124E-1,-0E0,-1.6305241E-1,-0E0,-6.022155E-1,-7.947134E-1,-3.3634707E-1,3.245197E-2,-0E0,-2.2182035E-1,-0E0,3.631294E-2,-2.8942803E-1,-0E0,-6.7615217E-1,-4.0113133E-1,-7.9775375E-1,-0E0,-0E0,-4.0926936E-1,2.1436554E-1,-0E0,-0E0,-2.627902E-1,-2.0485723E-1,-0E0,-4.2743224E-1,-0E0,-7.988122E-1,-0E0,-4.607503E-1,-0E0,-0E0,2.7215448E-1,-2.9450068E-1,-0E0,-0E0,-1.3335148E-1,-2.4062872E-1,-0E0,-0E0,-1.4074478E-1,9.1419645E-2,-0E0,-9.869281E-2,-0E0],"categories":[],"categories_nodes":[],"categories_segments":[],"categories_sizes":[],"default_left":[0,1,0,0,1,0,0,0,0,0,0,1,0,0,0,0,0,0,0,0,0,0,0,0,0,0,0,0,0,0,1,0,0,0,0,0,0,0,0,0,0,0,0,0,0,0,0,0,1,0,0,0,0,0,0,0,0,0,0,0,0],"id":2,"left_children":[1,3,5,7,9,11,13,15,-1,17,-1,19,21,23,25,27,-1,-1,-1,29,31,33,35,-1,37,-1,-1,-1,-1,39,41,43,-1,-1,45,47,-1,-1,49,-1,-1,51,-1,53,-1,55,-1,-1,57,59,-1,-1,-1,-1,-1,-1,-1,-1,-1,-1,-1],"loss_changes":[9.960156E1,9.466797E0,1.3838501E1,1.0947266E0,3.9064436E0,6.6240845E0,5.529814E-1,9.033203E-1,0E0,9.4306374E-1,0E0,4.749939E0,3.5102239E0,1.0446087E0,1.8047403E-1,5.566406E-1,0E0,0E0,0E0,3.545868E0,8.800049E-1,1.9677219E0,7.2659975E-1,0E0,4.919144E-1,0E0,0E0,0E0,0E0,2.3692474E0,2.8088417E0,9.5806885E-1,0E0,0E0,1.4304161E0,3.1802356E-1,0E0,0E0,4.3490434E-1,0E0,0E0,2.3620682E0,0E0,7.3132324E-1,0E0,7.398987E-2,0E0,0E0,1.4753127E-1,2.2428226E-1,0E0,0E0,0E0,0E0,0E0,0E0,0E0,0E0,0E0,0E0,0E0],"parents":[2147483647,0,0,1,1,2,2,3,3,4,4,5,5,6,6,7,7,9,9,11,11,12,12,13,13,14,14,15,15,19,19,20,20,21,21,22,22,24,24,29,29,30,30,31,31,34,34,35,35,38,38,41,41,43,43,45,45,48,48,49,49],"right_children":[2,4,6,8,10,12,14,16,-1,18,-1,20,22,24,26,28,-1,-1,-1,30,32,34,36,-1,38,-1,-1,-1,-1,40,42,44,-1,-1,46,48,-1,-1,50,-1,-1,52,-1,54,-1,56,-1,-1,58,60,-1,-1,-1,-1,-1,-1,-1,-1,-1,-1,-1],"split_conditions":[1.21586155E-2,9.483E-1,6.082725E-2,1.5452196E-1,8E-1,3.521591E-1,8.4482986E-1,5.1965636E-1,-0E0,4.714112E-1,-0E0,7E-1,1.1550685E-1,3.7003243E-1,3E-1,8.4440744E-1,-0E0,-1.6305241E-1,-0E0,6.889883E-2,6.7039125E-2,3.5638422E-1,5.8732194E-1,-0E0,2.995E-1,-0E0,3.631294E-2,-2.8942803E-1,-0E0,4.021246E-3,9.174E-1,1.9159025E-1,-0E0,-0E0,2.3533778E-1,3.6845165E-1,-0E0,-0E0,5.8026943E-2,-2.0485723E-1,-0E0,7.067195E-2,-0E0,1.0053115E-2,-0E0,2.428E-1,-0E0,-0E0,1.2E0,1.27297E-1,-0E0,-0E0,-1.3335148E-1,-2.4062872E-1,-0E0,-0E0,-1.4074478E-1,9.1419645E-2,-0E0,-9.869281E-2,-0E0],"split_indices":[6,7,2,4,0,5,2,3,0,2,0,0,6,2,0,2,0,0,0,6,3,5,5,0,7,0,0,0,0,1,7,4,0,0,1,5,0,0,4,0,0,6,0,1,0,7,0,0,0,6,0,0,0,0,0,0,0,0,0,0,0],"split_type":[0,0,0,0,0,0,0,0,0,0,0,0,0,0,0,0,0,0,0,0,0,0,0,0,0,0,0,0,0,0,0,0,0,0,0,0,0,0,0,0,0,0,0,0,0,0,0,0,0,0,0,0,0,0,0,0,0,0,0,0,0],"sum_hessian":[1.5630701E4,1.3846916E4,1.7837848E3,1.378488E4,6.20363E1,1.7448146E3,3.8970238E1,1.3781272E4,3.6072216E0,4.0048496E1,2.1987803E1,1.6954476E3,4.936699E1,3.0349249E1,8.62099E0,1.377976E4,1.5126216E0,3.877612E1,1.2723773E0,7.2149414E2,9.739534E2,3.6336376E1,1.303061E1,5.4833694E0,2.486588E1,1.2792711E0,7.3417187E0,1.377868E4,1.080444E0,4.9725537E2,2.2423875E2,9.678734E2,6.080039E0,2.3197753E0,3.40166E1,9.271002E0,3.7596085E0,2.038327E0,2.2827553E1,4.9248215E2,4.773242E0,2.120312E2,1.2207557E1,9.6679297E2,1.080444E0,3.2100853E1,1.9157473E0,1.8826364E0,7.3883653E0,2.1764416E1,1.063137E0,4.547367E0,2.0748384E2,9.599732E2,6.8197517E0,1.0513046E0,3.1049551E1,6.065126E0,1.3232393E0,1.8123888E1,3.6405277E0],"tree_param":{"num_deleted":"0","num_feature":"8","num_nodes":"61","size_leaf_vector":"1"}},{"base_weights":[-8.7415177E-1,-9.109909E-1,-6.03492E-1,-9.149542E-1,-4.279142E-1,-6.174439E-1,-0E0,-9.3297535E-1,-8.331869E-1,-5.662205E-1,-0E0,-4.9603778E-1,-7.0225096E-1,-7.493196E-2,2.9552212E-2,-9.33387E-1,-0E0,-2.502106E-1,-0E0,-1.7914194E-1,-0E0,-5.578068E-1,-2.3436229E-1,-7.090627E-1,-0E0,-0E0,-1.7325337E-1,-0E0,2.9624624E-2,-2.8004405E-1,-0E0,-5.6469536E-1,-0E0,-0E0,-3.3081988E-1,-7.101558E-1,-0E0,-0E0,-2.1188968E-1,-1.3611093E-1,-5.893657E-1,-0E0,5.13295E-2,-3.664496E-1,-0E0,-7.13316E-1,-0E0,-2.5386932E-1,-0E0,-5.904772E-2,-0E0,-1.8345961E-1,-3.6458336E-2,2.7220882E-2,-0E0,-1.15818314E-1,-0E0,-2.1508251E-1,-0E0,-8.243018E-2,-0E0],"categories":[],"categories_nodes":[],"categories_segments":[],"categories_sizes":[],"default_left":[0,1,0,1,1,1,0,0,0,0,0,0,0,0,0,0,0,0,0,0,0,0,0,0,0,0,0,0,0,0,0,0,0,1,0,0,0,0,1,0,1,0,1,0,0,0,0,0,0,0,0,0,0,0,0,0,0,0,0,0,0],"id":3,"left_children":[1,3,5,7,9,11,13,15,17,19,-1,21,23,25,27,29,-1,-1,-1,-1,-1,31,33,35,-1,-1,37,-1,-1,-1,-1,39,-1,41,43,45,-1,-1,47,49,51,-1,53,55,-1,57,-1,59,-1,-1,-1,-1,-1,-1,-1,-1,-1,-1,-1,-1,-1],"loss_changes":[1.1078613E2,1.1142578E1,1.1258362E1,1.4277344E0,8.970064E0,6.680969E0,2.1866153E-1,2.1123047E0,2.1846924E0,2.0870686E0,0E0,5.6571045E0,3.3442688E0,7.282378E-1,1.2301289E-1,6.1328125E-1,0E0,0E0,0E0,0E0,0E0,1.3800507E0,4.9978733E0,6.63147E-1,0E0,0E0,3.713451E-1,0E0,0E0,0E0,0E0,1.0842285E0,0E0,7.461732E-2,2.1658278E0,6.782837E-1,0E0,0E0,3.9122367E-1,8.178322E-1,5.6863403E-1,0E0,1.2460763E-1,1.4537115E0,0E0,6.9903564E-1,0E0,2.1264577E-1,0E0,0E0,0E0,0E0,0E0,0E0,0E0,0E0,0E0,0E0,0E0,0E0,0E0],"parents":[2147483647,0,0,1,1,2,2,3,3,4,4,5,5,6,6,7,7,8,8,9,9,11,11,12,12,13,13,14,14,15,15,21,21,22,22,23,23,26,26,31,31,33,33,34,34,35,35,38,38,39,39,40,40,42,42,43,43,45,45,47,47],"right_children":[2,4,6,8,10,12,14,16,18,20,-1,22,24,26,28,30,-1,-1,-1,-1,-1,32,34,36,-1,-1,38,-1,-1,-1,-1,40,-1,42,44,46,-1,-1,48,50,52,-1,54,56,-1,58,-1,60,-1,-1,-1,-1,-1,-1,-1,-1,-1,-1,-1,-1,-1],"split_conditions":[1.21586155E-2,8.953E-1,6.082725E-2,5.56E-2,1.1E0,7E-1,8.519319E-1,2.2765137E-1,1.624999E-1,2.2810219E-1,-0E0,9.7281516E-2,1.09467255E-2,3.7003243E-1,3E-1,7.9638076E-1,-0E0,-2.502106E-1,-0E0,-1.7914194E-1,-0E0,4.021246E-3,1.1795198E-1,1.9159025E-1,-0E0,-0E0,2.995E-1,-0E0,2.9624624E-2,-2.8004405E-1,-0E0,3.395E-1,-0E0,3E-1,3.5638422E-1,6.7039125E-2,-0E0,-0E0,9.833E-1,3.118E-1,8.953E-1,-0E0,6.51E-1,3.0847693E-2,-0E0,4.7640496E-1,-0E0,4.497785E-2,-0E0,-5.904772E-2,-0E0,-1.8345961E-1,-3.6458336E-2,2.7220882E-2,-0E0,-1.15818314E-1,-0E0,-2.1508251E-1,-0E0,-8.243018E-2,-0E0],"split_indices":[6,7,2,7,0,0,2,3,4,2,0,6,1,2,0,2,0,0,0,0,0,1,6,4,0,0,7,0,0,0,0,7,0,0,5,3,0,0,7,7,7,0,7,3,0,5,0,4,0,0,0,0,0,0,0,0,0,0,0,0,0],"split_type":[0,0,0,0,0,0,0,0,0,0,0,0,0,0,0,0,0,0,0,0,0,0,0,0,0,0,0,0,0,0,0,0,0,0,0,0,0,0,0,0,0,0,0,0,0,0,0,0,0,0,0,0,0,0,0,0,0,0,0,0,0],"sum_hessian":[1.2249468E4,1.0751113E4,1.4983551E3,1.0647153E4,1.03959946E2,1.4606241E3,3.7730915E1,8.614524E3,2.0326284E3,8.4352104E1,1.9607843E1,6.446588E2,8.159654E2,2.9588522E1,8.142393E0,8.609349E3,5.1763706E0,2.0316217E3,1.0066664E0,8.098988E1,3.3622212E0,4.996792E2,1.4497963E2,8.068809E2,9.084419E0,5.4833694E0,2.4105152E1,1.1712267E0,6.9711666E0,8.608333E3,1.0155177E0,4.917207E2,7.958501E0,3.0038477E1,1.1494115E2,8.0569244E2,1.1884884E0,2.038327E0,2.2066826E1,4.027844E1,4.5144226E2,8.717673E0,2.1320805E1,1.0850992E2,6.4312296E0,7.998404E2,5.8520827E0,1.9318903E1,2.7479224E0,3.6719807E1,3.5586333E0,4.1876364E2,3.267862E1,1.7198132E1,4.1226716E0,1.0682608E2,1.6838373E0,7.9306036E2,6.7799892E0,1.8284296E1,1.034607E0],"tree_param":{"num_deleted":"0","num_feature":"8","num_nodes":"61","size_leaf_vector":"1"}},{"base_weights":[-8.1257206E-1,-8.568903E-1,-5.159036E-1,-8.616961E-1,-3.4328076E-1,-5.331484E-1,-0E0,-8.8372076E-1,-7.643842E-1,-4.8118833E-1,-0E0,-3.343038E-1,-5.8242E-1,-2.0436011E-1,1.2498487E-1,-8.842131E-1,-0E0,-7.6540476E-1,-0E0,-1.5393928E-1,-0E0,-4.1369587E-1,-9.8736785E-2,-5.913718E-1,-0E0,-0E0,-2.4869879E-1,2.76929E-1,-0E0,-2.652977E-1,-0E0,-2.2987553E-1,-0E0,-0E0,-4.4866753E-1,-2.931478E-1,-0E0,-5.944073E-1,-0E0,-0E0,-8.166431E-2,3.5365668E-1,-0E0,-4.5522895E-1,-0E0,-3.522695E-1,-0E0,-2.5697805E-3,4.9031943E-2,-1.7856024E-1,-0E0,4.0443772E-1,-0E0,-1.3861051E-1,-0E0,-0E0,-1.1175676E-1,-1.36160925E-2,-0E0,3.414036E-2,-0E0,-0E0,1.3155241E-1],"categories":[],"categories_nodes":[],"categories_segments":[],"categories_sizes":[],"default_left":[0,1,0,1,1,0,0,0,0,0,0,0,0,0,0,0,0,0,0,0,0,0,0,0,0,0,0,1,0,0,0,0,0,0,0,1,1,0,0,0,0,1,0,0,0,0,0,0,0,0,0,1,0,0,0,0,0,0,0,0,0,0,0],"id":4,"left_children":[1,3,5,7,9,11,13,15,17,19,-1,21,23,25,27,29,-1,31,-1,-1,-1,33,35,37,-1,-1,39,41,-1,-1,-1,-1,-1,-1,43,45,47,49,-1,-1,-1,51,-1,53,-1,55,-1,57,59,-1,-1,61,-1,-1,-1,-1,-1,-1,-1,-1,-1,-1,-1],"loss_changes":[1.1743115E2,1.2649902E1,9.768524E0,4.8461914E0,6.7380047E0,6.2385864E0,1.8357102E0,1.7763672E0,1.9517822E0,1.6423569E0,0E0,2.4551582E0,6.678192E0,5.2460515E-1,1.0701939E0,5.371094E-1,0E0,5.250244E-1,0E0,0E0,0E0,2.5522308E0,2.1501513E0,5.590515E-1,0E0,0E0,1.1909139E-1,7.040436E-1,0E0,0E0,0E0,0E0,0E0,0E0,8.416672E-1,7.744615E-1,5.6448385E-2,4.7473145E-1,0E0,0E0,0E0,3.1506062E-1,0E0,7.598572E-1,0E0,9.050965E-2,0E0,9.676776E-2,2.2576971E-1,0E0,0E0,1.1059022E-1,0E0,0E0,0E0,0E0,0E0,0E0,0E0,0E0,0E0,0E0,0E0],"parents":[2147483647,0,0,1,1,2,2,3,3,4,4,5,5,6,6,7,7,8,8,9,9,11,11,12,12,13,13,14,14,15,15,17,17,21,21,22,22,23,23,26,26,27,27,34,34,35,35,36,36,37,37,41,41,43,43,45,45,47,47,48,48,51,51],"right_children":[2,4,6,8,10,12,14,16,18,20,-1,22,24,26,28,30,-1,32,-1,-1,-1,34,36,38,-1,-1,40,42,-1,-1,-1,-1,-1,-1,44,46,48,50,-1,-1,-1,52,-1,54,-1,56,-1,58,60,-1,-1,62,-1,-1,-1,-1,-1,-1,-1,-1,-1,-1,-1],"split_conditions":[1.21586155E-2,8.953E-1,3.521591E-1,5.56E-2,1.1E0,5E-1,8.4097095E-2,2.2765137E-1,1.624999E-1,2.2810219E-1,-0E0,6.716791E-2,6.5389293E-1,3E-1,5.0356656E-1,7.9638076E-1,-0E0,5.356177E-1,-0E0,-1.5393928E-1,-0E0,3.357E-1,3E-1,3.850362E-2,-0E0,-0E0,1.8237924E-2,1.2E0,-0E0,-2.652977E-1,-0E0,-2.2987553E-1,-0E0,-0E0,7.325293E-2,7.616E-1,2.401E-1,1.9159025E-1,-0E0,-0E0,-8.166431E-2,8.421E-1,-0E0,4.021246E-1,-0E0,7.734231E-2,-0E0,3.554127E-1,6.082725E-2,-1.7856024E-1,-0E0,3E-1,-0E0,-1.3861051E-1,-0E0,-0E0,-1.1175676E-1,-1.36160925E-2,-0E0,3.414036E-2,-0E0,-0E0,1.3155241E-1],"split_indices":[6,7,5,7,0,0,6,3,4,2,0,6,2,0,5,2,0,2,0,0,0,7,0,3,0,0,6,0,0,0,0,0,0,0,4,7,7,4,0,0,0,7,0,1,0,6,0,6,2,0,0,0,0,0,0,0,0,0,0,0,0,0,0],"split_type":[0,0,0,0,0,0,0,0,0,0,0,0,0,0,0,0,0,0,0,0,0,0,0,0,0,0,0,0,0,0,0,0,0,0,0,0,0,0,0,0,0,0,0,0,0,0,0,0,0,0,0,0,0,0,0,0,0,0,0,0,0,0,0],"sum_hessian":[9.682059E3,8.397512E3,1.2845477E3,8.30532E3,9.2190796E1,1.2367142E3,4.7833416E1,6.68447E3,1.6208503E3,7.2582954E1,1.9607843E1,2.7656354E2,9.6015076E2,2.6272215E1,2.1561203E1,6.679294E3,5.1763706E0,1.6198436E3,1.0066664E0,6.922073E1,3.3622212E0,1.8701585E2,8.9547676E1,9.501881E2,9.962665E0,2.3244188E0,2.3947796E1,1.2772608E1,8.788594E0,6.6782783E3,1.0155177E0,1.6171434E3,2.7002592E0,1.6388054E1,1.7062779E2,2.8973322E1,6.0574352E1,9.420189E2,8.169204E0,3.5088181E0,2.0438976E1,1.0752811E1,2.0197964E0,1.6960568E2,1.022106E0,2.4152657E1,4.8206654E0,4.4235344E1,1.6339008E1,9.408304E2,1.1884884E0,8.500769E0,2.2520428E0,1.6800046E2,1.6052296E0,2.643072E0,2.1509584E1,4.0139412E1,4.0959344E0,1.4765584E1,1.5734246E0,1.7399975E0,6.7607713E0],"tree_param":{"num_deleted":"0","num_feature":"8","num_nodes":"63","size_leaf_vector":"1"}},{"base_weights":[-7.4532217E-1,-7.9742527E-1,-4.3048552E-1,-8.295514E-1,-6.692027E-1,-5.106376E-1,-2.5983378E-1,-8.301266E-1,-0E0,-6.802207E-1,-0E0,-5.196411E-1,-0E0,-3.0146545E-1,5.5666277E-3,-8.3025986E-1,-0E0,-6.820982E-1,-0E0,-1.482708E-2,-0E0,-5.2581185E-1,-0E0,3.3993375E-2,-6.218306E-2,-1.6330285E-1,-4.6565136E-1,9.002625E-2,-0E0,-2.4911013E-1,-0E0,-6.8317395E-1,-0E0,-5.278499E-1,-0E0,-0E0,-3.577776E-2,-1.9232225E-1,-0E0,-4.8648438E-1,-0E0,-0E0,1.7604546E-1,-2.0510319E-1,-0E0,-1.5919298E-1,-0E0,-0E0,-2.151005E-1,-5.000479E-1,-0E0,2.5604367E-1,-0E0,-6.752642E-2,-0E0,-1.5150572E-1,-0E0,-0E0,9.673533E-2],"categories":[],"categories_nodes":[],"categories_segments":[],"categories_sizes":[],"default_left":[0,1,0,0,0,0,0,0,0,0,0,0,0,1,0,0,0,0,0,0,0,0,0,0,0,1,0,0,0,0,0,0,0,0,0,0,0,0,0,0,0,0,1,0,0,0,0,0,0,0,0,1,0,0,0,0,0,0,0],"id":5,"left_children":[1,3,5,7,9,11,13,15,-1,17,19,21,23,25,27,29,-1,31,-1,-1,-1,33,-1,-1,35,37,39,41,-1,-1,-1,43,-1,45,-1,-1,-1,47,-1,49,-1,-1,51,-1,-1,-1,-1,-1,53,55,-1,57,-1,-1,-1,-1,-1,-1,-1],"loss_changes":[1.1860254E2,1.5924805E1,1.0667038E1,1.4353027E0,8.149475E0,3.447937E0,5.85701E0,4.584961E-1,0E0,2.769226E0,4.3131188E-2,2.5555878E0,1.9202419E-1,4.4430428E0,2.781628E-1,1.1010742E-1,0E0,2.576294E-1,0E0,0E0,0E0,1.1993256E0,0E0,0E0,1.436656E-1,1.7306976E0,1.9505978E0,6.956258E-1,0E0,0E0,0E0,2.4261475E-1,0E0,5.2957153E-1,0E0,0E0,0E0,1.4732714E0,0E0,1.1476746E0,0E0,0E0,9.1838336E-1,0E0,0E0,0E0,0E0,0E0,6.9875145E-1,4.0701675E-1,0E0,8.1140673E-1,0E0,0E0,0E0,0E0,0E0,0E0,0E0],"parents":[2147483647,0,0,1,1,2,2,3,3,4,4,5,5,6,6,7,7,9,9,10,10,11,11,12,12,13,13,14,14,15,15,17,17,21,21,24,24,25,25,26,26,27,27,31,31,33,33,37,37,39,39,42,42,48,48,49,49,51,51],"right_children":[2,4,6,8,10,12,14,16,-1,18,20,22,24,26,28,30,-1,32,-1,-1,-1,34,-1,-1,36,38,40,42,-1,-1,-1,44,-1,46,-1,-1,-1,48,-1,50,-1,-1,52,-1,-1,-1,-1,-1,54,56,-1,58,-1,-1,-1,-1,-1,-1,-1],"split_conditions":[1.21586155E-2,5.75E-2,6.889883E-2,2.2765137E-1,9.701E-1,4.021246E-3,2.7539265E-1,7.9638076E-1,-0E0,1.209691E-1,6E-1,4.714112E-1,2.1193143E-2,9E-1,5.0356656E-1,2.895297E-1,-0E0,5.356177E-1,-0E0,-1.482708E-2,-0E0,1.624999E-1,-0E0,3.3993375E-2,2.8148723E-1,9.174E-1,1.9768856E-1,7.599135E-2,-0E0,-2.4911013E-1,-0E0,4.4471171E-1,-0E0,4.7640496E-1,-0E0,-0E0,-3.577776E-2,7.29517E-2,-0E0,2E0,-0E0,-0E0,9.701E-1,-2.0510319E-1,-0E0,-1.5919298E-1,-0E0,-0E0,3.0847693E-2,4.0601903E-1,-0E0,3E-1,-0E0,-6.752642E-2,-0E0,-1.5150572E-1,-0E0,-0E0,9.673533E-2],"split_indices":[6,7,6,3,7,1,5,2,0,4,0,2,6,0,5,1,0,2,0,0,0,4,0,0,1,7,2,6,0,0,0,5,0,5,0,0,0,6,0,0,0,0,7,0,0,0,0,0,3,3,0,0,0,0,0,0,0,0,0],"split_type":[0,0,0,0,0,0,0,0,0,0,0,0,0,0,0,0,0,0,0,0,0,0,0,0,0,0,0,0,0,0,0,0,0,0,0,0,0,0,0,0,0,0,0,0,0,0,0,0,0,0,0,0,0,0,0,0,0,0,0],"sum_hessian":[7.7438467E3,6.621437E3,1.1224097E3,5.2330244E3,1.3884126E3,7.342842E2,3.8812555E2,5.227848E3,5.1763706E0,1.3611868E3,2.7225832E1,7.21588E2,1.2696196E1,3.5096082E2,3.7164734E1,5.2268325E3,1.0155177E0,1.3596174E3,1.5694337E0,1.0657232E1,1.65686E1,7.138306E2,7.75735E0,2.8963597E0,9.799836E0,2.1470335E2,1.3625745E2,2.748992E1,9.674813E0,5.2256406E3,1.1917924E0,1.3558689E3,3.7485092E0,7.1257965E2,1.251016E0,2.1313639E0,7.668472E0,1.9963655E2,1.5066795E1,1.3249251E2,3.764938E0,3.0251231E0,2.4464796E1,1.3543818E3,1.4870352E0,7.0690454E2,5.675109E0,9.604707E0,1.9003185E2,1.2961761E2,2.8748941E0,2.188328E1,2.581516E0,1.8672618E2,3.305671E0,1.2853717E2,1.080444E0,2.8678463E0,1.9015434E1],"tree_param":{"num_deleted":"0","num_feature":"8","num_nodes":"59","size_leaf_vector":"1"}},{"base_weights":[-6.718093E-1,-7.3115385E-1,-3.5018173E-1,-7.687525E-1,-5.87865E-1,-2.5611418E-1,-4.8087367E-1,-7.694038E-1,-0E0,-6.0644585E-1,-8.2605556E-2,-3.2820508E-1,-6.9485515E-2,-4.9468267E-1,-0E0,-7.695575E-1,-0E0,-6.084317E-1,-0E0,-2.7766845E-1,2.2526791E-2,-3.551185E-1,-0E0,-1.4450487E-1,-0E0,-5.016008E-1,-0E0,-2.3090269E-1,-0E0,-4.149861E-1,-6.491229E-1,-3.1564778E-1,-0E0,5.1759057E-2,-0E0,-0E0,-3.8762602E-1,-0E0,-9.079511E-2,-2.0751591E-1,3.277315E-2,8.798334E-2,-0E0,-5.103055E-1,-0E0,-1.2699248E-1,-5.472962E-1,-1.9673173E-1,-0E0,-9.6916564E-2,-0E0,-0E0,5.85359E-2,-5.331971E-2,-0E0,-3.913043E-1,-0E0,7.643422E-2,-0E0,-0E0,-5.1438224E-2,-2.2346577E-1,-0E0,6.891191E-2,-0E0,-0E0,-8.4975876E-2,-1.5404333E-1,-0E0,-0E0,-7.048384E-2,-1.6652606E-1,-0E0,2.311258E-2,-0E0,-0E0,-3.8385797E-2,-1.364221E-1,-5.690641E-2,-0E0,4.295805E-2,-7.101762E-2,-0E0,7.7784355E-3,-0E0,-0E0,-4.005937E-2],"categories":[],"categories_nodes":[],"categories_segments":[],"categories_sizes":[],"default_left":[0,1,1,0,0,0,0,0,0,0,1,1,1,1,0,0,0,0,0,0,0,0,0,1,0,0,0,0,0,0,0,0,0,0,0,0,0,0,0,0,0,1,0,0,0,0,0,0,0,0,0,0,0,0,0,0,0,0,0,0,0,0,0,0,0,0,0,0,0,0,0,0,0,0,0,0,0,0,0,0,0,0,0,0,0,0,0],"id":6,"left_children":[1,3,5,7,9,11,13,15,-1,17,19,21,23,25,-1,27,-1,29,-1,31,33,35,37,39,41,43,-1,-1,-1,45,47,49,-1,51,-1,53,55,57,59,61,-1,63,65,67,-1,69,71,-1,-1,-1,-1,-1,73,75,-1,77,-1,79,-1,-1,-1,81,-1,-1,-1,83,85,-1,-1,-1,-1,-1,-1,-1,-1,-1,-1,-1,-1,-1,-1,-1,-1,-1,-1,-1,-1],"loss_changes":[1.1298511E2,1.8587158E1,7.8378525E0,1.0883789E0,7.078003E0,6.2339287E0,4.1065445E0,3.774414E-1,0E0,2.2141724E0,2.5239513E0,2.58926E0,1.6367061E0,1.0107803E0,0E0,4.638672E-2,0E0,1.4941711E0,0E0,6.5453315E-1,5.0851233E-2,3.1520004E0,1.8018934E-1,2.64932E0,3.360536E-1,7.5645447E-1,0E0,0E0,0E0,5.0148163E0,1.6166992E0,7.1532726E-3,0E0,1.0327332E-2,0E0,1.2064441E-1,8.0858994E-1,1.169148E-1,4.2116937E-1,7.529321E-1,0E0,1.4867077E0,2.80605E-1,6.3664246E-1,0E0,2.3182805E0,9.3904495E-1,0E0,0E0,0E0,0E0,0E0,1.4798641E-3,4.5367566E-1,0E0,5.7388306E-1,0E0,2.0798331E-1,0E0,0E0,0E0,5.7416916E-1,0E0,0E0,0E0,7.847282E-3,3.6043015E-1,0E0,0E0,0E0,0E0,0E0,0E0,0E0,0E0,0E0,0E0,0E0,0E0,0E0,0E0,0E0,0E0,0E0,0E0,0E0,0E0],"parents":[2147483647,0,0,1,1,2,2,3,3,4,4,5,5,6,6,7,7,9,9,10,10,11,11,12,12,13,13,15,15,17,17,19,19,20,20,21,21,22,22,23,23,24,24,25,25,29,29,30,30,31,31,33,33,35,35,36,36,37,37,38,38,39,39,41,41,42,42,43,43,45,45,46,46,52,52,53,53,55,55,57,57,61,61,65,65,66,66],"right_children":[2,4,6,8,10,12,14,16,-1,18,20,22,24,26,-1,28,-1,30,-1,32,34,36,38,40,42,44,-1,-1,-1,46,48,50,-1,52,-1,54,56,58,60,62,-1,64,66,68,-1,70,72,-1,-1,-1,-1,-1,74,76,-1,78,-1,80,-1,-1,-1,82,-1,-1,-1,84,86,-1,-1,-1,-1,-1,-1,-1,-1,-1,-1,-1,-1,-1,-1,-1,-1,-1,-1,-1,-1],"split_conditions":[1.21586155E-2,5.75E-2,9E-1,2.2765137E-1,9.33E-1,8.016665E-2,4.523902E-1,7.9638076E-1,-0E0,1.5452196E-1,8E-1,8.571E-1,6E-1,9.555E-1,-0E0,2.895297E-1,-0E0,5E-1,-0E0,6.082725E-2,9.91E-1,3.395E-1,9.632E-1,9.632E-1,7E-1,3.7214485E-1,-0E0,-2.3090269E-1,-0E0,3.118E-1,8.953E-1,8E-1,-0E0,9E-1,-0E0,2.964E-1,8.006049E-1,5E-1,1.3678443E-2,6.7852885E-1,3.277315E-2,1.155E-1,9.701E-1,4.0601903E-1,-0E0,3E-1,3.3563858E-1,-1.9673173E-1,-0E0,-9.6916564E-2,-0E0,-0E0,9.632E-1,4E-1,-0E0,4.1035328E-2,-0E0,2.4317231E-2,-0E0,-0E0,-5.1438224E-2,7.0539916E-1,-0E0,6.891191E-2,-0E0,1.2968063E-1,8.7332025E-2,-1.5404333E-1,-0E0,-0E0,-7.048384E-2,-1.6652606E-1,-0E0,2.311258E-2,-0E0,-0E0,-3.8385797E-2,-1.364221E-1,-5.690641E-2,-0E0,4.295805E-2,-7.101762E-2,-0E0,7.7784355E-3,-0E0,-0E0,-4.005937E-2],"split_indices":[6,7,0,3,7,6,1,2,0,4,0,7,0,7,0,1,0,0,0,2,7,7,7,7,0,5,0,0,0,7,7,0,0,0,0,7,2,0,6,6,0,7,7,3,0,0,5,0,0,0,0,0,7,0,0,6,0,6,0,0,0,1,0,0,0,6,6,0,0,0,0,0,0,0,0,0,0,0,0,0,0,0,0,0,0,0,0],"split_type":[0,0,0,0,0,0,0,0,0,0,0,0,0,0,0,0,0,0,0,0,0,0,0,0,0,0,0,0,0,0,0,0,0,0,0,0,0,0,0,0,0,0,0,0,0,0,0,0,0,0,0,0,0,0,0,0,0,0,0,0,0,0,0,0,0,0,0,0,0,0,0,0,0,0,0,0,0,0,0,0,0,0,0,0,0,0,0],"sum_hessian":[6.2897026E3,5.2892983E3,1.0004044E3,4.138038E3,1.1512601E3,6.160026E2,3.844018E2,4.132862E3,5.1763706E0,1.0995273E3,5.1732784E1,4.2120007E2,1.9480254E2,3.7963614E2,4.76566E0,4.131846E3,1.0155177E0,1.0982972E3,1.2302101E0,3.0750109E1,2.0982677E1,3.7928732E2,4.1912766E1,1.1804066E2,7.676188E1,3.7306192E2,6.57421E0,4.130655E3,1.1917924E0,2.2585403E2,8.724432E2,2.8781712E1,1.9683962E0,1.7281902E1,3.7007751E0,4.1095932E1,3.3819138E2,2.7055077E1,1.4857689E1,1.1136609E2,6.6745696E0,3.641179E1,4.035009E1,3.631113E2,9.950607E0,8.731279E1,1.3854124E2,8.58458E2,1.3985173E1,2.722816E1,1.5535502E0,2.2828875E0,1.4999015E1,3.5435726E1,5.6602077E0,3.3701306E2,1.1783228E0,1.3012156E1,1.4042922E1,1.4024638E0,1.3455225E1,1.10149994E2,1.2160985E0,2.7544884E1,8.866903E0,8.489975E0,3.1860115E1,3.6096704E2,2.1442785E0,2.4760372E1,6.255242E1,1.375322E2,1.0090463E0,5.9490247E0,9.049991E0,7.356064E0,2.8079662E1,2.308052E2,1.06207855E2,4.166851E0,8.8453045E0,1.0763969E2,2.510305E0,4.6728606E0,3.8171144E0,2.9086878E0,2.8951427E1],"tree_param":{"num_deleted":"0","num_feature":"8","num_nodes":"87","size_leaf_vector":"1"}},{"base_weights":[-5.9351355E-1,-6.5829265E-1,-2.802959E-1,-7.005732E-1,-5.065773E-1,-3.4252456E-1,-1.2114543E-1,-7.0205265E-1,-0E0,-5.25342E-1,-4.358293E-2,-1.14598915E-1,-4.0306172E-1,-4.1116018E-2,-3.511855E-1,-7.023374E-1,-0E0,-0E0,-2.7920498E-2,-5.2757406E-1,-0E0,-2.2444567E-1,1.7487193E-2,-0E0,-1.8907681E-1,-4.0666723E-1,-0E0,-8.287337E-2,1.11191176E-1,-4.1799715E-1,-0E0,-2.1073917E-1,-0E0,-1.8286884E-1,-5.4556537E-1,-7.857216E-2,-0E0,4.5809675E-2,-0E0,-0E0,7.740955E-2,-6.5355726E-2,-0E0,-4.1014737E-1,-0E0,-0E0,-1.3528237E-1,2.0889597E-1,-0E0,-4.5715794E-1,-0E0,-0E0,-1.3925472E-1,-1.639891E-1,-0E0,-0E0,1.5580592E-2,-0E0,-4.8230547E-2,-0E0,1.3220492E-1,-4.1680312E-1,-0E0,-4.7253907E-2,1.3667545E-1,-1.6074052E-1,-0E0,-0E0,2.531714E-1,-1.3988963E-1,-0E0,-4.479231E-2,-0E0,4.2766064E-2,-0E0,-1.293604E-1,-3.9975937E-3,-0E0,-6.653766E-3,-0E0,-4.7309063E-2,6.2964134E-2,-0E0,-5.515473E-2,-0E0,-0E0,8.274795E-2],"categories":[],"categories_nodes":[],"categories_segments":[],"categories_sizes":[],"default_left":[0,1,0,0,0,0,1,0,0,0,1,0,0,0,0,0,0,0,0,0,0,0,0,0,0,0,0,0,0,0,0,0,0,0,0,0,0,0,0,0,0,0,0,1,0,0,0,0,0,0,0,0,0,0,0,0,0,0,0,0,0,0,0,0,1,1,0,0,0,0,0,0,0,0,0,0,0,0,0,0,0,0,0,0,0,0,0],"id":7,"left_children":[1,3,5,7,9,11,13,15,17,19,21,23,25,27,29,31,-1,-1,-1,33,-1,35,37,39,41,43,-1,45,47,49,-1,-1,-1,51,53,-1,-1,55,-1,57,59,-1,-1,61,-1,63,65,67,-1,69,-1,-1,-1,-1,-1,-1,-1,-1,71,-1,73,75,77,79,81,83,-1,-1,85,-1,-1,-1,-1,-1,-1,-1,-1,-1,-1,-1,-1,-1,-1,-1,-1,-1,-1],"loss_changes":[9.989844E1,1.9099731E1,6.5000153E0,1.6081543E0,5.5915985E0,5.847145E0,3.3122153E0,7.384033E-1,1.185329E-1,1.8665771E0,1.6869043E0,1.769897E0,1.0470581E0,1.4534425E0,2.6544104E0,1.5380859E-2,0E0,0E0,0E0,1.480957E0,0E0,5.108248E-1,4.261685E-2,1.1758576E-1,6.0192895E-1,1.0210342E0,0E0,1.179291E0,7.2277963E-1,1.4806776E0,0E0,0E0,0E0,4.621579E0,2.972412E-1,0E0,0E0,8.453943E-3,0E0,7.062138E-2,1.5573688E-1,0E0,0E0,4.7389984E-1,0E0,7.0823056E-1,1.0146301E0,3.4447432E-1,0E0,1.4924335E-1,0E0,0E0,0E0,0E0,0E0,0E0,0E0,0E0,4.403472E-1,0E0,8.235782E-3,4.37706E-1,8.568401E-3,4.2084247E-1,6.8489134E-1,8.403368E-1,0E0,0E0,1.6453826E-1,0E0,0E0,0E0,0E0,0E0,0E0,0E0,0E0,0E0,0E0,0E0,0E0,0E0,0E0,0E0,0E0,0E0,0E0],"parents":[2147483647,0,0,1,1,2,2,3,3,4,4,5,5,6,6,7,7,8,8,9,9,10,10,11,11,12,12,13,13,14,14,15,15,19,19,21,21,22,22,23,23,24,24,25,25,27,27,28,28,29,29,33,33,34,34,37,37,39,39,40,40,43,43,45,45,46,46,47,47,49,49,58,58,60,60,61,61,62,62,63,63,64,64,65,65,68,68],"right_children":[2,4,6,8,10,12,14,16,18,20,22,24,26,28,30,32,-1,-1,-1,34,-1,36,38,40,42,44,-1,46,48,50,-1,-1,-1,52,54,-1,-1,56,-1,58,60,-1,-1,62,-1,64,66,68,-1,70,-1,-1,-1,-1,-1,-1,-1,-1,72,-1,74,76,78,80,82,84,-1,-1,86,-1,-1,-1,-1,-1,-1,-1,-1,-1,-1,-1,-1,-1,-1,-1,-1,-1,-1],"split_conditions":[1.21586155E-2,5.56E-2,8.016665E-2,3.897419E-1,9.33E-1,5E-1,1.2E0,5.1965636E-1,4.3459088E-1,1.5452196E-1,8E-1,9.555E-1,9.9002294E-2,3.3453462E-1,1.9768856E-1,2.895297E-1,-0E0,-0E0,-2.7920498E-2,3E-1,-0E0,6.082725E-2,9.91E-1,8.571E-1,6.231291E-2,8.605861E-1,-0E0,1.1398702E-1,5.956973E-1,2E0,-0E0,-2.1073917E-1,-0E0,5.094E-1,5.356177E-1,-7.857216E-2,-0E0,9E-1,-0E0,3.615E-1,2.4317231E-2,-6.5355726E-2,-0E0,9.555E-1,-0E0,1.0081519E-1,3.0847693E-2,9.379865E-2,-0E0,4.084079E-1,-0E0,-0E0,-1.3925472E-1,-1.639891E-1,-0E0,-0E0,1.5580592E-2,-0E0,4.0391937E-2,-0E0,2.4955559E-1,2.6742876E-1,1.8237924E-2,9.379865E-2,1E0,9.174E-1,-0E0,-0E0,3E-1,-1.3988963E-1,-0E0,-4.479231E-2,-0E0,4.2766064E-2,-0E0,-1.293604E-1,-3.9975937E-3,-0E0,-6.653766E-3,-0E0,-4.7309063E-2,6.2964134E-2,-0E0,-5.515473E-2,-0E0,-0E0,8.274795E-2],"split_indices":[6,7,6,5,7,0,0,3,5,4,0,7,4,5,2,1,0,0,0,0,0,2,7,7,6,2,0,6,5,0,0,0,0,7,2,0,0,0,0,7,6,0,0,7,0,6,3,6,0,5,0,0,0,0,0,0,0,0,6,0,5,5,6,6,0,7,0,0,0,0,0,0,0,0,0,0,0,0,0,0,0,0,0,0,0,0,0],"split_type":[0,0,0,0,0,0,0,0,0,0,0,0,0,0,0,0,0,0,0,0,0,0,0,0,0,0,0,0,0,0,0,0,0,0,0,0,0,0,0,0,0,0,0,0,0,0,0,0,0,0,0,0,0,0,0,0,0,0,0,0,0,0,0,0,0,0,0,0,0,0,0,0,0,0,0,0,0,0,0,0,0,0,0,0,0,0,0],"sum_hessian":[5.211503E3,4.298765E3,9.1273785E2,3.3162898E3,9.8247546E2,6.277875E2,2.8495038E2,3.3055605E3,1.0729228E1,9.3292316E2,4.955229E1,1.5333147E2,4.7445602E2,2.3365117E2,5.12992E1,3.304372E3,1.1884884E0,4.044533E0,6.6846952E0,9.3169293E2,1.2302101E0,2.8448124E1,2.1104168E1,5.192555E1,1.01405914E2,4.722879E2,2.168097E0,2.11645E2,2.2006165E1,4.9344055E1,1.9551432E0,3.303211E3,1.1612337E0,6.3878258E1,8.678147E2,2.6479727E1,1.9683962E0,1.7403393E1,3.7007751E0,3.930254E1,1.2623011E1,8.73421E1,1.406381E1,4.7025854E2,2.0293727E0,7.21559E1,1.394891E2,1.7781351E1,4.2248135E0,4.7189293E1,2.154764E0,3.842839E1,2.5449867E1,8.654042E2,2.410494E0,2.2828875E0,1.5120505E1,1.59432335E1,2.3359304E1,3.9850407E0,8.63797E0,4.5786575E2,1.2392787E1,4.779196E1,2.4363935E1,1.3603128E2,3.4578183E0,2.5354004E0,1.524595E1,4.5771965E1,1.4173279E0,1.5920799E1,7.4385056E0,6.855192E0,1.7827779E0,4.2966003E2,2.8205715E1,1.9744254E0,1.0418361E1,3.2949333E1,1.484263E1,2.184861E1,2.5153263E0,1.2719659E2,8.8347E0,1.3415843E0,1.3904366E1],"tree_param":{"num_deleted":"0","num_feature":"8","num_nodes":"87","size_leaf_vector":"1"}},{"base_weights":[-5.1210374E-1,-5.795911E-1,-2.203898E-1,-6.252453E-1,-4.2470464E-1,-1.23884976E-1,-3.0095062E-1,-6.283158E-1,-3.7166826E-2,-4.4276917E-1,-1.2646989E-2,-1.705978E-1,-0E0,-3.180093E-1,-0E0,-6.286335E-1,-0E0,-0E0,-1.0809075E-1,-3.024669E-1,-5.089577E-1,-1.7701262E-1,8.988231E-3,-0E0,-2.0264769E-1,-1.431608E-1,1.658796E-2,-3.2625154E-1,-0E0,7.15115E-2,-0E0,-1.8864875E-1,-0E0,-0E0,-4.63869E-2,-2.8836876E-2,-3.9598465E-1,-5.1920766E-1,-0E0,-2.1370381E-1,-0E0,3.5807524E-2,-0E0,3.0530218E-2,-0E0,-2.2672503E-1,-0E0,-0E0,-1.8266615E-1,-0E0,7.158456E-2,-3.284225E-1,-0E0,9.8897845E-2,-0E0,-2.980962E-2,8.307681E-2,-4.041372E-1,-0E0,-1.5706336E-1,-0E0,-6.6002384E-2,-0E0,-0E0,4.08564E-2,-0E0,8.1594065E-2,-4.1946885E-3,-0E0,-2.992945E-1,-3.891048E-2,-6.1910853E-2,-0E0,-0E0,-2.726075E-2,1.6193059E-1,-0E0,-3.4859967E-1,-4.7964662E-2,1.1327264E-1,-0E0,6.505097E-2,-0E0,-1.23802595E-1,-0E0,1.7413314E-2,-0E0,-0E0,3.5920065E-2,-9.380809E-2,-0E0,3.610644E-2,-5.450561E-2,-0E0,5.1608425E-2,-2.5882443E-2,1.9926995E-2,-1.05389915E-1,-0E0,-0E0,-4.2691275E-2,5.823436E-2,-0E0],"categories":[],"categories_nodes":[],"categories_segments":[],"categories_sizes":[],"default_left":[0,1,1,0,0,0,0,0,0,0,1,0,0,0,0,0,0,0,0,0,0,0,0,0,1,0,0,1,0,0,0,0,0,0,0,0,0,0,0,0,0,0,0,1,0,0,0,0,1,0,0,0,0,0,0,0,0,0,0,0,0,0,0,0,0,0,0,0,0,0,0,0,0,0,0,0,0,0,0,1,0,0,0,0,0,0,0,0,0,0,0,0,0,0,0,0,0,0,0,0,0,0,0],"id":8,"left_children":[1,3,5,7,9,11,13,15,17,19,21,23,25,27,29,31,-1,-1,33,35,37,39,41,43,45,47,49,51,-1,53,-1,-1,-1,-1,-1,55,57,59,-1,61,-1,63,-1,65,67,69,-1,-1,71,73,75,77,-1,79,-1,-1,81,83,-1,-1,-1,-1,-1,-1,85,-1,87,-1,-1,89,91,-1,-1,-1,-1,93,95,97,99,101,-1,-1,-1,-1,-1,-1,-1,-1,-1,-1,-1,-1,-1,-1,-1,-1,-1,-1,-1,-1,-1,-1,-1],"loss_changes":[8.203357E1,1.8119263E1,4.2605133E0,1.4129639E0,4.0774994E0,2.2016563E0,3.365387E0,6.057129E-1,2.9617816E-1,2.397049E0,1.046508E0,2.06209E0,5.438747E-1,1.6373367E0,8.203174E-2,1.8896484E-1,0E0,0E0,3.2304087E-1,5.509655E0,3.0549316E0,3.918804E-1,2.9253313E-2,3.1693764E-2,1.1702147E0,1.6118068E-1,4.5826164E-1,4.2482758E-1,0E0,6.345451E-2,0E0,0E0,0E0,0E0,0E0,9.1235757E-1,1.2031784E0,2.7470398E-1,0E0,1.644659E-2,0E0,5.7105236E-3,0E0,1.7411664E-1,2.7962117E-3,1.4141922E0,0E0,0E0,1.4242822E-1,1.49283E-1,3.281596E-1,2.4121475E-1,0E0,3.224227E-2,0E0,0E0,4.4505006E-1,1.1945877E0,0E0,0E0,0E0,0E0,0E0,0E0,7.066358E-3,0E0,2.1802591E-1,0E0,0E0,9.8451424E-1,2.5610769E0,0E0,0E0,0E0,0E0,4.2155504E-2,4.139834E-1,4.570923E-1,8.436631E-1,2.9369432E-1,0E0,0E0,0E0,0E0,0E0,0E0,0E0,0E0,0E0,0E0,0E0,0E0,0E0,0E0,0E0,0E0,0E0,0E0,0E0,0E0,0E0,0E0,0E0],"parents":[2147483647,0,0,1,1,2,2,3,3,4,4,5,5,6,6,7,7,8,8,9,9,10,10,11,11,12,12,13,13,14,14,15,15,18,18,19,19,20,20,21,21,22,22,23,23,24,24,25,25,26,26,27,27,29,29,35,35,36,36,37,37,39,39,41,41,43,43,44,44,45,45,48,48,49,49,50,50,51,51,53,53,56,56,57,57,64,64,66,66,69,69,70,70,75,75,76,76,77,77,78,78,79,79],"right_children":[2,4,6,8,10,12,14,16,18,20,22,24,26,28,30,32,-1,-1,34,36,38,40,42,44,46,48,50,52,-1,54,-1,-1,-1,-1,-1,56,58,60,-1,62,-1,64,-1,66,68,70,-1,-1,72,74,76,78,-1,80,-1,-1,82,84,-1,-1,-1,-1,-1,-1,86,-1,88,-1,-1,90,92,-1,-1,-1,-1,94,96,98,100,102,-1,-1,-1,-1,-1,-1,-1,-1,-1,-1,-1,-1,-1,-1,-1,-1,-1,-1,-1,-1,-1,-1,-1],"split_conditions":[1.21586155E-2,5.56E-2,7E-1,2.8688255E-1,9.33E-1,9.154393E-2,1.09467255E-2,5.1965636E-1,2.9286686E-1,7E-1,8E-1,4.57E-1,3E-1,5.322384E-1,1.4438356E-1,1.1609486E-1,-0E0,-0E0,3E-1,2.313E-1,8.953E-1,6.082725E-2,9.91E-1,4.1373067E-2,8.953E-1,1.1550685E-1,9.174E-1,9.91E-1,-0E0,4.0433478E-1,-0E0,-1.8864875E-1,-0E0,-0E0,-4.63869E-2,2.155E-1,5.933435E-2,2.6049834E-1,-0E0,8E-1,-0E0,9E-1,-0E0,1E-1,3.183E-1,4.1035328E-2,-0E0,-0E0,9.33E-1,5.907E-1,1.1795198E-1,1.705755E-1,-0E0,1.3E0,-0E0,-2.980962E-2,5E-1,3.3156547E-1,-0E0,-1.5706336E-1,-0E0,-6.6002384E-2,-0E0,-0E0,9.632E-1,-0E0,4.51E-2,-4.1946885E-3,-0E0,4.021246E-3,5.7753425E-2,-6.1910853E-2,-0E0,-0E0,-2.726075E-2,9.833E-1,1.4744517E-1,9.9002294E-2,1.8676986E-1,9.632E-1,-0E0,6.505097E-2,-0E0,-1.23802595E-1,-0E0,1.7413314E-2,-0E0,-0E0,3.5920065E-2,-9.380809E-2,-0E0,3.610644E-2,-5.450561E-2,-0E0,5.1608425E-2,-2.5882443E-2,1.9926995E-2,-1.05389915E-1,-0E0,-0E0,-4.2691275E-2,5.823436E-2,-0E0],"split_indices":[6,7,0,5,7,6,1,3,5,0,0,7,0,2,6,4,0,0,0,7,7,2,7,6,7,6,7,7,0,5,0,0,0,0,0,7,4,5,0,0,0,0,0,0,7,6,0,0,7,7,6,6,0,0,0,0,0,5,0,0,0,0,0,0,7,0,7,0,0,1,6,0,0,0,0,7,6,4,6,7,0,0,0,0,0,0,0,0,0,0,0,0,0,0,0,0,0,0,0,0,0,0,0],"split_type":[0,0,0,0,0,0,0,0,0,0,0,0,0,0,0,0,0,0,0,0,0,0,0,0,0,0,0,0,0,0,0,0,0,0,0,0,0,0,0,0,0,0,0,0,0,0,0,0,0,0,0,0,0,0,0,0,0,0,0,0,0,0,0,0,0,0,0,0,0,0,0,0,0,0,0,0,0,0,0,0,0,0,0,0,0,0,0,0,0,0,0,0,0,0,0,0,0,0,0,0,0,0,0],"sum_hessian":[4.408484E3,3.5606804E3,8.478032E2,2.7087214E3,8.51959E2,4.220516E2,4.2575165E2,2.6857175E3,2.3003994E1,8.0405347E2,4.790554E1,2.9490482E2,1.2714678E2,4.1384732E2,1.1904325E1,2.684529E3,1.1884884E0,1.1066848E0,2.189731E1,2.9444263E2,5.0961084E2,2.6606358E1,2.1299185E1,3.773039E1,2.571744E2,1.797726E1,1.09169525E2,4.0823456E2,5.6127663E0,9.040954E0,2.8633704E0,2.6833328E3,1.1962979E0,1.263956E0,2.0633354E1,9.095001E1,2.0349261E2,5.007471E2,8.863739E0,2.4637962E1,1.9683962E0,1.759841E1,3.7007751E0,2.7002745E1,1.0727646E1,2.2681E2,3.036443E1,4.8048844E0,1.3172377E1,2.0503353E1,8.866617E1,4.0670172E2,1.5328299E0,7.8747025E0,1.1662512E0,8.367795E1,7.272066E0,2.0245258E2,1.0400374E0,4.9337207E2,7.3750334E0,2.3190601E1,1.4473602E0,2.2828875E0,1.5315521E1,3.0890996E0,2.3913645E1,7.3025384E0,3.425108E0,1.413983E2,8.541169E1,1.214885E1,1.0235261E0,9.4242325E0,1.107912E1,2.4210491E1,6.445568E1,3.6118777E2,4.5513947E1,6.851827E0,1.0228753E0,4.5604944E0,2.7115717E0,2.0088982E2,1.5627586E0,6.1535964E0,9.161925E0,1.3494209E0,2.2564224E1,1.3902176E2,2.3765366E0,2.4339758E1,6.107193E1,2.131898E0,2.2078594E1,1.5377477E1,4.9078205E1,3.5925366E2,1.9341247E0,4.886619E0,4.0627327E1,5.5110736E0,1.3407536E0],"tree_param":{"num_deleted":"0","num_feature":"8","num_nodes":"103","size_leaf_vector":"1"}},{"base_weights":[-4.3110684E-1,-4.9324203E-1,-1.4959294E-1,-5.401256E-1,-3.4454516E-1,3.0700874E-1,-1.7063281E-1,-5.4099125E-1,-0E0,-3.588373E-1,-0E0,-0E0,3.4418985E-1,-1.4021079E-2,-2.1527722E-1,-5.4144853E-1,-0E0,-1.8404296E-1,-4.0163717E-1,-0E0,1.0692222E-2,-0E0,3.879023E-1,-2.8565496E-1,7.7025E-2,-2.9519618E-1,-5.73355E-2,-1.624915E-1,-0E0,-0E0,-3.143231E-1,-4.191794E-1,-0E0,4.292054E-2,-0E0,1.2803282E-1,-0E0,-0E0,-3.2783177E-1,1.4853862E-1,-0E0,-0E0,-3.2034153E-1,-0E0,-2.0050599E-1,-2.7474262E-2,9.169073E-2,-3.31018E-1,-0E0,-2.281457E-1,-4.7484928E-1,-1.4844064E-1,3.36323E-2,5.6952856E-2,-0E0,-3.611109E-1,-0E0,-0E0,2.2684734E-1,-0E0,1.7312193E-2,-9.475095E-2,2.5337478E-3,-3.267236E-1,-0E0,-8.590067E-2,3.361602E-2,-2.942986E-1,1.0921499E-2,4.5612454E-2,-0E0,-1.0207033E-1,-0E0,-8.233316E-2,-0E0,-1.4726928E-1,-0E0,-6.1452005E-2,-0E0,2.3096496E-2,-0E0,-1.1677212E-1,-0E0,7.925359E-2,-0E0,-0E0,-1.534956E-2,5.6951202E-2,-0E0,-0E0,-4.009474E-2,-0E0,1.5827274E-2,-9.980201E-2,-0E0,-4.6027593E-2,-0E0,1.9413494E-2,-0E0,-9.803337E-2,-0E0],"categories":[],"categories_nodes":[],"categories_segments":[],"categories_sizes":[],"default_left":[0,1,0,0,0,0,0,0,0,0,0,0,0,0,0,0,0,0,0,0,1,0,1,0,0,0,0,0,0,0,0,0,1,0,0,0,0,0,0,0,0,0,0,0,0,0,0,0,0,0,1,0,0,0,0,0,0,0,0,0,0,0,0,0,0,1,1,1,0,0,0,0,0,0,0,0,0,0,0,0,0,0,0,0,0,0,0,0,0,0,0,0,0,0,0,0,0,0,0,0,0],"id":9,"left_children":[1,3,5,7,9,11,13,15,-1,17,19,-1,21,23,25,27,-1,29,31,-1,33,-1,35,37,39,41,43,-1,-1,45,47,49,51,53,-1,-1,-1,-1,55,57,59,61,63,65,67,-1,69,71,-1,73,75,77,-1,79,-1,81,-1,-1,83,85,87,89,91,93,-1,95,97,99,-1,-1,-1,-1,-1,-1,-1,-1,-1,-1,-1,-1,-1,-1,-1,-1,-1,-1,-1,-1,-1,-1,-1,-1,-1,-1,-1,-1,-1,-1,-1,-1,-1],"loss_changes":[6.3136353E1,1.5982727E1,6.561268E0,9.2437744E-1,4.5988693E0,3.90028E-1,3.721241E0,7.0965576E-1,0E0,2.2794342E0,2.7192659E-3,0E0,2.6139283E-1,5.8327756E0,4.667242E0,1.8322754E-1,0E0,3.992787E0,3.2774353E0,0E0,3.461446E-2,0E0,2.5012636E-1,1.2494483E0,5.6317466E-1,1.3808098E0,1.9478586E0,0E0,0E0,8.06805E-1,5.5913925E-1,1.6450119E0,7.9522383E-1,2.383789E-2,0E0,0E0,0E0,0E0,1.1862984E0,1.1232322E0,1.5857803E-2,3.018491E-1,1.0110779E0,3.7023813E-1,2.8117583E0,0E0,2.791758E-1,4.960451E-1,0E0,3.042818E0,1.1499786E0,4.798895E-1,0E0,3.090883E-2,0E0,8.7999773E-1,0E0,0E0,7.382755E-1,6.737852E-2,3.950337E-1,2.2314122E-1,3.831027E-2,8.9713097E-1,0E0,4.68348E-1,3.5294697E-1,1.0466757E0,0E0,0E0,0E0,0E0,0E0,0E0,0E0,0E0,0E0,0E0,0E0,0E0,0E0,0E0,0E0,0E0,0E0,0E0,0E0,0E0,0E0,0E0,0E0,0E0,0E0,0E0,0E0,0E0,0E0,0E0,0E0,0E0,0E0],"parents":[2147483647,0,0,1,1,2,2,3,3,4,4,5,5,6,6,7,7,9,9,10,10,12,12,13,13,14,14,15,15,17,17,18,18,20,20,22,22,23,23,24,24,25,25,26,26,29,29,30,30,31,31,32,32,33,33,38,38,39,39,40,40,41,41,42,42,43,43,44,44,46,46,47,47,49,49,50,50,51,51,53,53,55,55,58,58,59,59,60,60,61,61,62,62,63,63,65,65,66,66,67,67],"right_children":[2,4,6,8,10,12,14,16,-1,18,20,-1,22,24,26,28,-1,30,32,-1,34,-1,36,38,40,42,44,-1,-1,46,48,50,52,54,-1,-1,-1,-1,56,58,60,62,64,66,68,-1,70,72,-1,74,76,78,-1,80,-1,82,-1,-1,84,86,88,90,92,94,-1,96,98,100,-1,-1,-1,-1,-1,-1,-1,-1,-1,-1,-1,-1,-1,-1,-1,-1,-1,-1,-1,-1,-1,-1,-1,-1,-1,-1,-1,-1,-1,-1,-1,-1,-1],"split_conditions":[1.3678443E-2,5.75E-2,1.8237924E-2,2.2765137E-1,9.701E-1,3.183E-1,5E-1,4.021246E-3,-0E0,5E-1,6E-1,-0E0,4E-1,3E-1,8.016665E-2,6.8768585E-1,-0E0,3.501E-1,8.953E-1,-0E0,1.4E0,-0E0,7.902E-1,3.183E-1,4E-1,3.395E-1,1.2E0,-1.624915E-1,-0E0,2.155E-1,1.21586155E-2,1.632E-1,1.1E0,4.714112E-1,-0E0,1.2803282E-1,-0E0,-0E0,1.539893E-2,8.953E-1,4.2555157E-2,2.569E-1,8.6025655E-1,6E-1,1.9768856E-1,-2.7474262E-2,4E-1,3.3223417E-1,-0E0,1.565E-1,1.8E0,6.082725E-2,3.36323E-2,9.91E-1,-0E0,3.7108096E-1,-0E0,-0E0,4.021246E-3,2.1193143E-2,5.471377E-2,2.1193143E-2,2.2797406E-2,9.9002294E-2,-0E0,9.411E-1,9.701E-1,2E0,1.0921499E-2,4.5612454E-2,-0E0,-1.0207033E-1,-0E0,-8.233316E-2,-0E0,-1.4726928E-1,-0E0,-6.1452005E-2,-0E0,2.3096496E-2,-0E0,-1.1677212E-1,-0E0,7.925359E-2,-0E0,-0E0,-1.534956E-2,5.6951202E-2,-0E0,-0E0,-4.009474E-2,-0E0,1.5827274E-2,-9.980201E-2,-0E0,-4.6027593E-2,-0E0,1.9413494E-2,-0E0,-9.803337E-2,-0E0],"split_indices":[6,7,6,3,7,7,0,1,0,0,0,0,0,0,6,2,0,7,7,0,0,0,7,7,0,7,0,0,0,7,6,7,0,2,0,0,0,0,4,7,6,7,2,0,2,0,0,5,0,7,0,2,0,7,0,5,0,0,1,6,6,6,6,4,0,7,7,0,0,0,0,0,0,0,0,0,0,0,0,0,0,0,0,0,0,0,0,0,0,0,0,0,0,0,0,0,0,0,0,0,0],"split_type":[0,0,0,0,0,0,0,0,0,0,0,0,0,0,0,0,0,0,0,0,0,0,0,0,0,0,0,0,0,0,0,0,0,0,0,0,0,0,0,0,0,0,0,0,0,0,0,0,0,0,0,0,0,0,0,0,0,0,0,0,0,0,0,0,0,0,0,0,0,0,0,0,0,0,0,0,0,0,0,0,0,0,0,0,0,0,0,0,0,0,0,0,0,0,0,0,0,0,0,0,0],"sum_hessian":[3.81574E3,3.1069534E3,7.087866E2,2.3225952E3,7.8435815E2,1.656263E1,6.92224E2,2.3183047E3,4.2904925E0,7.582908E2,2.6067371E1,1.5234458E0,1.5039185E1,1.8043968E2,5.117843E2,2.3167988E3,1.5056984E0,1.7942863E2,5.788622E2,9.28168E0,1.6785692E1,2.9500885E0,1.2089096E1,5.5327187E1,1.2511249E2,3.1476962E2,1.9701466E2,2.3157954E3,1.0035955E0,8.210106E1,9.7327576E1,5.4950507E2,2.9357119E1,1.3266135E1,3.5195563E0,1.0143219E1,1.9458774E0,3.3800159E0,5.1947174E1,5.4049465E1,7.106303E1,3.507659E1,2.7969302E2,1.3888145E2,5.8133217E1,4.9363804E1,3.2737255E1,9.217234E1,5.155237E0,1.5231877E2,3.9718628E2,1.944125E1,9.91587E0,1.1859012E1,1.4071233E0,5.068025E1,1.2669224E0,1.304666E1,4.1002804E1,2.5152895E1,4.5910133E1,2.6610878E1,8.465713E0,2.7807382E2,1.6192197E0,2.4601854E1,1.142796E2,5.55503E1,2.5829158E0,1.9528725E1,1.320853E1,9.1157394E1,1.0149465E0,1.4349812E2,8.820653E0,3.7596323E2,2.1223045E1,1.832238E1,1.11887E0,8.535234E0,3.3237774E0,4.8452927E1,2.2273233E0,3.8973206E1,2.0295978E0,6.4150534E0,1.8737843E1,4.40155E0,4.1508583E1,4.2251234E0,2.2385756E1,1.666013E0,6.7996993E0,2.7607434E2,1.9994767E0,2.2802713E1,1.7991406E0,1.1001159E2,4.268011E0,5.3535984E1,2.0143173E0],"tree_param":{"num_deleted":"0","num_feature":"8","num_nodes":"101","size_leaf_vector":"1"}},{"base_weights":[-3.5332802E-1,-4.1764033E-1,-1.234549E-1,-4.628338E-1,-2.8037074E-1,-8.434784E-2,-2.6042366E-1,-4.6687934E-1,-0E0,-2.9474655E-1,-0E0,-1.2935379E-1,-1.9671638E-3,-2.9018643E-1,-0E0,-4.6755064E-1,-0E0,-1.8029428E-1,-3.6493787E-1,-1.12276874E-1,-0E0,-0E0,-1.5830974E-1,-2.9807786E-2,5.529137E-2,-3.234608E-1,-0E0,-4.677845E-1,-0E0,-0E0,-2.6118606E-1,-3.7788004E-1,-0E0,-1.4809439E-1,-0E0,2.5185822E-2,-0E0,-0E0,6.117235E-3,-1.8537588E-1,-0E0,-0E0,-7.228147E-2,1.569853E-1,-0E0,-0E0,-3.5166168E-1,-1.4037263E-1,-0E0,-3.312674E-2,5.738517E-2,-2.6969343E-1,-0E0,-0E0,-3.8785696E-1,-4.5749933E-2,-0E0,-0E0,2.7403338E-2,-0E0,-9.21433E-4,5.090195E-2,-0E0,-2.0945826E-1,-0E0,2.1347465E-2,-0E0,-1.496796E-2,7.548901E-2,-2.4413839E-1,-0E0,2.3170356E-1,-0E0,-0E0,-3.6099422E-1,-2.06469E-2,-0E0,5.1988427E-2,-0E0,-8.313202E-2,-0E0,-1.18518084E-1,-0E0,1.2913701E-2,-0E0,-0E0,4.755509E-2,-6.712431E-2,-0E0,2.9560981E-2,-0E0,4.1996986E-2,-0E0,-0E0,-1.4209228E-2,-0E0,-2.1627763E-2,4.2326555E-2,-0E0,-7.973252E-2,-0E0,2.4797428E-2,-9.511268E-3,-0E0,9.301385E-2,-1.0916413E-1,-0E0],"categories":[],"categories_nodes":[],"categories_segments":[],"categories_sizes":[],"default_left":[0,1,1,0,0,0,0,0,0,1,1,0,0,0,0,0,0,0,0,0,0,0,1,0,0,0,0,0,0,0,0,0,0,0,0,0,0,0,0,0,0,0,0,1,0,0,0,0,0,1,0,0,0,0,0,0,0,0,0,0,0,0,0,0,0,0,0,0,1,1,0,0,0,0,0,0,0,0,0,0,0,0,0,0,0,0,0,0,0,0,0,0,0,0,0,0,0,0,0,0,0,0,0,0,0,0,0],"id":10,"left_children":[1,3,5,7,9,11,13,15,-1,17,19,21,23,25,-1,27,-1,29,31,33,35,37,39,41,43,45,-1,47,-1,49,51,53,-1,55,-1,57,-1,59,61,63,65,67,69,71,-1,-1,73,-1,-1,75,77,79,-1,-1,81,-1,-1,-1,83,-1,-1,85,-1,87,89,91,93,95,97,99,101,103,-1,-1,105,-1,-1,-1,-1,-1,-1,-1,-1,-1,-1,-1,-1,-1,-1,-1,-1,-1,-1,-1,-1,-1,-1,-1,-1,-1,-1,-1,-1,-1,-1,-1,-1],"loss_changes":[4.6951263E1,1.1652466E1,2.2284317E0,2.500946E0,1.7635498E0,1.6961622E0,2.0219574E0,3.7423706E-1,0E0,2.028469E0,3.951104E-1,1.5921082E0,3.1568587E-1,5.7634735E-1,0E0,1.9894409E-1,0E0,3.5856895E0,2.257393E0,2.4953893E-1,1.5731618E-2,1.723985E-3,1.6936803E0,4.4393718E-1,4.7176865E-1,4.0378666E-1,0E0,5.187988E-4,0E0,1.5632784E-1,7.8341484E-1,8.914871E-1,0E0,5.985379E-3,0E0,1.2051426E-3,0E0,1.6511389E-4,9.8562695E-2,1.7106552E0,1.0085687E-2,2.6149803E-1,1.4579813E0,5.889619E-1,0E0,0E0,2.1042347E-1,0E0,0E0,2.0870149E-1,3.0945203E-1,6.261616E-1,0E0,0E0,9.5479584E-1,0E0,0E0,0E0,7.7328607E-3,0E0,0E0,4.0582246E-1,0E0,7.590065E-1,1.3524717E-1,3.245744E-1,5.2018162E-2,3.7174413E-1,5.365756E-1,2.9091263E-1,2.5132072E-1,7.703396E-1,0E0,0E0,6.8675995E-2,0E0,0E0,0E0,0E0,0E0,0E0,0E0,0E0,0E0,0E0,0E0,0E0,0E0,0E0,0E0,0E0,0E0,0E0,0E0,0E0,0E0,0E0,0E0,0E0,0E0,0E0,0E0,0E0,0E0,0E0,0E0,0E0],"parents":[2147483647,0,0,1,1,2,2,3,3,4,4,5,5,6,6,7,7,9,9,10,10,11,11,12,12,13,13,15,15,17,17,18,18,19,19,20,20,21,21,22,22,23,23,24,24,25,25,27,27,29,29,30,30,31,31,33,33,35,35,37,37,38,38,39,39,40,40,41,41,42,42,43,43,46,46,49,49,50,50,51,51,54,54,58,58,61,61,63,63,64,64,65,65,66,66,67,67,68,68,69,69,70,70,71,71,74,74],"right_children":[2,4,6,8,10,12,14,16,-1,18,20,22,24,26,-1,28,-1,30,32,34,36,38,40,42,44,46,-1,48,-1,50,52,54,-1,56,-1,58,-1,60,62,64,66,68,70,72,-1,-1,74,-1,-1,76,78,80,-1,-1,82,-1,-1,-1,84,-1,-1,86,-1,88,90,92,94,96,98,100,102,104,-1,-1,106,-1,-1,-1,-1,-1,-1,-1,-1,-1,-1,-1,-1,-1,-1,-1,-1,-1,-1,-1,-1,-1,-1,-1,-1,-1,-1,-1,-1,-1,-1,-1,-1],"split_conditions":[1.21586155E-2,5.56E-2,1.2E0,2.7040762E-1,9.33E-1,6.716791E-2,1.9768856E-1,2.2765137E-1,-0E0,7E-1,8E-1,4.953E-1,3.3453462E-1,1.9E0,-0E0,1.1609486E-1,-0E0,2.313E-1,8.873E-1,6.082725E-2,9.91E-1,1.724E-1,8.715E-1,1.2158616E-1,5.0356656E-1,1.8237924E-2,-0E0,1.6224611E-1,-0E0,2.155E-1,5.933435E-2,6.69E-2,-0E0,8E-1,-0E0,9E-1,-0E0,2.482384E-2,4.3906115E-2,2.6110628E-1,9.411E-1,1.0081519E-1,1.4744517E-1,9.701E-1,-0E0,-0E0,1.133E-1,-1.4037263E-1,-0E0,5E-1,5E-1,3.3156547E-1,-0E0,-0E0,2.530816E-1,-4.5749933E-2,-0E0,-0E0,9.632E-1,-0E0,-9.21433E-4,2.5837058E-2,-0E0,1.2E0,3.1305397E-1,3.7995674E-2,1.8237924E-2,7.29517E-2,1E0,1.1E0,1.705755E-1,7.734231E-2,-0E0,-0E0,4.816298E-1,-2.06469E-2,-0E0,5.1988427E-2,-0E0,-8.313202E-2,-0E0,-1.18518084E-1,-0E0,1.2913701E-2,-0E0,-0E0,4.755509E-2,-6.712431E-2,-0E0,2.9560981E-2,-0E0,4.1996986E-2,-0E0,-0E0,-1.4209228E-2,-0E0,-2.1627763E-2,4.2326555E-2,-0E0,-7.973252E-2,-0E0,2.4797428E-2,-9.511268E-3,-0E0,9.301385E-2,-1.0916413E-1,-0E0],"split_indices":[6,7,0,5,7,6,2,3,0,0,0,7,5,0,0,4,0,7,7,2,7,7,7,6,5,6,0,1,0,7,4,7,0,0,0,0,0,6,6,5,7,6,6,7,0,0,7,0,0,0,0,5,0,0,5,0,0,0,7,0,0,6,0,0,5,6,6,6,0,0,6,6,0,0,5,0,0,0,0,0,0,0,0,0,0,0,0,0,0,0,0,0,0,0,0,0,0,0,0,0,0,0,0,0,0,0,0],"split_type":[0,0,0,0,0,0,0,0,0,0,0,0,0,0,0,0,0,0,0,0,0,0,0,0,0,0,0,0,0,0,0,0,0,0,0,0,0,0,0,0,0,0,0,0,0,0,0,0,0,0,0,0,0,0,0,0,0,0,0,0,0,0,0,0,0,0,0,0,0,0,0,0,0,0,0,0,0,0,0,0,0,0,0,0,0,0,0,0,0,0,0,0,0,0,0,0,0,0,0,0,0,0,0,0,0,0,0],"sum_hessian":[3.376304E3,2.6167412E3,7.595627E2,1.9287195E3,6.880218E2,6.280565E2,1.3150613E2,1.9067916E3,2.1927788E1,6.421777E2,4.5844116E1,3.643311E2,2.6372546E2,1.2856296E2,2.9431765E0,1.9030122E3,3.7794347E0,2.806959E2,3.6148178E2,2.43428E1,2.1501316E1,5.9888355E1,3.0444275E2,2.3845934E2,2.5266117E1,1.0761544E2,2.0947521E1,1.9020118E3,1.0003273E0,9.80464E1,1.8264949E2,3.5248227E2,8.999502E0,2.2393166E1,1.9496354E0,1.780054E1,3.7007751E0,2.081783E1,3.9070526E1,2.6942273E2,3.5020008E1,1.1874584E2,1.197135E2,1.614566E1,9.120457E0,1.4380543E1,9.323489E1,1.9010002E3,1.011603E0,8.984825E1,8.198155E0,1.8164424E2,1.0052422E0,1.2330047E1,3.4015222E2,2.0976854E1,1.4163114E0,2.24655E0,1.5553991E1,1.0315389E1,1.0502441E1,3.1705654E1,7.364872E0,2.4850487E2,2.0917852E1,1.5131601E1,1.9888405E1,8.3412186E1,3.5333652E1,2.8568521E1,9.114498E1,1.4595217E1,1.5504435E0,3.5009146E0,8.973398E1,5.949931E1,3.034894E1,4.9709506E0,3.2272053E0,1.7984029E2,1.8039596E0,3.3372568E2,6.4265356E0,6.3138456E0,9.240145E0,1.8564112E1,1.31415415E1,2.3207292E2,1.6431957E1,6.9294186E0,1.3988434E1,1.007695E1,5.0546517E0,3.7007596E0,1.6187647E1,1.4988892E1,6.8423294E1,3.2074593E1,3.2590587E0,2.7131458E1,1.4370615E0,1.7992E1,7.315298E1,1.5209448E0,1.3074272E1,8.87242E1,1.0097799E0],"tree_param":{"num_deleted":"0","num_feature":"8","num_nodes":"107","size_leaf_vector":"1"}},{"base_weights":[-2.833412E-1,-3.3649755E-1,-8.053017E-2,-3.7692678E-1,-2.1383436E-1,2.595928E-1,-1.00196466E-1,-3.7739474E-1,-0E0,-2.2568952E-1,-0E0,-0E0,2.9225162E-1,-0E0,-1.3429739E-1,-3.7812936E-1,-0E0,-2.4187462E-1,-0E0,-0E0,3.2115015E-1,-2.0045912E-1,7.526746E-2,-1.9682375E-1,-2.6650399E-2,-3.7828636E-1,-0E0,-1.3667122E-1,-3.2317662E-1,-2.812529E-2,6.499972E-3,1.0521294E-1,-0E0,-0E0,-2.4121411E-1,9.9003665E-2,-0E0,-0E0,-2.2140115E-1,-0E0,-1.1935773E-1,-1.1352567E-1,-0E0,-0E0,-2.4021618E-1,-3.4381697E-1,-0E0,-0E0,-7.441788E-2,-2.7642238E-1,-0E0,1.2901732E-1,-0E0,-3.2103002E-2,-0E0,-2.2507836E-1,-0E0,-0E0,2.0069411E-1,-1.5908852E-1,-0E0,1.5194981E-2,-1.1249712E-2,-7.596841E-2,-0E0,-1.0567798E-1,-0E0,-0E0,-2.6739756E-2,-9.090115E-2,-0E0,-0E0,4.2090695E-2,-0E0,-1.9824103E-2,-0E0,1.4508072E-2,-6.86172E-2,-0E0,-2.0111723E-2,3.1146992E-2,9.127894E-2,-0E0,-0E0,-5.3473692E-2],"categories":[],"categories_nodes":[],"categories_segments":[],"categories_sizes":[],"default_left":[0,1,0,0,0,0,0,0,0,1,0,0,0,0,0,0,0,1,0,0,1,0,0,0,0,0,0,0,0,0,0,0,0,0,0,0,0,0,0,0,0,0,0,0,0,0,0,0,0,0,0,0,0,0,0,0,0,0,0,0,0,0,0,0,0,0,0,0,0,0,0,0,0,0,0,0,0,0,0,0,0,0,0,0,0],"id":11,"left_children":[1,3,5,7,9,11,13,15,-1,17,-1,-1,19,21,23,25,-1,27,29,-1,31,33,35,37,39,41,-1,43,45,47,-1,-1,-1,-1,49,51,-1,53,55,57,59,-1,-1,61,63,65,-1,-1,67,69,-1,71,-1,73,75,77,-1,79,81,83,-1,-1,-1,-1,-1,-1,-1,-1,-1,-1,-1,-1,-1,-1,-1,-1,-1,-1,-1,-1,-1,-1,-1,-1,-1],"loss_changes":[3.0756424E1,8.413391E0,3.833363E0,4.1244507E-1,2.3974571E0,3.0967927E-1,2.0316057E0,3.6317444E-1,0E0,2.0808334E0,0E0,0E0,1.092633E-1,3.0127823E0,2.0304232E0,6.4971924E-2,0E0,2.3464088E0,4.143437E-2,0E0,1.5826297E-1,8.1498504E-1,4.5020694E-1,7.017698E-1,8.741452E-1,6.30188E-3,0E0,3.429513E0,1.5327263E0,1.6474026E-1,0E0,0E0,0E0,0E0,8.686316E-1,7.867625E-1,0E0,3.2501955E-2,2.9210854E-1,4.730299E-1,5.825399E-1,0E0,0E0,2.5003704E-1,9.2318153E-1,8.261452E-1,0E0,0E0,3.2245606E-2,5.8630943E-1,0E0,3.1805742E-1,0E0,8.6977944E-2,4.8845645E-2,2.9594994E-1,0E0,8.727133E-1,4.9769974E-1,3.7654972E-1,0E0,0E0,0E0,0E0,0E0,0E0,0E0,0E0,0E0,0E0,0E0,0E0,0E0,0E0,0E0,0E0,0E0,0E0,0E0,0E0,0E0,0E0,0E0,0E0,0E0],"parents":[2147483647,0,0,1,1,2,2,3,3,4,4,5,5,6,6,7,7,9,9,12,12,13,13,14,14,15,15,17,17,18,18,20,20,21,21,22,22,23,23,24,24,25,25,27,27,28,28,29,29,34,34,35,35,37,37,38,38,39,39,40,40,43,43,44,44,45,45,48,48,49,49,51,51,53,53,54,54,55,55,57,57,58,58,59,59],"right_children":[2,4,6,8,10,12,14,16,-1,18,-1,-1,20,22,24,26,-1,28,30,-1,32,34,36,38,40,42,-1,44,46,48,-1,-1,-1,-1,50,52,-1,54,56,58,60,-1,-1,62,64,66,-1,-1,68,70,-1,72,-1,74,76,78,-1,80,82,84,-1,-1,-1,-1,-1,-1,-1,-1,-1,-1,-1,-1,-1,-1,-1,-1,-1,-1,-1,-1,-1,-1,-1,-1,-1],"split_conditions":[1.3678443E-2,7.26E-2,1.8237924E-2,4.021246E-3,9.759E-1,3.183E-1,5E-1,2.2765137E-1,-0E0,1.6E0,-0E0,-0E0,4E-1,3E-1,7.397673E-2,6.231921E-1,-0E0,7E-1,5.094E-1,-0E0,7.902E-1,3.183E-1,3.2451347E-1,4.57E-1,1.8676986E-1,1.1609486E-1,-0E0,3.501E-1,8.873E-1,1.7E0,6.499972E-3,1.0521294E-1,-0E0,-0E0,1.539893E-2,4.021246E-3,-0E0,2.569E-1,1.2511216E-1,6.817425E-1,2.5460142E-1,-1.1352567E-1,-0E0,3E-1,5.6775365E-2,2.530816E-1,-0E0,-0E0,1.239E-1,3.7108096E-1,-0E0,9.02E-2,-0E0,2.1193143E-2,2.338845E-2,8.6025655E-1,-0E0,1.4744517E-1,1.4438356E-1,1.7E-1,-0E0,1.5194981E-2,-1.1249712E-2,-7.596841E-2,-0E0,-1.0567798E-1,-0E0,-0E0,-2.6739756E-2,-9.090115E-2,-0E0,-0E0,4.2090695E-2,-0E0,-1.9824103E-2,-0E0,1.4508072E-2,-6.86172E-2,-0E0,-2.0111723E-2,3.1146992E-2,9.127894E-2,-0E0,-0E0,-5.3473692E-2],"split_indices":[6,7,6,1,7,7,0,3,0,0,0,0,0,0,6,2,0,0,7,0,7,7,5,7,6,4,0,7,7,0,0,0,0,0,4,1,0,7,4,1,5,0,0,0,4,5,0,0,7,5,0,7,0,6,6,2,0,6,6,7,0,0,0,0,0,0,0,0,0,0,0,0,0,0,0,0,0,0,0,0,0,0,0,0,0],"split_type":[0,0,0,0,0,0,0,0,0,0,0,0,0,0,0,0,0,0,0,0,0,0,0,0,0,0,0,0,0,0,0,0,0,0,0,0,0,0,0,0,0,0,0,0,0,0,0,0,0,0,0,0,0,0,0,0,0,0,0,0,0,0,0,0,0,0,0,0,0,0,0,0,0,0,0,0,0,0,0,0,0,0,0,0,0],"sum_hessian":[3.056929E3,2.3989119E3,6.580172E2,1.7626709E3,6.3624084E2,1.7402624E1,6.406146E2,1.7611808E3,1.490117E0,6.1750696E2,1.8733892E1,1.5234458E0,1.5879178E1,1.7448735E2,4.6612726E2,1.7568573E3,4.323538E0,5.7229285E2,4.5214092E1,2.8728898E0,1.3006289E1,4.934532E1,1.2514202E2,2.6180927E2,2.04318E2,1.7558473E3,1.009962E0,2.8446558E2,2.878273E2,3.5404358E1,9.8097315E0,1.1062663E1,1.9436247E0,3.424508E0,4.5920815E1,1.153067E2,9.835319E0,4.2051292E1,2.1975797E2,1.394232E2,6.4894806E1,1.7546573E3,1.190028E0,1.3768361E2,1.4678197E2,2.6645724E2,2.1370049E1,6.600329E0,2.880403E1,4.466632E1,1.2544919E0,1.1228647E2,3.0202317E0,2.4536837E1,1.7514456E1,2.1817523E2,1.5827352E0,1.3467911E2,4.7440906E0,5.64858E1,8.409002E0,2.469576E1,1.12987854E2,1.4578085E2,1.0011026E0,2.6016373E2,6.293519E0,6.7869744E0,2.2017056E1,4.2384968E1,2.2813537E0,2.2599518E0,1.1002652E2,4.1746783E0,2.036216E1,3.6287596E0,1.3885696E1,2.1671143E2,1.4638034E0,1.0913928E2,2.5539822E1,3.4857543E0,1.2583364E0,1.0612427E0,5.542456E1],"tree_param":{"num_deleted":"0","num_feature":"8","num_nodes":"85","size_leaf_vector":"1"}},{"base_weights":[-2.2117312E-1,-2.7130678E-1,-6.5199375E-2,-1.2024478E-1,-2.969377E-1,-4.1015595E-2,-2.1866421E-1,-0E0,-1.4431146E-1,-3.1364527E-1,-4.2683918E-2,-5.209394E-2,2.3680216E-2,-2.6492903E-1,-0E0,-0E0,4.2426914E-2,-1.5736875E-1,-0E0,-3.250599E-1,-4.227306E-2,-1.514967E-1,-0E0,-0E0,-6.4650014E-2,-0E0,1.09661184E-1,-2.853908E-1,-0E0,-1.6202448E-1,-0E0,-3.2903737E-1,-0E0,1.3414045E-1,-2.0048968E-1,-4.9490366E-2,-0E0,1.2565382E-1,-0E0,-1.8094882E-2,2.0469902E-1,-1.4765897E-1,-2.1017615E-2,1.4942306E-1,-0E0,-1.0865621E-1,-0E0,-5.03817E-2,-0E0,-3.296912E-1,-0E0,-0E0,5.45205E-2,-7.06905E-2,-0E0,7.849573E-2,-0E0,-1.2938055E-1,2.2681829E-2,-9.9149376E-2,-0E0,-0E0,6.4798824E-2,-0E0,-2.1479817E-1,2.0532046E-2,-5.1173404E-2,5.6250427E-2,-0E0,-9.894713E-2,-0E0,-4.9128864E-2,-0E0,1.2562371E-2,-0E0,-0E0,-4.020098E-2,-6.7855775E-2,-0E0,2.0254169E-2,-0E0,-1.9369816E-2,-0E0],"categories":[],"categories_nodes":[],"categories_segments":[],"categories_sizes":[],"default_left":[0,0,1,0,1,0,0,0,0,1,1,0,0,1,0,0,0,0,0,0,0,0,0,0,0,0,1,0,0,0,0,0,0,0,1,0,0,0,0,0,0,0,0,0,0,0,0,0,0,0,0,0,0,0,0,0,0,0,0,0,0,0,0,0,1,0,0,0,0,0,0,0,0,0,0,0,0,0,0,0,0,0,0],"id":12,"left_children":[1,3,5,7,9,11,13,15,17,19,21,23,25,27,-1,-1,-1,29,-1,31,33,35,37,39,41,-1,43,45,-1,47,-1,49,-1,51,53,-1,-1,55,57,59,61,63,65,67,-1,-1,-1,-1,-1,69,-1,-1,-1,-1,-1,-1,-1,71,73,75,-1,-1,-1,-1,77,79,81,-1,-1,-1,-1,-1,-1,-1,-1,-1,-1,-1,-1,-1,-1,-1,-1],"loss_changes":[2.029509E1,5.8433228E0,1.3146296E0,1.7093258E0,5.656143E0,6.2344754E-1,1.295033E0,4.671206E-1,9.173765E-1,3.1598969E0,1.1890217E0,6.034967E-1,3.553083E-1,6.365433E-1,0E0,0E0,0E0,3.3986807E-1,0E0,2.0430145E0,3.0904036E0,2.2067177E-1,2.6192814E-1,8.8714546E-1,1.1425204E0,0E0,1.737287E-1,6.85503E-1,0E0,3.3777714E-2,0E0,5.104828E-1,0E0,4.499287E-1,7.822907E-1,0E0,0E0,5.7184774E-1,5.909626E-1,2.7890584E-1,4.3620348E-2,2.350055E0,6.754929E-1,1.2674773E-1,0E0,0E0,0E0,0E0,0E0,1.713562E-2,0E0,0E0,0E0,0E0,0E0,0E0,0E0,3.1186593E-1,5.225357E-2,1.5378025E-1,0E0,0E0,0E0,0E0,5.001836E-1,2.930244E-1,4.5801073E-1,0E0,0E0,0E0,0E0,0E0,0E0,0E0,0E0,0E0,0E0,0E0,0E0,0E0,0E0,0E0,0E0],"parents":[2147483647,0,0,1,1,2,2,3,3,4,4,5,5,6,6,7,7,8,8,9,9,10,10,11,11,12,12,13,13,17,17,19,19,20,20,21,21,22,22,23,23,24,24,26,26,27,27,29,29,31,31,33,33,34,34,37,37,38,38,39,39,40,40,41,41,42,42,43,43,49,49,57,57,58,58,59,59,64,64,65,65,66,66],"right_children":[2,4,6,8,10,12,14,16,18,20,22,24,26,28,-1,-1,-1,30,-1,32,34,36,38,40,42,-1,44,46,-1,48,-1,50,-1,52,54,-1,-1,56,58,60,62,64,66,68,-1,-1,-1,-1,-1,70,-1,-1,-1,-1,-1,-1,-1,72,74,76,-1,-1,-1,-1,78,80,82,-1,-1,-1,-1,-1,-1,-1,-1,-1,-1,-1,-1,-1,-1,-1,-1],"split_conditions":[1.21586155E-2,3.057E-1,1.5E0,3E-1,6.571E-1,6.082725E-2,2.5958645E-1,1.239E-1,2.868E-1,1.8E0,6E-1,1.6718097E-2,2.81168E-2,9.555E-1,-0E0,-0E0,4.2426914E-2,2.573371E-1,-0E0,2.8688255E-1,1.9E0,5.2210057E-1,7.083E-1,1.3678443E-2,3.0987583E-2,-0E0,9.701E-1,1.9E0,-0E0,4.00001E0,-0E0,1.1609486E-1,-0E0,4.342E-1,3.471E-1,-4.9490366E-2,-0E0,1E0,8.953E-1,9.759E-1,3.183E-1,4.953E-1,5.9273254E-2,1.2968063E-1,-0E0,-1.0865621E-1,-0E0,-5.03817E-2,-0E0,4.714112E-1,-0E0,-0E0,5.45205E-2,-7.06905E-2,-0E0,7.849573E-2,-0E0,1.9E0,2.4955559E-1,4E-1,-0E0,-0E0,6.4798824E-2,-0E0,1.4E0,9E-1,3.0847693E-2,5.6250427E-2,-0E0,-9.894713E-2,-0E0,-4.9128864E-2,-0E0,1.2562371E-2,-0E0,-0E0,-4.020098E-2,-6.7855775E-2,-0E0,2.0254169E-2,-0E0,-1.9369816E-2,-0E0],"split_indices":[6,7,0,0,7,2,5,7,7,0,0,6,6,7,0,0,0,5,0,5,0,2,7,6,6,0,7,0,0,0,0,4,0,7,7,0,0,0,7,7,7,7,6,6,0,0,0,0,0,2,0,0,0,0,0,0,0,0,5,0,0,0,0,0,0,0,3,0,0,0,0,0,0,0,0,0,0,0,0,0,0,0,0],"split_type":[0,0,0,0,0,0,0,0,0,0,0,0,0,0,0,0,0,0,0,0,0,0,0,0,0,0,0,0,0,0,0,0,0,0,0,0,0,0,0,0,0,0,0,0,0,0,0,0,0,0,0,0,0,0,0,0,0,0,0,0,0,0,0,0,0,0,0,0,0,0,0,0,0,0,0,0,0,0,0,0,0,0,0],"sum_hessian":[2.8194407E3,2.1054626E3,7.139781E2,3.3949353E2,1.765969E3,6.5259106E2,6.138706E1,2.3854845E1,3.156387E2,1.6370918E3,1.2887724E2,6.243305E2,2.826051E1,5.803866E1,3.3483975E0,7.4993744E0,1.6355469E1,3.0136295E2,1.4275747E1,1.5520009E3,8.509095E1,5.5592625E1,7.3284615E1,7.702528E1,5.4730524E2,4.0702634E0,2.4190247E1,5.686214E1,1.1765183E0,2.968425E2,4.520442E0,1.533408E3,1.8592937E1,2.5793663E1,5.9297287E1,5.3896084E1,1.6965401E0,9.589404E0,6.3695213E1,6.340335E1,1.3621928E1,1.4333434E2,4.0397092E2,1.7580246E1,6.61E0,3.787692E1,1.898522E1,2.770154E2,1.982708E1,1.5320005E3,1.4074327E0,1.3046532E0,2.448901E1,5.5084747E1,4.212541E0,5.178666E0,4.410738E0,2.6959675E1,3.673554E1,2.3716099E1,3.9687252E1,1.1657578E0,1.2456171E1,2.8357008E1,1.1497733E2,1.01100105E2,3.0287082E2,1.2215557E1,5.36469E0,1.5309213E3,1.0792012E0,2.582568E1,1.133994E0,3.56318E1,1.1037384E0,5.336515E0,1.8379583E1,1.1278101E2,2.196324E0,6.728397E1,3.381613E1,2.9751987E2,5.3509364E0],"tree_param":{"num_deleted":"0","num_feature":"8","num_nodes":"83","size_leaf_vector":"1"}},{"base_weights":[-1.6874672E-1,-2.1020472E-1,-4.5489196E-2,-8.6109355E-2,-2.3170893E-1,-5.785209E-3,-1.02920376E-1,-0E0,-1.4825441E-1,-2.5099722E-1,-3.926202E-2,-8.602693E-2,-0E0,-1.1866908E-1,-0E0,-1.3724133E-1,2.6121533E-2,-1.8088691E-1,-0E0,-2.6400256E-1,-6.35819E-2,2.058898E-2,-1.1561316E-1,-0E0,-1.3544267E-1,6.929735E-2,-6.8522347E-3,-1.3468319E-1,-0E0,-1.5977128E-1,-0E0,1.5616422E-2,-0E0,-0E0,-7.6490715E-2,-0E0,1.535462E-2,-1.4950547E-1,-2.9090607E-1,-2.0205422E-1,-0E0,-0E0,2.917254E-2,-9.915531E-2,-0E0,-0E0,-1.7411868E-1,-0E0,1.2576237E-1,-5.3857896E-2,1.3735549E-3,-1.4272483E-1,-0E0,4.103982E-2,-3.572906E-2,-5.3707387E-2,-0E0,-0E0,-2.1977255E-2,-1.4690089E-2,-0E0,1.9688608E-2,-0E0,-2.0310554E-1,-1.5986715E-2,-2.916192E-1,-0E0,-6.83716E-2,-0E0,-0E0,-2.7206236E-2,1.105072E-1,-1.1443887E-1,-2.1006283E-1,-0E0,-0E0,1.6210856E-1,4.6784647E-2,-1.2614575E-1,-8.426319E-2,5.2664224E-2,-1.5061407E-1,-0E0,2.6150135E-2,-0E0,-0E0,-9.5460884E-2,-0E0,1.4338088E-2,-1.6913913E-2,-0E0,5.325784E-3,-0E0,-0E0,-6.997941E-2,-0E0,-8.054026E-3,-8.755926E-2,-0E0,2.5363222E-2,-0E0,-1.8290006E-2,-0E0,-0E0,4.6134494E-2,-5.5835508E-2,-0E0,-7.050593E-2,-0E0,5.838528E-2,-0E0,4.1960556E-2,-0E0,-4.8676603E-2,-0E0,-3.5187572E-2,-0E0,2.249192E-2,-0E0,-0E0,-4.6006784E-2,-4.2259026E-2,-0E0],"categories":[],"categories_nodes":[],"categories_segments":[],"categories_sizes":[],"default_left":[0,0,1,0,1,0,0,0,0,1,0,0,0,0,0,0,0,0,0,0,1,0,0,0,0,0,0,1,0,0,0,0,0,0,0,0,0,0,0,0,0,0,0,0,0,0,0,0,0,0,0,0,0,1,0,0,0,0,0,0,1,0,0,0,0,0,0,0,0,0,0,0,1,0,0,0,0,0,0,0,1,0,0,0,0,0,0,0,0,0,0,0,0,0,0,0,0,0,0,0,0,0,0,0,0,0,0,0,0,0,0,0,0,0,0,0,0,0,0,0,0,0,0],"id":13,"left_children":[1,3,5,7,9,11,13,15,17,19,21,23,25,27,-1,29,31,33,35,37,39,41,43,-1,45,47,49,51,53,55,-1,-1,57,59,-1,-1,61,63,65,67,69,-1,-1,-1,71,-1,73,-1,75,77,79,81,-1,83,85,-1,-1,87,89,-1,91,-1,-1,93,95,97,-1,-1,-1,99,101,103,105,107,-1,-1,109,111,113,115,117,119,-1,-1,-1,-1,121,-1,-1,-1,-1,-1,-1,-1,-1,-1,-1,-1,-1,-1,-1,-1,-1,-1,-1,-1,-1,-1,-1,-1,-1,-1,-1,-1,-1,-1,-1,-1,-1,-1,-1,-1,-1],"loss_changes":[1.2210617E1,3.4825516E0,1.0644231E0,1.480695E0,4.5151596E0,4.3372342E-1,7.630484E-1,8.31329E-1,1.4940109E0,1.7859116E0,1.3144631E0,5.13162E-1,3.5837975E-1,4.109218E-1,0E0,9.191352E-2,1.7004153E-1,1.3547039E0,3.7896417E-3,1.5948944E0,5.8956957E-1,2.548446E-1,1.7030861E0,0E0,5.370963E-1,5.297178E-1,4.0175748E-1,3.5676312E-1,6.2350094E-2,5.185163E-2,0E0,0E0,1.658419E-2,1.18772425E-1,0E0,0E0,5.023204E-2,1.05092E0,3.2209015E-1,2.2084248E-1,4.1071612E-2,0E0,0E0,0E0,1.2914047E0,0E0,6.278684E-1,0E0,4.5274645E-1,1.4870028E0,8.475031E-1,7.0254326E-2,0E0,9.3728766E-2,1.863823E-1,0E0,0E0,2.6053434E-2,7.868182E-2,0E0,6.3899495E-3,0E0,0E0,1.55479E0,5.3904198E-2,6.224823E-2,0E0,0E0,0E0,2.4492314E-1,1.5576252E-1,3.7200996E-1,1.161384E0,4.083159E-1,0E0,0E0,5.078201E-1,5.66728E-1,9.7860646E-1,3.1240198E-1,4.694459E-1,7.018185E-2,0E0,0E0,0E0,0E0,2.2821455E-1,0E0,0E0,0E0,0E0,0E0,0E0,0E0,0E0,0E0,0E0,0E0,0E0,0E0,0E0,0E0,0E0,0E0,0E0,0E0,0E0,0E0,0E0,0E0,0E0,0E0,0E0,0E0,0E0,0E0,0E0,0E0,0E0,0E0,0E0,0E0,0E0],"parents":[2147483647,0,0,1,1,2,2,3,3,4,4,5,5,6,6,7,7,8,8,9,9,10,10,11,11,12,12,13,13,15,15,16,16,17,17,18,18,19,19,20,20,21,21,22,22,24,24,25,25,26,26,27,27,28,28,29,29,32,32,33,33,36,36,37,37,38,38,39,39,40,40,44,44,46,46,48,48,49,49,50,50,51,51,53,53,54,54,57,57,58,58,60,60,63,63,64,64,65,65,69,69,70,70,71,71,72,72,73,73,76,76,77,77,78,78,79,79,80,80,81,81,86,86],"right_children":[2,4,6,8,10,12,14,16,18,20,22,24,26,28,-1,30,32,34,36,38,40,42,44,-1,46,48,50,52,54,56,-1,-1,58,60,-1,-1,62,64,66,68,70,-1,-1,-1,72,-1,74,-1,76,78,80,82,-1,84,86,-1,-1,88,90,-1,92,-1,-1,94,96,98,-1,-1,-1,100,102,104,106,108,-1,-1,110,112,114,116,118,120,-1,-1,-1,-1,122,-1,-1,-1,-1,-1,-1,-1,-1,-1,-1,-1,-1,-1,-1,-1,-1,-1,-1,-1,-1,-1,-1,-1,-1,-1,-1,-1,-1,-1,-1,-1,-1,-1,-1,-1,-1],"split_conditions":[1.21586155E-2,3.057E-1,9E-1,9E-1,1.5E0,3E-1,4.523902E-1,8.65E-2,2.714E-1,6.387E-1,1.7E0,1.6718097E-2,4E-1,1.6718097E-1,-0E0,8E-1,2.313E-1,9.59E-2,1.1E0,5E-1,3E-1,1.6E0,1.8E0,-0E0,2.995E-1,8.953E-1,6E-1,9.555E-1,2.1885508E-1,7.66E-2,-0E0,1.5616422E-2,3E-1,7.07E-2,-7.6490715E-2,-0E0,2.933E-1,4E-1,5.356177E-1,9.833E-1,8.715E-1,-0E0,2.917254E-2,-9.915531E-2,1.9E0,-0E0,1.539893E-2,-0E0,1.8237924E-2,7.975E-1,7.553E-1,1.9E0,-0E0,6.136E-1,6.76E-1,-5.3707387E-2,-0E0,2.455E-1,2.933E-1,-1.4690089E-2,1.4E0,1.9688608E-2,-0E0,5.094E-1,3.691E-1,1.209691E-1,-0E0,-6.83716E-2,-0E0,7E-1,3.7003243E-1,4.342E-1,3.471E-1,3.7108096E-1,-0E0,-0E0,4.021246E-3,2.4955559E-1,3.3770555E-1,1.09467255E-2,9.701E-1,5.56E-2,-0E0,2.6150135E-2,-0E0,-0E0,3.6845165E-1,-0E0,1.4338088E-2,-1.6913913E-2,-0E0,5.325784E-3,-0E0,-0E0,-6.997941E-2,-0E0,-8.054026E-3,-8.755926E-2,-0E0,2.5363222E-2,-0E0,-1.8290006E-2,-0E0,-0E0,4.6134494E-2,-5.5835508E-2,-0E0,-7.050593E-2,-0E0,5.838528E-2,-0E0,4.1960556E-2,-0E0,-4.8676603E-2,-0E0,-3.5187572E-2,-0E0,2.249192E-2,-0E0,-0E0,-4.6006784E-2,-4.2259026E-2,-0E0],"split_indices":[6,7,0,0,0,0,1,7,7,7,0,6,0,6,0,0,7,7,0,0,0,0,0,0,7,7,0,7,6,7,0,0,0,7,0,0,7,0,2,7,7,0,0,0,0,0,4,0,6,7,7,0,0,7,7,0,0,7,7,0,0,0,0,7,7,4,0,0,0,0,2,7,7,5,0,0,1,5,5,1,7,7,0,0,0,0,5,0,0,0,0,0,0,0,0,0,0,0,0,0,0,0,0,0,0,0,0,0,0,0,0,0,0,0,0,0,0,0,0,0,0,0,0],"split_type":[0,0,0,0,0,0,0,0,0,0,0,0,0,0,0,0,0,0,0,0,0,0,0,0,0,0,0,0,0,0,0,0,0,0,0,0,0,0,0,0,0,0,0,0,0,0,0,0,0,0,0,0,0,0,0,0,0,0,0,0,0,0,0,0,0,0,0,0,0,0,0,0,0,0,0,0,0,0,0,0,0,0,0,0,0,0,0,0,0,0,0,0,0,0,0,0,0,0,0,0,0,0,0,0,0,0,0,0,0,0,0,0,0,0,0,0,0,0,0,0,0,0,0],"sum_hessian":[2.645837E3,1.9458438E3,6.999932E2,3.2690417E2,1.6189396E3,4.6990143E2,2.3009181E2,1.5389288E2,1.7301129E2,1.44591E3,1.7302957E2,5.376301E1,4.1613843E2,2.2552281E2,4.5689945E0,3.248526E1,1.2140762E2,1.5958112E2,1.3430178E1,1.3244622E3,1.2144787E2,6.3151283E1,1.0987828E2,8.276689E0,4.548632E1,6.4119095E1,3.5201932E2,1.9616861E2,2.9354204E1,2.573515E1,6.7501106E0,8.808761E1,3.3320015E1,6.1899784E1,9.768133E1,4.3563237E0,9.0738535E0,2.9609164E2,1.0283705E3,2.0160215E1,1.0128765E2,4.005577E1,2.3095512E1,2.2890795E1,8.698749E1,3.0115213E0,4.24748E1,1.603369E1,4.8085403E1,1.3717206E2,2.1484726E2,1.9143295E2,4.735667E0,1.0183177E1,1.9171026E1,2.069056E1,5.04459E0,5.9841986E0,2.7335817E1,4.253467E1,1.936511E1,5.5424004E0,3.5314534E0,1.819522E2,1.1413944E2,1.0271002E3,1.2702543E0,1.8599947E1,1.5602691E0,5.2798912E1,4.848874E1,2.8224722E1,5.8762768E1,4.122083E1,1.2539684E0,4.7038274E0,4.3381577E1,2.945923E1,1.0771283E2,4.2276794E1,1.7257047E2,1.7428633E2,1.7146614E1,9.144791E0,1.0383863E0,2.0520093E0,1.7119017E1,1.5784197E0,4.405779E0,2.297039E1,4.365428E0,1.3275563E1,6.0895476E0,1.7127089E1,1.648251E2,3.3945494E0,1.10744896E2,1.0260956E3,1.0046269E0,2.726601E1,2.5532902E1,4.5956005E1,2.532731E0,1.3046532E0,2.6920069E1,5.1389935E1,7.3728313E0,3.8915817E1,2.3050134E0,4.1363262E1,2.0183156E0,2.6048279E1,3.410952E0,9.95076E1,8.205232E0,4.1140038E1,1.1367588E0,1.651215E2,7.4489646E0,3.4403908E0,1.7084595E2,1.55780945E1,1.5409229E0],"tree_param":{"num_deleted":"0","num_feature":"8","num_nodes":"123","size_leaf_vector":"1"}},{"base_weights":[-1.293461E-1,-1.6082002E-1,-2.410272E-2,-1.6869529E-1,-0E0,1.8690465E-1,-4.095746E-2,-7.301327E-2,-1.8618232E-1,-5.4946076E-2,4.6010997E-2,-0E0,2.1113788E-1,-7.797664E-2,-0E0,-9.122199E-2,-0E0,-1.8763377E-1,-0E0,-0E0,-1.2754197E-1,-0E0,1.08304895E-1,-0E0,2.3406617E-1,-0E0,-1.0059428E-1,4.8662793E-2,-3.6529142E-2,-1.3151899E-2,-1.4691652E-1,4.447833E-3,-0E0,-1.9413806E-1,-2.018527E-2,-1.8701132E-1,-0E0,1.3624862E-1,-0E0,2.6690716E-1,-0E0,-0E0,6.293682E-2,-1.1530654E-1,-0E0,-0E0,1.678883E-1,-1.246002E-1,-0E0,-9.631982E-2,-0E0,-0E0,-1.5330997E-1,-1.9900441E-1,-0E0,1.9798527E-2,-1.2120079E-1,-0E0,-7.320062E-2,1.5149397E-1,-0E0,-0E0,8.599235E-2,-0E0,-6.9463495E-3,1.411326E-1,-0E0,-1.1996877E-1,-0E0,2.7955936E-3,-0E0,4.3842822E-2,-3.5536315E-3,2.355631E-1,-0E0,-1.989894E-1,-0E0,3.815924E-2,-3.4815464E-3,-4.2682324E-2,-0E0,3.5192596E-3,-1.8114235E-3,-4.7784645E-2,-0E0,-6.0036056E-2,-0E0,-0E0,1.7662281E-2,-4.6530537E-2,-0E0,-0E0,6.205539E-2,6.2794976E-2,-0E0,-3.849388E-2,-0E0,-0E0,3.4663517E-2,-9.940068E-3,-0E0,-0E0,2.5550652E-2,-2.1495719E-2,-0E0,8.251524E-2,-0E0,-7.267682E-2,-0E0,3.1639062E-2,-0E0,-1.7947296E-2,-0E0],"categories":[],"categories_nodes":[],"categories_segments":[],"categories_sizes":[],"default_left":[0,1,0,0,0,0,0,0,0,0,0,0,0,0,0,1,0,1,0,0,0,0,0,0,1,0,1,0,0,0,0,0,0,0,0,0,0,0,0,0,0,0,0,0,0,0,0,0,0,1,0,0,0,0,0,0,1,0,0,0,0,0,0,0,0,0,0,0,0,1,0,0,0,1,0,1,0,0,0,0,0,0,0,0,0,0,0,0,0,0,0,0,0,0,0,0,0,0,0,0,0,0,0,0,0,0,0,0,0,0,0,0,0],"id":14,"left_children":[1,3,5,7,9,11,13,15,17,19,21,-1,23,25,27,29,31,33,-1,-1,35,-1,37,-1,39,41,43,45,47,49,51,-1,-1,53,55,57,-1,59,-1,61,-1,63,65,67,69,71,73,75,77,79,81,-1,83,85,-1,87,89,-1,-1,91,-1,-1,-1,-1,-1,93,-1,95,-1,97,99,101,103,105,-1,107,-1,109,111,-1,-1,-1,-1,-1,-1,-1,-1,-1,-1,-1,-1,-1,-1,-1,-1,-1,-1,-1,-1,-1,-1,-1,-1,-1,-1,-1,-1,-1,-1,-1,-1,-1,-1],"loss_changes":[7.4467163E0,2.2758446E0,1.5590756E0,1.6530685E0,2.822919E-1,1.8268418E-1,8.9944553E-1,8.7433755E-1,4.8651123E-1,4.9354964E-1,3.4923857E-1,0E0,8.479464E-2,8.641969E-1,5.428287E-1,5.8123136E-1,4.809626E-3,5.1332855E-1,0E0,0E0,7.042442E-1,0E0,2.3288083E-1,0E0,8.730388E-2,1.1275414E-1,4.5903158E-1,4.612044E-1,7.481897E-1,3.100973E-1,1.3492727E-1,0E0,0E0,7.7147675E-1,8.95033E-1,2.710837E-1,0E0,7.7629626E-2,0E0,1.0083079E-1,0E0,7.7079297E-3,3.7889364E-1,2.5327086E-1,1.6976667E-4,8.5614614E-2,5.8576584E-1,1.3551466E0,6.481208E-2,2.9316705E-1,1.7820694E-2,0E0,1.2918043E-1,5.2894974E-1,0E0,1.0731696E-1,4.5616162E-1,0E0,0E0,3.6394107E-1,0E0,0E0,0E0,0E0,0E0,4.9715787E-1,0E0,1.8782806E-1,0E0,2.503774E-1,2.4536228E-2,2.1849665E-1,3.42707E-1,3.229711E-1,0E0,7.961092E-1,0E0,3.8056105E-1,2.6686138E-1,0E0,0E0,0E0,0E0,0E0,0E0,0E0,0E0,0E0,0E0,0E0,0E0,0E0,0E0,0E0,0E0,0E0,0E0,0E0,0E0,0E0,0E0,0E0,0E0,0E0,0E0,0E0,0E0,0E0,0E0,0E0,0E0,0E0,0E0],"parents":[2147483647,0,0,1,1,2,2,3,3,4,4,5,5,6,6,7,7,8,8,9,9,10,10,12,12,13,13,14,14,15,15,16,16,17,17,20,20,22,22,24,24,25,25,26,26,27,27,28,28,29,29,30,30,33,33,34,34,35,35,37,37,39,39,41,41,42,42,43,43,44,44,45,45,46,46,47,47,48,48,49,49,50,50,52,52,53,53,55,55,56,56,59,59,65,65,67,67,69,69,70,70,71,71,72,72,73,73,75,75,77,77,78,78],"right_children":[2,4,6,8,10,12,14,16,18,20,22,-1,24,26,28,30,32,34,-1,-1,36,-1,38,-1,40,42,44,46,48,50,52,-1,-1,54,56,58,-1,60,-1,62,-1,64,66,68,70,72,74,76,78,80,82,-1,84,86,-1,88,90,-1,-1,92,-1,-1,-1,-1,-1,94,-1,96,-1,98,100,102,104,106,-1,108,-1,110,112,-1,-1,-1,-1,-1,-1,-1,-1,-1,-1,-1,-1,-1,-1,-1,-1,-1,-1,-1,-1,-1,-1,-1,-1,-1,-1,-1,-1,-1,-1,-1,-1,-1,-1],"split_conditions":[1.3678443E-2,7.76E-1,1.8237924E-2,3.057E-1,8E-1,3.183E-1,6.716791E-2,2.868E-1,3.897419E-1,8.715E-1,8.953E-1,-0E0,4E-1,3.395E-1,1.0942754E-1,9E-1,2E0,1.8E0,-0E0,-0E0,3.7003243E-1,-0E0,4.714112E-1,-0E0,5.568E-1,1.724E-1,8.498E-1,1.0081519E-1,1.4744517E-1,7.26E-2,1.49E-2,4.447833E-3,-0E0,1.21586155E-2,1.9E0,4E-1,-0E0,9.91E-1,-0E0,5E-1,-0E0,1.133E-1,1.3E0,8.006049E-1,9.411E-1,7.806E-2,2.4955559E-1,3.5880232E-1,1.8676986E-1,8E-1,2.313E-1,-0E0,2.714E-1,1.1609486E-1,-0E0,4.342E-1,3.471E-1,-0E0,-7.320062E-2,1E0,-0E0,-0E0,8.599235E-2,-0E0,-6.9463495E-3,5.9273254E-2,-0E0,2.6110628E-1,-0E0,3E-1,8.943908E-3,2.687E-1,6.082725E-2,7.975E-1,-0E0,8.79E-1,-0E0,4.021246E-3,2.5630364E-1,-4.2682324E-2,-0E0,3.5192596E-3,-1.8114235E-3,-4.7784645E-2,-0E0,-6.0036056E-2,-0E0,-0E0,1.7662281E-2,-4.6530537E-2,-0E0,-0E0,6.205539E-2,6.2794976E-2,-0E0,-3.849388E-2,-0E0,-0E0,3.4663517E-2,-9.940068E-3,-0E0,-0E0,2.5550652E-2,-2.1495719E-2,-0E0,8.251524E-2,-0E0,-7.267682E-2,-0E0,3.1639062E-2,-0E0,-1.7947296E-2,-0E0],"split_indices":[6,7,6,7,0,7,6,7,5,7,7,0,0,7,6,0,0,0,0,0,2,0,2,0,7,7,7,6,6,7,7,0,0,6,0,0,0,7,0,0,0,7,0,2,7,6,5,5,6,0,7,0,7,4,0,7,7,0,0,0,0,0,0,0,0,6,0,5,0,0,4,7,2,7,0,7,0,1,5,0,0,0,0,0,0,0,0,0,0,0,0,0,0,0,0,0,0,0,0,0,0,0,0,0,0,0,0,0,0,0,0,0,0],"split_type":[0,0,0,0,0,0,0,0,0,0,0,0,0,0,0,0,0,0,0,0,0,0,0,0,0,0,0,0,0,0,0,0,0,0,0,0,0,0,0,0,0,0,0,0,0,0,0,0,0,0,0,0,0,0,0,0,0,0,0,0,0,0,0,0,0,0,0,0,0,0,0,0,0,0,0,0,0,0,0,0,0,0,0,0,0,0,0,0,0,0,0,0,0,0,0,0,0,0,0,0,0,0,0,0,0,0,0,0,0,0,0,0,0],"sum_hessian":[2.5284443E3,1.9069495E3,6.214948E2,1.8123932E3,9.455635E1,1.8804285E1,6.0269055E2,3.2983295E2,1.4825602E3,5.1174458E1,4.3381893E1,1.4854493E0,1.7318836E1,3.0913443E2,2.9355612E2,3.1385425E2,1.5978711E1,1.473423E3,9.137203E0,1.7036917E1,3.4137543E1,1.1515776E1,3.1866117E1,2.9833097E0,1.43355255E1,4.0776302E1,2.6835812E2,1.21116394E2,1.7243973E2,1.7165894E2,1.4219531E2,1.4880479E1,1.0982323E0,1.3885126E3,8.491036E1,3.2270794E1,1.8667468E0,3.0103537E1,1.7625818E0,1.0633673E1,3.7018535E0,1.9310532E1,2.146577E1,2.3709868E2,3.1259441E1,1.0099017E2,2.0126219E1,5.661461E1,1.1582511E2,2.9755604E1,1.4190334E2,6.443602E0,1.3575171E2,1.3405771E3,4.7935467E1,2.9402864E1,5.5507496E1,1.1649143E1,2.0621653E1,2.6394072E1,3.709465E0,1.1172234E0,9.516449E0,1.1933572E1,7.37696E0,1.7683086E1,3.7826838E0,2.360924E2,1.0062709E0,1.4722227E1,1.6537214E1,3.707417E1,6.3916004E1,1.733518E1,2.7910392E0,5.216583E1,4.448779E0,3.6793747E1,7.9031364E1,2.4329277E1,5.4263263E0,1.1298155E2,2.8921783E1,1.3033931E2,5.4123974E0,1.3388E3,1.777045E0,1.3249849E0,2.8077879E1,5.0130917E1,5.3765798E0,6.976301E0,1.941777E1,1.5568555E1,2.1145313E0,2.1691219E2,1.9180227E1,2.955581E0,1.1766646E1,1.5349695E1,1.1875191E0,2.272822E0,3.480135E1,5.9926018E1,3.9899867E0,1.51185E1,2.2166798E0,4.648429E1,5.6815405E0,3.294858E1,3.8451664E0,6.785556E1,1.1175809E1],"tree_param":{"num_deleted":"0","num_feature":"8","num_nodes":"113","size_leaf_vector":"1"}},{"base_weights":[-9.525202E-2,-1.208986E-1,-1.0509213E-2,-1.2913525E-1,-0E0,1.4933056E-1,-2.5787598E-2,-1.5032758E-1,-6.441188E-2,-5.1958337E-2,1.2627412E-2,-0E0,1.7057972E-1,-0E0,-1.1037877E-1,-1.0196295E-1,-3.067255E-1,1.397742E-2,-1.2362419E-1,-7.7777736E-2,-0E0,1.3244939E-1,-0E0,-0E0,1.8722181E-1,-5.2230768E-2,5.508192E-3,-1.500335E-1,-0E0,-0E0,-1.22494966E-1,-3.2001948E-1,-0E0,3.224865E-2,-0E0,-1.3554314E-1,-0E0,-1.3832691E-1,-0E0,6.988064E-2,-0E0,-1.0749539E-1,4.9967628E-2,2.0224863E-1,-0E0,-0E0,-1.0834254E-1,-5.2689906E-2,2.8721178E-2,-0E0,-1.6073748E-1,-7.0555925E-2,-0E0,-1.3491046E-1,-9.6852705E-4,-0E0,-3.414792E-1,-0E0,5.039658E-2,-0E0,-1.5214804E-1,-4.85496E-2,-0E0,-1.3725021E-1,-0E0,6.1955996E-2,-0E0,-0E0,2.1250029E-1,-0E0,-2.3005708E-1,-1.14603E-1,-0E0,-0E0,6.2191352E-2,-5.0127786E-2,-0E0,-3.4022175E-2,-0E0,2.5153782E-3,-0E0,-2.9651985E-2,-8.810859E-2,-3.7403272E-3,-0E0,-1.03390336E-1,-0E0,2.4113862E-2,-0E0,-7.101952E-2,-2.049663E-2,-0E0,-4.8159637E-2,-0E0,2.475397E-2,6.730683E-2,-0E0,-3.1639904E-2,5.094849E-2,-8.319884E-2,-0E0,-3.5674013E-2,-0E0,5.735398E-3,-3.5042208E-2,2.9051773E-2,-0E0],"categories":[],"categories_nodes":[],"categories_segments":[],"categories_sizes":[],"default_left":[0,1,0,1,1,0,1,1,0,0,0,0,0,0,0,0,0,1,1,1,0,0,0,0,1,0,0,0,0,0,1,0,0,0,0,0,0,0,0,0,0,0,0,0,0,0,0,1,0,0,0,1,0,1,1,0,0,0,0,0,0,0,0,0,0,0,0,0,1,0,1,0,0,0,1,0,0,0,0,0,0,0,0,0,0,0,0,0,0,0,0,0,0,0,0,0,0,0,0,0,0,0,0,0,0,0,0],"id":15,"left_children":[1,3,5,7,9,11,13,15,17,19,21,-1,23,25,27,29,31,33,35,37,-1,39,41,-1,43,45,47,49,-1,51,53,55,-1,57,-1,59,-1,61,-1,-1,-1,63,65,67,-1,-1,69,71,73,-1,75,77,79,81,83,-1,85,-1,87,-1,89,-1,-1,91,-1,93,-1,-1,95,97,99,101,-1,103,105,-1,-1,-1,-1,-1,-1,-1,-1,-1,-1,-1,-1,-1,-1,-1,-1,-1,-1,-1,-1,-1,-1,-1,-1,-1,-1,-1,-1,-1,-1,-1,-1],"loss_changes":[4.6408596E0,1.5338955E0,9.2394066E-1,1.1829872E0,1.8437983E-1,1.3755012E-1,8.032565E-1,6.9144745E0,2.8275566E0,1.8292254E-1,3.0842268E-1,0E0,4.4932246E-2,3.6304826E-1,9.5828927E-1,1.4876385E0,1.7245064E0,1.4626628E-1,8.551111E-1,1.2874606E-1,0E0,4.0327248E-1,5.0907266E-1,0E0,4.9023032E-2,8.5568315E-1,4.1379052E-1,2.2247934E-1,0E0,1.7802784E-1,4.744854E-1,1.8218842E0,0E0,2.1516699E-1,0E0,5.5655766E-1,0E0,1.3690534E-1,0E0,0E0,0E0,2.2436827E-1,5.727254E-2,2.3041725E-2,0E0,0E0,1.0248816E0,4.8619497E-1,4.8228106E-1,0E0,6.679988E-2,2.1212456E-1,8.461822E-3,1.5973063E0,1.7656496E-2,0E0,3.8150597E-1,0E0,1.918355E-1,0E0,2.6987648E-1,0E0,0E0,9.253436E-2,0E0,7.6560155E-2,0E0,0E0,2.349919E-2,1.2445682E0,7.1607566E-1,1.5326738E-2,0E0,5.9496975E-1,7.6238453E-1,0E0,0E0,0E0,0E0,0E0,0E0,0E0,0E0,0E0,0E0,0E0,0E0,0E0,0E0,0E0,0E0,0E0,0E0,0E0,0E0,0E0,0E0,0E0,0E0,0E0,0E0,0E0,0E0,0E0,0E0,0E0,0E0],"parents":[2147483647,0,0,1,1,2,2,3,3,4,4,5,5,6,6,7,7,8,8,9,9,10,10,12,12,13,13,14,14,15,15,16,16,17,17,18,18,19,19,21,21,22,22,24,24,25,25,26,26,27,27,29,29,30,30,31,31,33,33,35,35,37,37,41,41,42,42,43,43,46,46,47,47,48,48,50,50,51,51,52,52,53,53,54,54,56,56,58,58,60,60,63,63,65,65,68,68,69,69,70,70,71,71,73,73,74,74],"right_children":[2,4,6,8,10,12,14,16,18,20,22,-1,24,26,28,30,32,34,36,38,-1,40,42,-1,44,46,48,50,-1,52,54,56,-1,58,-1,60,-1,62,-1,-1,-1,64,66,68,-1,-1,70,72,74,-1,76,78,80,82,84,-1,86,-1,88,-1,90,-1,-1,92,-1,94,-1,-1,96,98,100,102,-1,104,106,-1,-1,-1,-1,-1,-1,-1,-1,-1,-1,-1,-1,-1,-1,-1,-1,-1,-1,-1,-1,-1,-1,-1,-1,-1,-1,-1,-1,-1,-1,-1,-1],"split_conditions":[1.3678443E-2,6.51E-1,1.8237924E-2,1.1E0,6E-1,3.183E-1,1.2E0,9E-1,1.3E0,1.21586155E-2,7.083E-1,-0E0,4E-1,3.245506E-2,1.9768856E-1,3.471E-1,2.601944E-1,4.48E-1,5.094E-1,3E-1,-0E0,1E0,8.953E-1,-0E0,7.902E-1,4.953E-1,5.675E-1,1.133E-1,-0E0,7.26E-2,8E-1,9.4E-2,-0E0,1.411E-1,-0E0,1.632E-1,-0E0,9.833E-1,-0E0,6.988064E-2,-0E0,1.9E0,2.4955559E-1,5E-1,-0E0,-0E0,2.81168E-2,1.1E0,6E-1,-0E0,2E0,8E-1,2.313E-1,7E-1,6.017E-1,-0E0,1.9403845E-2,-0E0,1.2E0,-0E0,1.5E0,-4.85496E-2,-0E0,7E-1,-0E0,8E-1,-0E0,-0E0,5.568E-1,2.4317231E-2,8.953E-1,5.403E-1,-0E0,5E-1,6.387E-1,-5.0127786E-2,-0E0,-3.4022175E-2,-0E0,2.5153782E-3,-0E0,-2.9651985E-2,-8.810859E-2,-3.7403272E-3,-0E0,-1.03390336E-1,-0E0,2.4113862E-2,-0E0,-7.101952E-2,-2.049663E-2,-0E0,-4.8159637E-2,-0E0,2.475397E-2,6.730683E-2,-0E0,-3.1639904E-2,5.094849E-2,-8.319884E-2,-0E0,-3.5674013E-2,-0E0,5.735398E-3,-3.5042208E-2,2.9051773E-2,-0E0],"split_indices":[6,7,6,0,0,7,0,0,0,6,7,0,0,6,2,7,5,7,7,0,0,0,7,0,7,7,7,7,0,7,0,7,0,7,0,7,0,7,0,0,0,0,5,0,0,0,6,0,0,0,0,0,7,0,7,0,4,0,0,0,0,0,0,0,0,0,0,0,7,6,7,7,0,0,7,0,0,0,0,0,0,0,0,0,0,0,0,0,0,0,0,0,0,0,0,0,0,0,0,0,0,0,0,0,0,0,0],"split_type":[0,0,0,0,0,0,0,0,0,0,0,0,0,0,0,0,0,0,0,0,0,0,0,0,0,0,0,0,0,0,0,0,0,0,0,0,0,0,0,0,0,0,0,0,0,0,0,0,0,0,0,0,0,0,0,0,0,0,0,0,0,0,0,0,0,0,0,0,0,0,0,0,0,0,0,0,0,0,0,0,0,0,0,0,0,0,0,0,0,0,0,0,0,0,0,0,0,0,0,0,0,0,0,0,0,0,0],"sum_hessian":[2.4347412E3,1.8214949E3,6.132463E2,1.6876622E3,1.338327E2,1.9592754E1,5.936535E2,1.2062053E3,4.8145685E2,5.63047E1,7.7528E1,1.4854493E0,1.8107306E1,5.019385E2,9.171497E1,9.545522E2,2.5165317E2,1.7314346E2,3.083134E2,5.148938E1,4.815317E0,1.1349411E1,6.617859E1,2.9833097E0,1.5123995E1,1.2177374E2,3.8016476E2,8.900068E1,2.714293E0,1.9618417E2,7.5836804E2,2.4744884E2,4.2043314E0,1.6748546E2,5.6579967E0,3.0184198E2,6.471407E0,1.8220125E1,3.3269257E1,6.365049E0,4.984362E0,2.7099005E1,3.9079586E1,1.3157034E1,1.9669615E0,2.5947554E1,9.582619E1,4.44463E1,3.3571848E2,3.7491713E0,8.525151E1,2.876193E1,1.6742224E2,6.5004346E2,1.0832458E2,1.5351957E1,2.3209688E2,1.8321512E1,1.4916394E2,3.969094E1,2.6215103E2,1.6653503E1,1.5666208E0,2.582745E1,1.2715553E0,3.789262E1,1.1869639E0,1.3876952E0,1.1769339E1,6.0656826E1,3.5169357E1,4.0893166E1,3.5531354E0,1.4493195E2,1.9078654E2,8.076021E1,4.4913034E0,2.3335604E1,5.4263263E0,1.1336488E2,5.405735E1,5.646261E2,8.541736E1,1.07282715E2,1.0418556E0,2.3095097E2,1.1459131E0,8.40811E1,6.508285E1,9.444067E1,1.6771037E2,5.2407227E0,2.0586727E1,8.337584E0,2.9555037E1,1.0304918E1,1.4644202E0,4.4282993E1,1.6373835E1,3.1328955E1,3.840404E0,3.8567924E1,2.32524E0,1.11499504E2,3.343244E1,1.5587079E2,3.4915745E1],"tree_param":{"num_deleted":"0","num_feature":"8","num_nodes":"107","size_leaf_vector":"1"}},{"base_weights":[-7.2730735E-2,-9.323806E-2,-4.82114E-3,-9.979513E-2,-0E0,1.19465925E-1,-1.8825758E-2,-0E0,-1.0351494E-1,-3.9957915E-2,9.87991E-3,-0E0,1.384504E-1,-3.2478232E-2,6.501022E-2,-1.2151103E-1,-4.9158264E-2,-6.511545E-2,-0E0,1.0481293E-1,-0E0,-0E0,1.5040433E-1,-1.9957277E-3,-1.01976074E-1,-0E0,1.3482928E-1,-8.4182896E-2,-2.3967116E-1,2.5591713E-3,-9.522272E-2,-7.8823976E-2,-0E0,5.7621844E-2,-0E0,-8.135021E-2,3.347265E-2,1.614768E-1,-0E0,-8.333E-2,-0E0,-0E0,-2.4472778E-1,-0E0,1.4591658E-1,-9.821137E-2,-0E0,-2.5303122E-1,-0E0,2.0255357E-2,-0E0,-1.0691462E-1,-0E0,-0E0,-3.397096E-2,-1.1094528E-1,-0E0,4.4867136E-2,-0E0,-0E0,1.684688E-1,-1.192501E-1,-0E0,5.3395174E-2,-1.3235031E-2,-0E0,-5.056957E-2,-0E0,-8.055979E-2,1.7559606E-1,-0E0,-2.016826E-2,-7.315487E-2,4.9051642E-3,-2.3929756E-3,-0E0,-8.1587985E-2,-0E0,1.1034752E-2,-0E0,-3.592855E-2,-3.606773E-3,-0E0,-0E0,-3.89638E-2,-0E0,1.837445E-2,5.289016E-2,-0E0,-3.9844315E-2,-0E0,2.8767532E-2,-0E0,-1.7620787E-2,2.6179936E-3,-0E0,1.8315947E-2,-2.2875775E-2,-0E0,5.612939E-2,-0E0],"categories":[],"categories_nodes":[],"categories_segments":[],"categories_sizes":[],"default_left":[0,1,0,0,1,0,0,0,1,0,0,0,0,0,0,1,0,0,0,0,0,0,1,0,1,0,0,1,0,1,1,0,0,0,0,0,0,0,0,0,0,0,0,0,0,1,0,0,0,0,0,0,0,1,0,0,0,0,0,0,1,0,0,0,0,0,0,0,0,0,0,0,0,0,0,0,0,0,0,0,0,0,0,0,0,0,0,0,0,0,0,0,0,0,0,0,0,0,0,0,0],"id":16,"left_children":[1,3,5,7,9,11,13,-1,15,17,19,-1,21,23,25,27,29,31,-1,33,35,-1,37,39,41,-1,43,45,47,49,51,53,-1,-1,-1,55,57,59,-1,61,63,65,67,-1,69,71,73,75,-1,77,-1,79,-1,81,-1,83,-1,85,-1,-1,87,89,-1,91,93,95,97,-1,-1,99,-1,-1,-1,-1,-1,-1,-1,-1,-1,-1,-1,-1,-1,-1,-1,-1,-1,-1,-1,-1,-1,-1,-1,-1,-1,-1,-1,-1,-1,-1,-1],"loss_changes":[2.8256464E0,9.1836643E-1,5.859868E-1,8.9086723E-1,1.0812689E-1,1.04958504E-1,5.348102E-1,0E0,6.775589E-1,1.4491758E-1,1.9823143E-1,0E0,2.148053E-2,6.8388623E-1,4.4547248E-1,3.2412243E0,1.6103399E0,1.03908226E-1,0E0,3.0306494E-1,2.7172574E-1,0E0,2.738595E-2,3.1693792E-1,7.7375686E-1,0E0,7.8041494E-2,1.01963E0,1.2862263E0,7.122321E-2,6.4825106E-1,1.5926093E-2,0E0,0E0,0E0,1.7302158E-1,3.9297935E-2,8.635402E-3,0E0,3.027239E-1,4.1463518E-1,8.628238E-2,8.8822365E-2,0E0,3.6306024E-2,1.8063293E0,1.517965E-2,1.1708946E0,0E0,1.4159814E-1,0E0,3.018012E-1,0E0,3.2065804E-3,0E0,5.6968153E-2,0E0,4.7839157E-2,0E0,0E0,6.9404244E-3,1.0783994E-1,0E0,7.333681E-1,5.466976E-1,6.7163646E-2,1.0355399E-1,0E0,0E0,5.4818273E-2,0E0,0E0,0E0,0E0,0E0,0E0,0E0,0E0,0E0,0E0,0E0,0E0,0E0,0E0,0E0,0E0,0E0,0E0,0E0,0E0,0E0,0E0,0E0,0E0,0E0,0E0,0E0,0E0,0E0,0E0,0E0],"parents":[2147483647,0,0,1,1,2,2,3,3,4,4,5,5,6,6,8,8,9,9,10,10,12,12,13,13,14,14,15,15,16,16,17,17,19,19,20,20,22,22,23,23,24,24,26,26,27,27,28,28,29,29,30,30,31,31,35,35,36,36,37,37,39,39,40,40,41,41,42,42,44,44,45,45,46,46,47,47,49,49,51,51,53,53,55,55,57,57,60,60,61,61,63,63,64,64,65,65,66,66,69,69],"right_children":[2,4,6,8,10,12,14,-1,16,18,20,-1,22,24,26,28,30,32,-1,34,36,-1,38,40,42,-1,44,46,48,50,52,54,-1,-1,-1,56,58,60,-1,62,64,66,68,-1,70,72,74,76,-1,78,-1,80,-1,82,-1,84,-1,86,-1,-1,88,90,-1,92,94,96,98,-1,-1,100,-1,-1,-1,-1,-1,-1,-1,-1,-1,-1,-1,-1,-1,-1,-1,-1,-1,-1,-1,-1,-1,-1,-1,-1,-1,-1,-1,-1,-1,-1,-1],"split_conditions":[1.3678443E-2,6.51E-1,1.8237924E-2,2E-1,6E-1,3.183E-1,6.082725E-2,-0E0,1.1E0,1.21586155E-2,7.083E-1,-0E0,4E-1,1.2E0,2.81168E-2,9E-1,1.3E0,5.2210057E-1,-0E0,1E0,8.953E-1,-0E0,7.902E-1,3E-1,1.133E-1,-0E0,1.95E-1,8E-1,2.601944E-1,4.48E-1,5.094E-1,8.715E-1,-0E0,5.7621844E-2,-0E0,1.9E0,2.4955559E-1,5E-1,-0E0,3.532382E-1,5E-1,1.03547364E-1,1.3E0,-0E0,2.8148723E-1,7E-1,2.538E-1,9.4E-2,-0E0,1.411E-1,-0E0,1.632E-1,-0E0,4E-1,-3.397096E-2,7E-1,-0E0,8E-1,-0E0,-0E0,5.568E-1,2.6748955E-1,-0E0,3.2451347E-1,8.275835E-2,7.397673E-2,4.7640496E-1,-0E0,-8.055979E-2,1.6E0,-0E0,-2.016826E-2,-7.315487E-2,4.9051642E-3,-2.3929756E-3,-0E0,-8.1587985E-2,-0E0,1.1034752E-2,-0E0,-3.592855E-2,-3.606773E-3,-0E0,-0E0,-3.89638E-2,-0E0,1.837445E-2,5.289016E-2,-0E0,-3.9844315E-2,-0E0,2.8767532E-2,-0E0,-1.7620787E-2,2.6179936E-3,-0E0,1.8315947E-2,-2.2875775E-2,-0E0,5.612939E-2,-0E0],"split_indices":[6,7,6,0,0,7,2,0,0,6,7,0,0,0,6,0,0,2,0,0,7,0,7,0,7,0,7,0,5,7,7,7,0,0,0,0,5,0,0,5,0,6,0,0,1,0,7,7,0,7,0,7,0,0,0,0,0,0,0,0,7,6,0,5,6,6,5,0,0,0,0,0,0,0,0,0,0,0,0,0,0,0,0,0,0,0,0,0,0,0,0,0,0,0,0,0,0,0,0,0,0],"split_type":[0,0,0,0,0,0,0,0,0,0,0,0,0,0,0,0,0,0,0,0,0,0,0,0,0,0,0,0,0,0,0,0,0,0,0,0,0,0,0,0,0,0,0,0,0,0,0,0,0,0,0,0,0,0,0,0,0,0,0,0,0,0,0,0,0,0,0,0,0,0,0,0,0,0,0,0,0,0,0,0,0,0,0,0,0,0,0,0,0,0,0,0,0,0,0,0,0,0,0,0,0],"sum_hessian":[2.3762996E3,1.7665875E3,6.097119E2,1.6333905E3,1.3319707E2,2.0251066E1,5.894608E2,3.2637085E1,1.6007534E3,5.55465E1,7.765056E1,1.4854493E0,1.8765615E1,5.618874E2,2.7573462E1,1.1269999E3,4.7375357E2,5.0731186E1,4.815317E0,1.1796568E1,6.5854E1,2.9833097E0,1.5782307E1,4.4559174E2,1.16295654E2,2.030778E0,2.5542683E1,8.9770667E2,2.292932E2,1.7516269E2,2.9859088E2,4.912063E1,1.6105568E0,6.8122053E0,4.984362E0,2.6152878E1,3.9701115E1,1.3815345E1,1.9669615E0,3.8902325E1,4.066894E2,8.89683E1,2.7327349E1,1.0921948E0,2.4450489E1,7.6342035E2,1.342863E2,2.2508887E2,4.2043314E0,1.6950468E2,5.6579967E0,2.9211948E2,6.471407E0,2.7685028E1,2.14356E1,2.4881323E1,1.2715553E0,3.8514153E1,1.1869639E0,1.3876952E0,1.24276495E1,3.6701748E1,2.200573E0,1.204141E2,2.862753E2,6.2228416E1,2.6739885E1,4.584572E0,2.2742777E1,1.5894836E1,8.555653E0,6.662431E2,9.717723E1,2.1200253E1,1.1308605E2,1.5351957E1,2.0973691E2,1.8321512E1,1.5118317E2,3.969094E1,2.5242853E2,1.5184367E1,1.250066E1,5.2407227E0,1.96406E1,8.337584E0,3.0176569E1,1.0963229E1,1.4644202E0,3.434459E1,2.3571606E0,1.12260895E2,8.153206E0,1.6349304E2,1.2278226E2,5.1209938E1,1.1018478E1,2.5649036E1,1.0908499E0,1.4732411E1,1.1624248E0],"tree_param":{"num_deleted":"0","num_feature":"8","num_nodes":"101","size_leaf_vector":"1"}},{"base_weights":[-5.4521844E-2,-6.865116E-2,-0E0,-2.1136282E-2,-9.143711E-2,1.3898984E-1,-1.7068937E-2,-7.717339E-2,1.4288627E-1,-1.0997197E-1,-0E0,-0E0,1.9535337E-1,-3.5013855E-2,9.213082E-2,-1.3982639E-2,-2.4919552E-1,-0E0,2.0562841E-1,-0E0,-1.18060544E-1,5.9150193E-2,-4.4735674E-2,2.3171127E-1,-0E0,-1.7638305E-1,-6.1012628E-3,-0E0,3.047569E-2,-4.1749217E-2,9.068967E-3,-0E0,-3.00483E-1,6.434207E-3,-8.392768E-2,2.2092813E-1,-0E0,-1.8629946E-3,2.8077139E-2,-1.2264779E-1,-0E0,-0E0,1.6989774E-1,-2.9292515E-1,-0E0,2.5272423E-1,-0E0,-0E0,-2.5928283E-1,5.374989E-2,-3.675574E-2,-7.706719E-2,-0E0,3.9514806E-2,-5.092422E-2,-9.5188834E-2,-0E0,-0E0,6.6048647E-3,-3.050086E-2,-0E0,2.3337871E-1,-0E0,-4.5324355E-2,-0E0,-0E0,8.967796E-2,-1.2543036E-1,-0E0,-0E0,1.747048E-1,-9.3810454E-2,-0E0,8.764765E-2,-6.5314784E-3,7.8281336E-2,-0E0,-2.899148E-1,-0E0,8.199898E-2,-0E0,-1.0912419E-1,-2.4735747E-4,-3.0696081E-2,-0E0,-0E0,3.7766818E-3,-3.3326432E-2,-0E0,-0E0,7.183485E-2,-0E0,-2.9590176E-2,3.996985E-2,-0E0,-4.4080134E-2,-1.8421326E-2,5.4470286E-2,-0E0,-0E0,3.4319E-2,-2.0860918E-2,-0E0,-9.213847E-2,-0E0,2.9747661E-2,-0E0,-0E0,-4.189562E-2,2.0457793E-3,-1.3327171E-2],"categories":[],"categories_nodes":[],"categories_segments":[],"categories_sizes":[],"default_left":[0,0,0,0,1,1,0,0,0,0,0,0,0,0,0,1,0,0,1,0,1,0,0,1,0,0,0,0,0,0,0,0,0,0,0,0,0,0,0,0,0,0,0,1,0,0,0,0,0,0,0,0,0,0,0,0,0,0,0,0,0,0,0,0,0,0,1,1,0,0,1,0,0,0,1,0,0,0,0,1,0,1,0,0,0,0,0,0,0,0,0,0,0,0,0,0,0,0,0,0,0,0,0,0,0,0,0,0,0,0,0],"id":17,"left_children":[1,3,5,7,9,11,13,15,17,19,21,-1,23,25,27,29,31,33,35,37,39,41,43,45,-1,47,49,-1,-1,51,53,-1,55,57,59,61,-1,63,65,67,-1,-1,69,71,73,75,-1,-1,77,79,81,83,85,-1,87,-1,-1,-1,-1,-1,-1,89,-1,91,-1,-1,93,95,-1,-1,97,-1,-1,99,101,-1,-1,103,-1,105,-1,107,109,-1,-1,-1,-1,-1,-1,-1,-1,-1,-1,-1,-1,-1,-1,-1,-1,-1,-1,-1,-1,-1,-1,-1,-1,-1,-1,-1,-1],"loss_changes":[1.595355E0,1.38659E0,9.130266E-1,5.8874235E0,1.8005342E0,6.0601497E-1,7.149718E-1,4.367451E0,1.723789E0,9.297209E-1,5.6426036E-1,0E0,5.028305E-1,1.0134978E0,4.9244493E-2,4.3019918E-1,2.6714587E0,1.7087463E-1,3.9508486E-1,2.3492835E-2,8.121567E-1,7.351556E-1,2.5073798E0,2.5339782E-1,0E0,1.0528946E0,7.165522E-1,0E0,0E0,5.326351E-1,1.4284226E0,0E0,6.292734E-1,1.1112255E-2,5.54955E-2,3.9215183E-1,0E0,7.642185E-2,1.7654103E-1,5.690298E-1,0E0,0E0,2.039969E-2,2.8940678E-1,3.3590102E-1,5.333519E-2,0E0,0E0,2.4694109E-1,3.0971736E-1,3.6001578E-1,7.127522E-1,1.6660217E-2,0E0,3.057487E-1,0E0,0E0,0E0,0E0,0E0,0E0,1.364975E-1,0E0,2.3608728E-1,0E0,0E0,1.9043744E-1,9.7955704E-2,0E0,0E0,1.2645841E-2,0E0,0E0,1.4274353E-1,3.139258E-1,0E0,0E0,2.5253654E-1,0E0,2.2482431E-1,0E0,2.628187E-1,2.7790844E-1,0E0,0E0,0E0,0E0,0E0,0E0,0E0,0E0,0E0,0E0,0E0,0E0,0E0,0E0,0E0,0E0,0E0,0E0,0E0,0E0,0E0,0E0,0E0,0E0,0E0,0E0,0E0,0E0],"parents":[2147483647,0,0,1,1,2,2,3,3,4,4,5,5,6,6,7,7,8,8,9,9,10,10,12,12,13,13,14,14,15,15,16,16,17,17,18,18,19,19,20,20,21,21,22,22,23,23,25,25,26,26,29,29,30,30,32,32,33,33,34,34,35,35,37,37,38,38,39,39,42,42,43,43,44,44,45,45,48,48,49,49,50,50,51,51,52,52,54,54,61,61,63,63,66,66,67,67,70,70,73,73,74,74,77,77,79,79,81,81,82,82],"right_children":[2,4,6,8,10,12,14,16,18,20,22,-1,24,26,28,30,32,34,36,38,40,42,44,46,-1,48,50,-1,-1,52,54,-1,56,58,60,62,-1,64,66,68,-1,-1,70,72,74,76,-1,-1,78,80,82,84,86,-1,88,-1,-1,-1,-1,-1,-1,90,-1,92,-1,-1,94,96,-1,-1,98,-1,-1,100,102,-1,-1,104,-1,106,-1,108,110,-1,-1,-1,-1,-1,-1,-1,-1,-1,-1,-1,-1,-1,-1,-1,-1,-1,-1,-1,-1,-1,-1,-1,-1,-1,-1,-1,-1],"split_conditions":[2.338845E-2,7E-1,3.022767E-2,6E-1,1.5E0,3E-1,6.082725E-2,5E-1,5.621E-1,9.59E-2,1.7E0,-0E0,1.9E0,3.0987583E-2,1.95E-1,1.632E-1,1.307E-1,2.206E-1,8.122E-1,1.2E0,9.759E-1,1.6E0,1.8E0,9.411E-1,-0E0,5.907E-1,5.0745334E-2,-0E0,3.047569E-2,4E-1,5.001E-1,-0E0,1.3678443E-2,3.53E-2,5.001E-1,1.8237924E-2,-0E0,8.45E-2,2.3E-2,1.09467255E-2,-0E0,-0E0,5.56E-2,7.221E-1,1.9E0,3.1305397E-1,-0E0,-0E0,1.4E0,2.803483E-1,6.716791E-2,1.8237924E-2,1.632E-1,3.9514806E-2,8.047E-1,-9.5188834E-2,-0E0,-0E0,6.6048647E-3,-3.050086E-2,-0E0,6.51E-1,-0E0,1.9E-2,-0E0,-0E0,1.4E0,1.1E0,-0E0,-0E0,4.048E-1,-9.3810454E-2,-0E0,4.342E-1,2.206E-1,7.8281336E-2,-0E0,3.8208452E-1,-0E0,1.7E0,-0E0,4E-1,1.27297E-1,-3.0696081E-2,-0E0,-0E0,3.7766818E-3,-3.3326432E-2,-0E0,-0E0,7.183485E-2,-0E0,-2.9590176E-2,3.996985E-2,-0E0,-4.4080134E-2,-1.8421326E-2,5.4470286E-2,-0E0,-0E0,3.4319E-2,-2.0860918E-2,-0E0,-9.213847E-2,-0E0,2.9747661E-2,-0E0,-0E0,-4.189562E-2,2.0457793E-3,-1.3327171E-2],"split_indices":[6,0,6,0,0,0,2,0,7,7,0,0,0,6,7,7,7,7,7,0,7,0,0,7,0,7,6,0,0,0,7,0,6,7,7,6,0,7,7,1,0,0,7,7,0,5,0,0,0,5,6,6,7,0,7,0,0,0,0,0,0,7,0,7,0,0,0,0,0,0,7,0,0,7,7,0,0,5,0,0,0,0,6,0,0,0,0,0,0,0,0,0,0,0,0,0,0,0,0,0,0,0,0,0,0,0,0,0,0,0,0],"split_type":[0,0,0,0,0,0,0,0,0,0,0,0,0,0,0,0,0,0,0,0,0,0,0,0,0,0,0,0,0,0,0,0,0,0,0,0,0,0,0,0,0,0,0,0,0,0,0,0,0,0,0,0,0,0,0,0,0,0,0,0,0,0,0,0,0,0,0,0,0,0,0,0,0,0,0,0,0,0,0,0,0,0,0,0,0,0,0,0,0,0,0,0,0,0,0,0,0,0,0,0,0,0,0,0,0,0,0,0,0,0,0],"sum_hessian":[2.3309043E3,1.8060946E3,5.2480963E2,6.608888E2,1.1452058E3,3.2735744E1,4.9207388E2,5.1808044E2,1.4280832E2,9.384266E2,2.0677922E2,3.7417376E0,2.8994007E1,4.6603326E2,2.6040607E1,4.0568924E2,1.12391205E2,3.67051E1,1.06103226E2,5.8406006E1,8.8002057E2,7.4750916E1,1.320283E2,2.7949965E1,1.0440419E0,4.3703655E1,4.2232962E2,1.0921948E0,2.4948414E1,2.7983893E2,1.2585033E2,7.690486E0,1.04700714E2,1.9602776E1,1.7102325E1,9.907486E1,7.0283647E0,3.5793488E1,2.2612516E1,8.689E2,1.1120568E1,4.637337E1,2.8377546E1,2.546442E1,1.0656389E2,2.6347126E1,1.6028378E0,1.1577823E1,3.2125835E1,8.601262E1,3.36317E2,1.6685643E2,1.1298249E2,6.596631E1,5.9884014E1,9.942704E1,5.273672E0,1.4052533E0,1.8197521E1,1.4793119E1,2.3092055E0,9.525872E1,3.8161376E0,3.027327E1,5.5202193E0,4.7577615E0,1.7854755E1,8.6663727E2,2.262735E0,1.2517097E0,2.7125837E1,2.4447649E1,1.0167722E0,3.6296013E1,7.0267876E1,2.5064146E1,1.2829809E0,2.7232674E1,4.89316E0,7.902763E1,6.984984E0,6.2181084E1,2.7413593E2,1.5970874E2,7.147691E0,1.4858352E1,9.812414E1,3.183107E1,2.8052944E1,2.7387345E0,9.251999E1,5.1354437E0,2.5137825E1,1.498879E1,2.8659651E0,5.835063E2,2.83131E2,2.4978443E1,2.1473944E0,6.972718E0,2.9323296E1,5.8605328E1,1.1662544E1,2.618019E1,1.052485E0,7.469452E1,4.333115E0,1.34640045E1,4.871708E1,1.438607E2,1.302752E2],"tree_param":{"num_deleted":"0","num_feature":"8","num_nodes":"111","size_leaf_vector":"1"}},{"base_weights":[-3.9122257E-2,-4.4396147E-2,2.0425344E-2,-5.145762E-2,-0E0,1.00572065E-1,-5.7640452E-2,-5.8567286E-2,-0E0,-9.227468E-2,2.4001345E-2,2.1446717E-1,-0E0,-1.303666E-1,-0E0,-5.1028438E-2,-2.7477962E-1,3.8249377E-2,-1.3608803E-2,-1.1381374E-1,-0E0,6.0419034E-2,-0E0,3.365782E-1,-0E0,-6.436443E-2,-0E0,-0E0,-1.5499939E-1,-5.582114E-2,3.4919634E-2,-8.68035E-2,-0E0,8.709097E-2,-0E0,-4.113257E-2,2.5308793E-2,-0E0,-3.5465542E-2,9.032876E-2,-0E0,-6.9714755E-2,-0E0,-0E0,4.3174204E-1,-1.1099786E-1,-0E0,-5.7222437E-2,-0E0,-5.8736123E-2,-0E0,1.14948325E-1,-0E0,3.7016436E-2,-0E0,-6.2230945E-2,-0E0,3.0115984E-2,-0E0,1.18523374E-1,-0E0,-0E0,-1.4771209E-2,-0E0,-1.4268138E-1,1.2394564E-2,-0E0,4.5620844E-1,-0E0,-4.2373434E-2,-0E0,-0E0,-1.8377546E-2,3.7754815E-2,-0E0,-0E0,-2.4123376E-2,1.452729E-3,-0E0,3.9941788E-2,-0E0,-2.01595E-2,-0E0,-4.9648773E-2,-0E0,1.4654727E-2,-0E0,1.487252E-1,-0E0],"categories":[],"categories_nodes":[],"categories_segments":[],"categories_sizes":[],"default_left":[0,1,0,0,1,1,0,0,0,0,0,0,0,0,0,0,0,0,1,0,0,0,0,0,0,0,0,0,0,0,0,0,0,1,0,0,1,0,0,0,0,0,0,0,0,0,0,0,0,0,0,1,0,0,0,0,0,0,0,0,0,0,0,0,0,0,0,1,0,0,0,0,0,0,0,0,0,0,0,0,0,0,0,0,0,0,0,0,0],"id":18,"left_children":[1,3,5,7,9,11,13,15,17,19,21,23,25,27,-1,29,31,33,35,37,-1,39,41,43,-1,45,-1,-1,47,49,51,-1,-1,53,-1,55,57,-1,-1,59,61,63,65,-1,67,69,-1,-1,-1,71,-1,73,-1,-1,-1,75,77,-1,-1,79,-1,-1,81,-1,83,85,-1,87,-1,-1,-1,-1,-1,-1,-1,-1,-1,-1,-1,-1,-1,-1,-1,-1,-1,-1,-1,-1,-1],"loss_changes":[8.488462E-1,8.560195E-1,9.7397643E-1,6.4358234E-1,3.3318168E-1,2.0043375E0,4.0629452E-1,1.0396175E0,1.11520186E-1,8.9354396E-2,4.365849E-1,2.6010492E0,1.3768518E-1,1.8511075E-1,0E0,8.065543E-1,8.359647E-2,2.5018212E-1,3.2699832E-1,3.27003E-3,0E0,3.8868093E-1,2.624427E-1,2.8113008E0,0E0,2.446962E-1,0E0,0E0,2.3610789E-1,2.890768E-1,4.0591916E-1,0E0,0E0,2.5904366E-1,0E0,3.645453E-1,1.9382629E-1,0E0,0E0,5.775351E-1,7.4211136E-3,5.379655E-1,2.442895E-3,0E0,4.31489E-1,1.6659772E-1,0E0,0E0,0E0,3.3713102E-1,0E0,7.0598125E-2,0E0,0E0,0E0,3.727486E-1,6.162056E-4,0E0,0E0,3.6438525E-1,0E0,0E0,1.3434044E-1,0E0,2.0401794E-1,3.2619905E-2,0E0,1.3206377E0,0E0,0E0,0E0,0E0,0E0,0E0,0E0,0E0,0E0,0E0,0E0,0E0,0E0,0E0,0E0,0E0,0E0,0E0,0E0,0E0,0E0],"parents":[2147483647,0,0,1,1,2,2,3,3,4,4,5,5,6,6,7,7,8,8,9,9,10,10,11,11,12,12,13,13,15,15,16,16,17,17,18,18,19,19,21,21,22,22,23,23,25,25,28,28,29,29,30,30,33,33,35,35,36,36,39,39,40,40,41,41,42,42,44,44,45,45,49,49,51,51,55,55,56,56,59,59,62,62,64,64,65,65,67,67],"right_children":[2,4,6,8,10,12,14,16,18,20,22,24,26,28,-1,30,32,34,36,38,-1,40,42,44,-1,46,-1,-1,48,50,52,-1,-1,54,-1,56,58,-1,-1,60,62,64,66,-1,68,70,-1,-1,-1,72,-1,74,-1,-1,-1,76,78,-1,-1,80,-1,-1,82,-1,84,86,-1,88,-1,-1,-1,-1,-1,-1,-1,-1,-1,-1,-1,-1,-1,-1,-1,-1,-1,-1,-1,-1,-1],"split_conditions":[2.5375032E-1,5.735E-1,4.5146462E-1,1.8E0,2E-1,3.766E-1,7.719581E-1,1.7E0,1.9E0,6.8768585E-1,9E-1,1.1E0,4.3141836E-1,2.868E-1,-0E0,1.6E0,7.599135E-2,2.7135666E-2,2.744E-1,6.201E-1,-0E0,9.411E-1,9.33E-1,2.079E-1,-0E0,1.5E0,-0E0,-0E0,1.982275E-1,1.4744517E-1,1.21586155E-2,-8.68035E-2,-0E0,1.766E-1,-0E0,3.6982458E-2,2E0,-0E0,-3.5465542E-2,1.1550685E-1,4E-1,6.822E-1,9.632E-1,-0E0,4.3459088E-1,1.1795198E-1,-0E0,-5.7222437E-2,-0E0,2E-1,-0E0,3.29E-1,-0E0,3.7016436E-2,-0E0,1.155E-1,2.0510402E-1,3.0115984E-2,-0E0,6.5561885E-1,-0E0,-0E0,5.356177E-1,-0E0,1.9E0,4.3906115E-2,-0E0,3.183E-1,-0E0,-4.2373434E-2,-0E0,-0E0,-1.8377546E-2,3.7754815E-2,-0E0,-0E0,-2.4123376E-2,1.452729E-3,-0E0,3.9941788E-2,-0E0,-2.01595E-2,-0E0,-4.9648773E-2,-0E0,1.4654727E-2,-0E0,1.487252E-1,-0E0],"split_indices":[5,7,5,0,0,7,1,0,0,2,0,0,5,7,0,0,6,6,7,7,0,7,7,7,0,0,0,0,6,6,6,0,0,7,0,6,0,0,0,6,0,7,7,0,5,6,0,0,0,0,0,7,0,0,0,7,6,0,0,2,0,0,2,0,0,6,0,7,0,0,0,0,0,0,0,0,0,0,0,0,0,0,0,0,0,0,0,0,0],"split_type":[0,0,0,0,0,0,0,0,0,0,0,0,0,0,0,0,0,0,0,0,0,0,0,0,0,0,0,0,0,0,0,0,0,0,0,0,0,0,0,0,0,0,0,0,0,0,0,0,0,0,0,0,0,0,0,0,0,0,0,0,0,0,0,0,0,0,0,0,0,0,0,0,0,0,0,0,0,0,0,0,0,0,0,0,0,0,0,0,0],"sum_hessian":[2.2940686E3,2.1861938E3,1.0787482E2,1.9488403E3,2.3735355E2,8.383527E1,2.4039543E1,1.6904374E3,2.5840292E2,1.6730497E1,2.2062305E2,5.6551224E1,2.7284052E1,2.2973965E1,1.0655789E0,1.6641882E3,2.6249096E1,4.079353E1,2.176094E2,1.5496543E1,1.233955E0,1.4851753E2,7.2105515E1,4.176345E1,1.4787772E1,2.6234972E1,1.0490795E0,1.0650277E0,2.1908936E1,1.6337161E3,3.0472216E1,2.3984406E1,2.2646904E0,3.520325E1,5.5902786E0,2.0248427E2,1.5125141E1,1.4111958E0,1.4085346E1,1.102151E2,3.8302425E1,4.699892E1,2.5106594E1,4.0455847E0,3.7717865E1,2.4036123E1,2.198849E0,1.8579462E1,3.329475E0,1.5586967E3,7.5019356E1,2.7179071E1,3.2931442E0,3.1040236E1,4.163015E0,1.786511E2,2.3833176E1,1.3639918E1,1.4852229E0,1.0219342E2,8.021682E0,1.1290047E1,2.7012379E1,1.4682232E1,3.231669E1,8.901652E0,1.620494E1,3.5123264E1,2.594601E0,2.051763E1,3.5184932E0,3.6443535E1,1.5222532E3,2.5971846E1,1.2072256E0,1.681053E1,1.6184056E2,1.9278406E1,4.554771E0,1.00091545E2,2.1018794E0,2.4393633E1,2.6187458E0,2.967275E1,2.6439385E0,7.693786E0,1.2078667E0,3.404506E1,1.078207E0],"tree_param":{"num_deleted":"0","num_feature":"8","num_nodes":"89","size_leaf_vector":"1"}},{"base_weights":[-2.8277747E-2,-3.1994265E-2,5.0384257E-2,-8.482631E-3,-4.825652E-2,-0E0,1.1623578E-1,-4.3765053E-2,1.0558891E-1,-1.4967975E-1,-2.9654143E-2,-1.8377645E-2,-0E0,1.7696503E-1,-0E0,-5.453191E-3,-1.8751106E-1,1.5778218E-1,-0E0,-1.6957255E-1,-0E0,4.8320796E-2,-5.1219746E-2,2.626869E-1,-0E0,-1.9786764E-2,-0E0,-0E0,-2.7656174E-1,-0E0,4.852454E-2,-1.16766974E-1,3.5437882E-2,-0E0,-1.9006912E-1,6.9621794E-2,-0E0,-6.0382202E-2,-0E0,8.5038245E-2,-0E0,1.4667411E-1,-1.05092125E-2,-2.9572535E-1,-0E0,-0E0,-3.8059086E-2,1.4472896E-1,-0E0,-6.107599E-2,-0E0,8.0240585E-2,-0E0,-4.446541E-2,-2.447567E-1,8.484039E-3,-0E0,6.415318E-2,-0E0,-2.2583002E-2,-0E0,-9.129475E-2,-0E0,5.7013337E-2,-0E0,2.6567163E-2,-0E0,-1.7401645E-2,2.1936629E-2,-7.85407E-2,-0E0,1.9848429E-2,-0E0,-9.959899E-3,-0E0],"categories":[],"categories_nodes":[],"categories_segments":[],"categories_sizes":[],"default_left":[0,1,0,1,0,0,0,1,1,0,0,0,0,0,0,0,0,0,0,0,0,0,0,0,0,0,0,0,0,0,0,0,0,0,0,1,0,0,0,0,0,1,0,0,0,0,0,0,0,0,0,0,0,0,1,0,1,0,0,0,0,0,0,0,0,0,0,0,0,0,0,0,0,0,0],"id":19,"left_children":[1,3,5,7,9,11,13,15,17,19,21,-1,-1,23,-1,25,27,29,31,33,-1,35,37,39,-1,-1,41,-1,43,-1,-1,45,47,-1,49,51,-1,53,55,-1,-1,57,59,61,-1,-1,-1,63,-1,-1,-1,65,-1,67,69,71,73,-1,-1,-1,-1,-1,-1,-1,-1,-1,-1,-1,-1,-1,-1,-1,-1,-1,-1],"loss_changes":[5.846523E-1,5.691714E-1,3.3393463E-1,3.9462848E0,1.3283811E0,5.5063657E-2,3.4404117E-1,3.6531177E0,1.705055E0,7.3239684E-1,1.8157192E0,0E0,0E0,8.2885224E-1,0E0,3.3313084E-1,3.1576705E0,1.7190075E-1,5.330881E-1,4.497583E-1,0E0,4.294904E-1,4.4239497E-1,1.8090641E-1,0E0,0E0,1.1842157E0,0E0,8.749857E-1,0E0,0E0,5.3023517E-2,4.1394532E-1,0E0,5.054846E-1,2.2975415E-1,0E0,7.0180917E-1,3.774212E-3,0E0,0E0,5.817158E-1,7.087791E-1,3.8533974E-1,0E0,0E0,0E0,4.2148203E-2,0E0,0E0,0E0,2.2558153E-1,0E0,1.1182294E0,2.1992636E-1,1.9645348E-1,8.214899E-2,0E0,0E0,0E0,0E0,0E0,0E0,0E0,0E0,0E0,0E0,0E0,0E0,0E0,0E0,0E0,0E0,0E0,0E0],"parents":[2147483647,0,0,1,1,2,2,3,3,4,4,5,5,6,6,7,7,8,8,9,9,10,10,13,13,15,15,16,16,17,17,18,18,19,19,21,21,22,22,23,23,26,26,28,28,31,31,32,32,34,34,35,35,37,37,38,38,41,41,42,42,43,43,47,47,51,51,53,53,54,54,55,55,56,56],"right_children":[2,4,6,8,10,12,14,16,18,20,22,-1,-1,24,-1,26,28,30,32,34,-1,36,38,40,-1,-1,42,-1,44,-1,-1,46,48,-1,50,52,-1,54,56,-1,-1,58,60,62,-1,-1,-1,64,-1,-1,-1,66,-1,68,70,72,74,-1,-1,-1,-1,-1,-1,-1,-1,-1,-1,-1,-1,-1,-1,-1,-1,-1,-1],"split_conditions":[1.8248175E-1,7E-1,8.122E-1,6E-1,8E-1,1E0,2.8148723E-1,5E-1,1.81E-1,2.7539265E-1,9E-1,-1.8377645E-2,-0E0,1.6E0,-0E0,2.155E-1,8.204E-1,3.53E-2,6.51E-1,2.744E-1,-0E0,2.714411E-1,1.8E0,4.474624E-1,-0E0,-1.9786764E-2,3.541E-1,-0E0,3.532382E-1,-0E0,4.852454E-2,2.03E-1,3.4787152E-2,-0E0,2.550171E-1,7.902E-1,-0E0,1.7E0,1.9E0,8.5038245E-2,-0E0,4E-1,3E-1,3.8282752E-1,-0E0,-0E0,-3.8059086E-2,8.122E-1,-0E0,-6.107599E-2,-0E0,3.355865E-1,-0E0,1.6E0,8.047E-1,2.7135666E-2,2.206E-1,6.415318E-2,-0E0,-2.2583002E-2,-0E0,-9.129475E-2,-0E0,5.7013337E-2,-0E0,2.6567163E-2,-0E0,-1.7401645E-2,2.1936629E-2,-7.85407E-2,-0E0,1.9848429E-2,-0E0,-9.959899E-3,-0E0],"split_indices":[2,0,7,0,0,0,1,0,7,5,0,0,0,0,0,7,7,7,7,7,0,5,0,5,0,0,7,0,5,0,0,7,6,0,6,7,0,0,0,0,0,0,0,6,0,0,0,7,0,0,0,6,0,0,7,6,7,0,0,0,0,0,0,0,0,0,0,0,0,0,0,0,0,0,0],"split_type":[0,0,0,0,0,0,0,0,0,0,0,0,0,0,0,0,0,0,0,0,0,0,0,0,0,0,0,0,0,0,0,0,0,0,0,0,0,0,0,0,0,0,0,0,0,0,0,0,0,0,0,0,0,0,0,0,0,0,0,0,0,0,0,0,0,0,0,0,0,0,0,0,0,0,0],"sum_hessian":[2.2687688E3,2.231074E3,3.769486E1,1.0422794E3,1.1887946E3,1.158081E1,2.6114048E1,8.3283075E2,2.0944872E2,1.3494507E2,1.0538495E3,7.673302E0,3.907508E0,1.8272104E1,7.8419437E0,6.907721E2,1.4205869E2,1.5842316E2,5.1025566E1,1.290653E2,5.879749E0,1.7620572E2,8.776438E2,1.6480947E1,1.7911564E0,7.434856E1,6.164235E2,3.9253094E1,1.0280559E2,1.4427801E0,1.5698038E2,2.9468029E1,2.1557535E1,1.5313991E1,1.1375132E2,1.6985641E2,6.349303E0,7.508763E2,1.267675E2,1.5416863E1,1.064085E0,4.5076683E1,5.7134686E2,9.904058E1,3.7650046E0,2.2792048E0,2.7188824E1,1.44742155E1,7.08332E0,1.1044445E2,3.30687E0,1.6182858E2,8.02783E0,7.241669E2,2.6709408E1,4.543496E1,8.133254E1,3.0220337E1,1.4856345E1,1.2935281E2,4.4199402E2,9.7299255E1,1.7413248E0,6.621253E0,7.852963E0,1.603718E2,1.4567845E0,6.907018E2,3.3465076E1,2.5671469E1,1.0379395E0,3.8741924E1,6.6930323E0,6.7530655E1,1.3801886E1],"tree_param":{"num_deleted":"0","num_feature":"8","num_nodes":"75","size_leaf_vector":"1"}},{"base_weights":[-2.0657051E-2,-2.9795568E-2,-0E0,-4.3237288E-2,-0E0,1.21254265E-1,-8.5884077E-4,-1.8336184E-2,-1.15128025E-1,4.1692387E-2,-2.7025841E-2,-0E0,4.1794438E-2,-6.3576296E-2,-0E0,-4.3909602E-2,4.841234E-4,-1.2783645E-1,-0E0,6.260143E-2,-0E0,-1.0755863E-1,-0E0,-0E0,-1.7134896E-1,1.10037036E-1,-4.7679877E-4,-2.2940564E-3,-1.5086001E-1,6.553772E-2,-2.0243403E-2,-0E0,-1.424662E-1,-0E0,7.794416E-2,-0E0,-1.3000739E-1,6.973376E-2,-2.1475358E-2,7.014997E-2,-0E0,-2.2331776E-1,-0E0,-0E0,1.9070278E-1,-1.5812159E-2,6.294015E-2,-2.4489801E-2,-0E0,-0E0,-5.9518E-2,-0E0,9.544721E-2,-1.306482E-1,2.0318354E-2,-1.5163974E-1,-0E0,2.6227204E-2,-0E0,-1.3094366E-1,-0E0,-0E0,1.0767182E-1,-4.6174124E-2,-0E0,-0E0,1.6424184E-1,-0E0,-8.301954E-2,2.4966487E-1,-0E0,-1.2040907E-1,-0E0,-0E0,2.1119595E-2,2.4344906E-2,-3.675532E-3,-0E0,-1.0459785E-2,3.188361E-2,-0E0,-4.1430693E-2,-0E0,7.349589E-3,-0E0,-4.646777E-2,