{"learner":{"attributes":{"best_iteration":"21","best_score":"0.08530215756194655"},"feature_names":["loeuf","clin_ot","hgmd","ot_genetics_portal","expression_atlas","impc","europepmc","mantis"],"feature_types":["float","float","float","float","float","float","float","float"],"gradient_booster":{"model":{"gbtree_model_param":{"num_parallel_tree":"1","num_trees":"37"},"iteration_indptr":[0,1,2,3,4,5,6,7,8,9,10,11,12,13,14,15,16,17,18,19,20,21,22,23,24,25,26,27,28,29,30,31,32,33,34,35,36,37],"tree_info":[0,0,0,0,0,0,0,0,0,0,0,0,0,0,0,0,0,0,0,0,0,0,0,0,0,0,0,0,0,0,0,0,0,0,0,0,0],"trees":[{"base_weights":[-1.0523537E0,-1.072736E0,-8.719543E-1,-1.0736749E0,-1.787779E-1,-8.7835914E-1,-0E0,-1.073779E0,-0E0,-1.19859084E-1,-0E0,-8.8004625E-1,-0E0,-4.9274437E-2,-0E0,-3.221504E-1,-0E0,-2.6457807E-1,-0E0,-1.3549624E-1,-0E0,1.006077E-1,-0E0,-0E0,-1.8445183E-1,-0E0,3.9242048E-2,-6.50163E-2,-0E0],"categories":[],"categories_nodes":[],"categories_segments":[],"categories_sizes":[],"default_left":[0,1,0,0,1,0,0,0,0,0,0,0,0,0,1,0,0,0,0,0,0,0,0,0,0,0,0,0,0],"id":0,"left_children":[1,3,5,7,9,11,13,15,-1,-1,-1,17,-1,19,21,-1,-1,-1,-1,23,-1,25,-1,-1,27,-1,-1,-1,-1],"loss_changes":[7.809766E1,1.1699219E1,1.3482056E1,3.890625E0,2.5552025E0,4.670532E0,5.0838973E-2,6.269531E-1,0E0,0E0,0E0,3.9644775E0,0E0,3.1176123E-1,1.1241419E-1,0E0,0E0,0E0,0E0,2.7259135E-1,0E0,4.6184383E-2,0E0,0E0,1.7063892E-1,0E0,0E0,0E0,0E0],"parents":[2147483647,0,0,1,1,2,2,3,3,4,4,5,5,6,6,7,7,11,11,13,13,14,14,19,19,21,21,24,24],"right_children":[2,4,6,8,10,12,14,16,-1,-1,-1,18,-1,20,22,-1,-1,-1,-1,24,-1,26,-1,-1,28,-1,-1,-1,-1],"split_conditions":[1.21586155E-2,9.751E-1,4.523902E-1,5.1965636E-1,6E-1,8.5619175E-1,3.3776635E-1,7.0026785E-1,-0E0,-1.19859084E-1,-0E0,3.6261937E-1,-0E0,8.725831E-1,7E-1,-3.221504E-1,-0E0,-2.6457807E-1,-0E0,2.4148362E-2,-0E0,4E-1,-0E0,-0E0,2E0,-0E0,3.9242048E-2,-6.50163E-2,-0E0],"split_indices":[6,7,1,3,0,2,5,5,0,0,0,3,0,2,0,0,0,0,0,6,0,0,0,0,0,0,0,0,0],"split_type":[0,0,0,0,0,0,0,0,0,0,0,0,0,0,0,0,0,0,0,0,0,0,0,0,0,0,0,0,0],"sum_hessian":[2.5657156E4,2.2996559E4,2.6605972E3,2.296544E4,3.111936E1,2.6393108E3,2.1286507E1,2.296436E4,1.0805334E0,1.6640213E1,1.4479147E1,2.6352046E3,4.1060266E0,1.393888E1,7.3476267E0,2.2962521E4,1.8369067E0,2.6290457E3,6.15904E0,1.2750294E1,1.1885867E0,4.1060266E0,3.2416E0,1.0805334E0,1.166976E1,1.8369067E0,2.26912E0,1.0157013E1,1.5127467E0],"tree_param":{"num_deleted":"0","num_feature":"8","num_nodes":"29","size_leaf_vector":"1"}},{"base_weights":[-9.8963505E-1,-1.0145981E0,-7.7925164E-1,-1.0165564E0,-3.940594E-1,-7.854977E-1,-0E0,-1.0166873E0,-0E0,-6.0895807E-1,-0E0,-7.883448E-1,-0E0,-0E0,1.2271205E-2,-3.0502596E-1,-0E0,-6.5460014E-1,-0E0,-0E0,8.233952E-3,-7.9106736E-1,-0E0,-4.3672435E-2,-0E0,-1.9918714E-1,-0E0,-2.3746817E-1,-0E0,-0E0,-1.3660823E-1,-4.872202E-2,-0E0],"categories":[],"categories_nodes":[],"categories_segments":[],"categories_sizes":[],"default_left":[0,1,0,0,1,0,0,0,0,0,0,0,0,0,0,0,0,0,0,0,0,0,0,0,0,0,0,0,0,0,0,0,0],"id":1,"left_children":[1,3,5,7,9,11,13,15,-1,17,19,21,-1,23,-1,-1,-1,25,-1,-1,-1,27,-1,29,-1,-1,-1,-1,-1,-1,31,-1,-1],"loss_changes":[9.073047E1,1.1855469E1,1.2279541E1,3.6210938E0,8.192177E0,4.374634E0,1.5864737E-2,4.8828125E-1,0E0,2.6034794E0,1.3947862E-2,3.536499E0,0E0,3.3138517E-2,0E0,0E0,0E0,1.5587616E-1,0E0,0E0,0E0,1.0002441E0,0E0,2.6212832E-1,0E0,0E0,0E0,0E0,0E0,0E0,9.50627E-2,0E0,0E0],"parents":[2147483647,0,0,1,1,2,2,3,3,4,4,5,5,6,6,7,7,9,9,10,10,11,11,13,13,17,17,21,21,23,23,30,30],"right_children":[2,4,6,8,10,12,14,16,-1,18,20,22,-1,24,-1,-1,-1,26,-1,-1,-1,28,-1,30,-1,-1,-1,-1,-1,-1,32,-1,-1],"split_conditions":[1.21586155E-2,9.473E-1,7.582286E-1,5.1965636E-1,8E-1,7.0071393E-1,1.7863846E-1,7.0026785E-1,-0E0,4.9168694E-1,1.1E0,1.0850785E-1,-0E0,1.2E0,1.2271205E-2,-3.0502596E-1,-0E0,4.021246E-3,-0E0,-0E0,8.233952E-3,2.0302829E-1,-0E0,8.014497E-1,-0E0,-1.9918714E-1,-0E0,-2.3746817E-1,-0E0,-0E0,9.322399E-3,-4.872202E-2,-0E0],"split_indices":[6,7,2,3,0,1,6,5,0,2,0,3,0,0,0,0,0,1,0,0,0,4,0,2,0,0,0,0,0,0,4,0,0],"split_type":[0,0,0,0,0,0,0,0,0,0,0,0,0,0,0,0,0,0,0,0,0,0,0,0,0,0,0,0,0,0,0,0,0],"sum_hessian":[2.0030475E4,1.7860684E4,2.1697905E3,1.7792014E4,6.866955E1,2.1552112E3,1.4579189E1,1.7790934E4,1.0805334E0,4.6777634E1,2.189191E1,2.1466614E3,8.550009E0,1.2097165E1,2.482024E0,1.7789096E4,1.8369067E0,4.561556E1,1.162078E0,1.03764925E1,1.1515418E1,2.1375137E3,9.147593E0,1.0374739E1,1.7224265E0,4.44966E1,1.1189578E0,2.1364387E3,1.074938E0,1.5527524E0,8.821986E0,7.7986927E0,1.0232933E0],"tree_param":{"num_deleted":"0","num_feature":"8","num_nodes":"33","size_leaf_vector":"1"}},{"base_weights":[-9.316831E-1,-9.625562E-1,-6.873359E-1,-9.6495116E-1,-3.146205E-1,-6.992913E-1,-0E0,-9.651162E-1,-0E0,-4.7224715E-1,6.665844E-3,-7.06759E-1,-0E0,-1.1154127E-1,-0E0,-9.654361E-1,-0E0,-1.5690702E-1,-0E0,-7.0952684E-1,-0E0,-1.1346583E-1,-0E0,-0E0,-2.3433736E-1,1.0310224E-1,-0E0,-2.8966343E-1,-0E0,-5.3535706E-1,-7.474964E-1,-1.8210639E-1,-0E0,-0E0,-2.7313432E-1,-0E0,1.6583084E-1,-6.2554973E-1,-2.4307367E-1,-2.2518419E-1,-0E0,-0E0,-2.2653864E-1,-3.1026763E-1,-0E0,-0E0,7.4717514E-2,-1.9021975E-1,-0E0,-9.2976786E-2,-0E0,-0E0,-1.9192014E-2,-8.342756E-2,-0E0,-1.0411165E-1,-0E0],"categories":[],"categories_nodes":[],"categories_segments":[],"categories_sizes":[],"default_left":[0,1,0,0,1,0,0,0,0,0,0,0,0,0,1,0,0,0,0,0,0,0,0,0,0,0,0,0,0,0,0,0,0,0,1,0,0,1,1,0,0,0,1,0,0,0,0,0,0,0,0,0,0,0,0,0,0],"id":2,"left_children":[1,3,5,7,9,11,13,15,-1,17,-1,19,21,23,25,27,-1,-1,-1,29,-1,31,-1,-1,33,35,-1,-1,-1,37,39,41,-1,-1,43,-1,45,47,49,-1,51,-1,53,55,-1,-1,-1,-1,-1,-1,-1,-1,-1,-1,-1,-1,-1],"loss_changes":[1.0506738E2,1.2962891E1,1.2215698E1,3.381836E0,5.9905605E0,6.1532593E0,3.7317377E-1,2.4179688E0,0E0,2.534133E0,0E0,2.689392E0,2.8646192E-1,1.0919104E0,1.6545035E-1,2.861328E-1,0E0,0E0,0E0,2.2104492E0,0E0,3.5902974E-1,0E0,0E0,4.3694258E-1,1.7761506E-1,0E0,0E0,0E0,4.01622E0,4.066162E-1,2.589E-1,0E0,0E0,4.271263E-1,0E0,3.1893578E-1,9.9929047E-1,2.1278281E0,0E0,6.413738E-2,0E0,3.41102E-1,4.1234565E-1,0E0,0E0,0E0,0E0,0E0,0E0,0E0,0E0,0E0,0E0,0E0,0E0,0E0],"parents":[2147483647,0,0,1,1,2,2,3,3,4,4,5,5,6,6,7,7,9,9,11,11,12,12,13,13,14,14,15,15,19,19,21,21,24,24,25,25,29,29,30,30,31,31,34,34,36,36,37,37,38,38,40,40,42,42,43,43],"right_children":[2,4,6,8,10,12,14,16,-1,18,-1,20,22,24,26,28,-1,-1,-1,30,-1,32,-1,-1,34,36,-1,-1,-1,38,40,42,-1,-1,44,-1,46,48,50,-1,52,-1,54,56,-1,-1,-1,-1,-1,-1,-1,-1,-1,-1,-1,-1,-1],"split_conditions":[1.21586155E-2,9.473E-1,4.021246E-3,5.1965636E-1,1.1E0,6.082725E-2,2.8584906E-1,1.3208677E-1,-0E0,5.356177E-1,6.665844E-3,1.0850785E-1,7.1263E-2,2.8876713E-2,8E-1,1.5648139E-1,-0E0,-1.5690702E-1,-0E0,5E-1,-0E0,7.582286E-1,-0E0,-0E0,1.2867987E-1,4E-1,-0E0,-2.8966343E-1,-0E0,6.535256E-2,4.8077193E-1,3.497567E-1,-0E0,-0E0,1.5E0,-0E0,7.886213E-2,9.751E-1,4.327E-1,-2.2518419E-1,5.119993E-1,-0E0,9.617E-1,2.4165249E-1,-0E0,-0E0,7.4717514E-2,-1.9021975E-1,-0E0,-9.2976786E-2,-0E0,-0E0,-1.9192014E-2,-8.342756E-2,-0E0,-1.0411165E-1,-0E0],"split_indices":[6,7,1,3,0,2,5,1,0,2,0,3,6,6,0,4,0,0,0,0,0,2,0,0,1,0,0,0,0,6,5,2,0,0,0,0,6,7,7,0,5,0,7,6,0,0,0,0,0,0,0,0,0,0,0,0,0],"split_type":[0,0,0,0,0,0,0,0,0,0,0,0,0,0,0,0,0,0,0,0,0,0,0,0,0,0,0,0,0,0,0,0,0,0,0,0,0,0,0,0,0,0,0,0,0,0,0,0,0,0,0,0,0,0,0,0,0],"sum_hessian":[1.5628252E4,1.3838705E4,1.7895463E3,1.3776641E4,6.2064377E1,1.7536228E3,3.5923504E1,1.3775561E4,1.0805334E0,5.047441E1,1.1589967E1,1.7289323E3,2.4690565E1,2.2994383E1,1.2929121E1,1.3769021E4,6.538727E0,4.9120388E1,1.354024E0,1.7207571E3,8.175113E0,1.5250343E1,9.440223E0,3.3147693E0,1.9679613E1,8.564369E0,4.364752E0,1.3766229E4,2.7931209E0,3.5047617E2,1.3702809E3,1.2464366E1,2.7859774E0,1.1840819E0,1.8495531E1,3.0892022E0,5.475167E0,2.4865742E2,1.0181875E2,1.3595859E3,1.0694943E1,1.8416858E0,1.062268E1,1.719497E1,1.3005619E0,1.8029062E0,3.6722605E0,2.4432164E2,4.335788E0,8.209091E1,1.9727835E1,2.0233676E0,8.671576E0,9.105154E0,1.5175257E0,1.5763129E1,1.4318403E0],"tree_param":{"num_deleted":"0","num_feature":"8","num_nodes":"57","size_leaf_vector":"1"}},{"base_weights":[-8.7350947E-1,-9.113222E-1,-5.9747595E-1,-9.1427255E-1,-2.3104239E-1,-6.099792E-1,-0E0,-9.350157E-1,-8.2335895E-1,-4.4529226E-1,-0E0,-6.279028E-1,-1.9877166E-1,-6.1691817E-2,-0E0,-2.8061172E-1,-0E0,-8.264121E-1,-0E0,-1.498377E-1,-0E0,-0E0,5.3982306E-3,-6.299664E-1,-0E0,-2.6638052E-1,-0E0,-0E0,-1.8415484E-1,8.379209E-2,-0E0,-8.271537E-1,-0E0,-6.3308495E-1,-0E0,-2.7727732E-1,-0E0,-0E0,-2.2254358E-1,-0E0,1.4075086E-1,-8.275078E-1,-0E0,-2.0483711E-1,-5.050411E-1,-2.8344813E-1,-0E0,-2.5887462E-1,-0E0,-0E0,6.545149E-2,-2.4840952E-1,-0E0,-1.5688619E-1,-0E0,-8.631374E-2,-0E0,-8.832179E-2,-0E0],"categories":[],"categories_nodes":[],"categories_segments":[],"categories_sizes":[],"default_left":[0,1,0,1,1,1,0,0,0,0,0,0,0,0,1,0,0,0,0,0,0,0,0,0,0,0,0,0,0,0,0,0,0,0,0,0,0,0,1,0,0,0,0,0,0,0,0,0,0,0,0,0,0,0,0,0,0,0,0],"id":3,"left_children":[1,3,5,7,9,11,13,15,17,19,21,23,25,27,29,-1,-1,31,-1,-1,-1,-1,-1,33,-1,35,-1,-1,37,39,-1,41,-1,43,-1,45,-1,-1,47,-1,49,51,-1,-1,53,55,-1,57,-1,-1,-1,-1,-1,-1,-1,-1,-1,-1,-1],"loss_changes":[1.1655957E2,1.4369141E1,9.867065E0,5.984375E0,5.0097E0,5.885742E0,1.0929591E-1,2.659668E0,5.655884E0,1.8774834E0,6.0388227E-3,2.6304321E0,1.5486588E0,7.5219184E-1,1.1079867E-1,0E0,0E0,1.8430176E0,0E0,0E0,0E0,0E0,0E0,1.3371582E0,0E0,2.4456406E-1,0E0,0E0,3.3796358E-1,1.4063172E-1,0E0,5.1501465E-1,0E0,4.831543E-1,0E0,1.05185986E-1,0E0,0E0,3.364383E-1,0E0,2.6685798E-1,2.319336E-2,0E0,0E0,4.7482986E0,7.236147E-2,0E0,3.2644045E-1,0E0,0E0,0E0,0E0,0E0,0E0,0E0,0E0,0E0,0E0,0E0],"parents":[2147483647,0,0,1,1,2,2,3,3,4,4,5,5,6,6,7,7,8,8,9,9,10,10,11,11,12,12,13,13,14,14,17,17,23,23,25,25,28,28,29,29,31,31,33,33,35,35,38,38,40,40,41,41,44,44,45,45,47,47],"right_children":[2,4,6,8,10,12,14,16,18,20,22,24,26,28,30,-1,-1,32,-1,-1,-1,-1,-1,34,-1,36,-1,-1,38,40,-1,42,-1,44,-1,46,-1,-1,48,-1,50,52,-1,-1,54,56,-1,58,-1,-1,-1,-1,-1,-1,-1,-1,-1,-1,-1],"split_conditions":[1.21586155E-2,9.473E-1,4.021246E-3,5.54E-2,8E-1,8.946E-1,2.8584906E-1,2.3039569E-1,3.7115696E-1,4.9168694E-1,1.1E0,7.582286E-1,1.0486806E-1,2.8876713E-2,8E-1,-2.8061172E-1,-0E0,1.5648139E-1,-0E0,-1.498377E-1,-0E0,-0E0,5.3982306E-3,3.9380617E-2,-0E0,1.0955142E-2,-0E0,-0E0,1.2867987E-1,4E-1,-0E0,2.702647E-1,-0E0,6.7547865E-2,-0E0,3.7922722E-1,-0E0,-0E0,1.5E0,-0E0,7.886213E-2,2.1018204E-1,-0E0,-2.0483711E-1,3.522351E-1,8.276261E-1,-0E0,2.4165249E-1,-0E0,-0E0,6.545149E-2,-2.4840952E-1,-0E0,-1.5688619E-1,-0E0,-8.631374E-2,-0E0,-8.832179E-2,-0E0],"split_indices":[6,7,1,7,0,7,5,3,5,2,0,2,6,6,0,0,0,4,0,0,0,0,0,3,0,4,0,0,1,0,0,3,0,6,0,5,0,0,0,0,6,1,0,0,5,2,0,6,0,0,0,0,0,0,0,0,0,0,0],"split_type":[0,0,0,0,0,0,0,0,0,0,0,0,0,0,0,0,0,0,0,0,0,0,0,0,0,0,0,0,0,0,0,0,0,0,0,0,0,0,0,0,0,0,0,0,0,0,0,0,0,0,0,0,0,0,0,0,0,0,0],"sum_hessian":[1.2248265E4,1.0742472E4,1.5057927E3,1.0686368E4,5.6103695E1,1.4709296E3,3.4863174E1,8.6034E3,2.0829683E3,3.525334E1,2.0850353E1,1.3943069E3,7.662273E1,2.1717642E1,1.3145533E1,8.599873E3,3.5269759E0,2.0758357E3,7.1326246E0,3.41117E1,1.1416422E0,9.199794E0,1.165056E1,1.3917692E3,2.5376213E0,6.1386467E1,1.5236258E1,3.3147693E0,1.8402874E1,8.780781E0,4.364752E0,2.0747964E3,1.0393008E0,1.3813589E3,1.041037E1,5.9298E1,2.088465E0,1.1840819E0,1.7218792E1,3.0892022E0,5.691579E0,2.0737668E3,1.0294043E0,9.45103E2,4.3625583E2,5.775196E1,1.5460404E0,1.5918229E1,1.3005619E0,1.8029062E0,3.8886726E0,2.0711687E3,2.598252E0,4.2377246E2,1.2483343E1,5.6720905E1,1.0310557E0,1.4486389E1,1.4318403E0],"tree_param":{"num_deleted":"0","num_feature":"8","num_nodes":"59","size_leaf_vector":"1"}},{"base_weights":[-8.1168586E-1,-8.573159E-1,-5.080317E-1,-8.8623035E-1,-7.389827E-1,-3.6111632E-1,-5.886988E-1,-2.6599938E-1,-0E0,-7.4789625E-1,-0E0,-4.5451364E-1,-0E0,-5.987609E-1,-0E0,-7.512543E-1,-0E0,-2.5823087E-2,-0E0,-0E0,-4.957645E-1,-1.3897182E-1,2.5076014E-1,-6.046956E-1,-0E0,-7.5211006E-1,-0E0,2.8045071E-2,-0E0,-5.323217E-1,-4.7129963E-2,-0E0,-2.069973E-1,-0E0,9.786052E-2,-6.0615176E-1,-0E0,-7.5249904E-1,-0E0,-0E0,1.5891893E-1,-5.3791046E-1,-0E0,-0E0,-1.3007098E-1,-2.7982235E-1,-0E0,-6.0744417E-1,-0E0,-2.2623399E-1,-0E0,-0E0,7.722302E-2,-1.6216186E-1,-0E0,-5.3803656E-2,-0E0,-1.0752557E-1,-0E0,-1.8265063E-1,-0E0],"categories":[],"categories_nodes":[],"categories_segments":[],"categories_sizes":[],"default_left":[0,1,0,0,0,0,0,0,0,0,1,0,0,0,0,0,0,0,0,0,1,0,0,0,0,0,0,0,0,0,0,0,1,0,0,0,0,0,0,0,0,0,0,0,0,0,0,1,0,0,0,0,0,0,0,0,0,0,0,0,0],"id":4,"left_children":[1,3,5,7,9,11,13,-1,-1,15,17,19,21,23,-1,25,-1,-1,-1,27,29,31,33,35,-1,37,-1,39,-1,41,43,-1,45,-1,-1,47,-1,49,-1,-1,51,53,-1,-1,55,57,-1,59,-1,-1,-1,-1,-1,-1,-1,-1,-1,-1,-1,-1,-1],"loss_changes":[1.2433838E2,1.6019043E1,9.133118E0,2.3686523E0,9.85614E0,1.5756096E1,4.238739E0,0E0,0E0,4.3165894E0,1.2759468E-1,7.749901E0,3.9817963E0,1.9717102E0,0E0,1.56073E0,0E0,0E0,0E0,2.279254E-2,2.8446274E0,1.3551527E0,1.1630044E0,9.1275024E-1,0E0,4.0551758E-1,0E0,5.205854E-1,0E0,1.6391449E0,3.5866645E-1,0E0,1.9304886E0,0E0,0E0,7.416992E-1,0E0,2.1490479E-1,0E0,0E0,4.3600506E-1,6.079788E-1,0E0,0E0,3.6838207E-1,1.9714413E0,0E0,3.7893677E-1,0E0,0E0,0E0,0E0,0E0,0E0,0E0,0E0,0E0,0E0,0E0,0E0,0E0],"parents":[2147483647,0,0,1,1,2,2,3,3,4,4,5,5,6,6,9,9,10,10,11,11,12,12,13,13,15,15,19,19,20,20,21,21,22,22,23,23,25,25,27,27,29,29,30,30,32,32,35,35,37,37,40,40,41,41,44,44,45,45,47,47],"right_children":[2,4,6,8,10,12,14,-1,-1,16,18,20,22,24,-1,26,-1,-1,-1,28,30,32,34,36,-1,38,-1,40,-1,42,44,-1,46,-1,-1,48,-1,50,-1,-1,52,54,-1,-1,56,58,-1,60,-1,-1,-1,-1,-1,-1,-1,-1,-1,-1,-1,-1,-1],"split_conditions":[1.21586155E-2,5.54E-2,7E-1,2.3039569E-1,9.751E-1,9.7268924E-2,1.7619537E-1,-2.6599938E-1,-0E0,3.7115696E-1,6E-1,3.493E-1,6E-1,4.2579076E-1,-0E0,1.5648139E-1,-0E0,-2.5823087E-2,-0E0,4.1457504E-2,8.787E-1,1.1550685E-1,8.413E-1,1.0053115E-2,-0E0,2.9181886E-1,-0E0,1.6549228E-2,-0E0,5.931338E-1,3.647585E-2,-0E0,8.634E-1,-0E0,9.786052E-2,5.1944137E-1,-0E0,9.685E-1,-0E0,-0E0,1.86E-1,2.702647E-1,-0E0,-0E0,3.7922722E-1,3.555074E-1,-0E0,9.906E-1,-0E0,-2.2623399E-1,-0E0,-0E0,7.722302E-2,-1.6216186E-1,-0E0,-5.3803656E-2,-0E0,-1.0752557E-1,-0E0,-1.8265063E-1,-0E0],"split_indices":[6,7,0,3,7,6,1,0,0,5,0,7,0,2,0,4,0,0,0,6,7,6,7,1,0,3,0,6,0,1,6,0,7,0,0,3,0,7,0,0,7,3,0,0,5,6,0,7,0,0,0,0,0,0,0,0,0,0,0,0,0],"split_type":[0,0,0,0,0,0,0,0,0,0,0,0,0,0,0,0,0,0,0,0,0,0,0,0,0,0,0,0,0,0,0,0,0,0,0,0,0,0,0,0,0,0,0,0,0,0,0,0,0,0,0,0,0,0,0,0,0,0,0,0,0],"sum_hessian":[9.679568E3,8.389633E3,1.2899363E3,6.6717305E3,1.7179019E3,4.9277914E2,7.971571E2,6.6682036E3,3.5269759E0,1.6946522E3,2.3249687E1,3.8475494E2,1.08024185E2,7.821798E2,1.4977296E1,1.6871218E3,7.5303297E0,1.0221018E1,1.302867E1,3.0949318E1,3.5380563E2,7.7722916E1,3.030127E1,7.721574E2,1.0022372E1,1.6860281E3,1.0938113E0,2.197875E1,8.970569E0,3.1563528E2,3.817037E1,1.4908022E1,6.2814896E1,4.328686E0,2.5972584E1,7.7090265E2,1.2547877E0,1.6849945E3,1.0335401E0,7.463287E0,1.4515463E1,3.146308E2,1.0044718E0,1.8040215E1,2.0130154E1,5.585919E1,6.9557056E0,7.6960596E2,1.29664E0,1.6781365E3,6.858068E0,6.7345395E0,7.780923E0,3.1359058E2,1.0402238E0,1.8723215E1,1.406939E0,4.6659847E1,9.199344E0,7.6708307E2,2.522907E0],"tree_param":{"num_deleted":"0","num_feature":"8","num_nodes":"61","size_leaf_vector":"1"}},{"base_weights":[-7.442621E-1,-7.979324E-1,-4.2242792E-1,-8.3267367E-1,-6.6163385E-1,-2.9773661E-1,-5.093876E-1,-2.4995795E-1,-0E0,-6.774603E-1,-9.450946E-2,-3.7492907E-1,-7.8302727E-4,-5.157331E-1,-0E0,-6.8139094E-1,-0E0,-3.0889848E-1,2.7307067E-2,-0E0,-4.1151518E-1,-1.2768124E-1,1.6914968E-1,-5.1814437E-1,-0E0,-6.824213E-1,-0E0,-1.110792E-1,-0E0,-0E0,1.9245127E-2,-0E0,-4.586822E-3,-4.175875E-1,-0E0,-1.7845586E-1,-0E0,-0E0,6.889169E-2,-5.215589E-1,-0E0,-4.963207E-1,-7.218633E-1,-0E0,1.02566265E-1,-4.2246595E-1,-0E0,-2.262788E-1,-0E0,-5.266722E-1,-0E0,-7.633299E-2,-1.8054546E-1,-2.1689609E-1,-0E0,-0E0,5.1865708E-2,-1.2777576E-1,-0E0,-7.721127E-2,-0E0,-1.5841228E-1,-0E0],"categories":[],"categories_nodes":[],"categories_segments":[],"categories_sizes":[],"default_left":[0,1,1,0,0,0,0,0,0,0,1,0,1,0,0,0,0,0,0,0,0,1,0,1,0,0,0,0,0,0,0,0,0,0,0,0,0,0,0,0,0,0,0,0,0,0,0,0,0,0,0,0,0,0,0,0,0,0,0,0,0,0,0],"id":5,"left_children":[1,3,5,7,9,11,13,-1,-1,15,17,19,21,23,-1,25,-1,27,29,31,33,35,37,39,-1,41,-1,-1,-1,-1,-1,43,-1,45,-1,47,-1,-1,-1,49,-1,51,53,-1,55,57,-1,59,-1,61,-1,-1,-1,-1,-1,-1,-1,-1,-1,-1,-1,-1,-1],"loss_changes":[1.2540381E2,2.0023926E1,7.2193146E0,2.0686035E0,8.331177E0,9.744923E0,2.1177063E0,0E0,0E0,3.9535522E0,2.9018874E0,5.1009216E0,2.639681E0,9.2907715E-1,0E0,1.4174194E0,0E0,1.3213065E0,5.411972E-2,4.0623453E-3,1.4357834E0,1.303127E0,7.2725904E-1,8.1355286E-1,0E0,1.3256226E0,0E0,0E0,0E0,0E0,0E0,2.5533965E-1,0E0,1.2515945E0,0E0,1.145086E0,0E0,0E0,0E0,6.6000366E-1,0E0,1.8176346E0,9.4207764E-1,0E0,3.8164547E-1,8.2289505E-1,0E0,9.2059445E-1,0E0,4.903412E-1,0E0,0E0,0E0,0E0,0E0,0E0,0E0,0E0,0E0,0E0,0E0,0E0,0E0],"parents":[2147483647,0,0,1,1,2,2,3,3,4,4,5,5,6,6,9,9,10,10,11,11,12,12,13,13,15,15,17,17,18,18,19,19,20,20,21,21,22,22,23,23,25,25,31,31,33,33,35,35,39,39,41,41,42,42,44,44,45,45,47,47,49,49],"right_children":[2,4,6,8,10,12,14,-1,-1,16,18,20,22,24,-1,26,-1,28,30,32,34,36,38,40,-1,42,-1,-1,-1,-1,-1,44,-1,46,-1,48,-1,-1,-1,50,-1,52,54,-1,56,58,-1,60,-1,62,-1,-1,-1,-1,-1,-1,-1,-1,-1,-1,-1,-1,-1],"split_conditions":[1.21586155E-2,5.54E-2,7E-1,2.3039569E-1,9.473E-1,9.7268924E-2,5.2638984E-1,-2.4995795E-1,-0E0,3.7115696E-1,8E-1,3.493E-1,6E-1,1.00046866E-1,-0E0,1.5648139E-1,-0E0,4.9168694E-1,1.1E0,4.1457504E-2,8.558942E-1,9.617E-1,8.413E-1,9.825E-1,-0E0,5E-1,-0E0,-1.110792E-1,-0E0,-0E0,1.9245127E-2,1.6549228E-2,-4.586822E-3,3.45887E-1,-0E0,3.555074E-1,-0E0,-0E0,6.889169E-2,2E0,-0E0,3.043E-1,2.1018204E-1,-0E0,9.79E-2,7.583508E-1,-0E0,3.7115696E-1,-0E0,5.1944137E-1,-0E0,-7.633299E-2,-1.8054546E-1,-2.1689609E-1,-0E0,-0E0,5.1865708E-2,-1.2777576E-1,-0E0,-7.721127E-2,-0E0,-1.5841228E-1,-0E0],"split_indices":[6,7,0,3,7,6,1,0,0,5,0,7,0,4,0,4,0,2,0,6,2,7,7,7,0,0,0,0,0,0,0,6,0,3,0,6,0,0,0,0,0,7,1,0,7,1,0,5,0,3,0,0,0,0,0,0,0,0,0,0,0,0,0],"split_type":[0,0,0,0,0,0,0,0,0,0,0,0,0,0,0,0,0,0,0,0,0,0,0,0,0,0,0,0,0,0,0,0,0,0,0,0,0,0,0,0,0,0,0,0,0,0,0,0,0,0,0,0,0,0,0,0,0,0,0,0,0,0,0],"sum_hessian":[7.74301E3,6.6141226E3,1.1288873E3,5.2129414E3,1.4011813E3,5.0016562E2,6.287217E2,5.2094146E3,3.5269759E0,1.3532388E3,4.7942467E1,3.8215063E2,1.18014984E2,6.2113617E2,7.585522E0,1.3461062E3,7.1326246E0,2.8347572E1,1.9594894E1,3.599809E1,3.4615256E2,8.540339E1,3.2611595E1,6.1876404E2,2.3720882E0,1.3450669E3,1.0393008E0,2.7239729E1,1.107844E0,8.625049E0,1.0969845E1,2.5620262E1,1.037783E1,3.4419022E2,1.9623208E0,8.1221115E1,4.182271E0,4.328686E0,2.8282907E1,6.1358826E2,5.175837E0,2.7401697E2,1.0710499E3,8.348056E0,1.7272205E1,3.4313885E2,1.0513637E0,7.02355E1,1.0985617E1,6.039759E2,9.61234E0,1.0486565E2,1.6915132E2,1.0695042E3,1.5457374E0,2.9608417E0,1.4311363E1,3.4202042E2,1.1184424E0,6.6599495E1,3.6360052E0,6.0257117E2,1.4046934E0],"tree_param":{"num_deleted":"0","num_feature":"8","num_nodes":"63","size_leaf_vector":"1"}},{"base_weights":[-6.7082125E-1,-7.320017E-1,-3.4225896E-1,-7.724389E-1,-5.8144575E-1,-3.6633676E-1,-0E0,-2.3191343E-1,-0E0,-5.982317E-1,-4.802525E-2,-1.8733747E-1,-4.2293447E-1,-1.4532153E-1,2.9685718E-1,-6.0183406E-1,-0E0,-2.4512947E-1,1.9187339E-2,-3.684699E-1,-2.4696037E-3,-4.2736065E-1,-0E0,-0E0,-2.3541601E-1,-0E0,3.8749936E-1,-0E0,-6.1020637E-1,-9.276705E-2,-0E0,-0E0,1.5548679E-2,-3.864417E-1,-0E0,-1.2218389E-1,1.1474736E-1,-4.325259E-1,-0E0,-0E0,6.629504E-2,-2.9108727E-1,-0E0,-0E0,1.3781542E-1,-0E0,-5.184983E-2,-6.122962E-1,-0E0,-0E0,-3.9795527E-1,-1.6520286E-1,-0E0,1.486568E-1,-0E0,-4.342075E-1,-0E0,3.1969685E-2,-0E0,-0E0,-9.316034E-2,-0E0,2.3322366E-2,-1.8397252E-1,-0E0,-1.2224332E-1,-0E0,-0E0,-6.488691E-2,7.0490874E-3,-0E0,5.0980896E-2,-0E0,-1.3060422E-1,-0E0],"categories":[],"categories_nodes":[],"categories_segments":[],"categories_sizes":[],"default_left":[0,1,0,0,0,1,0,0,0,0,1,1,0,0,1,0,0,0,0,0,0,0,0,0,0,0,0,0,0,0,0,0,0,0,0,1,0,0,0,0,0,0,0,0,0,0,0,0,0,0,1,0,0,0,0,0,0,0,0,0,0,0,0,0,0,0,0,0,0,0,0,0,0,0,0],"id":6,"left_children":[1,3,5,7,9,11,13,-1,-1,15,17,19,21,23,25,27,-1,29,31,33,35,37,-1,39,41,-1,43,45,47,-1,-1,-1,-1,49,-1,51,53,55,-1,-1,57,59,-1,-1,-1,61,-1,63,-1,-1,65,67,69,71,-1,73,-1,-1,-1,-1,-1,-1,-1,-1,-1,-1,-1,-1,-1,-1,-1,-1,-1,-1,-1],"loss_changes":[1.1953931E2,2.2311523E1,7.062546E0,1.7548828E0,7.089752E0,5.9038467E0,3.3620963E0,0E0,0E0,3.5538025E0,1.8588144E0,6.82146E0,2.136528E0,1.9895891E0,8.7626624E-1,3.214569E0,0E0,1.0590411E0,3.8868863E-2,1.2939043E0,2.22661E0,1.3223724E0,0E0,5.496402E-2,1.7266765E0,0E0,7.904198E-1,5.7671404E-1,1.3292236E0,0E0,0E0,0E0,0E0,5.95129E-1,0E0,9.656129E-1,4.7408795E-1,2.672119E-1,0E0,0E0,6.871782E-2,6.1045027E-1,0E0,0E0,0E0,8.815852E-2,0E0,7.965088E-1,0E0,0E0,3.200283E-1,1.1790547E0,7.5393035E-3,3.1301498E-1,0E0,2.183609E-1,0E0,0E0,0E0,0E0,0E0,0E0,0E0,0E0,0E0,0E0,0E0,0E0,0E0,0E0,0E0,0E0,0E0,0E0,0E0],"parents":[2147483647,0,0,1,1,2,2,3,3,4,4,5,5,6,6,9,9,10,10,11,11,12,12,13,13,14,14,15,15,17,17,18,18,19,19,20,20,21,21,23,23,24,24,26,26,27,27,28,28,33,33,35,35,36,36,37,37,40,40,41,41,45,45,47,47,50,50,51,51,52,52,53,53,55,55],"right_children":[2,4,6,8,10,12,14,-1,-1,16,18,20,22,24,26,28,-1,30,32,34,36,38,-1,40,42,-1,44,46,48,-1,-1,-1,-1,50,-1,52,54,56,-1,-1,58,60,-1,-1,-1,62,-1,64,-1,-1,66,68,70,72,-1,74,-1,-1,-1,-1,-1,-1,-1,-1,-1,-1,-1,-1,-1,-1,-1,-1,-1,-1,-1],"split_conditions":[1.21586155E-2,5.54E-2,2.609239E-1,2.3039569E-1,9.473E-1,5E-1,1.3374478E-1,-2.3191343E-1,-0E0,1.2867987E-1,8E-1,3E-1,8.4440744E-1,2.7121007E-1,4E-1,2E-1,-0E0,4.9168694E-1,1.1E0,4.6354723E-1,6.1280843E-2,2E0,-0E0,6.01E-1,8.347608E-1,-0E0,9.023E-1,3.752E-1,1.8248175E-1,-9.276705E-2,-0E0,-0E0,1.5548679E-2,1.319E-1,-0E0,8.787E-1,3.497567E-1,6.774545E-1,-0E0,-0E0,5.818559E-2,2E-1,-0E0,-0E0,1.3781542E-1,1.251E-1,-5.184983E-2,1.1627608E-1,-0E0,-0E0,9.751E-1,3.957E-1,4.0581916E-2,4.6354723E-1,-0E0,5.033697E-1,-0E0,3.1969685E-2,-0E0,-0E0,-9.316034E-2,-0E0,2.3322366E-2,-1.8397252E-1,-0E0,-1.2224332E-1,-0E0,-0E0,-6.488691E-2,7.0490874E-3,-0E0,5.0980896E-2,-0E0,-1.3060422E-1,-0E0],"split_indices":[6,7,5,3,7,0,6,0,0,1,0,0,2,5,0,0,0,2,0,6,6,0,0,7,1,0,7,7,2,0,0,0,0,7,0,7,2,6,0,0,6,0,0,0,0,7,0,4,0,0,7,7,6,6,0,3,0,0,0,0,0,0,0,0,0,0,0,0,0,0,0,0,0,0,0],"split_type":[0,0,0,0,0,0,0,0,0,0,0,0,0,0,0,0,0,0,0,0,0,0,0,0,0,0,0,0,0,0,0,0,0,0,0,0,0,0,0,0,0,0,0,0,0,0,0,0,0,0,0,0,0,0,0,0,0,0,0,0,0,0,0,0,0,0,0,0,0,0,0,0,0,0,0],"sum_hessian":[6.294218E3,5.286098E3,1.00811957E3,4.117951E3,1.1681469E3,9.316915E2,7.642804E1,4.1144243E3,3.5269759E0,1.1225967E3,4.5550278E1,2.5229164E2,6.793999E2,6.175223E1,1.4675804E1,1.1189258E3,3.670846E0,2.5787745E1,1.9762535E1,1.10260574E2,1.4203107E2,6.769536E2,2.446285E0,6.654088E0,5.5098145E1,3.118881E0,1.1556923E1,2.2051237E1,1.0968745E3,2.46799E1,1.107844E0,8.625049E0,1.1137487E1,1.0827189E2,1.9886843E0,9.122343E1,5.080763E1,6.6778406E2,9.169579E0,1.1481458E0,5.5059423E0,5.3994797E1,1.1033494E0,1.6077869E0,9.949137E0,9.744521E0,1.2306716E1,1.0928973E3,3.977196E0,2.8156822E0,1.0545621E2,8.2109726E1,9.113705E0,4.8896076E1,1.9115529E0,6.639849E2,3.7991464E0,3.8911004E0,1.6148418E0,1.0699754E0,5.292482E1,2.1576679E0,7.586853E0,1.0916265E3,1.2709192E0,1.0218901E2,3.2671955E0,1.1919895E1,7.018983E1,6.65551E0,2.458195E0,4.661295E1,2.283127E0,6.6162787E2,2.3570318E0],"tree_param":{"num_deleted":"0","num_feature":"8","num_nodes":"75","size_leaf_vector":"1"}},{"base_weights":[-5.916721E-1,-6.588559E-1,-2.694404E-1,-7.046534E-1,-4.9747944E-1,-2.9222858E-1,-0E0,-2.116011E-1,-0E0,-5.23574E-1,-1.1770231E-1,-1.4114147E-1,-3.4165484E-1,-8.33742E-2,2.1799403E-1,-2.784829E-1,-5.796349E-1,-3.167096E-1,2.9042846E-1,-2.9479152E-1,-0E0,-3.4965217E-1,-0E0,-0E0,-1.7094687E-1,-0E0,2.9074332E-1,-3.018882E-1,-0E0,-5.820629E-1,-0E0,-3.5514265E-1,-0E0,9.1195E-2,-0E0,-3.1321746E-1,-0E0,-8.096645E-2,7.007293E-2,-3.6255345E-1,-0E0,-0E0,5.5689707E-2,-2.2953491E-1,-0E0,-0E0,3.4935877E-1,-9.393274E-2,-4.3396574E-1,-3.6800165E-2,-5.933794E-1,-0E0,-3.9654568E-1,-0E0,-3.239253E-1,-1.2111077E-1,-0E0,1.0124922E-1,-0E0,-3.7524554E-1,-0E0,-0E0,-2.4505617E-2,2.8195074E-2,-0E0,-0E0,-2.4928392E-1,1.1797046E-1,-0E0,-0E0,-5.1806223E-2,-1.3988346E-1,-0E0,-0E0,-1.2213613E-2,-1.784235E-1,-0E0,-1.248145E-1,-0E0,-1.0042503E-1,-0E0,-0E0,-5.035502E-2,5.996909E-3,-0E0,3.5929073E-2,-0E0,-1.1384588E-1,-0E0,-0E0,-1.3151339E-2,-3.4348406E-2,-0E0,-7.584467E-2,-0E0],"categories":[],"categories_nodes":[],"categories_segments":[],"categories_sizes":[],"default_left":[0,1,0,0,0,1,0,0,0,0,1,1,0,0,1,0,0,0,0,0,0,0,0,0,0,0,0,0,0,0,0,0,0,0,0,0,0,1,0,1,0,0,0,0,0,0,0,0,0,0,0,0,0,0,0,0,0,0,0,0,0,0,0,0,0,0,0,0,0,0,0,0,0,0,0,0,0,0,0,0,0,0,0,0,0,0,0,0,0,0,0,0,0,0,0],"id":7,"left_children":[1,3,5,7,9,11,13,-1,-1,15,17,19,21,23,25,27,29,31,33,35,37,39,-1,41,43,-1,45,47,-1,49,-1,51,-1,-1,-1,53,-1,55,57,59,61,-1,63,65,-1,-1,67,69,71,73,75,-1,77,-1,79,81,83,85,-1,87,89,-1,91,-1,-1,-1,93,-1,-1,-1,-1,-1,-1,-1,-1,-1,-1,-1,-1,-1,-1,-1,-1,-1,-1,-1,-1,-1,-1,-1,-1,-1,-1,-1,-1],"loss_changes":[1.07025024E2,2.330066E1,5.558281E0,1.4326172E0,6.2530975E0,3.6035461E0,1.5354548E0,0E0,0E0,7.213974E0,7.7210417E0,4.3390365E0,1.723732E0,1.2413003E0,5.823715E-1,2.4600992E0,1.1263275E0,1.5313673E0,4.5954466E-2,9.976711E-1,9.1199505E-1,1.5528946E0,0E0,3.9141774E-2,1.2991688E0,0E0,5.444113E-1,2.5203419E0,0E0,1.1548615E0,0E0,1.6076574E0,0E0,0E0,0E0,4.173565E-1,0E0,6.2988764E-1,3.007081E-1,1.1379166E0,1.9371718E-2,0E0,5.8073863E-2,4.7009254E-1,0E0,0E0,4.3437862E-1,1.2525735E0,1.0967636E0,4.254237E-3,5.3829956E-1,0E0,8.134289E-1,0E0,3.4343624E-1,8.1277466E-1,5.4731984E-3,2.0481694E-1,0E0,9.3099976E-1,4.523602E-2,0E0,2.845075E-1,0E0,0E0,0E0,3.7033558E-3,0E0,0E0,0E0,0E0,0E0,0E0,0E0,0E0,0E0,0E0,0E0,0E0,0E0,0E0,0E0,0E0,0E0,0E0,0E0,0E0,0E0,0E0,0E0,0E0,0E0,0E0,0E0,0E0],"parents":[2147483647,0,0,1,1,2,2,3,3,4,4,5,5,6,6,9,9,10,10,11,11,12,12,13,13,14,14,15,15,16,16,17,17,18,18,19,19,20,20,21,21,23,23,24,24,26,26,27,27,29,29,31,31,35,35,37,37,38,38,39,39,40,40,42,42,43,43,46,46,47,47,48,48,49,49,50,50,52,52,54,54,55,55,56,56,57,57,59,59,60,60,62,62,66,66],"right_children":[2,4,6,8,10,12,14,-1,-1,16,18,20,22,24,26,28,30,32,34,36,38,40,-1,42,44,-1,46,48,-1,50,-1,52,-1,-1,-1,54,-1,56,58,60,62,-1,64,66,-1,-1,68,70,72,74,76,-1,78,-1,80,82,84,86,-1,88,90,-1,92,-1,-1,-1,94,-1,-1,-1,-1,-1,-1,-1,-1,-1,-1,-1,-1,-1,-1,-1,-1,-1,-1,-1,-1,-1,-1,-1,-1,-1,-1,-1,-1],"split_conditions":[1.21586155E-2,5.54E-2,2.609239E-1,2.3039569E-1,8.634E-1,5E-1,1.3374478E-1,-2.116011E-1,-0E0,5E-1,1.1E0,3E-1,6.082725E-2,2.7121007E-1,4E-1,3.09224E-1,2.1709373E-2,4.9168694E-1,1.9E0,4.6354723E-1,6.1280843E-2,1.9E0,-0E0,6.01E-1,8.347608E-1,-0E0,9.023E-1,3.493E-1,-0E0,6.74E-2,-0E0,8.709E-1,-0E0,9.1195E-2,-0E0,1.319E-1,-0E0,8.787E-1,3.497567E-1,8.787E-1,1.6549228E-2,-0E0,5.818559E-2,2E-1,-0E0,-0E0,4.6354723E-1,3E-1,8.111E-1,7E-1,1.3208677E-1,-0E0,4.021246E-3,-0E0,1.0053115E-2,3.957E-1,4.0581916E-2,4.6354723E-1,-0E0,4.021246E-3,9.4E-1,-0E0,7.762103E-2,2.8195074E-2,-0E0,-0E0,1.2310599E-1,1.1797046E-1,-0E0,-0E0,-5.1806223E-2,-1.3988346E-1,-0E0,-0E0,-1.2213613E-2,-1.784235E-1,-0E0,-1.248145E-1,-0E0,-1.0042503E-1,-0E0,-0E0,-5.035502E-2,5.996909E-3,-0E0,3.5929073E-2,-0E0,-1.1384588E-1,-0E0,-0E0,-1.3151339E-2,-3.4348406E-2,-0E0,-7.584467E-2,-0E0],"split_indices":[6,7,5,3,7,0,6,0,0,0,0,0,2,5,0,5,4,2,0,6,6,0,0,7,1,0,7,7,0,7,0,7,0,0,0,7,0,7,2,7,6,0,6,0,0,0,6,0,7,0,1,0,1,0,1,7,6,6,0,1,7,0,6,0,0,0,6,0,0,0,0,0,0,0,0,0,0,0,0,0,0,0,0,0,0,0,0,0,0,0,0,0,0,0,0],"split_type":[0,0,0,0,0,0,0,0,0,0,0,0,0,0,0,0,0,0,0,0,0,0,0,0,0,0,0,0,0,0,0,0,0,0,0,0,0,0,0,0,0,0,0,0,0,0,0,0,0,0,0,0,0,0,0,0,0,0,0,0,0,0,0,0,0,0,0,0,0,0,0,0,0,0,0,0,0,0,0,0,0,0,0,0,0,0,0,0,0,0,0,0,0,0,0],"sum_hessian":[5.208515E3,4.2910273E3,9.1748804E2,3.2999712E3,9.91056E2,8.440126E2,7.347544E1,3.296444E3,3.5269759E0,9.125392E2,7.851686E1,2.3963667E2,6.043759E2,5.761651E1,1.5858937E1,1.9425264E2,7.1828656E2,6.207006E1,1.6446804E1,9.946774E1,1.4016893E2,5.9082794E2,1.3547963E1,6.7690554E0,5.084745E1,3.118881E0,1.2740056E1,1.9124982E2,3.0028281E0,7.1557275E2,2.7137682E0,6.0071167E1,1.9988918E0,1.4899708E1,1.5470959E0,9.747906E1,1.9886843E0,8.7200226E1,5.2968708E1,5.608522E2,2.9975769E1,1.1481458E0,5.6209097E0,4.9744102E1,1.1033494E0,1.6077869E0,1.1132269E1,9.36435E1,9.760631E1,2.413776E1,6.91435E2,3.0508583E0,5.702031E1,2.8156822E0,9.4663376E1,7.804492E1,9.155301E0,5.1057156E1,1.9115529E0,5.3116974E2,2.9682457E1,4.717813E0,2.5257957E1,4.0060678E0,1.6148418E0,1.0699754E0,4.8674126E1,1.01207905E1,1.011479E0,2.886214E1,6.478136E1,8.8655075E1,8.951236E0,3.1296482E0,2.100811E1,6.8975323E2,1.6818025E0,5.585825E1,1.1620601E0,9.125953E1,3.4038477E0,1.1919895E1,6.612503E1,6.697106E0,2.458195E0,4.877403E1,2.283127E0,5.256739E2,5.495865E0,1.31435175E1,1.653894E1,1.6180902E1,9.077053E0,4.718748E1,1.4866456E0],"tree_param":{"num_deleted":"0","num_feature":"8","num_nodes":"95","size_leaf_vector":"1"}},{"base_weights":[-5.1006395E-1,-5.8039427E-1,-2.0859765E-1,-6.297014E-1,-4.1711673E-1,-2.6997057E-1,-8.153548E-2,-1.8913236E-1,-0E0,-4.432536E-1,-6.063238E-2,-0E0,-2.980663E-1,-0E0,-3.0193564E-1,-2.2003782E-1,-4.9782214E-1,-2.4257074E-1,2.1933442E-1,-1.2013766E-1,1.4087817E-1,-3.233034E-1,-0E0,-3.893695E-2,4.3614525E-2,-3.7373412E-1,-0E0,-2.4429417E-1,-0E0,-5.0031793E-1,-0E0,-2.823845E-1,-0E0,6.823077E-2,-0E0,-0E0,-6.2695876E-2,-0E0,1.35435E-1,-3.2999098E-1,-0E0,-0E0,-4.7259215E-2,-0E0,-1.3134988E-1,-0E0,9.378032E-2,-4.407438E-1,-0E0,-7.1230404E-2,-3.725941E-1,-5.030585E-1,-0E0,-0E0,-3.2427815E-1,1.720346E-2,-0E0,-3.3302727E-1,-0E0,-0E0,3.9735813E-2,-2.0177314E-2,-0E0,-1.988427E-2,8.536548E-2,-1.8974319E-1,-0E0,1.6235831E-1,-0E0,-4.8041475E-1,-0E0,-0E0,-3.9366487E-2,-1.2149068E-1,-0E0,-6.0677226E-3,-1.5412858E-1,-1.0331366E-1,-0E0,-0E0,3.0954283E-2,-1.0621687E-2,-0E0,-1.14100404E-1,-4.5556433E-2,-0E0,5.1379226E-2,-0E0,-2.1255985E-2,3.928575E-2,-0E0,-6.94342E-2,-0E0,-0E0,6.1292015E-2,-0E0,-1.5368678E-1],"categories":[],"categories_nodes":[],"categories_segments":[],"categories_sizes":[],"default_left":[0,1,0,0,0,0,1,0,0,0,1,0,1,0,0,0,0,0,0,0,0,0,0,0,1,0,0,0,0,1,0,0,0,0,0,0,0,0,0,0,0,1,0,0,1,0,0,0,0,0,0,0,0,0,0,0,1,0,0,0,0,0,0,0,0,0,0,0,0,0,0,0,0,0,0,0,0,0,0,0,0,0,0,0,0,0,0,0,0,0,0,0,0,0,0,0,0],"id":8,"left_children":[1,3,5,7,9,11,13,-1,-1,15,17,19,21,23,25,27,29,31,33,35,37,39,41,43,45,47,-1,49,-1,51,-1,53,-1,-1,-1,55,-1,-1,-1,57,-1,59,61,63,65,-1,67,69,-1,71,73,75,-1,-1,77,79,81,83,-1,-1,85,-1,-1,87,89,91,-1,93,-1,95,-1,-1,-1,-1,-1,-1,-1,-1,-1,-1,-1,-1,-1,-1,-1,-1,-1,-1,-1,-1,-1,-1,-1,-1,-1,-1,-1],"loss_changes":[8.879944E1,2.1602783E1,4.7900505E0,1.1138916E0,5.4022217E0,2.9059563E0,4.186747E0,0E0,0E0,5.348938E0,4.5958266E0,1.2672455E0,3.2812386E0,4.207775E-1,3.1572337E0,1.9276667E0,8.5697937E-1,1.1577902E0,9.055853E-3,8.5749584E-1,2.390467E0,1.3478279E0,4.259186E-2,9.702252E-1,3.6193255E-1,3.078928E0,0E0,1.6819525E0,0E0,4.7114563E-1,0E0,1.2300992E0,0E0,0E0,0E0,4.7689145E-3,0E0,0E0,0E0,7.6181793E-1,0E0,4.9355436E-2,3.9040957E-2,3.6328697E-1,1.049855E0,0E0,4.2410004E-1,1.5772877E0,0E0,7.2759646E-1,7.3350716E-1,4.0551758E-1,0E0,0E0,6.4135647E-1,1.0135504E-1,2.0863604E-2,6.7333984E-1,0E0,0E0,5.2256006E-1,0E0,0E0,3.548683E-1,3.972832E-1,1.0695434E0,0E0,3.9800102E-1,0E0,7.996521E-1,0E0,0E0,0E0,0E0,0E0,0E0,0E0,0E0,0E0,0E0,0E0,0E0,0E0,0E0,0E0,0E0,0E0,0E0,0E0,0E0,0E0,0E0,0E0,0E0,0E0,0E0,0E0],"parents":[2147483647,0,0,1,1,2,2,3,3,4,4,5,5,6,6,9,9,10,10,11,11,12,12,13,13,14,14,15,15,16,16,17,17,18,18,19,19,20,20,21,21,22,22,23,23,24,24,25,25,27,27,29,29,31,31,35,35,39,39,41,41,42,42,43,43,44,44,46,46,47,47,49,49,50,50,51,51,54,54,55,55,56,56,57,57,60,60,63,63,64,64,65,65,67,67,69,69],"right_children":[2,4,6,8,10,12,14,-1,-1,16,18,20,22,24,26,28,30,32,34,36,38,40,42,44,46,48,-1,50,-1,52,-1,54,-1,-1,-1,56,-1,-1,-1,58,-1,60,62,64,66,-1,68,70,-1,72,74,76,-1,-1,78,80,82,84,-1,-1,86,-1,-1,88,90,92,-1,94,-1,96,-1,-1,-1,-1,-1,-1,-1,-1,-1,-1,-1,-1,-1,-1,-1,-1,-1,-1,-1,-1,-1,-1,-1,-1,-1,-1,-1],"split_conditions":[1.21586155E-2,5.54E-2,6.7547865E-2,2.3039569E-1,8.634E-1,3.493E-1,1.2E0,-1.8913236E-1,-0E0,5E-1,1.1E0,2.742E-1,8.787E-1,2.0904534E-1,4.1396323E-1,3.09224E-1,2.1709373E-2,4.9168694E-1,1.9E0,1.9757751E-2,2.8876713E-2,4.021246E-3,4.3061763E-2,1.2310599E-1,3E-1,2E0,-0E0,3.792E-1,-0E0,2E0,-0E0,8.709E-1,-0E0,6.823077E-2,-0E0,8E-1,-6.2695876E-2,-0E0,1.35435E-1,7.27815E-1,-0E0,3E-1,3.3583617E-1,1.0030858E-1,8.634E-1,-0E0,7E-1,2.7510896E-1,-0E0,3E-1,8.111E-1,6.74E-2,-0E0,-0E0,4.021246E-3,1.8237924E-2,1.8E0,3.8502283E-2,-0E0,-0E0,2.4317231E-2,-2.0177314E-2,-0E0,7.29517E-2,1.2E0,3.1641074E-2,-0E0,9.244E-1,-0E0,3.837E-1,-0E0,-0E0,-3.9366487E-2,-1.2149068E-1,-0E0,-6.0677226E-3,-1.5412858E-1,-1.0331366E-1,-0E0,-0E0,3.0954283E-2,-1.0621687E-2,-0E0,-1.14100404E-1,-4.5556433E-2,-0E0,5.1379226E-2,-0E0,-2.1255985E-2,3.928575E-2,-0E0,-6.94342E-2,-0E0,-0E0,6.1292015E-2,-0E0,-1.5368678E-1],"split_indices":[6,7,6,3,7,7,0,0,0,0,0,7,7,6,2,5,4,2,0,6,6,1,6,6,0,0,0,7,0,0,0,7,0,0,0,0,0,0,0,2,0,0,5,6,7,0,0,5,0,0,7,7,0,0,1,6,0,6,0,0,6,0,0,6,0,3,0,7,0,7,0,0,0,0,0,0,0,0,0,0,0,0,0,0,0,0,0,0,0,0,0,0,0,0,0,0,0],"split_type":[0,0,0,0,0,0,0,0,0,0,0,0,0,0,0,0,0,0,0,0,0,0,0,0,0,0,0,0,0,0,0,0,0,0,0,0,0,0,0,0,0,0,0,0,0,0,0,0,0,0,0,0,0,0,0,0,0,0,0,0,0,0,0,0,0,0,0,0,0,0,0,0,0,0,0,0,0,0,0,0,0,0,0,0,0,0,0,0,0,0,0,0,0,0,0,0,0],"sum_hessian":[4.4072437E3,3.5548542E3,8.5238934E2,2.6914595E3,8.633946E2,5.4292474E2,3.0946463E2,2.6879326E3,3.5269759E0,7.897609E2,7.363373E1,6.607699E1,4.7684772E2,2.474622E2,6.2002422E1,1.800617E2,6.0969916E2,5.6021828E1,1.7611898E1,5.2482616E1,1.3594375E1,4.3564935E2,4.1198368E1,1.9132903E2,5.6133175E1,6.06406E1,1.3618246E0,1.7705888E2,3.0028281E0,6.069854E2,2.7137682E0,5.4022934E1,1.9988918E0,1.6064802E1,1.5470959E0,2.019236E1,3.2290257E1,6.859835E0,6.73454E0,4.302672E2,5.382152E0,2.9128242E1,1.20701275E1,1.24665054E2,6.666397E1,8.324756E0,4.780842E1,5.7486217E1,3.1543813E0,9.6605385E1,8.04535E1,6.0217566E2,4.8097577E0,3.0508583E0,5.0972076E1,9.113429E0,1.1078931E1,4.291992E2,1.0680097E0,4.8695493E0,2.4258694E1,1.1045987E1,1.0241401E0,8.69079E1,3.7757156E1,5.746123E1,9.202744E0,2.7374754E1,2.0433664E1,5.41099E1,3.3763154E0,3.0821945E1,6.578344E1,7.150226E1,8.951236E0,2.362922E1,5.7854645E2,4.9810017E1,1.1620601E0,6.1452804E0,2.9681485E0,9.643504E0,1.4354264E0,3.1234674E2,1.1685244E2,1.1760279E1,1.2498415E1,1.5823565E1,7.1084335E1,3.5186676E1,2.5704813E0,5.6289944E1,1.171289E0,3.1316118E0,2.4243141E1,4.320916E0,4.9788986E1],"tree_param":{"num_deleted":"0","num_feature":"8","num_nodes":"97","size_leaf_vector":"1"}},{"base_weights":[-4.290614E-1,-4.989208E-1,-1.6008691E-1,-5.4895425E-1,-3.4068632E-1,-8.8189E-2,-2.559907E-1,-1.6491382E-1,-0E0,-3.6613053E-1,-1.4394171E-2,-1.4874691E-1,4.0063458E-3,-2.717107E-1,-0E0,-2.1499167E-1,-4.4181E-1,-1.7750052E-1,5.0190892E-2,-0E0,-1.7532544E-1,-1.15165E-2,9.133893E-2,-3.0104068E-1,-0E0,-2.3590429E-1,-0E0,-1.3354445E-1,-0E0,-2.1821602E-1,-0E0,3.248292E-2,-0E0,-1.9903582E-1,-0E0,-0E0,-7.6990955E-2,2.2640502E-1,-0E0,-3.099935E-1,-0E0,-6.343875E-2,-3.1390408E-1,-0E0,-2.600101E-1,-0E0,1.15523115E-1,-2.4612473E-1,-2.9424738E-2,2.1341262E-2,-1.6781494E-2,-0E0,1.8517107E-2,-1.2995003E-1,-0E0,-0E0,2.957374E-1,-3.1699798E-1,-0E0,-0E0,-3.0136995E-2,-9.6701354E-2,-0E0,-8.412909E-2,-0E0,5.6910757E-2,-0E0,-7.8498E-2,-0E0,2.950613E-2,-6.509061E-2,2.129961E-2,-0E0,-2.6165621E-2,-0E0,1.2619579E-2,-0E0,-6.0849693E-2,-0E0,-0E0,9.76884E-2,-0E0,-9.615584E-2],"categories":[],"categories_nodes":[],"categories_segments":[],"categories_sizes":[],"default_left":[0,1,1,0,0,0,0,0,0,0,1,0,1,0,0,0,1,0,0,0,1,0,0,0,0,0,0,0,0,0,0,0,0,0,0,0,1,0,0,1,0,0,0,0,0,0,0,0,0,0,0,0,0,0,0,0,0,0,0,0,0,0,0,0,0,0,0,0,0,0,0,0,0,0,0,0,0,0,0,0,0,0,0],"id":9,"left_children":[1,3,5,7,9,11,13,-1,-1,15,17,19,21,23,-1,25,27,29,-1,31,33,35,37,39,-1,41,-1,-1,-1,43,-1,45,-1,47,49,51,53,55,-1,57,-1,59,61,-1,63,-1,65,67,69,71,73,-1,75,77,-1,-1,79,81,-1,-1,-1,-1,-1,-1,-1,-1,-1,-1,-1,-1,-1,-1,-1,-1,-1,-1,-1,-1,-1,-1,-1,-1,-1],"loss_changes":[6.798938E1,1.8128723E1,3.7294235E0,8.1469727E-1,4.4304886E0,3.5492458E0,2.1450787E0,0E0,0E0,4.026428E0,2.540969E0,1.6732349E0,6.429291E-1,2.5767803E0,0E0,2.3136778E0,3.551407E-1,8.46966E-1,0E0,3.942118E-2,1.2708406E0,3.8938418E-1,1.470966E0,8.192005E-1,0E0,1.5311394E0,0E0,0E0,0E0,9.2255044E-1,0E0,3.3080012E-1,0E0,6.7246056E-1,1.8177204E-2,5.7836007E-3,6.209636E-1,1.0917776E0,0E0,7.102852E-1,0E0,6.0231876E-1,7.3413277E-1,0E0,4.9821782E-1,0E0,4.4325086E-1,1.2880497E0,2.8557005E0,1.0951851E-1,1.577737E-1,0E0,2.1807496E-2,1.0420772E0,0E0,0E0,2.902999E-1,4.8662567E-1,0E0,0E0,0E0,0E0,0E0,0E0,0E0,0E0,0E0,0E0,0E0,0E0,0E0,0E0,0E0,0E0,0E0,0E0,0E0,0E0,0E0,0E0,0E0,0E0,0E0],"parents":[2147483647,0,0,1,1,2,2,3,3,4,4,5,5,6,6,9,9,10,10,11,11,12,12,13,13,15,15,16,16,17,17,19,19,20,20,21,21,22,22,23,23,25,25,29,29,31,31,33,33,34,34,35,35,36,36,37,37,39,39,41,41,42,42,44,44,46,46,47,47,48,48,49,49,50,50,52,52,53,53,56,56,57,57],"right_children":[2,4,6,8,10,12,14,-1,-1,16,18,20,22,24,-1,26,28,30,-1,32,34,36,38,40,-1,42,-1,-1,-1,44,-1,46,-1,48,50,52,54,56,-1,58,-1,60,62,-1,64,-1,66,68,70,72,74,-1,76,78,-1,-1,80,82,-1,-1,-1,-1,-1,-1,-1,-1,-1,-1,-1,-1,-1,-1,-1,-1,-1,-1,-1,-1,-1,-1,-1,-1,-1],"split_conditions":[1.21586155E-2,5.95E-2,9E-1,2.3039569E-1,8.634E-1,7.762103E-2,4.9168694E-1,-1.6491382E-1,-0E0,7E-1,1.1E0,3.493E-1,6E-1,1.9E0,-0E0,3.09224E-1,2E0,4.9168694E-1,5.0190892E-2,4.1457504E-2,8.787E-1,1.1550685E-1,7E-1,3.6578858E-1,-0E0,2.688E-1,-0E0,-1.3354445E-1,-0E0,8.709E-1,-0E0,1.6549228E-2,-0E0,4.1035328E-2,3.647585E-2,1.0334823E-1,8.634E-1,8.563E-1,-0E0,9.546E-1,-0E0,2E-1,2.1709373E-2,-0E0,4.021246E-3,-0E0,8E-1,1.0053115E-2,6.079308E-2,6.082725E-2,3.5345095E-1,-0E0,6E-1,3.555074E-1,-0E0,-0E0,9.7268924E-2,2.16E-2,-0E0,-0E0,-3.0136995E-2,-9.6701354E-2,-0E0,-8.412909E-2,-0E0,5.6910757E-2,-0E0,-7.8498E-2,-0E0,2.950613E-2,-6.509061E-2,2.129961E-2,-0E0,-2.6165621E-2,-0E0,1.2619579E-2,-0E0,-6.0849693E-2,-0E0,-0E0,9.76884E-2,-0E0,-9.615584E-2],"split_indices":[6,7,0,3,7,6,2,0,0,0,0,7,0,0,0,5,0,2,0,6,7,6,0,5,0,7,0,0,0,7,0,6,0,6,6,6,7,7,0,7,0,0,4,0,1,0,0,1,6,2,5,0,0,6,0,0,6,7,0,0,0,0,0,0,0,0,0,0,0,0,0,0,0,0,0,0,0,0,0,0,0,0,0],"split_type":[0,0,0,0,0,0,0,0,0,0,0,0,0,0,0,0,0,0,0,0,0,0,0,0,0,0,0,0,0,0,0,0,0,0,0,0,0,0,0,0,0,0,0,0,0,0,0,0,0,0,0,0,0,0,0,0,0,0,0,0,0,0,0,0,0,0,0,0,0,0,0,0,0,0,0,0,0,0,0,0,0,0,0],"sum_hessian":[3.816417E3,3.0100566E3,8.063602E2,2.2497925E3,7.6026404E2,4.9833618E2,3.0802405E2,2.2462656E3,3.5269759E0,6.902594E2,7.000466E1,3.3091547E2,1.674207E2,3.016823E2,6.3417296E0,2.6132446E2,4.2893494E2,5.1475765E1,1.8528894E1,4.0253582E1,2.906619E2,9.87016E1,6.87191E1,2.728967E2,2.8785625E1,2.5743475E2,3.8897097E0,4.2421356E2,4.721376E0,4.947687E1,1.9988918E0,3.0361092E1,9.892491E0,2.5604694E2,3.4614964E1,3.7646587E1,6.1055016E1,3.4020416E1,3.4698685E1,2.654878E2,7.4089036E0,1.04085945E2,1.533488E2,3.0508583E0,4.6426014E1,9.619997E0,2.0741095E1,1.7486298E2,8.118396E1,1.8808586E1,1.5806376E1,2.7779034E1,9.867554E0,5.3660057E1,7.394959E0,4.4959373E0,2.952448E1,2.6064728E2,4.8405128E0,7.0996857E0,9.698626E1,1.5213333E2,1.2154644E0,4.5263954E1,1.1620601E0,1.5604588E1,5.1365066E0,1.7272191E2,2.1410577E0,3.440888E1,4.677508E1,1.7058216E1,1.7503697E0,1.4584603E1,1.2217734E0,8.592717E0,1.2748365E0,4.3228405E1,1.043165E1,3.6598637E0,2.5864616E1,1.1120123E0,2.5953528E2],"tree_param":{"num_deleted":"0","num_feature":"8","num_nodes":"83","size_leaf_vector":"1"}},{"base_weights":[-3.5103032E-1,-4.172698E-1,-1.18873455E-1,-4.6677583E-1,-2.714943E-1,-1.3856265E-1,1.3039148E-2,-4.702265E-1,-0E0,-2.9485947E-1,-0E0,-2.312582E-2,-1.7730096E-1,1.6306283E-1,-1.8040478E-2,-0E0,-1.4159948E-1,-1.17008805E-1,-3.4192598E-1,-1.590501E-1,9.649388E-2,-2.3520173E-1,2.1666966E-2,-1.821929E-1,-0E0,-0E0,3.1427085E-1,-1.1335282E-1,-0E0,-1.4246221E-1,-0E0,-3.446429E-1,-0E0,-0E0,-2.1803361E-1,-0E0,1.178945E-1,-0E0,-2.8189957E-1,9.445872E-2,-0E0,-1.9199795E-1,-0E0,3.8135266E-1,-0E0,-1.7948017E-1,-0E0,-2.4449192E-2,-2.9336277E-1,-2.0619434E-1,-4.114568E-1,-8.2104154E-2,-0E0,-0E0,1.4711463E-1,-2.9746327E-1,-0E0,-0E0,1.2958139E-1,-0E0,-3.5770025E-2,-1.3351722E-1,-3.151042E-1,-0E0,4.5443648E-1,-1.9981036E-1,-0E0,-2.1590754E-2,1.5008053E-3,-1.0440585E-1,-0E0,-6.625286E-2,-0E0,-1.4774458E-1,-4.110364E-2,4.5833196E-2,-0E0,-9.3210325E-2,-0E0,4.580855E-2,-0E0,-0E0,1.916003E-2,-0E0,-2.0397538E-2,-5.653316E-2,-0E0,-9.969167E-2,-0E0,1.4096111E-1,-0E0,-0E0,-9.595087E-2],"categories":[],"categories_nodes":[],"categories_segments":[],"categories_sizes":[],"default_left":[0,1,0,0,0,1,0,0,0,0,1,0,0,0,1,0,0,0,0,0,0,0,0,0,0,0,0,0,0,0,0,0,0,0,0,0,0,0,1,0,1,0,0,0,0,0,0,0,0,0,0,0,0,0,0,0,0,0,0,0,0,0,1,0,0,0,0,0,0,0,0,0,0,0,0,0,0,0,0,0,0,0,0,0,0,0,0,0,0,0,0,0,0],"id":10,"left_children":[1,3,5,7,9,11,13,15,-1,17,19,21,23,25,27,-1,-1,29,31,33,35,37,39,41,-1,-1,43,45,-1,47,-1,49,-1,-1,51,-1,53,-1,55,57,59,61,-1,63,-1,65,-1,67,69,71,73,-1,-1,-1,75,77,-1,-1,79,81,83,85,87,-1,89,91,-1,-1,-1,-1,-1,-1,-1,-1,-1,-1,-1,-1,-1,-1,-1,-1,-1,-1,-1,-1,-1,-1,-1,-1,-1,-1,-1],"loss_changes":[4.900409E1,1.4278259E1,2.6599932E0,1.7718506E0,3.4694595E0,2.1451826E0,1.0926651E0,1.0966797E0,0E0,2.7606354E0,1.4610147E0,3.1831014E0,7.9514694E-1,1.956651E0,4.549102E-1,0E0,0E0,1.037046E0,5.9911346E-1,7.183658E-1,1.528042E-1,4.0551305E-1,4.6912768E-1,7.9880714E-1,0E0,0E0,1.0438473E0,6.725625E-1,0E0,1.2678895E0,0E0,7.1788025E-1,0E0,0E0,9.401872E-1,0E0,5.850357E-2,0E0,2.603829E-1,3.420397E-1,3.0906318E-2,8.3288574E-1,0E0,1.0520048E0,0E0,2.2099924E-1,0E0,5.022707E-1,8.470988E-1,8.415718E-1,2.8164787E0,0E0,0E0,0E0,6.68329E-3,2.4197483E-1,0E0,0E0,3.2240313E-1,2.296917E-1,7.213126E-2,2.6716294E0,1.1018009E0,0E0,2.7276516E-2,4.7323143E-1,0E0,0E0,0E0,0E0,0E0,0E0,0E0,0E0,0E0,0E0,0E0,0E0,0E0,0E0,0E0,0E0,0E0,0E0,0E0,0E0,0E0,0E0,0E0,0E0,0E0,0E0,0E0],"parents":[2147483647,0,0,1,1,2,2,3,3,4,4,5,5,6,6,7,7,9,9,10,10,11,11,12,12,13,13,14,14,17,17,18,18,19,19,20,20,21,21,22,22,23,23,26,26,27,27,29,29,31,31,34,34,36,36,38,38,39,39,40,40,41,41,43,43,45,45,47,47,48,48,49,49,50,50,54,54,55,55,58,58,59,59,60,60,61,61,62,62,64,64,65,65],"right_children":[2,4,6,8,10,12,14,16,-1,18,20,22,24,26,28,-1,-1,30,32,34,36,38,40,42,-1,-1,44,46,-1,48,-1,50,-1,-1,52,-1,54,-1,56,58,60,62,-1,64,-1,66,-1,68,70,72,74,-1,-1,-1,76,78,-1,-1,80,82,84,86,88,-1,90,92,-1,-1,-1,-1,-1,-1,-1,-1,-1,-1,-1,-1,-1,-1,-1,-1,-1,-1,-1,-1,-1,-1,-1,-1,-1,-1,-1],"split_conditions":[1.21586155E-2,5.54E-2,2.609239E-1,2.601944E-1,8.634E-1,5E-1,7E-1,1.06E-2,-0E0,5E-1,8E-1,3E-1,8.4440744E-1,9.4E-1,1.5E0,-0E0,-1.4159948E-1,3.09224E-1,2.1709373E-2,8.865E-1,8.709E-1,8.865E-1,4E-1,1.9E0,-0E0,-0E0,5.8670527E-1,8.2960993E-1,-0E0,5.181E-1,-0E0,2.106E-1,-0E0,-0E0,4.9168694E-1,-0E0,1.1E0,-0E0,9.825E-1,1.6549228E-2,6.182E-1,1.2E0,-0E0,2.3557318E-2,-0E0,3.2886922E-1,-0E0,4.691E-1,8.111E-1,2.03E-1,5.496E-1,-8.2104154E-2,-0E0,-0E0,1.9E0,4.6354723E-1,-0E0,-0E0,4.021246E-3,3.7235763E-2,1.6549228E-2,8.5258916E-2,9.546E-1,-0E0,8.217641E-1,1.1E0,-0E0,-2.1590754E-2,1.5008053E-3,-1.0440585E-1,-0E0,-6.625286E-2,-0E0,-1.4774458E-1,-4.110364E-2,4.5833196E-2,-0E0,-9.3210325E-2,-0E0,4.580855E-2,-0E0,-0E0,1.916003E-2,-0E0,-2.0397538E-2,-5.653316E-2,-0E0,-9.969167E-2,-0E0,1.4096111E-1,-0E0,-0E0,-9.595087E-2],"split_indices":[6,7,5,5,7,0,0,7,0,0,0,0,2,7,0,0,0,5,4,7,7,7,0,0,0,0,5,1,0,7,0,7,0,0,2,0,0,0,7,6,7,0,0,6,0,6,0,7,7,7,7,0,0,0,0,6,0,0,1,6,6,6,7,0,2,0,0,0,0,0,0,0,0,0,0,0,0,0,0,0,0,0,0,0,0,0,0,0,0,0,0,0,0],"split_type":[0,0,0,0,0,0,0,0,0,0,0,0,0,0,0,0,0,0,0,0,0,0,0,0,0,0,0,0,0,0,0,0,0,0,0,0,0,0,0,0,0,0,0,0,0,0,0,0,0,0,0,0,0,0,0,0,0,0,0,0,0,0,0,0,0,0,0,0,0,0,0,0,0,0,0,0,0,0,0,0,0,0,0,0,0,0,0,0,0,0,0,0,0],"sum_hessian":[3.376545E3,2.6059043E3,7.7064056E2,1.9081681E3,6.977363E2,7.0322815E2,6.741241E1,1.8881766E3,1.9991478E1,6.3037787E2,6.735842E1,2.1193379E2,4.9129437E2,3.4075966E1,3.3336437E1,9.278566E0,1.8788981E3,1.5925075E2,4.7112714E2,3.700644E1,3.0351984E1,5.1233345E1,1.6070044E2,4.8884924E2,2.445139E0,1.0206693E1,2.3869274E1,2.9426418E1,3.9100184E0,1.5624792E2,3.0028281E0,4.686624E2,2.4647176E0,5.4779263E0,3.1528513E1,1.3359358E0,2.9016047E1,1.2592312E1,3.8641033E1,5.4401955E1,1.06298485E2,4.611673E2,2.7681932E1,2.1142002E1,2.7272723E0,2.8407938E1,1.0184804E0,1.1083615E2,4.541177E1,1.8622119E2,2.8244122E2,3.0005919E1,1.5225935E0,1.0183126E1,1.883292E1,3.693268E1,1.7083557E0,8.404651E0,4.5997307E1,8.9143394E1,1.7155096E1,3.5007434E2,1.11092964E2,3.229748E0,1.7912254E1,2.7104643E1,1.3032955E0,1.035016E2,7.3345547E0,3.7235912E1,8.175858E0,1.7869397E2,7.5272183E0,1.9970255E2,8.273868E1,1.7239754E1,1.5931671E0,3.5775406E1,1.1572704E0,4.499471E1,1.0025978E0,3.9832108E1,4.9311283E1,1.8665019E0,1.5288593E1,2.4748781E2,1.0258653E2,1.0916119E2,1.9317771E0,1.6426088E1,1.4861662E0,1.6168016E1,1.0936626E1],"tree_param":{"num_deleted":"0","num_feature":"8","num_nodes":"93","size_leaf_vector":"1"}},{"base_weights":[-2.822589E-1,-3.412151E-1,-9.1901585E-2,-3.857084E-1,-2.1468796E-1,-1.6094461E-1,-3.9567444E-2,-0E0,-3.8843805E-1,-2.3575784E-1,-0E0,-0E0,-2.2975619E-1,1.6613838E-1,-5.9620697E-2,-3.9142817E-1,-0E0,-1.1371625E-1,-2.998132E-1,-1.1082126E-1,7.369163E-2,-1.0359161E-1,2.703008E-1,-0E0,-2.7075955E-1,2.2238785E-1,-0E0,-8.426042E-2,4.1053113E-2,-1.1760676E-1,-0E0,-1.358373E-1,-0E0,-3.3110055E-1,-0E0,-0E0,-1.6616449E-1,-0E0,9.388876E-2,-1.488701E-1,-0E0,3.5164037E-1,-0E0,-0E0,-3.714827E-2,-3.0194658E-1,-0E0,-0E0,2.6993424E-1,-1.00057475E-1,-0E0,-0E0,1.6680184E-1,-4.020022E-5,-1.9548191E-1,-0E0,-1.061764E-1,3.3162214E-2,-1.1854263E-1,-6.6937275E-2,-0E0,-0E0,1.1316995E-1,-1.9415905E-1,-0E0,3.4101845E-3,-0E0,-0E0,1.316312E-1,-0E0,6.398433E-2,-1.6672657E-1,-0E0,-3.1378075E-1,-0E0,9.279893E-2,-0E0,-4.515562E-2,-2.5645164E-1,7.7008374E-2,-0E0,-7.173807E-2,-0E0,3.053892E-1,-0E0,-1.6729033E-2,-0E0,-6.132606E-2,-0E0,-2.0347767E-2,-0E0,-4.4898875E-2,-0E0,4.86182E-2,-0E0,-0E0,-6.0704146E-2,4.1868027E-2,-0E0,-0E0,-7.056806E-2,-9.9272475E-2,-0E0,-2.7959974E-2,3.164042E-3,-0E0,-9.634512E-2,4.090731E-2,-0E0,-2.56968E-2,-0E0,-0E0,1.0603624E-1],"categories":[],"categories_nodes":[],"categories_segments":[],"categories_sizes":[],"default_left":[0,1,0,0,0,0,0,0,0,0,1,0,0,0,0,0,0,0,1,0,0,1,1,0,1,0,0,0,0,0,0,0,0,0,0,0,0,0,0,1,1,0,0,0,0,0,0,0,1,0,1,0,0,0,0,0,0,0,0,0,0,0,0,0,0,0,0,0,0,0,0,0,0,0,0,0,0,0,0,0,0,0,0,1,0,0,0,0,0,0,0,0,0,0,0,0,0,0,0,0,0,0,0,0,0,0,0,0,0,0,0,0,0],"id":11,"left_children":[1,3,5,7,9,11,13,-1,15,17,19,21,23,25,27,29,-1,31,33,35,37,39,41,43,45,47,-1,49,51,-1,-1,53,-1,55,57,-1,59,-1,61,63,65,67,-1,69,71,73,-1,-1,75,77,79,81,83,85,87,89,-1,-1,91,-1,-1,-1,93,95,-1,-1,-1,-1,-1,-1,97,99,-1,101,-1,-1,-1,103,105,107,-1,109,-1,111,-1,-1,-1,-1,-1,-1,-1,-1,-1,-1,-1,-1,-1,-1,-1,-1,-1,-1,-1,-1,-1,-1,-1,-1,-1,-1,-1,-1,-1],"loss_changes":[3.206862E1,9.486816E0,1.683105E0,9.360657E-1,2.5043125E0,2.173358E0,1.5179734E0,0E0,7.9849243E-1,2.2528534E0,7.192571E-1,2.5735703E0,1.3752747E0,3.551435E-1,1.3935329E0,6.2301636E-2,0E0,1.248218E0,2.2512493E0,4.8900867E-1,1.168056E-1,9.155439E-1,7.9691315E-1,3.846633E-2,1.4787378E0,2.8953046E-1,0E0,9.627352E-1,9.9224615E-1,0E0,0E0,9.2625237E-1,0E0,6.5112305E-1,7.685244E-1,0E0,7.288643E-1,0E0,1.5915036E-2,5.7873416E-1,1.3483597E-3,1.0608168E0,0E0,6.602063E-2,6.915716E-1,8.3773327E-1,0E0,0E0,2.6305175E-1,1.7678604E0,1.5454946E-1,1.0563967E-1,1.8106278E0,2.4474162E-1,4.426751E-1,1.4410241E-1,0E0,0E0,3.152939E-1,0E0,0E0,0E0,4.0573895E-2,1.4499068E-1,0E0,0E0,0E0,0E0,0E0,0E0,2.2113952E-1,6.350621E-1,0E0,6.270294E-1,0E0,0E0,0E0,1.280643E0,1.9734058E0,2.6271552E-1,0E0,3.1289592E-2,0E0,7.9613256E-1,0E0,0E0,0E0,0E0,0E0,0E0,0E0,0E0,0E0,0E0,0E0,0E0,0E0,0E0,0E0,0E0,0E0,0E0,0E0,0E0,0E0,0E0,0E0,0E0,0E0,0E0,0E0,0E0,0E0],"parents":[2147483647,0,0,1,1,2,2,3,3,4,4,5,5,6,6,8,8,9,9,10,10,11,11,12,12,13,13,14,14,15,15,17,17,18,18,19,19,20,20,21,21,22,22,23,23,24,24,25,25,27,27,28,28,31,31,33,33,34,34,36,36,38,38,39,39,40,40,41,41,43,43,44,44,45,45,48,48,49,49,50,50,51,51,52,52,53,53,54,54,55,55,58,58,62,62,63,63,70,70,71,71,73,73,77,77,78,78,79,79,81,81,83,83],"right_children":[2,4,6,8,10,12,14,-1,16,18,20,22,24,26,28,30,-1,32,34,36,38,40,42,44,46,48,-1,50,52,-1,-1,54,-1,56,58,-1,60,-1,62,64,66,68,-1,70,72,74,-1,-1,76,78,80,82,84,86,88,90,-1,-1,92,-1,-1,-1,94,96,-1,-1,-1,-1,-1,-1,98,100,-1,102,-1,-1,-1,104,106,108,-1,110,-1,112,-1,-1,-1,-1,-1,-1,-1,-1,-1,-1,-1,-1,-1,-1,-1,-1,-1,-1,-1,-1,-1,-1,-1,-1,-1,-1,-1,-1,-1],"split_conditions":[1.21586155E-2,5.95E-2,3.090315E-2,1.94E-2,8.634E-1,1.8237924E-2,3.495602E-2,-0E0,2.601944E-1,7E-1,8E-1,1.519827E-2,4.936E-1,1.4E0,2.609239E-1,3.1123012E-2,-0E0,3.09224E-1,1.6E0,8.865E-1,8.709E-1,8.111E-1,7.958E-1,6E-1,8.787E-1,6.362E-1,-0E0,2E0,9.825E-1,-1.1760676E-1,-0E0,2.688E-1,-0E0,9.41E-2,1.7E0,-0E0,4.9168694E-1,-0E0,1.1E0,1.1E0,5E-1,3.106E-1,-0E0,9.79E-2,4.405E-1,4.021246E-3,-0E0,-0E0,9.319E-1,1.2E0,1.34E-1,1.894079E-1,4.8351777E-1,2.081E-1,2.1709373E-2,8.43E-2,-1.061764E-1,3.3162214E-2,7.343E-1,-6.6937275E-2,-0E0,-0E0,9.546E-1,2E-1,-0E0,3.4101845E-3,-0E0,-0E0,1.316312E-1,-0E0,3.837E-1,5.54E-2,-0E0,2.609239E-1,-0E0,9.279893E-2,-0E0,8E-1,4.28E-1,1.8432124E-1,-0E0,5.0055504E-1,-0E0,2E-1,-0E0,-1.6729033E-2,-0E0,-6.132606E-2,-0E0,-2.0347767E-2,-0E0,-4.4898875E-2,-0E0,4.86182E-2,-0E0,-0E0,-6.0704146E-2,4.1868027E-2,-0E0,-0E0,-7.056806E-2,-9.9272475E-2,-0E0,-2.7959974E-2,3.164042E-3,-0E0,-9.634512E-2,4.090731E-2,-0E0,-2.56968E-2,-0E0,-0E0,1.0603624E-1],"split_indices":[6,7,6,7,7,6,6,0,5,0,0,6,7,0,5,4,0,5,0,7,7,7,7,0,7,7,0,0,7,0,0,7,0,7,0,0,2,0,0,0,0,7,0,7,7,1,0,0,7,0,7,1,5,7,4,7,0,0,7,0,0,0,7,0,0,0,0,0,0,0,7,7,0,5,0,0,0,0,7,6,0,5,0,0,0,0,0,0,0,0,0,0,0,0,0,0,0,0,0,0,0,0,0,0,0,0,0,0,0,0,0,0,0],"split_type":[0,0,0,0,0,0,0,0,0,0,0,0,0,0,0,0,0,0,0,0,0,0,0,0,0,0,0,0,0,0,0,0,0,0,0,0,0,0,0,0,0,0,0,0,0,0,0,0,0,0,0,0,0,0,0,0,0,0,0,0,0,0,0,0,0,0,0,0,0,0,0,0,0,0,0,0,0,0,0,0,0,0,0,0,0,0,0,0,0,0,0,0,0,0,0,0,0,0,0,0,0,0,0,0,0,0,0,0,0,0,0,0,0],"sum_hessian":[3.0629863E3,2.3143784E3,7.48608E2,1.6724167E3,6.4196155E2,2.7531934E2,4.7328867E2,1.7316788E1,1.6551E3,5.762047E2,6.575681E1,1.0261298E2,1.7270633E2,1.5363196E1,4.5792548E2,1.6350149E3,2.0085054E1,2.318867E2,3.4431802E2,3.4766975E1,3.0989836E1,8.840101E1,1.4211977E1,3.1547995E1,1.4115834E2,1.2662011E1,2.701186E0,4.0870282E2,4.922265E1,1.6304452E3,4.569698E0,2.2806433E2,3.8223677E0,3.015949E2,4.2723118E1,5.4779263E0,2.928905E1,1.3359358E0,2.9653898E1,8.0505035E1,7.895971E0,1.1978534E1,2.2334435E0,1.067372E1,2.0874275E1,1.2835263E2,1.2805708E1,2.3429847E0,1.0319026E1,3.839654E2,2.4737429E1,1.7153997E1,3.206865E1,9.732109E1,1.3074326E2,3.331505E1,2.6827985E2,8.585005E0,3.4138115E1,2.7766457E1,1.5225935E0,1.0183126E1,1.9470772E1,5.9795723E1,2.0709316E1,3.4350033E0,4.4609675E0,1.2788833E0,1.0699651E1,1.547503E0,9.126218E0,1.9262486E1,1.6117895E0,1.26844086E2,1.5085483E0,8.937661E0,1.3813647E0,3.145388E2,6.9426605E1,1.906103E1,5.676398E0,1.3527102E1,3.6268957E0,2.4069588E1,7.999062E0,7.17062E1,2.5614887E1,1.2955438E2,1.1888682E0,2.4324224E1,8.990824E0,3.2884903E1,1.2532133E0,7.453305E0,1.20174675E1,1.7553174E0,5.8040405E1,7.743536E0,1.3826815E0,1.5912645E0,1.767122E1,1.1907365E2,7.7704396E0,2.145426E2,9.9996185E1,8.558144E0,6.0868465E1,1.544154E1,3.6194906E0,1.1662969E1,1.864134E0,1.5028912E0,2.2566696E1],"tree_param":{"num_deleted":"0","num_feature":"8","num_nodes":"113","size_leaf_vector":"1"}},{"base_weights":[-2.2049005E-1,-2.7161357E-1,-6.51365E-2,-2.910831E-1,-7.165833E-2,-9.852046E-2,-0E0,-1.4395694E-1,-3.202947E-1,-1.0792021E-1,5.0374206E-2,-0E0,-1.18356064E-1,4.3443237E-2,-5.4382246E-2,-0E0,-1.6692382E-1,-1.9144602E-1,-3.4655106E-1,-0E0,-1.3531008E-1,-0E0,4.6493635E-2,-2.0561108E-2,1.426358E-1,-0E0,-1.4858611E-1,-7.796987E-3,1.2160991E-1,-1.120692E-1,1.679301E-1,-0E0,5.2601904E-2,-1.7260858E-1,-0E0,-1.9944637E-1,-0E0,-1.0423326E-1,-0E0,4.13272E-2,-0E0,-1.6025385E-1,-0E0,-0E0,-1.1443462E-1,-0E0,1.2127578E-1,-6.267084E-2,1.9106288E-1,-1.5420192E-1,-0E0,-0E0,-5.8582712E-2,1.5692656E-1,-0E0,-1.4923961E-1,-0E0,2.6237315E-1,-0E0,-1.7858686E-1,-0E0,-0E0,-2.0765714E-1,-1.7786208E-1,-0E0,2.9418804E-2,-0E0,-1.22968405E-1,-0E0,-1.1439357E-1,-0E0,-0E0,2.7549508E-1,-1.6429855E-1,-0E0,-3.668639E-2,-0E0,-0E0,4.9063127E-2,-1.8738753E-1,-0E0,1.5095447E-2,-0E0,9.3242705E-2,-0E0,-5.41914E-2,-0E0,-6.2421795E-2,-0E0,-5.7067286E-2,-0E0,-0E0,2.2607878E-2,-4.45518E-2,-0E0,-0E0,-3.9764315E-2,3.06982E-3,-0E0,9.164122E-2,-0E0,-5.2579816E-2,-0E0,-0E0,-1.7516332E-2,-6.3793905E-2,-0E0,1.6568877E-2,-0E0],"categories":[],"categories_nodes":[],"categories_segments":[],"categories_sizes":[],"default_left":[0,1,0,0,1,0,0,0,0,0,0,0,0,0,0,0,0,0,0,1,0,0,0,0,0,0,0,0,0,1,0,0,0,0,0,0,0,0,0,0,0,0,0,0,1,0,0,1,1,1,0,0,0,0,0,0,0,0,0,1,0,0,0,0,0,0,0,0,0,0,1,0,1,0,0,0,0,0,0,0,0,0,0,0,0,0,0,0,0,0,0,0,0,0,0,0,0,0,0,0,0,0,0,0,0,0,0,0,0],"id":12,"left_children":[1,3,5,7,9,11,13,15,17,19,21,23,25,27,29,31,33,35,37,39,41,-1,-1,43,45,47,49,51,53,55,57,-1,-1,59,-1,61,-1,-1,-1,-1,-1,63,-1,65,67,-1,-1,69,71,73,-1,-1,75,77,-1,79,81,83,-1,85,-1,-1,87,89,-1,91,-1,93,-1,95,97,-1,99,101,103,-1,-1,-1,-1,105,-1,107,-1,-1,-1,-1,-1,-1,-1,-1,-1,-1,-1,-1,-1,-1,-1,-1,-1,-1,-1,-1,-1,-1,-1,-1,-1,-1,-1],"loss_changes":[2.069905E1,6.2379303E0,1.266315E0,5.4951935E0,1.2945057E0,1.0985093E0,7.392474E-1,1.8281941E0,2.0759277E0,1.0324132E0,3.9137873E-1,4.40384E-1,1.2763071E0,1.0996385E0,1.9875131E0,4.685446E-1,4.9619198E-1,8.896036E-1,2.8216553E-1,2.0742583E-1,1.2566855E0,0E0,0E0,4.405161E-1,1.8948867E0,1.0812892E0,4.9546432E-1,1.1590938E-1,7.544023E-1,1.1921793E0,5.4529977E-1,0E0,0E0,2.5049114E-1,0E0,4.5023918E-1,0E0,0E0,0E0,0E0,0E0,1.0257583E0,0E0,1.3785147E-2,3.555575E-2,0E0,0E0,6.113204E-1,5.747277E-1,1.9555521E-1,0E0,0E0,3.4416828E-1,1.4593697E-1,0E0,1.1672392E0,4.170747E-3,3.2338643E-1,0E0,1.4623356E-1,0E0,0E0,7.4911118E-3,7.5229263E-1,0E0,4.4113956E-2,0E0,4.5718968E-2,0E0,2.6375103E-1,1.0937358E-3,0E0,2.0363927E-1,3.8405466E-1,8.2327455E-2,0E0,0E0,0E0,0E0,1.1233687E0,0E0,4.4158105E-2,0E0,0E0,0E0,0E0,0E0,0E0,0E0,0E0,0E0,0E0,0E0,0E0,0E0,0E0,0E0,0E0,0E0,0E0,0E0,0E0,0E0,0E0,0E0,0E0,0E0,0E0,0E0],"parents":[2147483647,0,0,1,1,2,2,3,3,4,4,5,5,6,6,7,7,8,8,9,9,10,10,11,11,12,12,13,13,14,14,15,15,16,16,17,17,18,18,19,19,20,20,23,23,24,24,25,25,26,26,27,27,28,28,29,29,30,30,33,33,35,35,41,41,43,43,44,44,47,47,48,48,49,49,52,52,53,53,55,55,56,56,57,57,59,59,62,62,63,63,65,65,67,67,69,69,70,70,72,72,73,73,74,74,79,79,81,81],"right_children":[2,4,6,8,10,12,14,16,18,20,22,24,26,28,30,32,34,36,38,40,42,-1,-1,44,46,48,50,52,54,56,58,-1,-1,60,-1,62,-1,-1,-1,-1,-1,64,-1,66,68,-1,-1,70,72,74,-1,-1,76,78,-1,80,82,84,-1,86,-1,-1,88,90,-1,92,-1,94,-1,96,98,-1,100,102,104,-1,-1,-1,-1,106,-1,108,-1,-1,-1,-1,-1,-1,-1,-1,-1,-1,-1,-1,-1,-1,-1,-1,-1,-1,-1,-1,-1,-1,-1,-1,-1,-1,-1],"split_conditions":[1.21586155E-2,4.691E-1,6.7547865E-2,3.043E-1,1.5E0,3.493E-1,1.13195874E-1,3E-1,5E-1,5.082E-1,6.116E-1,2.742E-1,1.8237924E-2,9.906E-1,3.6578858E-1,2.152E-1,2.573371E-1,3.5557872E-1,3.1123012E-2,4E-1,3.0413625E-1,-0E0,4.6493635E-2,1.9757751E-2,2.8876713E-2,1.519827E-2,8.5619175E-1,5E-1,3.1971082E-1,8.634E-1,6.132717E-1,-0E0,5.2601904E-2,2.862E-1,-0E0,3.792E-1,-0E0,-1.0423326E-1,-0E0,4.13272E-2,-0E0,2.1709373E-2,-0E0,8E-1,1.7E0,-0E0,1.2127578E-1,8.111E-1,4E-1,8.946E-1,-0E0,-0E0,1.9768856E-1,2E-1,-0E0,4.1339293E-1,2.3210624E-1,8.0124694E-1,-0E0,2E0,-0E0,-0E0,8.424967E-2,1.2867987E-1,-0E0,1.8237924E-2,-0E0,1.959E-1,-0E0,4.74E-1,5E-1,-0E0,8.491E-1,2.609239E-1,9.473E-1,-3.668639E-2,-0E0,-0E0,4.9063127E-2,3.9380617E-2,-0E0,9E-1,-0E0,9.3242705E-2,-0E0,-5.41914E-2,-0E0,-6.2421795E-2,-0E0,-5.7067286E-2,-0E0,-0E0,2.2607878E-2,-4.45518E-2,-0E0,-0E0,-3.9764315E-2,3.06982E-3,-0E0,9.164122E-2,-0E0,-5.2579816E-2,-0E0,-0E0,-1.7516332E-2,-6.3793905E-2,-0E0,1.6568877E-2,-0E0],"split_indices":[6,7,6,7,0,7,6,0,0,7,7,7,6,7,5,7,5,5,4,0,2,0,0,6,6,6,2,0,5,7,5,0,0,7,0,7,0,0,0,0,0,4,0,0,0,0,0,7,0,7,0,0,2,0,0,6,6,2,0,0,0,0,3,1,0,6,0,7,0,7,0,0,7,5,7,0,0,0,0,3,0,0,0,0,0,0,0,0,0,0,0,0,0,0,0,0,0,0,0,0,0,0,0,0,0,0,0,0,0],"split_type":[0,0,0,0,0,0,0,0,0,0,0,0,0,0,0,0,0,0,0,0,0,0,0,0,0,0,0,0,0,0,0,0,0,0,0,0,0,0,0,0,0,0,0,0,0,0,0,0,0,0,0,0,0,0,0,0,0,0,0,0,0,0,0,0,0,0,0,0,0,0,0,0,0,0,0,0,0,0,0,0,0,0,0,0,0,0,0,0,0,0,0,0,0,0,0,0,0,0,0,0,0,0,0,0,0,0,0,0,0],"sum_hessian":[2.8267944E3,2.0987256E3,7.2806885E2,1.886812E3,2.1191362E2,4.4477322E2,2.8329562E2,3.4779266E2,1.5390194E3,1.955795E2,1.6334122E1,6.031937E1,3.8445386E2,1.2381152E2,1.594841E2,2.5302223E1,3.2249045E2,3.025881E2,1.2364313E3,1.7323954E1,1.7825554E2,4.57392E0,1.1760201E1,4.6791286E1,1.3528082E1,8.527097E1,2.991829E2,3.995554E1,8.385598E1,1.4723961E2,1.22444935E1,1.7062027E1,8.240196E0,3.1779892E2,4.6915507E0,3.0061316E2,1.9749624E0,1.2323844E3,4.046934E0,3.9303348E0,1.339362E1,1.7400702E2,4.2485194E0,1.841543E1,2.8375856E1,6.377256E0,7.1508255E0,7.1048E1,1.4222971E1,2.981244E2,1.0584897E0,1.2349988E1,2.760555E1,7.819748E1,5.6585E0,1.3350323E2,1.3736379E1,8.804908E0,3.439586E0,3.042714E2,1.3527527E1,1.3404004E1,2.8720914E2,1.723668E2,1.6402154E0,8.928006E0,9.487424E0,2.5987572E1,2.3882852E0,6.3141537E1,7.906464E0,3.4427764E0,1.0780194E1,2.690195E2,2.9104883E1,2.3956366E1,3.6491852E0,1.2986127E0,7.689887E1,1.15360916E2,1.8142315E1,1.1302982E1,2.4333956E0,7.6103334E0,1.1945741E0,3.017241E2,2.5472734E0,2.8620828E2,1.0008502E0,1.7060117E2,1.7656425E0,5.732829E0,3.195177E0,1.7690798E1,8.296775E0,2.885438E0,6.0256096E1,3.4454966E0,4.4609675E0,9.644229E0,1.1359657E0,2.4805829E2,2.0961216E1,1.1955787E1,1.7149096E1,1.12861664E2,2.499257E0,8.84393E0,2.4590526E0],"tree_param":{"num_deleted":"0","num_feature":"8","num_nodes":"109","size_leaf_vector":"1"}},{"base_weights":[-1.6705167E-1,-2.0282169E-1,-1.6653286E-2,-9.775134E-2,-2.2962517E-1,1.24587275E-1,-3.5642028E-2,-1.3616446E-1,-0E0,-2.4678628E-1,-2.2751477E-3,-0E0,2.8655455E-1,-1.951972E-1,-3.605275E-3,-1.5630278E-1,-0E0,1.1335891E-1,-5.3424183E-2,-7.687705E-2,-2.7110103E-1,-5.1879745E-2,5.352331E-2,3.626124E-1,-0E0,-3.4415695E-1,-0E0,1.5081215E-1,-2.2507718E-2,-1.6058557E-1,-0E0,-0E0,2.3011528E-2,-0E0,1.9424948E-1,-9.488512E-2,-0E0,4.6334085E-3,-1.4431225E-1,-4.8878273E-1,-2.4637891E-1,-0E0,-1.2131464E-1,-0E0,1.21537074E-1,4.5740402E-1,-0E0,-4.0162045E-1,-0E0,5.3791583E-2,-0E0,1.9936335E-1,-0E0,-3.8986314E-2,5.3936582E-2,-1.6804828E-1,-0E0,1.12469815E-1,-0E0,-1.0948552E-1,-0E0,-0E0,4.6300747E-2,-2.0551491E-1,-0E0,-1.517456E-1,-0E0,-1.187771E-2,-2.690416E-1,1.0490563E-1,-6.575058E-2,-1.7843416E-1,-0E0,4.312949E-2,-0E0,-0E0,1.5063363E-1,-0E0,-1.2737368E-1,-0E0,2.4034964E-1,-8.577641E-4,-1.4326037E-1,-0E0,1.8332276E-1,-6.5391205E-2,-1.2471761E-2,-0E0,-4.8370827E-2,1.49325635E-2,-0E0,-0E0,-6.795195E-2,1.9081824E-2,-0E0,-5.8151145E-2,-0E0,-8.1289925E-2,-0E0,-0E0,4.4764385E-2,-6.2053896E-2,-0E0,-0E0,-6.1171178E-2,8.2375765E-2,-0E0,-1.903946E-2,1.7313851E-3,-6.854584E-2,-0E0,-0E0,6.1926156E-2],"categories":[],"categories_nodes":[],"categories_segments":[],"categories_sizes":[],"default_left":[0,0,0,1,1,0,0,0,0,0,1,0,1,1,0,0,0,0,0,0,0,0,0,1,0,0,0,0,0,1,0,0,0,0,0,0,0,0,1,0,0,0,0,0,0,0,0,0,0,0,0,0,0,1,0,0,0,0,0,0,0,0,0,0,0,0,0,0,0,0,0,0,0,0,0,0,0,0,0,0,1,0,0,0,0,0,0,0,0,0,0,0,0,0,0,0,0,0,0,0,0,0,0,0,0,0,0,0,0,0,0,0,0],"id":13,"left_children":[1,3,5,7,9,11,13,15,17,19,21,-1,23,25,27,29,31,33,35,37,39,41,43,45,-1,47,49,51,53,55,-1,-1,-1,-1,57,59,-1,61,63,65,67,69,71,-1,73,75,-1,77,-1,-1,-1,79,-1,81,83,85,-1,-1,-1,87,-1,-1,89,91,93,-1,-1,95,97,99,101,103,-1,-1,-1,-1,-1,-1,-1,-1,105,107,109,-1,111,-1,-1,-1,-1,-1,-1,-1,-1,-1,-1,-1,-1,-1,-1,-1,-1,-1,-1,-1,-1,-1,-1,-1,-1,-1,-1,-1,-1],"loss_changes":[1.3172081E1,4.173256E0,1.047934E0,1.5930586E0,5.1692734E0,1.7082934E0,1.6439096E0,1.5858302E0,8.8207495E-1,4.3488693E0,4.0695813E-1,0E0,1.1042085E0,3.3033412E0,7.360138E-1,3.7960577E-1,1.1018926E-1,4.7909492E-1,7.1494794E-1,1.9367523E0,2.432495E0,6.566857E-1,1.6245592E-1,1.46738E0,0E0,9.0661335E-1,3.9908826E-1,2.8065646E-1,5.045107E-1,2.6296902E-1,0E0,0E0,0E0,0E0,1.6363113E0,3.278774E-1,0E0,1.0864873E-1,1.7834601E0,7.717724E-1,4.9221344E0,5.6745046E-1,3.404286E-1,0E0,6.835471E-2,6.5434694E-1,0E0,2.6069546E-1,0E0,0E0,0E0,2.2753352E-1,0E0,9.744533E-1,6.5994734E-1,5.2036095E-1,0E0,0E0,0E0,4.6277344E-1,0E0,0E0,1.3490833E-2,6.2234306E-1,8.2364626E-2,0E0,0E0,7.3352987E-1,1.009552E0,2.7066037E-1,1.1561673E0,3.0834532E-1,0E0,0E0,0E0,0E0,0E0,0E0,0E0,0E0,2.0961595E-1,4.3815747E-1,1.6952372E0,0E0,7.764083E-2,0E0,0E0,0E0,0E0,0E0,0E0,0E0,0E0,0E0,0E0,0E0,0E0,0E0,0E0,0E0,0E0,0E0,0E0,0E0,0E0,0E0,0E0,0E0,0E0,0E0,0E0,0E0,0E0],"parents":[2147483647,0,0,1,1,2,2,3,3,4,4,5,5,6,6,7,7,8,8,9,9,10,10,12,12,13,13,14,14,15,15,16,16,17,17,18,18,19,19,20,20,21,21,22,22,23,23,25,25,26,26,27,27,28,28,29,29,34,34,35,35,37,37,38,38,39,39,40,40,41,41,42,42,44,44,45,45,47,47,51,51,53,53,54,54,55,55,59,59,62,62,63,63,64,64,67,67,68,68,69,69,70,70,71,71,80,80,81,81,82,82,84,84],"right_children":[2,4,6,8,10,12,14,16,18,20,22,-1,24,26,28,30,32,34,36,38,40,42,44,46,-1,48,50,52,54,56,-1,-1,-1,-1,58,60,-1,62,64,66,68,70,72,-1,74,76,-1,78,-1,-1,-1,80,-1,82,84,86,-1,-1,-1,88,-1,-1,90,92,94,-1,-1,96,98,100,102,104,-1,-1,-1,-1,-1,-1,-1,-1,106,108,110,-1,112,-1,-1,-1,-1,-1,-1,-1,-1,-1,-1,-1,-1,-1,-1,-1,-1,-1,-1,-1,-1,-1,-1,-1,-1,-1,-1,-1,-1],"split_conditions":[2.4317231E-2,5E-1,2.8876713E-2,1.615E-1,5.444E-1,8.339E-1,3.090315E-2,1.519827E-2,2.688E-1,2.209E-1,1.5E0,-0E0,9.473E-1,2.742E-1,3.495602E-2,3.5557872E-1,3E-1,2.081E-1,3.7248427E-1,9E-1,6E-1,9E-1,8.111E-1,1.4E0,-0E0,1.4E0,5.895E-1,1.4E0,6.082725E-2,1.019E-1,-0E0,-0E0,2.3011528E-2,-0E0,4E-1,1.0053115E-2,-0E0,8.63E-2,1.5E0,1.519827E-2,7E-1,7.878E-1,8.491E-1,-0E0,2E0,3E-1,-0E0,1.319E-1,-0E0,5.3791583E-2,-0E0,6.362E-1,-0E0,1.2E0,7.1263E-2,4E-1,-0E0,1.12469815E-1,-0E0,5.181E-1,-0E0,-0E0,2.152E-1,1.94E-2,1.7E0,-1.517456E-1,-0E0,4.327E-1,1.09467255E-2,6E-1,9.751E-1,5.604E-1,-0E0,4.312949E-2,-0E0,-0E0,1.5063363E-1,-0E0,-1.2737368E-1,-0E0,9.319E-1,2.00001E0,1.9E0,-0E0,4E-1,-6.5391205E-2,-1.2471761E-2,-0E0,-4.8370827E-2,1.49325635E-2,-0E0,-0E0,-6.795195E-2,1.9081824E-2,-0E0,-5.8151145E-2,-0E0,-8.1289925E-2,-0E0,-0E0,4.4764385E-2,-6.2053896E-2,-0E0,-0E0,-6.1171178E-2,8.2375765E-2,-0E0,-1.903946E-2,1.7313851E-3,-6.854584E-2,-0E0,-0E0,6.1926156E-2],"split_indices":[6,0,6,7,7,7,6,6,7,7,0,0,7,7,6,5,0,7,5,0,0,0,7,0,0,0,7,0,2,7,0,0,0,0,0,1,0,7,0,6,0,7,7,0,0,0,0,7,0,0,0,7,0,0,6,0,0,0,0,7,0,0,7,7,0,0,0,7,1,0,7,7,0,0,0,0,0,0,0,0,7,7,0,0,0,0,0,0,0,0,0,0,0,0,0,0,0,0,0,0,0,0,0,0,0,0,0,0,0,0,0,0,0],"split_type":[0,0,0,0,0,0,0,0,0,0,0,0,0,0,0,0,0,0,0,0,0,0,0,0,0,0,0,0,0,0,0,0,0,0,0,0,0,0,0,0,0,0,0,0,0,0,0,0,0,0,0,0,0,0,0,0,0,0,0,0,0,0,0,0,0,0,0,0,0,0,0,0,0,0,0,0,0,0,0,0,0,0,0,0,0,0,0,0,0,0,0,0,0,0,0,0,0,0,0,0,0,0,0,0,0,0,0,0,0,0,0,0,0],"sum_hessian":[2.6498315E3,2.1118699E3,5.379616E2,4.7376614E2,1.6381039E3,2.7935122E1,5.1002652E2,3.2669373E2,1.4707242E2,1.5021274E3,1.3597635E2,7.527256E0,2.0407866E1,5.322495E1,4.5680157E2,3.111575E2,1.55362215E1,3.5251606E1,1.1182081E2,2.1744073E2,1.2846868E3,1.196806E2,1.6295742E1,1.851389E1,1.8939762E0,4.026308E1,1.2961868E1,1.5643317E1,4.4115823E2,3.091338E2,2.0237157E0,3.8082454E0,1.1727976E1,1.5165445E1,2.008616E1,1.100785E2,1.7423105E0,6.7828575E1,1.4961215E2,9.699417E1,1.1876926E3,5.8892933E1,6.0787674E1,7.779647E0,8.516095E0,1.6048372E1,2.4655185E0,3.3326614E1,6.9364667E0,5.413174E0,7.5486937E0,1.3018821E1,2.6244962E0,4.1955472E2,2.1603529E1,2.909912E2,1.8142557E1,1.191397E1,8.17219E0,1.0828721E2,1.7912856E0,2.3397799E1,4.4430775E1,1.12448425E2,3.7163734E1,9.312358E1,3.8705885E0,1.25048965E2,1.0626437E3,3.0761488E1,2.8131445E1,3.502665E1,2.5761023E1,7.396253E0,1.1198417E0,1.3263106E0,1.4722061E1,2.79713E0,3.0529486E1,2.3066375E0,1.0712184E1,3.4749783E2,7.20569E1,6.490446E0,1.5113082E1,1.7666211E2,1.14329124E2,4.432805E1,6.3959164E1,4.29465E1,1.4842746E0,8.983724E0,1.034647E2,1.3358397E1,2.3805338E1,1.3018702E1,1.12030266E2,1.0612507E3,1.3928435E0,6.9403453E0,2.3821142E1,2.3572239E1,4.559207E0,2.4271283E0,3.259952E1,9.3508625E0,1.3613211E0,9.974166E1,2.4775615E2,5.65515E1,1.55054E1,2.8497343E0,1.2263348E1],"tree_param":{"num_deleted":"0","num_feature":"8","num_nodes":"113","size_leaf_vector":"1"}},{"base_weights":[-1.2644465E-1,-1.6202343E-1,-2.5655821E-2,-1.7789386E-1,-5.0950847E-3,-0E0,-6.0976256E-2,-7.779198E-2,-1.9727598E-1,-6.2140506E-2,-0E0,-9.306324E-2,1.32750785E-2,-1.4452416E-1,-0E0,-1.3118337E-1,-0E0,-1.0252713E-1,-2.1693009E-1,-0E0,-1.3889651E-1,1.546244E-1,-0E0,-0E0,-1.3469839E-1,-0E0,6.790709E-2,-0E0,-2.5265458E-1,5.2859332E-2,-1.10513575E-1,-1.4224948E-1,-0E0,1.7062403E-2,-3.079445E-2,-0E0,-1.1643254E-1,-2.5078875E-1,-1.3646166E-1,4.980352E-2,-0E0,-1.9534793E-1,-0E0,7.910578E-2,-0E0,-9.701385E-2,7.279441E-2,-1.7291863E-1,-0E0,3.4215167E-2,-1.8839818E-1,1.0485181E-1,-0E0,-0E0,4.848065E-2,-2.679982E-1,-0E0,1.1753979E-1,-3.7714003E-3,-1.800307E-1,-0E0,-0E0,-4.4402424E-2,3.0342981E-2,-0E0,-8.4942915E-2,-0E0,-3.6651973E-2,-0E0,-2.5531885E-1,-0E0,-0E0,-2.0493534E-1,7.142796E-2,-0E0,-2.186875E-1,-0E0,-4.1386437E-2,-0E0,-0E0,1.0763006E-1,-1.8346123E-1,-0E0,-0E0,7.195864E-2,-3.2807267E-1,-0E0,-0E0,1.2799728E-1,-8.7088436E-2,-0E0,9.069028E-2,-0E0,-0E0,-8.361914E-2,1.5066229E-1,-0E0,-3.8384434E-2,-0E0,-2.164735E-1,-0E0,-0E0,1.36696035E-2,-0E0,-4.288914E-2,-7.681502E-2,-0E0,-6.23258E-2,-0E0,3.8099393E-2,-0E0,-8.646252E-2,-0E0,3.445044E-2,-0E0,-5.7502657E-2,-0E0,-0E0,-2.339021E-2,-0E0,3.911326E-2,-1.01222105E-1,-0E0,-0E0,-1.4181424E-2,-0E0,6.407629E-2,-0E0,-4.7339097E-2,-0E0,3.0090973E-2,-0E0,5.797388E-2,-0E0,-7.976681E-2],"categories":[],"categories_nodes":[],"categories_segments":[],"categories_sizes":[],"default_left":[0,1,0,0,1,0,0,0,0,0,0,0,0,0,0,1,1,0,1,1,0,0,0,0,0,0,0,0,0,1,0,0,0,0,0,0,0,0,0,0,0,0,0,0,0,0,0,1,0,0,0,0,0,1,0,0,0,0,0,0,0,0,0,1,0,0,0,0,0,0,0,0,0,1,0,1,0,0,0,0,0,0,0,0,0,0,0,0,0,0,0,0,0,0,0,0,0,0,0,0,0,0,0,0,0,0,0,0,0,0,0,0,0,0,0,0,0,0,0,0,0,0,0,0,0,0,0,0,0,0,0,0,0,0,0],"id":14,"left_children":[1,3,5,7,9,11,13,15,17,19,21,23,25,27,29,31,33,35,37,39,41,43,45,-1,47,49,51,53,55,57,59,61,-1,63,65,-1,67,69,71,73,-1,75,-1,-1,-1,77,79,81,-1,83,85,87,-1,89,91,93,-1,95,97,99,-1,-1,-1,101,-1,103,-1,-1,-1,105,-1,-1,107,109,-1,111,-1,-1,-1,-1,113,115,-1,117,119,121,123,-1,125,127,-1,129,-1,-1,-1,131,-1,-1,-1,133,-1,-1,-1,-1,-1,-1,-1,-1,-1,-1,-1,-1,-1,-1,-1,-1,-1,-1,-1,-1,-1,-1,-1,-1,-1,-1,-1,-1,-1,-1,-1,-1,-1,-1,-1],"loss_changes":[8.126247E0,3.652111E0,6.068835E-1,1.6962814E0,3.414523E-1,5.7782555E-1,1.3034903E0,1.2716362E0,7.1692276E-1,9.6213543E-1,5.7398736E-1,4.8527724E-1,5.570371E-1,2.2627482E0,1.1676248E0,1.1985278E-1,8.2934394E-2,6.37099E-1,6.80851E-1,6.1834708E-2,1.2285202E0,7.1353817E-1,8.9197034E-1,0E0,5.654443E-1,2.2754323E0,5.0994843E-1,7.9138935E-2,5.021391E-1,1.0135764E0,1.2230003E0,1.1242986E-1,0E0,4.4989415E-2,3.7435672E-1,0E0,3.408575E-1,9.273186E-1,2.8976612E0,4.9846247E-3,0E0,5.711727E-1,0E0,0E0,0E0,5.6387913E-1,2.1136524E-1,1.4014673E-1,0E0,4.900604E-1,1.0334966E0,3.891536E-1,0E0,1.4542162E-1,1.873605E-1,3.0953836E-1,0E0,7.778305E-1,3.2730773E-1,8.2551885E-1,0E0,0E0,0E0,7.801367E-2,0E0,6.05752E-1,0E0,0E0,0E0,9.3105316E-2,0E0,0E0,2.2724819E-1,1.11095555E-1,0E0,1.6886854E-1,0E0,0E0,0E0,0E0,3.5265118E-2,1.1211538E-1,0E0,2.4355747E-1,7.4120605E-1,6.310415E-2,5.3639635E-2,0E0,2.3773444E-1,2.9356843E-1,0E0,2.1158248E-2,0E0,0E0,0E0,8.29262E-1,0E0,0E0,0E0,7.704971E-1,0E0,0E0,0E0,0E0,0E0,0E0,0E0,0E0,0E0,0E0,0E0,0E0,0E0,0E0,0E0,0E0,0E0,0E0,0E0,0E0,0E0,0E0,0E0,0E0,0E0,0E0,0E0,0E0,0E0,0E0,0E0,0E0,0E0,0E0,0E0],"parents":[2147483647,0,0,1,1,2,2,3,3,4,4,5,5,6,6,7,7,8,8,9,9,10,10,11,11,12,12,13,13,14,14,15,15,16,16,17,17,18,18,19,19,20,20,21,21,22,22,24,24,25,25,26,26,27,27,28,28,29,29,30,30,31,31,33,33,34,34,36,36,37,37,38,38,39,39,41,41,45,45,46,46,47,47,49,49,50,50,51,51,53,53,54,54,55,55,57,57,58,58,59,59,63,63,65,65,69,69,72,72,73,73,75,75,80,80,81,81,83,83,84,84,85,85,86,86,88,88,89,89,91,91,95,95,99,99],"right_children":[2,4,6,8,10,12,14,16,18,20,22,24,26,28,30,32,34,36,38,40,42,44,46,-1,48,50,52,54,56,58,60,62,-1,64,66,-1,68,70,72,74,-1,76,-1,-1,-1,78,80,82,-1,84,86,88,-1,90,92,94,-1,96,98,100,-1,-1,-1,102,-1,104,-1,-1,-1,106,-1,-1,108,110,-1,112,-1,-1,-1,-1,114,116,-1,118,120,122,124,-1,126,128,-1,130,-1,-1,-1,132,-1,-1,-1,134,-1,-1,-1,-1,-1,-1,-1,-1,-1,-1,-1,-1,-1,-1,-1,-1,-1,-1,-1,-1,-1,-1,-1,-1,-1,-1,-1,-1,-1,-1,-1,-1,-1,-1,-1],"split_conditions":[1.21586155E-2,4.691E-1,9E-1,2.893E-1,6E-1,3E-1,3.3436194E-2,1.551E-1,5E-1,6.01E-1,7E-1,2.984E-1,8.09499E-2,1.8237924E-2,1.0486806E-1,1.6E0,9E-1,3.792E-1,1.1E0,5E-1,1.2867987E-1,7.878E-1,8.709E-1,-0E0,3.1164658E-1,6.079308E-2,7E-1,9.617E-1,4.021246E-3,3.678E-1,3.7248427E-1,1.06E-2,-0E0,2.688E-1,2.862E-1,-0E0,3.5557872E-1,2.601944E-1,1.3E0,5.082E-1,-0E0,2.2810219E-1,-0E0,7.910578E-2,-0E0,1.6E0,8E-1,9.825E-1,-0E0,8.946E-1,6.670352E-2,7.203E-1,-0E0,1.8E0,2.4961638E-1,6.13E-2,-0E0,3.1259802E-1,1.3E0,5.384126E-1,-0E0,-0E0,-4.4402424E-2,1E-1,-0E0,1.727E-1,-0E0,-3.6651973E-2,-0E0,3.3342447E-2,-0E0,-0E0,1.067607E-2,4E-1,-0E0,4E-1,-0E0,-4.1386437E-2,-0E0,-0E0,1.9E0,4.6354723E-1,-0E0,1.9757751E-2,2.2628535E-2,6.082725E-2,7.29517E-2,-0E0,6E-1,8.63E-2,-0E0,1E0,-0E0,-0E0,-8.361914E-2,1E0,-0E0,-3.8384434E-2,-0E0,1E0,-0E0,-0E0,1.36696035E-2,-0E0,-4.288914E-2,-7.681502E-2,-0E0,-6.23258E-2,-0E0,3.8099393E-2,-0E0,-8.646252E-2,-0E0,3.445044E-2,-0E0,-5.7502657E-2,-0E0,-0E0,-2.339021E-2,-0E0,3.911326E-2,-1.01222105E-1,-0E0,-0E0,-1.4181424E-2,-0E0,6.407629E-2,-0E0,-4.7339097E-2,-0E0,3.0090973E-2,-0E0,5.797388E-2,-0E0,-7.976681E-2],"split_indices":[6,7,0,7,0,0,6,7,0,7,0,7,6,6,6,0,0,7,0,0,1,7,7,0,1,6,0,7,1,7,5,7,0,7,7,0,5,5,0,7,0,2,0,0,0,0,0,7,0,7,6,7,0,0,5,7,0,5,0,1,0,0,0,0,0,7,0,0,0,4,0,0,4,0,0,0,0,0,0,0,0,6,0,6,6,2,6,0,0,7,0,0,0,0,0,0,0,0,0,0,0,0,0,0,0,0,0,0,0,0,0,0,0,0,0,0,0,0,0,0,0,0,0,0,0,0,0,0,0,0,0,0,0,0,0],"split_type":[0,0,0,0,0,0,0,0,0,0,0,0,0,0,0,0,0,0,0,0,0,0,0,0,0,0,0,0,0,0,0,0,0,0,0,0,0,0,0,0,0,0,0,0,0,0,0,0,0,0,0,0,0,0,0,0,0,0,0,0,0,0,0,0,0,0,0,0,0,0,0,0,0,0,0,0,0,0,0,0,0,0,0,0,0,0,0,0,0,0,0,0,0,0,0,0,0,0,0,0,0,0,0,0,0,0,0,0,0,0,0,0,0,0,0,0,0,0,0,0,0,0,0,0,0,0,0,0,0,0,0,0,0,0,0],"sum_hessian":[2.5289407E3,1.8293223E3,6.996183E2,1.6315264E3,1.9779594E2,4.1830075E2,2.8131754E2,3.1219794E2,1.3193284E3,8.280292E1,1.1499303E2,5.212426E1,3.6617648E2,1.0672905E2,1.745885E2,1.7913968E2,1.3305827E2,2.7783798E2,1.0414904E3,2.1956766E1,6.084615E1,1.7007462E1,9.798556E1,4.155257E0,4.7969006E1,2.3811882E2,1.2805766E2,4.1068577E1,6.566047E1,1.135687E2,6.101979E1,1.572283E2,2.1911385E1,7.900585E1,5.4052418E1,1.6977375E1,2.608606E2,6.788842E2,3.6260617E2,1.7929422E1,4.0273423E0,5.9492928E1,1.353222E0,1.1517487E1,5.489976E0,6.559432E1,3.2391235E1,4.5265495E1,2.7035077E0,1.8742368E2,5.0695156E1,9.603433E1,3.2023327E1,1.4397784E1,2.6670794E1,6.456997E1,1.0905036E0,9.0718056E1,2.2850647E1,5.636551E1,4.6542816E0,7.3985147E0,1.4982979E2,6.905972E1,9.946132E0,5.2907787E1,1.1446288E0,2.5911545E2,1.7451463E0,6.689864E2,9.897829E0,1.3673146E2,2.2587471E2,6.096813E0,1.1832609E1,5.8000465E1,1.4924624E0,5.8528877E1,7.065446E0,3.12638E0,2.9264856E1,4.359506E1,1.6704388E0,5.5825462E1,1.315982E2,2.162839E1,2.9066769E1,1.0140796E1,8.589354E1,1.2173792E1,2.2239923E0,2.5402224E1,1.2685713E0,1.4211131E0,6.3148853E1,8.674212E1,3.9759371E0,1.3019423E1,9.831224E0,5.44429E1,1.9226103E0,4.7556305E0,6.430409E1,9.121426E0,4.378636E1,6.665512E2,2.43518E0,2.2486664E2,1.0080696E0,4.031098E0,2.0657153E0,3.2457077E1,2.554339E1,2.7531311E1,1.7335451E0,4.24031E1,1.19196E0,2.275948E1,3.306598E1,5.2773514E1,7.882469E1,2.0620605E1,1.0077847E0,1.20624895E1,1.7004278E1,5.432164E1,3.1571901E1,1.5435886E0,1.0630203E1,3.8101246E0,2.1592098E1,1.4556249E1,7.218587E1,9.817633E0,4.4625267E1],"tree_param":{"num_deleted":"0","num_feature":"8","num_nodes":"135","size_leaf_vector":"1"}},{"base_weights":[-9.522451E-2,-1.1770766E-1,-4.583623E-3,-1.24970324E-1,-0E0,-1.1926626E-1,-0E0,-8.183055E-2,-1.6259263E-1,-0E0,1.1070163E-1,-1.6866608E-1,-0E0,1.349763E-1,-6.6014305E-3,-1.0848931E-1,2.8283019E-2,-2.914442E-1,-9.77756E-2,-0E0,-5.1806357E-2,3.8543396E-2,-0E0,-5.964324E-2,-0E0,2.4712554E-1,-0E0,1.3458878E-1,-2.731943E-2,-7.0083044E-2,-2.7747858E-1,6.368212E-2,-0E0,-2.9799578E-1,-0E0,-2.5313965E-3,-1.269273E-1,-0E0,3.1035846E-2,-1.24648765E-1,-0E0,-0E0,8.8450484E-2,-0E0,2.011463E-1,-9.796867E-2,1.8334265E-3,-1.183893E-1,6.581414E-2,-9.20424E-2,-0E0,1.0205876E-1,-0E0,-2.240576E-2,-0E0,-0E0,-3.053349E-1,-0E0,-2.775877E-2,-1.5608019E-1,-0E0,8.990019E-2,-0E0,-1.6775648E-1,-0E0,2.6589695E-1,-0E0,-1.0731583E-1,-0E0,2.7684148E-2,-1.3950657E-2,-1.6505556E-2,-9.431307E-2,-0E0,2.7916143E-2,3.1593304E-2,-0E0,-3.36909E-2,-0E0,-7.845338E-3,-0E0,-9.193037E-2,-0E0,3.3677786E-3,-0E0,-0E0,-5.582194E-2,4.2407155E-2,-2.7651377E-2,3.8663246E-2,-0E0,-5.475315E-2,-0E0,9.962166E-2,-0E0,-3.54022E-2,-0E0,-0E0,1.198027E-2,-2.4815844E-2,-0E0],"categories":[],"categories_nodes":[],"categories_segments":[],"categories_sizes":[],"default_left":[0,1,0,0,0,0,0,0,0,0,1,0,0,0,0,0,0,1,0,0,0,0,0,0,0,0,0,0,0,0,0,1,0,0,0,1,1,0,0,0,0,0,0,0,1,0,0,0,0,0,0,0,0,1,0,0,0,0,0,0,0,0,0,0,0,1,0,1,0,0,0,0,0,0,0,0,0,0,0,0,0,0,0,0,0,0,0,0,0,0,0,0,0,0,0,0,0,0,0,0,0],"id":15,"left_children":[1,3,5,7,9,11,13,15,17,19,21,23,-1,25,27,29,31,33,35,37,39,-1,-1,-1,-1,41,-1,43,45,47,49,51,53,55,-1,57,59,-1,61,63,-1,-1,-1,-1,65,67,69,71,73,-1,-1,75,77,79,-1,-1,81,83,-1,85,87,89,-1,91,-1,93,-1,95,-1,97,99,-1,-1,-1,-1,-1,-1,-1,-1,-1,-1,-1,-1,-1,-1,-1,-1,-1,-1,-1,-1,-1,-1,-1,-1,-1,-1,-1,-1,-1,-1],"loss_changes":[4.3771915E0,1.949688E0,4.3062407E-1,1.6496162E0,2.2786403E-1,3.8989887E-1,6.233978E-1,3.143664E0,5.427641E0,1.5529166E-1,6.0537428E-2,1.6376126E-1,0E0,1.1863719E0,9.1762817E-1,3.2164125E0,4.4332352E-1,9.2650986E-1,1.126462E0,2.52278E-2,5.435105E-1,0E0,0E0,0E0,0E0,6.403347E-1,0E0,6.139375E-1,1.4344676E0,4.7324324E0,1.1064987E0,7.130304E-1,8.348118E-3,8.9645004E-1,0E0,4.069097E-1,1.346056E0,0E0,1.5508619E-1,2.68663E-1,0E0,0E0,0E0,0E0,7.6719975E-1,3.439814E-1,1.873159E-1,4.5625157E0,3.8530326E-1,0E0,0E0,6.62688E-2,2.3621689E-1,2.1053962E-3,0E0,0E0,6.106949E-2,1.9226491E-2,0E0,1.4770708E0,1.3457171E0,1.5548806E-1,0E0,1.0001969E-1,0E0,8.54326E-1,0E0,3.9034534E-1,0E0,1.8338758E-1,3.9374807E-1,0E0,0E0,0E0,0E0,0E0,0E0,0E0,0E0,0E0,0E0,0E0,0E0,0E0,0E0,0E0,0E0,0E0,0E0,0E0,0E0,0E0,0E0,0E0,0E0,0E0,0E0,0E0,0E0,0E0,0E0],"parents":[2147483647,0,0,1,1,2,2,3,3,4,4,5,5,6,6,7,7,8,8,9,9,10,10,11,11,13,13,14,14,15,15,16,16,17,17,18,18,19,19,20,20,25,25,27,27,28,28,29,29,30,30,31,31,32,32,33,33,35,35,36,36,38,38,39,39,44,44,45,45,46,46,47,47,48,48,51,51,52,52,53,53,56,56,57,57,59,59,60,60,61,61,63,63,65,65,67,67,69,69,70,70],"right_children":[2,4,6,8,10,12,14,16,18,20,22,24,-1,26,28,30,32,34,36,38,40,-1,-1,-1,-1,42,-1,44,46,48,50,52,54,56,-1,58,60,-1,62,64,-1,-1,-1,-1,66,68,70,72,74,-1,-1,76,78,80,-1,-1,82,84,-1,86,88,90,-1,92,-1,94,-1,96,-1,98,100,-1,-1,-1,-1,-1,-1,-1,-1,-1,-1,-1,-1,-1,-1,-1,-1,-1,-1,-1,-1,-1,-1,-1,-1,-1,-1,-1,-1,-1,-1],"split_conditions":[2.4317231E-2,8.111E-1,1.959E-1,9E-1,1.5E0,1.4643171E-1,3.678E-1,8E-1,1.1E0,5E-1,2E0,1.7E0,-0E0,1.075818E-1,2.8876713E-2,7E-1,1.21586155E-2,7.746E-1,1.3E0,3E-1,9.751E-1,3.8543396E-2,-0E0,-5.964324E-2,-0E0,2.6512537E-2,-0E0,7.54E-1,6.2523425E-2,6E-1,1.21586155E-2,3.043E-1,2.1277579E-2,2.16E-2,-0E0,9.2E-2,1.8E0,-0E0,9.685E-1,1.1E0,-0E0,-0E0,8.8450484E-2,-0E0,9.473E-1,8.4206074E-1,1.2E0,5E-1,4.791E-1,-9.20424E-2,-0E0,2.6633447E-1,6.062E-1,3.64E-1,-0E0,-0E0,2.0364E-2,1.6549228E-2,-2.775877E-2,2.893E-1,1.9E0,1.519827E-2,-0E0,1.8237924E-2,-0E0,1.4E0,-0E0,9.825E-1,-0E0,2E-1,4.1396323E-1,-1.6505556E-2,-9.431307E-2,-0E0,2.7916143E-2,3.1593304E-2,-0E0,-3.36909E-2,-0E0,-7.845338E-3,-0E0,-9.193037E-2,-0E0,3.3677786E-3,-0E0,-0E0,-5.582194E-2,4.2407155E-2,-2.7651377E-2,3.8663246E-2,-0E0,-5.475315E-2,-0E0,9.962166E-2,-0E0,-3.54022E-2,-0E0,-0E0,1.198027E-2,-2.4815844E-2,-0E0],"split_indices":[6,7,7,0,0,6,7,0,0,0,0,0,0,6,6,0,6,7,0,0,7,0,0,0,0,6,0,7,6,0,6,7,6,7,0,7,0,0,7,0,0,0,0,0,7,2,0,0,7,0,0,5,7,7,0,0,4,6,0,7,0,6,0,6,0,0,0,7,0,0,2,0,0,0,0,0,0,0,0,0,0,0,0,0,0,0,0,0,0,0,0,0,0,0,0,0,0,0,0,0,0],"split_type":[0,0,0,0,0,0,0,0,0,0,0,0,0,0,0,0,0,0,0,0,0,0,0,0,0,0,0,0,0,0,0,0,0,0,0,0,0,0,0,0,0,0,0,0,0,0,0,0,0,0,0,0,0,0,0,0,0,0,0,0,0,0,0,0,0,0,0,0,0,0,0,0,0,0,0,0,0,0,0,0,0,0,0,0,0,0,0,0,0,0,0,0,0,0,0,0,0,0,0,0,0],"sum_hessian":[2.442797E3,1.9114224E3,5.313747E2,1.8197623E3,9.16601E1,2.4068718E1,5.0730594E2,9.199841E2,8.997782E2,8.0066315E1,1.1593781E1,2.2240253E1,1.828464E0,2.604975E1,4.812562E2,7.773071E2,1.4267699E2,2.6712927E2,6.326489E2,2.9205841E1,5.0860477E1,1.0471899E1,1.1218822E0,1.8188534E1,4.05172E0,2.2285437E1,3.7643113E0,2.5777386E1,4.5547882E2,6.655402E2,1.11766914E2,1.3184029E2,1.0836702E1,2.656416E2,1.4876755E0,1.9023595E2,4.4241296E2,1.00148325E1,1.9191008E1,3.797574E1,1.2884738E1,1.3446485E0,2.0940788E1,2.9287295E0,2.2848656E1,1.7832088E2,2.7715793E2,5.188154E2,1.4672473E2,1.01899994E2,9.866924E0,1.15512085E2,1.6328197E1,9.629116E0,1.2075868E0,3.3334835E0,2.6230814E2,1.4956136E2,4.067459E1,3.4546228E2,9.695069E1,1.5310445E1,3.8805625E0,2.7377695E1,1.0598044E1,2.0932648E1,1.9160081E0,1.7731213E2,1.0087444E0,2.2316385E2,5.3994083E1,4.181027E2,1.0071277E2,3.2329575E1,1.14395164E2,1.1403736E2,1.4747239E0,1.1729591E1,4.598606E0,8.285563E0,1.3435522E0,2.6102908E2,1.2790521E0,1.455652E2,3.9961522E0,6.1807175E1,2.836551E2,2.8096651E1,6.885404E1,1.3217586E1,2.0928597E0,2.5046904E1,2.3307927E0,1.8656548E1,2.2761006E0,1.734581E2,3.8540363E0,4.5550957E0,2.1860875E2,5.227923E1,1.7148532E0],"tree_param":{"num_deleted":"0","num_feature":"8","num_nodes":"101","size_leaf_vector":"1"}},{"base_weights":[-7.234429E-2,-8.8865004E-2,-0E0,-9.7001396E-2,9.409581E-3,1.5996361E-1,-7.9466505E-3,-1.0033474E-1,-0E0,-0E0,4.7596756E-2,2.0272294E-1,-0E0,-2.838183E-2,1.61119E-2,-1.048709E-1,-0E0,7.7233076E-2,-2.8985804E-2,-1.2435434E-2,-0E0,8.0428064E-2,-0E0,7.034067E-2,-0E0,-8.542758E-2,-0E0,5.644924E-2,-0E0,-9.620442E-2,-1.1271947E-1,1.3182662E-1,-9.286838E-2,-0E0,1.5250002E-1,-0E0,-3.9182726E-2,-0E0,-1.57209E-2,9.873138E-2,-0E0,-0E0,-1.3364011E-1,1.3579758E-2,-5.5143975E-2,4.5564312E-2,-8.670491E-2,-1.04744256E-1,1.8728377E-1,2.5640064E-1,-0E0,-1.5071975E-1,-0E0,1.6806683E-1,-0E0,-0E0,1.12536296E-1,5.230762E-2,-0E0,-4.3392904E-2,-0E0,-0E0,2.2145124E-1,-8.707159E-2,-0E0,-0E0,9.704674E-2,-0E0,-1.9792993E-1,-2.2742504E-2,-4.3626945E-2,6.732261E-2,-0E0,-0E0,9.6762635E-2,-5.21998E-2,-0E0,5.3233184E-2,-0E0,3.4632925E-2,-0E0,-0E0,1.720394E-2,-2.1381741E-2,-0E0,7.0698306E-2,-0E0,-3.233513E-2,-0E0,-0E0,3.9464697E-2,1.563747E-2,-0E0,-6.660315E-2,-0E0],"categories":[],"categories_nodes":[],"categories_segments":[],"categories_sizes":[],"default_left":[0,1,0,0,0,1,0,1,0,0,0,0,0,0,0,1,0,0,0,0,0,0,0,0,0,0,0,0,0,1,0,1,1,0,1,0,0,0,0,0,0,0,0,0,0,0,0,1,0,0,0,0,0,0,0,0,1,0,0,0,0,0,0,0,0,0,0,0,0,0,0,0,0,0,0,0,0,0,0,0,0,0,0,0,0,0,0,0,0,0,0,0,0,0,0],"id":16,"left_children":[1,3,5,7,9,11,13,15,17,19,21,23,-1,25,27,29,31,33,35,37,-1,39,-1,-1,-1,41,43,-1,45,47,-1,49,51,-1,53,-1,-1,-1,-1,55,-1,57,59,61,63,65,67,69,71,73,-1,75,-1,77,-1,-1,79,81,-1,-1,-1,83,85,87,-1,-1,89,91,93,-1,-1,-1,-1,-1,-1,-1,-1,-1,-1,-1,-1,-1,-1,-1,-1,-1,-1,-1,-1,-1,-1,-1,-1,-1,-1],"loss_changes":[2.8311481E0,1.9977541E0,5.4273206E-1,8.045311E-1,2.0970416E-1,2.096852E-1,2.8162804E-1,5.9316444E-1,2.2234732E-1,2.6039863E-3,3.7277946E-1,1.7154789E-1,0E0,5.5228865E-1,5.8413064E-1,1.384531E0,1.2934369E0,5.281154E-1,2.868364E-1,3.977387E-2,0E0,2.834615E-1,0E0,0E0,0E0,9.181177E-1,1.9929293E-1,0E0,4.324282E-1,3.785347E0,0E0,1.4925168E0,8.737751E-1,0E0,1.0326296E-1,0E0,0E0,0E0,0E0,1.8632972E-1,0E0,4.5179747E-2,2.731738E-1,1.1279948E0,1.9795933E-1,3.0610067E-1,1.2300527E0,7.5872993E-1,4.7457302E-1,8.189063E-1,0E0,2.8227615E-1,0E0,4.196769E-2,0E0,0E0,4.1392207E-2,5.446736E-3,0E0,0E0,0E0,1.4287034E-1,9.85893E-2,1.5205157E-1,0E0,0E0,2.8608555E-1,2.7479729E-2,2.6337862E-1,0E0,0E0,0E0,0E0,0E0,0E0,0E0,0E0,0E0,0E0,0E0,0E0,0E0,0E0,0E0,0E0,0E0,0E0,0E0,0E0,0E0,0E0,0E0,0E0,0E0,0E0],"parents":[2147483647,0,0,1,1,2,2,3,3,4,4,5,5,6,6,7,7,8,8,9,9,10,10,11,11,13,13,14,14,15,15,16,16,17,17,18,18,19,19,21,21,25,25,26,26,28,28,29,29,31,31,32,32,34,34,39,39,41,41,42,42,43,43,44,44,45,45,46,46,47,47,48,48,49,49,51,51,53,53,56,56,57,57,61,61,62,62,63,63,66,66,67,67,68,68],"right_children":[2,4,6,8,10,12,14,16,18,20,22,24,-1,26,28,30,32,34,36,38,-1,40,-1,-1,-1,42,44,-1,46,48,-1,50,52,-1,54,-1,-1,-1,-1,56,-1,58,60,62,64,66,68,70,72,74,-1,76,-1,78,-1,-1,80,82,-1,-1,-1,84,86,88,-1,-1,90,92,94,-1,-1,-1,-1,-1,-1,-1,-1,-1,-1,-1,-1,-1,-1,-1,-1,-1,-1,-1,-1,-1,-1,-1,-1,-1,-1],"split_conditions":[3.1916365E-2,8.111E-1,3.495602E-2,2.601944E-1,3E-1,1.2E0,1.6929096E-1,1.8E0,1E0,9.825E-1,2.5241286E-1,2.4961638E-1,-0E0,9.825E-1,1.8432124E-1,1.7E0,1.9E0,2.081E-1,2.7636534E-1,8.413E-1,-0E0,6.5561885E-1,-0E0,7.034067E-2,-0E0,4.1457504E-2,1.13195874E-1,5.644924E-2,7E-1,1.6E0,-1.1271947E-1,1.911E-1,2.209E-1,-0E0,6.619E-1,-0E0,-3.9182726E-2,-0E0,-1.57209E-2,8.339E-1,-0E0,6.485E-1,8.133063E-1,1.01839386E-1,1.5E0,9.244E-1,9.244E-1,9E-1,1.519827E-2,1.596E-1,-0E0,1.21586155E-2,-0E0,5.325498E-1,-0E0,-0E0,2E0,1.059E-1,-0E0,-4.3392904E-2,-0E0,3.8502283E-2,2.9484645E-1,3.6578858E-1,-0E0,-0E0,1.9487187E-1,1.4E0,3.7248427E-1,-2.2742504E-2,-4.3626945E-2,6.732261E-2,-0E0,-0E0,9.6762635E-2,-5.21998E-2,-0E0,5.3233184E-2,-0E0,3.4632925E-2,-0E0,-0E0,1.720394E-2,-2.1381741E-2,-0E0,7.0698306E-2,-0E0,-3.233513E-2,-0E0,-0E0,3.9464697E-2,1.563747E-2,-0E0,-6.660315E-2,-0E0],"split_indices":[6,7,6,5,0,0,6,0,0,7,5,5,0,7,6,0,0,7,5,7,0,2,0,0,0,6,6,0,0,0,0,7,7,0,7,0,0,0,0,7,0,7,1,6,0,7,7,0,6,7,0,6,0,5,0,0,0,7,0,0,0,6,5,5,0,0,6,0,5,0,0,0,0,0,0,0,0,0,0,0,0,0,0,0,0,0,0,0,0,0,0,0,0,0,0],"split_type":[0,0,0,0,0,0,0,0,0,0,0,0,0,0,0,0,0,0,0,0,0,0,0,0,0,0,0,0,0,0,0,0,0,0,0,0,0,0,0,0,0,0,0,0,0,0,0,0,0,0,0,0,0,0,0,0,0,0,0,0,0,0,0,0,0,0,0,0,0,0,0,0,0,0,0,0,0,0,0,0,0,0,0,0,0,0,0,0,0,0,0,0,0,0,0],"sum_hessian":[2.383384E3,1.935727E3,4.4765704E2,1.834789E3,1.009381E2,1.3120455E1,4.345366E2,1.7943619E3,4.0426956E1,1.11533985E1,8.9784706E1,1.063004E1,2.4904149E0,3.466569E2,8.787972E1,1.6958319E3,9.8530045E1,2.746379E1,1.2963165E1,9.839017E0,1.314382E0,8.4524254E1,5.2604494E0,9.299623E0,1.3304174E0,1.0771416E2,2.3894272E2,1.0193846E1,7.7685875E1,1.6703337E3,2.5498158E1,2.9889147E1,6.86409E1,2.9157114E0,2.4548079E1,2.1653016E0,1.0797863E1,1.406855E0,8.432161E0,8.2814545E1,1.7097064E0,1.6432041E1,9.128212E1,1.9250299E2,4.643972E1,4.0199516E1,3.748636E1,1.642894E3,2.7439701E1,2.5454279E1,4.434869E0,6.01823E1,8.4586E0,2.263037E1,1.9177091E0,5.9708433E0,7.6843704E1,9.51254E0,6.9195004E0,8.995534E1,1.3267803E0,1.7575157E2,1.6751421E1,4.0545177E1,5.8945436E0,4.2934923E0,3.5906025E1,4.551721E0,3.293464E1,1.0435498E3,5.9934424E2,2.6410995E1,1.0287069E0,4.074044E0,2.1380234E1,5.2731564E1,7.4507337E0,2.0914345E1,1.7160257E0,7.578046E1,1.0632472E0,1.1180797E0,8.394461E0,2.112538E1,1.5462619E2,1.5748702E1,1.0027179E0,3.711626E1,3.428917E0,3.0232136E0,3.288281E1,3.113977E0,1.4377443E0,3.008497E1,2.849669E0],"tree_param":{"num_deleted":"0","num_feature":"8","num_nodes":"95","size_leaf_vector":"1"}},{"base_weights":[-5.2237026E-2,-7.095314E-2,-0E0,-8.179432E-2,-0E0,3.8395558E-2,-1.3849559E-2,-5.2458523E-3,-9.708042E-2,-1.712873E-2,3.1053554E-2,-0E0,2.096752E-1,-7.451872E-2,-0E0,-5.1628478E-2,1.5550433E-2,-2.2875668E-1,-8.383035E-2,-0E0,-7.6547764E-2,1.1133101E-1,-0E0,2.75281E-1,-0E0,-0E0,-1.4072603E-1,4.8360124E-2,-9.232406E-3,-1.710882E-2,-0E0,5.007148E-2,-0E0,-2.5015646E-1,-0E0,-0E0,-8.78141E-2,2.1102441E-2,-0E0,-1.2489426E-1,-0E0,5.9350733E-2,-0E0,-5.4744426E-3,2.3510955E-2,-0E0,3.4383026E-1,2.7831104E-2,-2.9640017E-2,-1.7042351E-1,-0E0,9.1003545E-2,-0E0,-1.82416E-1,-0E0,6.2778205E-2,-0E0,-0E0,-5.199148E-4,-0E0,-8.206479E-2,-8.980453E-2,-0E0,-1.3926435E-1,-0E0,-1.459151E-2,-0E0,4.949859E-2,-0E0,1.0953041E-1,-0E0,1.2954202E-1,-0E0,-1.6879894E-1,-0E0,-0E0,-1.8498008E-1,1.6503346E-1,-0E0,-2.1810582E-2,-0E0,-2.8773445E-1,-0E0,-0E0,1.0591233E-1,2.2053735E-2,-0E0,-1.6672868E-2,-0E0,-3.3697475E-2,-1.1222516E-2,-4.5723036E-2,-0E0,-0E0,2.336404E-2,-0E0,6.0126808E-2,-5.5485267E-2,-0E0,-8.428991E-2,-0E0,5.9928473E-2,-0E0,-0E0,-1.8141637E-2,-2.2936093E-2,-0E0,-0E0,-9.079063E-2,-0E0,-2.0900182E-2,-0E0,4.3847762E-2],"categories":[],"categories_nodes":[],"categories_segments":[],"categories_sizes":[],"default_left":[0,1,0,0,0,0,0,0,0,0,0,0,1,0,0,1,0,1,0,0,0,0,0,0,0,0,0,1,0,0,0,0,0,0,0,0,0,0,0,0,0,0,0,0,0,0,0,1,1,0,0,0,0,0,0,0,0,0,0,0,0,0,0,0,0,0,0,0,0,0,0,0,0,0,0,0,0,0,0,0,0,0,0,1,0,0,0,0,0,0,0,0,0,0,0,0,0,0,0,0,0,0,0,0,0,0,0,0,0,0,0,0,0],"id":17,"left_children":[1,3,5,7,9,11,13,15,17,19,21,-1,23,25,27,29,31,33,35,37,39,41,43,45,-1,47,49,51,53,-1,-1,55,57,59,-1,-1,61,-1,-1,63,-1,-1,-1,65,67,-1,69,71,73,75,-1,77,79,81,83,85,-1,-1,87,-1,-1,89,-1,91,-1,-1,-1,93,-1,-1,-1,95,-1,97,-1,-1,99,101,103,105,-1,107,-1,109,111,-1,-1,-1,-1,-1,-1,-1,-1,-1,-1,-1,-1,-1,-1,-1,-1,-1,-1,-1,-1,-1,-1,-1,-1,-1,-1,-1,-1],"loss_changes":[1.9657044E0,1.4822245E0,2.5822908E-1,1.2048464E0,1.4310718E-1,8.3337903E-1,7.39414E-1,4.8167956E-1,3.4491444E-1,3.9976165E-1,1.887852E-1,0E0,5.4314965E-1,8.527243E-1,3.2898715E-1,7.008642E-2,1.9697034E-1,5.781176E-1,7.171297E-1,5.1028304E-2,6.807569E-1,4.547721E-1,3.4307797E-2,7.1334124E-1,0E0,6.6128016E-2,7.588239E-1,5.1525533E-1,1.1560508E0,0E0,0E0,6.838246E-2,1.4382414E-5,3.584652E-1,0E0,0E0,2.5658703E-1,0E0,0E0,2.475102E-1,0E0,0E0,0E0,1.13492265E-1,1.0877101E-1,0E0,1.5116549E-1,5.8774054E-1,5.845742E-1,3.946271E-1,0E0,1.2316529E0,1.5769225E-2,1.2788669E0,2.725654E-1,7.579291E-2,0E0,0E0,1.4196159E-1,0E0,0E0,5.0464916E-1,0E0,2.4381506E-1,0E0,0E0,0E0,1.334228E-1,0E0,0E0,0E0,6.9091606E-1,0E0,8.7426364E-2,0E0,0E0,4.1236877E-1,8.6857057E-1,9.744224E-2,1.6966727E-1,0E0,1.0100365E-1,0E0,2.385538E-1,2.1140707E-1,0E0,0E0,0E0,0E0,0E0,0E0,0E0,0E0,0E0,0E0,0E0,0E0,0E0,0E0,0E0,0E0,0E0,0E0,0E0,0E0,0E0,0E0,0E0,0E0,0E0,0E0,0E0,0E0],"parents":[2147483647,0,0,1,1,2,2,3,3,4,4,5,5,6,6,7,7,8,8,9,9,10,10,12,12,13,13,14,14,15,15,16,16,17,17,18,18,19,19,20,20,21,21,22,22,23,23,25,25,26,26,27,27,28,28,31,31,32,32,33,33,36,36,39,39,43,43,44,44,46,46,47,47,48,48,49,49,51,51,52,52,53,53,54,54,55,55,58,58,61,61,63,63,67,67,71,71,73,73,76,76,77,77,78,78,79,79,81,81,83,83,84,84],"right_children":[2,4,6,8,10,12,14,16,18,20,22,-1,24,26,28,30,32,34,36,38,40,42,44,46,-1,48,50,52,54,-1,-1,56,58,60,-1,-1,62,-1,-1,64,-1,-1,-1,66,68,-1,70,72,74,76,-1,78,80,82,84,86,-1,-1,88,-1,-1,90,-1,92,-1,-1,-1,94,-1,-1,-1,96,-1,98,-1,-1,100,102,104,106,-1,108,-1,110,112,-1,-1,-1,-1,-1,-1,-1,-1,-1,-1,-1,-1,-1,-1,-1,-1,-1,-1,-1,-1,-1,-1,-1,-1,-1,-1,-1,-1],"split_conditions":[1.21586155E-2,4.691E-1,1.8237924E-2,3.043E-1,6E-1,1.519827E-2,3.1916365E-2,1.551E-1,4.28E-1,5.082E-1,7E-1,-0E0,7.958E-1,7E-1,5.9294645E-2,1.9E0,1E0,1.9E0,4.405E-1,4E-1,3.0413625E-1,7.878E-1,1.1E0,3.106E-1,-0E0,3.039654E-2,4.021246E-3,3.599E-1,6.2523425E-2,-1.710882E-2,-0E0,2.688E-1,1.638E-1,3E-1,-0E0,-0E0,2.601944E-1,2.1102441E-2,-0E0,1.0053115E-2,-0E0,5.9350733E-2,-0E0,9.685E-1,2.4961638E-1,-0E0,2E0,2.262E-1,2.742E-1,5.54E-2,-0E0,1.2E0,1.4E0,1.3E0,6.082725E-2,9E-1,-0E0,-0E0,2.772E-1,-0E0,-8.206479E-2,1.1E0,-0E0,3.481113E-1,-0E0,-1.459151E-2,-0E0,6.116E-1,-0E0,1.0953041E-1,-0E0,3E-1,-0E0,2.7375123E-1,-0E0,-0E0,2.4317231E-2,3.7770334E-1,3.016E-1,3.481113E-1,-0E0,6.079308E-2,-0E0,1.2E0,7.1263E-2,2.2053735E-2,-0E0,-1.6672868E-2,-0E0,-3.3697475E-2,-1.1222516E-2,-4.5723036E-2,-0E0,-0E0,2.336404E-2,-0E0,6.0126808E-2,-5.5485267E-2,-0E0,-8.428991E-2,-0E0,5.9928473E-2,-0E0,-0E0,-1.8141637E-2,-2.2936093E-2,-0E0,-0E0,-9.079063E-2,-0E0,-2.0900182E-2,-0E0,4.3847762E-2],"split_indices":[6,7,6,7,0,6,6,7,7,7,0,0,7,0,6,0,0,0,7,0,2,7,0,7,0,6,1,7,6,0,0,7,7,0,0,0,5,0,0,1,0,0,0,7,5,0,0,7,7,7,0,0,0,0,2,0,0,0,7,0,0,0,0,5,0,0,0,7,0,0,0,0,0,5,0,0,6,5,7,5,0,6,0,0,6,0,0,0,0,0,0,0,0,0,0,0,0,0,0,0,0,0,0,0,0,0,0,0,0,0,0,0,0],"split_type":[0,0,0,0,0,0,0,0,0,0,0,0,0,0,0,0,0,0,0,0,0,0,0,0,0,0,0,0,0,0,0,0,0,0,0,0,0,0,0,0,0,0,0,0,0,0,0,0,0,0,0,0,0,0,0,0,0,0,0,0,0,0,0,0,0,0,0,0,0,0,0,0,0,0,0,0,0,0,0,0,0,0,0,0,0,0,0,0,0,0,0,0,0,0,0,0,0,0,0,0,0,0,0,0,0,0,0,0,0,0,0,0,0],"sum_hessian":[2.3335134E3,1.6520588E3,6.814546E2,1.4629623E3,1.8909656E2,9.034319E1,5.911114E2,2.9952463E2,1.1634377E3,7.1612625E1,1.17483925E2,7.512294E1,1.5220252E1,1.4681448E2,4.442969E2,1.6393797E2,1.3558665E2,6.1459385E1,1.1019783E3,6.4525795E0,6.516004E1,1.7916344E1,9.956758E1,1.3058609E1,2.161643E0,6.762593E1,7.918855E1,1.21656654E2,3.2264026E2,1.5464345E2,9.294528E0,8.531588E1,5.027078E1,5.9485893E1,1.9734902E0,5.339847E0,1.0966384E3,3.3130784E0,3.1395009E0,6.3748955E1,1.4110899E0,1.2509959E1,5.406385E0,4.7454163E1,5.2113422E1,1.166802E0,1.1891807E1,4.670191E1,2.0924023E1,7.789434E1,1.2942102E0,9.154864E1,3.0108019E1,2.8586082E1,2.9405417E2,6.907833E1,1.6237545E1,4.063948E0,4.620683E1,6.094557E0,5.339134E1,1.0800741E3,1.6564417E1,6.266351E1,1.0854429E0,4.1664112E1,5.790048E0,5.0730804E1,1.3826185E0,1.0888661E1,1.0031452E0,3.0502615E1,1.6199293E1,1.4377341E1,6.5466814E0,1.3025429E0,7.65918E1,6.818705E1,2.3361588E1,2.6149414E1,3.9586043E0,2.2749758E1,5.8363256E0,2.7675577E2,1.72984E1,6.2507744E1,6.570589E0,3.8966E1,7.2408304E0,6.830564E2,3.9701764E2,6.1660675E1,1.002836E0,1.2412523E1,3.831828E1,4.635376E0,2.5867239E1,1.3362386E1,1.014956E0,3.4456745E1,4.213505E1,6.608336E1,2.1036947E0,3.7152886E0,1.96463E1,2.4724798E1,1.4246151E0,1.7546806E0,2.0995077E1,2.3460518E2,4.215059E1,1.6431803E0,1.565522E1],"tree_param":{"num_deleted":"0","num_feature":"8","num_nodes":"113","size_leaf_vector":"1"}},{"base_weights":[-3.814884E-2,-4.2957854E-2,1.1353278E-1,-0E0,-5.5155348E-2,2.1580403E-1,-0E0,-5.483273E-2,1.718071E-2,-2.6782456E-1,-3.2724526E-2,3.0562612E-1,-0E0,4.0179186E-2,-1.15336895E-1,-0E0,1.2999949E-1,-0E0,-3.1706798E-1,6.5040484E-2,-5.1861566E-2,-0E0,1.1609301E-1,-0E0,7.2337694E-2,-1.371481E-1,-0E0,1.0124628E-2,-7.427596E-2,1.7453967E-1,-0E0,-3.3753327E-1,-0E0,9.6999355E-2,-0E0,-1.6902871E-1,-3.3773944E-2,-1.4668633E-1,-0E0,-1.4167655E-2,3.298501E-2,-2.5490148E-2,-0E0,6.0189717E-2,-0E0,-1.0191854E-1,-0E0,-0E0,1.236526E-1,-1.1317798E-1,7.408009E-2,-2.2084014E-1,-0E0,9.552519E-2,-6.118387E-2,-0E0,-4.5781933E-2,-0E0,2.3128651E-2,2.0389061E-2,-3.7593238E-2,4.2975932E-2,-0E0,-0E0,-4.227548E-2,3.2646E-2,-0E0,-6.770072E-2,-0E0,3.4309197E-2,-0E0,-3.868161E-2,-7.909155E-3],"categories":[],"categories_nodes":[],"categories_segments":[],"categories_sizes":[],"default_left":[0,0,0,0,0,0,0,0,1,0,0,1,0,0,0,1,0,0,0,0,0,0,0,0,0,0,0,0,0,0,0,0,0,0,0,0,0,0,0,0,0,0,0,0,0,0,0,0,1,0,1,0,0,0,0,0,0,0,0,0,0,0,0,0,0,0,0,0,0,0,0,0,0],"id":18,"left_children":[1,3,5,7,9,11,-1,13,15,17,19,21,-1,23,25,27,29,-1,31,33,35,-1,-1,-1,-1,37,-1,39,41,43,-1,45,-1,47,49,51,53,55,-1,-1,57,-1,-1,-1,-1,-1,-1,59,61,63,65,67,-1,69,71,-1,-1,-1,-1,-1,-1,-1,-1,-1,-1,-1,-1,-1,-1,-1,-1,-1,-1],"loss_changes":[1.3636549E0,1.0375504E0,4.61244E-1,6.3869756E-1,6.6391144E0,8.654359E-1,0E0,1.4075472E0,5.433976E-1,2.207799E0,2.92277E0,9.496081E-1,0E0,1.2833567E0,6.329807E-1,1.6895193E-1,4.0350938E-1,0E0,1.2451239E0,5.789511E-1,1.853735E0,0E0,0E0,0E0,0E0,3.366096E-1,0E0,3.905057E-1,3.4005344E-2,1.5686488E-1,0E0,2.6983261E-2,0E0,4.8941648E-1,6.648619E-1,1.3135848E0,4.2435355E0,8.494949E-2,0E0,0E0,2.3042616E-1,0E0,0E0,0E0,0E0,0E0,0E0,4.06596E-1,5.355717E-1,2.1917138E-1,2.2653227E-1,1.2136984E-1,0E0,6.656554E-1,1.6876185E0,0E0,0E0,0E0,0E0,0E0,0E0,0E0,0E0,0E0,0E0,0E0,0E0,0E0,0E0,0E0,0E0,0E0,0E0],"parents":[2147483647,0,0,1,1,2,2,3,3,4,4,5,5,7,7,8,8,9,9,10,10,11,11,13,13,14,14,15,15,16,16,18,18,19,19,20,20,25,25,27,27,28,28,29,29,31,31,33,33,34,34,35,35,36,36,37,37,40,40,47,47,48,48,49,49,50,50,51,51,53,53,54,54],"right_children":[2,4,6,8,10,12,-1,14,16,18,20,22,-1,24,26,28,30,-1,32,34,36,-1,-1,-1,-1,38,-1,40,42,44,-1,46,-1,48,50,52,54,56,-1,-1,58,-1,-1,-1,-1,-1,-1,60,62,64,66,68,-1,70,72,-1,-1,-1,-1,-1,-1,-1,-1,-1,-1,-1,-1,-1,-1,-1,-1,-1,-1],"split_conditions":[1.8248175E-1,5E-1,5.525142E-1,3E-1,6E-1,2.4172157E-1,-0E0,3.752E-1,8.111E-1,3.313E-1,7E-1,2E-1,-0E0,2.081E-1,2.513186E-1,6.182E-1,2.4961638E-1,-0E0,3.481113E-1,2.8876713E-2,8E-1,-0E0,1.1609301E-1,-0E0,7.2337694E-2,1.2867987E-1,-0E0,1.815E-1,1.1550685E-1,9.751E-1,-0E0,4.6354723E-1,-0E0,4.327E-1,9.7268924E-2,3.039654E-2,9E-1,5.082E-1,-0E0,-1.4167655E-2,1.8237924E-2,-2.5490148E-2,-0E0,6.0189717E-2,-0E0,-1.0191854E-1,-0E0,2.209E-1,7.878E-1,2.081E-1,9.751E-1,2.9001337E-1,-0E0,2.6633447E-1,1.1E0,-0E0,-4.5781933E-2,-0E0,2.3128651E-2,2.0389061E-2,-3.7593238E-2,4.2975932E-2,-0E0,-0E0,-4.227548E-2,3.2646E-2,-0E0,-6.770072E-2,-0E0,3.4309197E-2,-0E0,-3.868161E-2,-7.909155E-3],"split_indices":[2,0,2,0,0,1,0,7,7,7,0,0,0,7,5,7,5,0,5,6,0,0,0,0,0,1,0,7,6,7,0,6,0,7,6,6,0,7,0,0,6,0,0,0,0,0,0,7,7,7,7,5,0,5,0,0,0,0,0,0,0,0,0,0,0,0,0,0,0,0,0,0,0],"split_type":[0,0,0,0,0,0,0,0,0,0,0,0,0,0,0,0,0,0,0,0,0,0,0,0,0,0,0,0,0,0,0,0,0,0,0,0,0,0,0,0,0,0,0,0,0,0,0,0,0,0,0,0,0,0,0,0,0,0,0,0,0,0,0,0,0,0,0,0,0,0,0,0,0],"sum_hessian":[2.2994165E3,2.2655686E3,3.3847744E1,5.5294257E2,1.7126261E3,1.420957E1,1.9638172E1,1.6683655E2,3.8610602E2,1.3482712E2,1.577799E3,1.2839927E1,1.3696437E0,3.367228E1,1.3316426E2,3.54086E2,3.2020035E1,1.8671877E1,1.1615524E2,2.1276855E2,1.3650304E3,1.1235001E0,1.1716427E1,1.7470007E1,1.620227E1,1.25779526E2,7.3847375E0,3.3685065E2,1.723535E1,2.7891655E1,4.1283803E0,1.12602684E2,3.5525596E0,1.533412E2,5.9427357E1,1.3776643E2,1.227264E3,1.2471704E2,1.0624886E0,3.1541721E1,3.0530893E2,1.6230373E1,1.0049753E0,2.3303253E1,4.588402E0,1.1129584E2,1.306847E0,2.9664213E1,1.23676994E2,2.8772268E1,3.0655088E1,1.047413E2,3.302514E1,1.7971143E2,1.0475526E3,6.3736076E0,1.1834343E2,2.1637202E2,8.893689E1,1.8176863E1,1.148735E1,1.16461945E2,7.215046E0,1.6606336E0,2.7111635E1,2.9580454E1,1.0746354E0,1.0239356E2,2.3477411E0,1.7415962E2,5.5517993E0,3.0043396E2,7.471186E2],"tree_param":{"num_deleted":"0","num_feature":"8","num_nodes":"73","size_leaf_vector":"1"}},{"base_weights":[-2.8120482E-2,-3.770213E-2,7.344521E-4,-4.6576276E-2,-0E0,4.2096797E-2,-0E0,-3.762849E-2,-2.3527937E-1,6.2166408E-2,-0E0,-4.9097307E-2,-0E0,-5.0435714E-2,4.849103E-3,-2.622973E-1,-0E0,1.00284524E-1,-0E0,-6.537859E-2,-0E0,-4.7747727E-2,-0E0,1.0102129E-1,-0E0,-6.6519685E-2,-0E0,1.4371374E-1,-1.6259903E-2,-0E0,-8.616988E-2,1.1102881E-1,-0E0,-1.6972443E-1,-0E0,-0E0,3.857167E-2,-0E0,1.8867728E-1,-4.485018E-2,1.965557E-3,-3.6861252E-2,-1.5773103E-1,3.7348505E-2,-4.1702647E-2,-0E0,2.7288267E-1,6.15947E-3,-1.01934426E-1,-0E0,1.8928237E-1,-2.2560196E-1,-0E0,-0E0,-1.171757E-1,7.028375E-2,-0E0,-0E0,3.0778688E-1,-8.425131E-2,-0E0,-0E0,7.4678466E-2,-2.0409107E-2,-0E0,-5.1816113E-2,-0E0,1.6747339E-2,-0E0,-1.6724052E-2,-0E0,-0E0,-5.973445E-3,-0E0,9.794455E-2,-0E0,2.1457972E-2,-3.4763027E-2,-0E0,1.8291391E-2,-0E0,-0E0,7.4941404E-2,-0E0,-7.4440144E-2,1.17500285E-2,-0E0,-3.993212E-2,-0E0,2.584746E-2,-0E0,1.08157806E-1,-0E0,-3.024088E-2,-0E0,3.6405062E-4,-1.5753347E-2,3.5988543E-2,-0E0],"categories":[],"categories_nodes":[],"categories_segments":[],"categories_sizes":[],"default_left":[0,1,0,1,0,0,0,1,1,1,1,1,0,1,1,0,0,0,0,0,0,0,0,0,0,1,0,0,0,0,0,0,0,0,0,0,0,0,0,0,0,1,0,0,0,0,1,0,0,0,0,0,0,0,0,0,0,0,0,0,0,1,0,0,0,0,0,0,0,0,0,0,0,0,0,0,0,0,0,0,0,0,0,0,0,0,0,0,0,0,0,0,0,0,0,0,0,0,0],"id":19,"left_children":[1,3,5,7,9,-1,11,13,15,17,19,21,23,25,27,29,-1,31,-1,33,35,-1,-1,37,39,41,43,45,47,-1,-1,49,-1,51,-1,53,55,-1,57,59,61,63,65,67,69,71,73,75,77,79,81,83,-1,85,87,89,-1,-1,91,93,-1,95,97,-1,-1,-1,-1,-1,-1,-1,-1,-1,-1,-1,-1,-1,-1,-1,-1,-1,-1,-1,-1,-1,-1,-1,-1,-1,-1,-1,-1,-1,-1,-1,-1,-1,-1,-1,-1],"loss_changes":[8.1618965E-1,8.3173776E-1,3.4854245E-1,1.2609763E0,1.7065686E-1,0E0,8.09054E-2,1.0746384E0,5.1881623E-1,2.1151617E-1,1.547283E-1,6.9575864E-1,2.316157E-1,7.6536417E-1,1.4619814E0,5.0293493E-1,0E0,7.102585E-2,0E0,8.488282E-1,1.2265177E-1,0E0,0E0,2.9061705E-1,1.55458E-1,1.4518023E0,6.2100774E-1,1.4766597E0,8.951062E-1,0E0,0E0,6.9653064E-2,0E0,6.408143E-1,0E0,3.7093744E-1,2.6443565E-1,0E0,6.530986E-1,3.1414878E-1,2.7012748E-1,1.0459816E0,7.7734613E-1,2.3477548E-1,2.7217677E-1,1.2232287E-2,6.906545E-1,2.9966298E-1,1.06438994E-1,5.1890142E-2,3.0778265E-1,2.4256134E-1,0E0,1.0348827E-1,8.130047E-2,1.865547E-1,0E0,0E0,2.832129E-1,1.7268604E-1,0E0,1.7220965E-1,3.6929485E-1,0E0,0E0,0E0,0E0,0E0,0E0,0E0,0E0,0E0,0E0,0E0,0E0,0E0,0E0,0E0,0E0,0E0,0E0,0E0,0E0,0E0,0E0,0E0,0E0,0E0,0E0,0E0,0E0,0E0,0E0,0E0,0E0,0E0,0E0,0E0,0E0],"parents":[2147483647,0,0,1,1,2,2,3,3,4,4,6,6,7,7,8,8,9,9,10,10,11,11,12,12,13,13,14,14,15,15,17,17,19,19,20,20,23,23,24,24,25,25,26,26,27,27,28,28,31,31,33,33,35,35,36,36,38,38,39,39,40,40,41,41,42,42,43,43,44,44,45,45,46,46,47,47,48,48,49,49,50,50,51,51,53,53,54,54,55,55,58,58,59,59,61,61,62,62],"right_children":[2,4,6,8,10,-1,12,14,16,18,20,22,24,26,28,30,-1,32,-1,34,36,-1,-1,38,40,42,44,46,48,-1,-1,50,-1,52,-1,54,56,-1,58,60,62,64,66,68,70,72,74,76,78,80,82,84,-1,86,88,90,-1,-1,92,94,-1,96,98,-1,-1,-1,-1,-1,-1,-1,-1,-1,-1,-1,-1,-1,-1,-1,-1,-1,-1,-1,-1,-1,-1,-1,-1,-1,-1,-1,-1,-1,-1,-1,-1,-1,-1,-1,-1],"split_conditions":[3.3436194E-2,4.28E-1,3.495602E-2,3.493E-1,5.082E-1,4.2096797E-2,3.7235763E-2,8.43E-2,1.9E0,1.2E0,3E-1,1.4E0,4.0581916E-2,1.1E0,4E-1,2E-1,-0E0,2.4961638E-1,-0E0,1.296852E-1,8.563E-1,-4.7747727E-2,-0E0,8E-1,8.491E-1,9E-1,1.3E0,2.081E-1,2.106E-1,-0E0,-8.616988E-2,9E-1,-0E0,9.751E-1,-0E0,1.21586155E-2,2.5241286E-1,-0E0,3.8502283E-2,1.5350252E-1,2.556957E-1,6E-1,2.4961638E-1,1.6549228E-2,1.519827E-2,1.077E-1,1E-1,1.551E-1,3.207E-1,4E-1,4.405E-1,5.339E-1,-0E0,7.203E-1,8.339E-1,2E0,-0E0,-0E0,1.9E0,4.00001E0,-0E0,1.1E0,6.132717E-1,-2.0409107E-2,-0E0,-5.1816113E-2,-0E0,1.6747339E-2,-0E0,-1.6724052E-2,-0E0,-0E0,-5.973445E-3,-0E0,9.794455E-2,-0E0,2.1457972E-2,-3.4763027E-2,-0E0,1.8291391E-2,-0E0,-0E0,7.4941404E-2,-0E0,-7.4440144E-2,1.17500285E-2,-0E0,-3.993212E-2,-0E0,2.584746E-2,-0E0,1.08157806E-1,-0E0,-3.024088E-2,-0E0,3.6405062E-4,-1.5753347E-2,3.5988543E-2,-0E0],"split_indices":[6,7,6,7,7,0,6,7,0,0,0,0,6,0,0,0,0,5,0,1,7,0,0,0,7,0,0,7,7,0,0,0,0,7,0,6,5,0,6,6,5,0,5,6,6,7,0,7,7,0,7,7,0,7,7,0,0,0,0,0,0,0,5,0,0,0,0,0,0,0,0,0,0,0,0,0,0,0,0,0,0,0,0,0,0,0,0,0,0,0,0,0,0,0,0,0,0,0,0],"split_type":[0,0,0,0,0,0,0,0,0,0,0,0,0,0,0,0,0,0,0,0,0,0,0,0,0,0,0,0,0,0,0,0,0,0,0,0,0,0,0,0,0,0,0,0,0,0,0,0,0,0,0,0,0,0,0,0,0,0,0,0,0,0,0,0,0,0,0,0,0,0,0,0,0,0,0,0,0,0,0,0,0,0,0,0,0,0,0,0,0,0,0,0,0,0,0,0,0,0,0],"sum_hessian":[2.2758518E3,1.8369904E3,4.3886142E2,1.5846654E3,2.5232504E2,1.0713308E1,4.281481E2,1.5462394E3,3.842598E1,3.7158287E1,2.1516675E2,2.6563107E1,4.0158502E2,1.2774722E3,2.687672E2,3.7090694E1,1.335286E0,3.1000755E1,6.1575336E0,2.9199165E1,1.8596759E2,2.3659872E1,2.9032354E0,1.5695626E1,3.8588937E2,9.0438403E2,3.7308813E2,6.135495E1,2.0741225E2,1.2270525E0,3.586364E1,2.976355E1,1.2372055E0,2.7837992E1,1.3611736E0,1.1052779E2,7.5439804E1,8.025802E0,7.669825E0,6.966232E1,3.1622705E2,7.312547E2,1.7312936E2,1.4460193E2,2.284862E2,2.9565723E1,3.1789228E1,1.23286804E2,8.412544E1,2.2170086E1,7.5934634E0,2.5308294E1,2.5296984E0,9.0511505E1,2.0016281E1,7.136087E1,4.078936E0,2.263018E0,5.4068074E0,5.8981884E1,1.068044E1,2.7456604E2,4.1661003E1,4.357462E2,2.9550848E2,1.6927852E2,3.8508408E0,1.3619437E2,8.407562E0,2.1236195E2,1.6124249E1,5.712504E0,2.385322E1,5.21122E0,2.6578009E1,7.074753E1,5.2539272E1,7.144317E1,1.2682277E1,6.9583445E0,1.5211741E1,1.282518E0,6.3109455E0,1.6615436E0,2.364675E1,6.0461483E1,3.005002E1,1.8524939E1,1.4913425E0,7.027658E1,1.0842868E0,4.2213855E0,1.1854218E0,5.6087246E1,2.8946385E0,2.1923373E2,5.533233E1,3.7519382E1,4.1416197E0],"tree_param":{"num_deleted":"0","num_feature":"8","num_nodes":"99","size_leaf_vector":"1"}},{"base_weights":[-1.91987E-2,4.43362E-3,-2.9868035E-2,-4.302435E-2,1.9371966E-2,-1.9121386E-1,-1.3042909E-2,-2.823565E-4,4.048644E-2,-0E0,-2.2615163E-1,5.301768E-2,-2.7755512E-2,6.0875323E-2,-5.4444008E-2,4.8251767E-2,-0E0,-2.4269086E-1,-0E0,6.8627514E-2,-0E0,-1.228291E-1,-1.257368E-2,-0E0,4.1968554E-2,-7.9738356E-2,-0E0,5.396628E-2,-0E0,-2.57987E-1,-0E0,7.130307E-2,-0E0,-3.4566663E-2,5.017179E-2,-1.6259308E-1,-0E0,5.4665137E-2,-2.995314E-2,-9.943146E-2,-0E0,5.8078837E-2,-0E0,-0E0,-7.973418E-2,7.256273E-2,-0E0,8.010449E-2,-0E0,-1.6984636E-1,-0E0,7.687092E-2,-0E0,-4.4199333E-2,1.3916566E-2,-3.0529534E-2,-0E0,-0E0,1.9343674E-2,-0E0,2.201797E-2,3.417818E-2,-0E0,-5.216925E-2,-0E0,-0E0,3.1531855E-2,-3.5844903E-2,-2.4166037E-3,2.0778082E-2,-3.9558047E-3],"categories":[],"categories_nodes":[],"categories_segments":[],"categories_sizes":[],"default_left":[0,0,0,0,0,0,0,0,0,0,0,1,0,0,0,0,0,0,0,0,0,0,0,0,0,1,0,0,0,0,0,0,0,0,0,0,0,0,0,0,0,0,0,0,0,0,0,0,0,0,0,0,0,0,0,0,0,0,0,0,0,0,0,0,0,0,0,0,0,0,0],"id":20,"left_children":[1,3,5,-1,7,9,11,13,15,-1,17,19,21,23,25,27,-1,29,-1,31,33,35,37,-1,-1,39,-1,41,-1,43,-1,45,-1,-1,47,49,-1,51,53,55,-1,57,-1,-1,-1,59,-1,61,-1,63,-1,65,-1,67,69,-1,-1,-1,-1,-1,-1,-1,-1,-1,-1,-1,-1,-1,-1,-1,-1],"loss_changes":[6.984606E-1,6.44744E-1,3.5901349E0,0E0,4.2895782E-1,1.2302814E0,1.41933E0,5.497604E-1,2.5786823E-1,0E0,6.973996E-1,1.8962431E-1,1.2729541E0,3.6261785E-1,4.3713075E-1,1.6571176E-1,