{"learner":{"attributes":{"best_iteration":"40","best_score":"0.08357340111575763"},"feature_names":["loeuf","clin_ot","hgmd","ot_genetics_portal","expression_atlas","impc","europepmc","mantis"],"feature_types":["float","float","float","float","float","float","float","float"],"gradient_booster":{"model":{"gbtree_model_param":{"num_parallel_tree":"1","num_trees":"56"},"iteration_indptr":[0,1,2,3,4,5,6,7,8,9,10,11,12,13,14,15,16,17,18,19,20,21,22,23,24,25,26,27,28,29,30,31,32,33,34,35,36,37,38,39,40,41,42,43,44,45,46,47,48,49,50,51,52,53,54,55,56],"tree_info":[0,0,0,0,0,0,0,0,0,0,0,0,0,0,0,0,0,0,0,0,0,0,0,0,0,0,0,0,0,0,0,0,0,0,0,0,0,0,0,0,0,0,0,0,0,0,0,0,0,0,0,0,0,0,0,0],"trees":[{"base_weights":[-1.0522108E0,-1.0726739E0,-8.703871E-1,-1.0738231E0,-3.013162E-1,-8.822891E-1,-4.0701795E-2,-1.0738635E0,-0E0,-4.9685568E-1,-0E0,-8.845056E-1,-0E0,-2.6574484E-1,1.15311675E-1,-3.221711E-1,-0E0,-1.699342E-1,-0E0,-0E0,1.5844749E-3,-8.854351E-1,-0E0,-3.4485736E-1,-0E0,-0E0,2.7502677E-1,-2.6691782E-1,-1.0938223E-1,-0E0,-4.2176792E-1,-0E0,3.8721916E-1,-0E0,-1.7882837E-1,-4.638742E-1,-0E0,1.2170807E-1,-0E0,-0E0,-7.157872E-2,-0E0,-1.430461E-1],"categories":[],"categories_nodes":[],"categories_segments":[],"categories_sizes":[],"default_left":[0,1,0,0,0,0,0,0,0,0,1,0,0,0,0,0,0,0,0,0,0,1,0,0,0,0,0,0,0,0,0,0,0,0,0,0,0,0,0,0,0,0,0],"id":0,"left_children":[1,3,5,7,9,11,13,15,-1,17,19,21,-1,23,25,-1,-1,-1,-1,-1,-1,27,-1,29,-1,-1,31,-1,33,-1,35,-1,37,-1,39,41,-1,-1,-1,-1,-1,-1,-1],"loss_changes":[7.924219E1,1.1259766E1,2.1382446E1,7.480469E-1,5.2847524E0,5.3344727E0,2.7527697E0,6.074219E-1,0E0,2.6100492E0,3.9421063E-4,2.9350586E0,0E0,1.5109835E0,9.915199E-1,0E0,0E0,0E0,0E0,0E0,0E0,3.001709E0,0E0,1.8197088E0,0E0,0E0,9.3468547E-1,0E0,5.1262856E-1,0E0,7.20634E-1,0E0,3.0882359E-3,0E0,4.219231E-1,2.9496193E-2,0E0,0E0,0E0,0E0,0E0,0E0,0E0],"parents":[2147483647,0,0,1,1,2,2,3,3,4,4,5,5,6,6,7,7,9,9,10,10,11,11,13,13,14,14,21,21,23,23,26,26,28,28,30,30,32,32,34,34,35,35],"right_children":[2,4,6,8,10,12,14,16,-1,18,20,22,-1,24,26,-1,-1,-1,-1,-1,-1,28,-1,30,-1,-1,32,-1,34,-1,36,-1,38,-1,40,42,-1,-1,-1,-1,-1,-1,-1],"split_conditions":[1.21586155E-2,9.683E-1,1.0771926E-1,8.0124694E-1,1E0,3.620582E-1,2.82931E-1,5.5147046E-1,-0E0,4.9168694E-1,1.1E0,8.7686604E-1,-0E0,8.681087E-1,7.9031006E-2,-3.221711E-1,-0E0,-1.699342E-1,-0E0,-0E0,1.5844749E-3,9.829E-1,-0E0,1.2465863E-1,-0E0,-0E0,4E-1,-2.6691782E-1,1.6549228E-2,-0E0,2E0,-0E0,3.3892143E-1,-0E0,4E-1,1.6549228E-2,-0E0,1.2170807E-1,-0E0,-0E0,-7.157872E-2,-0E0,-1.430461E-1],"split_indices":[6,7,1,2,0,3,5,3,0,2,0,2,0,2,6,0,0,0,0,0,0,7,0,1,0,0,0,0,6,0,0,0,6,0,0,6,0,0,0,0,0,0,0],"split_type":[0,0,0,0,0,0,0,0,0,0,0,0,0,0,0,0,0,0,0,0,0,0,0,0,0,0,0,0,0,0,0,0,0,0,0,0,0,0,0,0,0,0,0],"sum_hessian":[2.5658361E4,2.3007244E4,2.6511162E3,2.2963805E4,4.3439663E1,2.6072441E3,4.38719E1,2.2962725E4,1.0805886E0,3.2957954E1,1.04817095E1,2.6009768E3,6.267414E0,2.9067835E1,1.4804064E1,2.2961535E4,1.1886475E0,3.1877365E1,1.0805886E0,3.3498247E0,7.131885E0,2.5992478E3,1.7289418E0,2.7122774E1,1.9450595E0,4.862649E0,9.941416E0,2.577528E3,2.1719831E1,1.0805886E0,2.6042187E1,2.1611772E0,7.780238E0,1.9450595E0,1.9774773E1,2.366489E1,2.377295E0,6.483532E0,1.2967063E0,4.3223543E0,1.5452417E1,1.512824E0,2.2152067E1],"tree_param":{"num_deleted":"0","num_feature":"8","num_nodes":"43","size_leaf_vector":"1"}},{"base_weights":[-9.8947334E-1,-1.0145096E0,-7.778221E-1,-1.0156325E0,-9.399901E-2,-7.864606E-1,-0E0,-1.0157298E0,-0E0,-2.444595E-1,-0E0,-7.8885853E-1,-0E0,-0E0,2.0067842E-1,-3.0473325E-1,-0E0,-9.7987875E-2,-0E0,-7.96554E-1,-1.8669184E-1,-0E0,1.4555374E-1,-6.4924484E-1,-8.402015E-1,-2.9290825E-1,-0E0,-6.583886E-1,-0E0,-8.432592E-1,-0E0,-0E0,-3.6842152E-1,-2.0014396E-1,-0E0,-2.53491E-1,-0E0,-1.2667362E-1,-0E0],"categories":[],"categories_nodes":[],"categories_segments":[],"categories_sizes":[],"default_left":[0,1,0,0,1,0,0,0,0,0,0,0,0,0,0,0,0,0,0,1,0,0,0,1,0,0,0,0,0,1,0,0,0,0,0,0,0,0,0],"id":1,"left_children":[1,3,5,7,9,11,13,15,-1,17,-1,19,-1,-1,21,-1,-1,-1,-1,23,25,-1,-1,27,29,31,-1,33,-1,35,-1,-1,37,-1,-1,-1,-1,-1,-1],"loss_changes":[9.1703125E1,1.2263672E1,1.8284912E1,9.140625E-1,1.4614598E0,4.1726074E0,8.1761575E-1,5.058594E-1,0E0,1.2630055E0,0E0,3.9902344E0,0E0,0E0,2.8146398E0,0E0,0E0,0E0,0E0,2.2960205E0,1.7786448E0,0E0,0E0,2.0767365E0,1.77771E0,1.5221086E0,0E0,8.953705E-1,0E0,2.590332E-1,0E0,0E0,1.2935467E0,0E0,0E0,0E0,0E0,0E0,0E0],"parents":[2147483647,0,0,1,1,2,2,3,3,4,4,5,5,6,6,7,7,9,9,11,11,14,14,19,19,20,20,23,23,24,24,25,25,27,27,29,29,32,32],"right_children":[2,4,6,8,10,12,14,16,-1,18,-1,20,-1,-1,22,-1,-1,-1,-1,24,26,-1,-1,28,30,32,-1,34,-1,36,-1,-1,38,-1,-1,-1,-1,-1,-1],"split_conditions":[1.21586155E-2,9.752E-1,5.402114E-1,7.27815E-1,1.1E0,3.620582E-1,7.301587E-2,5.5147046E-1,-0E0,4.9168694E-1,-0E0,3.0413625E-1,-0E0,-0E0,6E-1,-3.0473325E-1,-0E0,-9.7987875E-2,-0E0,5E-1,1.4955604E-1,-0E0,1.4555374E-1,9.752E-1,2.010623E-2,3.497567E-1,-0E0,3.5931256E-1,-0E0,9.905E-1,-0E0,-0E0,1.7105145E-2,-2.0014396E-1,-0E0,-2.53491E-1,-0E0,-1.2667362E-1,-0E0],"split_indices":[6,7,1,2,0,3,6,3,0,2,0,2,0,0,0,0,0,0,0,0,6,0,0,7,1,2,0,6,0,7,0,0,4,0,0,0,0,0,0],"split_type":[0,0,0,0,0,0,0,0,0,0,0,0,0,0,0,0,0,0,0,0,0,0,0,0,0,0,0,0,0,0,0,0,0,0,0,0,0,0,0],"sum_hessian":[2.0032799E4,1.7868914E4,2.1638862E3,1.7840994E4,2.791949E1,2.1460205E3,1.7865793E1,1.7838463E4,2.53111E0,2.2618282E1,5.3012085E0,2.1396562E3,6.364225E0,4.563371E0,1.3302423E1,1.7837273E4,1.1886475E0,2.1429634E1,1.1886475E0,2.1022275E3,3.7428795E1,4.872202E0,8.430221E0,5.320953E2,1.5701322E3,3.1780228E1,5.648566E0,5.220161E2,1.0079154E1,1.5612152E3,8.916983E0,3.054082E0,2.8726147E1,5.1022986E2,1.1786274E1,1.5552343E3,5.9809437E0,2.745383E1,1.272316E0],"tree_param":{"num_deleted":"0","num_feature":"8","num_nodes":"39","size_leaf_vector":"1"}},{"base_weights":[-9.315933E-1,-9.624227E-1,-6.876639E-1,-9.641665E-1,-1.17801994E-1,-7.0179915E-1,-0E0,-9.642841E-1,-0E0,-3.2303655E-1,3.2369822E-2,-7.069604E-1,-0E0,-1.5869915E-1,6.811169E-2,-2.893024E-1,-0E0,-1.2104242E-1,-0E0,1.3388561E-2,-0E0,-5.2568626E-1,-7.4933344E-1,-6.503781E-2,-0E0,-0E0,-2.676727E-1,-0E0,1.5469953E-1,-6.196584E-1,-2.347473E-1,-7.5086266E-1,-0E0,-4.2789917E-2,-0E0,-3.6103997E-1,-0E0,-0E0,2.5777262E-1,-6.231706E-1,-0E0,-4.8704576E-1,-4.1063942E-2,-2.2620049E-1,-0E0,-4.2020056E-1,-0E0,-0E0,1.0420927E-1,-1.874972E-1,-0E0,-0E0,-1.6719237E-1,-3.1854033E-2,-0E0,-0E0,-1.860523E-2,-0E0,-1.3346632E-1],"categories":[],"categories_nodes":[],"categories_segments":[],"categories_sizes":[],"default_left":[0,1,0,0,0,0,0,0,0,0,0,0,1,0,0,0,0,0,0,0,0,0,0,0,0,0,0,0,0,1,0,0,0,0,0,0,0,0,0,0,0,0,0,0,0,0,0,0,0,0,0,0,0,0,0,0,0,0,0],"id":2,"left_children":[1,3,5,7,9,11,13,15,-1,17,19,21,23,25,27,-1,-1,-1,-1,-1,-1,29,31,33,-1,-1,35,-1,37,39,41,43,-1,-1,-1,45,-1,-1,47,49,-1,51,53,-1,55,57,-1,-1,-1,-1,-1,-1,-1,-1,-1,-1,-1,-1,-1],"loss_changes":[1.0475195E2,1.41953125E1,1.4137451E1,8.8183594E-1,2.8339448E0,3.9194336E0,1.0469639E0,4.189453E-1,0E0,1.7347033E0,1.3112174E-2,4.2112427E0,7.2850786E-2,1.2645016E0,2.9700547E-1,0E0,0E0,0E0,0E0,0E0,0E0,4.9609375E0,1.2527466E0,2.478233E-1,0E0,0E0,1.4066081E0,0E0,3.969698E-1,2.5637054E-1,2.8781114E0,8.831787E-2,0E0,0E0,0E0,9.5432615E-1,0E0,0E0,4.9312365E-1,1.8476105E-1,0E0,1.9126968E0,5.7559025E-1,0E0,5.7859343E-2,3.348155E-1,0E0,0E0,0E0,0E0,0E0,0E0,0E0,0E0,0E0,0E0,0E0,0E0,0E0],"parents":[2147483647,0,0,1,1,2,2,3,3,4,4,5,5,6,6,7,7,9,9,10,10,11,11,12,12,13,13,14,14,21,21,22,22,23,23,26,26,28,28,29,29,30,30,31,31,35,35,38,38,39,39,41,41,42,42,44,44,45,45],"right_children":[2,4,6,8,10,12,14,16,-1,18,20,22,24,26,28,-1,-1,-1,-1,-1,-1,30,32,34,-1,-1,36,-1,38,40,42,44,-1,-1,-1,46,-1,-1,48,50,-1,52,54,-1,56,58,-1,-1,-1,-1,-1,-1,-1,-1,-1,-1,-1,-1,-1],"split_conditions":[1.21586155E-2,9.683E-1,8.042492E-3,7.27815E-1,1E0,5.322384E-1,3.4907788E-1,5.5147046E-1,-0E0,4.9168694E-1,2E0,5E-1,8.939E-1,2.4557072E-1,8.055083E-2,-2.893024E-1,-0E0,-1.2104242E-1,-0E0,1.3388561E-2,-0E0,6.535256E-2,4.2007625E-1,1.2E0,-0E0,-0E0,8.499211E-1,-0E0,6.817425E-1,9.905E-1,3E-1,4.670931E-1,-0E0,-4.2789917E-2,-0E0,2E0,-0E0,-0E0,5E-1,1.0619634E-1,-0E0,7.002856E-2,1.7022063E-1,-2.2620049E-1,3.495602E-2,1.747801E-2,-0E0,-0E0,1.0420927E-1,-1.874972E-1,-0E0,-0E0,-1.6719237E-1,-3.1854033E-2,-0E0,-0E0,-1.860523E-2,-0E0,-1.3346632E-1],"split_indices":[6,7,1,2,0,2,5,3,0,2,0,0,7,1,6,0,0,0,0,0,0,6,3,0,0,0,2,0,1,7,0,5,0,0,0,0,0,0,0,3,0,6,6,0,6,6,0,0,0,0,0,0,0,0,0,0,0,0,0],"split_type":[0,0,0,0,0,0,0,0,0,0,0,0,0,0,0,0,0,0,0,0,0,0,0,0,0,0,0,0,0,0,0,0,0,0,0,0,0,0,0,0,0,0,0,0,0,0,0,0,0,0,0,0,0,0,0,0,0,0,0],"sum_hessian":[1.5635552E4,1.3844655E4,1.7908962E3,1.3809235E4,3.5420364E1,1.7479056E3,4.2990612E1,1.38068125E4,2.4229221E0,2.5630062E1,9.790303E0,1.7302177E3,1.7687988E1,3.1088417E1,1.1902196E1,1.3805623E4,1.1886475E0,2.4572437E1,1.0576245E0,8.416505E0,1.3737985E0,3.6795032E2,1.3622673E3,1.0222746E1,7.4652424E0,7.051211E0,2.4037205E1,2.8275905E0,9.074606E0,2.5915082E2,1.0879949E2,1.3589175E3,3.3498247E0,8.762443E0,1.4603027E0,2.0851065E1,3.1861413E0,4.310799E0,4.763807E0,2.5681937E2,2.3314598E0,3.1434275E1,7.736522E1,1.3477236E3,1.1193844E1,1.8965607E1,1.8854575E0,1.1988306E0,3.5649762E0,2.557581E2,1.061263E0,2.9220128E0,2.8512262E1,5.6671917E1,2.0693298E1,3.1504452E0,8.043399E0,1.1101196E0,1.7855488E1],"tree_param":{"num_deleted":"0","num_feature":"8","num_nodes":"59","size_leaf_vector":"1"}},{"base_weights":[-8.734146E-1,-9.1114604E-1,-5.982172E-1,-9.1328627E-1,-5.673886E-2,-6.1285603E-1,-0E0,-9.3303764E-1,-8.29651E-1,-2.5448495E-1,2.5492033E-2,-4.9693263E-1,-6.9040763E-1,-1.4984389E-1,3.4412406E-2,-9.3313104E-1,-0E0,-8.326286E-1,-0E0,-1.0166058E-1,-0E0,1.1121782E-2,-0E0,-5.824464E-1,-2.042954E-1,-6.984328E-1,-0E0,-0E0,-2.6471838E-1,-0E0,2.482443E-1,-2.7999073E-1,-0E0,-8.3312804E-1,-0E0,-5.848242E-1,-0E0,-4.0551227E-1,-8.268373E-2,-7.0144194E-1,-0E0,-0E0,-3.0300578E-1,-8.496567E-3,-0E0,-0E0,3.9182913E-1,-2.5004357E-1,-0E0,-5.858397E-1,-0E0,-4.2606667E-1,-0E0,-1.331888E-1,-0E0,-2.1105687E-1,-0E0,-9.940385E-2,-0E0,1.2405262E-1,-0E0,-0E0,-1.7624058E-1,-1.339634E-1,-0E0,-4.661889E-2,-0E0,-0E0,2.2413779E-2],"categories":[],"categories_nodes":[],"categories_segments":[],"categories_sizes":[],"default_left":[0,1,0,1,0,1,0,0,0,0,0,0,0,0,0,0,0,0,0,0,0,0,0,0,1,1,0,0,0,0,0,0,0,0,0,0,0,0,0,0,0,0,0,0,0,0,0,0,0,0,0,1,0,0,0,0,0,0,0,0,0,0,0,0,0,0,0,0,0],"id":3,"left_children":[1,3,5,7,9,11,13,15,17,19,21,23,25,27,29,31,-1,33,-1,-1,-1,-1,-1,35,37,39,-1,-1,41,43,45,-1,-1,47,-1,49,-1,51,53,55,-1,-1,57,-1,-1,-1,59,-1,-1,61,-1,63,-1,65,67,-1,-1,-1,-1,-1,-1,-1,-1,-1,-1,-1,-1,-1,-1],"loss_changes":[1.1595703E2,1.4452148E1,1.1786804E1,3.477539E0,1.8436036E0,4.9191895E0,5.575906E-1,6.1621094E-1,5.773926E0,1.3953846E0,1.0339962E-2,1.12973175E1,5.391693E0,9.3130606E-1,1.368919E0,3.6816406E-1,0E0,7.7612305E-1,0E0,0E0,0E0,0E0,0E0,9.664917E-1,1.463902E0,1.6792908E0,0E0,0E0,3.142624E-1,1.1274098E-2,1.0864824E0,0E0,0E0,5.461426E-1,0E0,2.103424E-1,0E0,6.058607E-1,1.181052E0,1.3508606E0,0E0,0E0,2.276057E-1,0E0,0E0,0E0,2.7410507E-2,0E0,0E0,2.0739746E-1,0E0,5.4984665E-1,0E0,7.0003104E-1,1.0431346E-1,0E0,0E0,0E0,0E0,0E0,0E0,0E0,0E0,0E0,0E0,0E0,0E0,0E0,0E0],"parents":[2147483647,0,0,1,1,2,2,3,3,4,4,5,5,6,6,7,7,8,8,9,9,10,10,11,11,12,12,13,13,14,14,15,15,17,17,23,23,24,24,25,25,28,28,29,29,30,30,33,33,35,35,37,37,38,38,39,39,42,42,46,46,49,49,51,51,53,53,54,54],"right_children":[2,4,6,8,10,12,14,16,18,20,22,24,26,28,30,32,-1,34,-1,-1,-1,-1,-1,36,38,40,-1,-1,42,44,46,-1,-1,48,-1,50,-1,52,54,56,-1,-1,58,-1,-1,-1,60,-1,-1,62,-1,64,-1,66,68,-1,-1,-1,-1,-1,-1,-1,-1,-1,-1,-1,-1,-1,-1],"split_conditions":[1.21586155E-2,9.683E-1,1.0771926E-1,4.44E-2,1E0,7E-1,7.301587E-2,7.8877735E-1,3.7059462E-1,4.9168694E-1,2E0,8.055083E-2,4.9168694E-1,1.8237924E-2,6E-1,8.042492E-3,-0E0,1.209691E-1,-0E0,-1.0166058E-1,-0E0,1.1121782E-2,-0E0,3.4415865E-1,3E-1,9.905E-1,-0E0,-0E0,1.296852E-1,5.5523765E-1,5.384126E-1,-2.7999073E-1,-0E0,2.961961E-1,-0E0,9.0277724E-2,-0E0,3.694615E-1,3.5931256E-1,4.2007625E-1,-0E0,-0E0,8.4293854E-1,-8.496567E-3,-0E0,-0E0,3.3892143E-1,-2.5004357E-1,-0E0,3.3E-2,-0E0,9.607E-1,-0E0,3.0847693E-2,9.829E-1,-2.1105687E-1,-0E0,-9.940385E-2,-0E0,1.2405262E-1,-0E0,-0E0,-1.7624058E-1,-1.339634E-1,-0E0,-4.661889E-2,-0E0,-0E0,2.2413779E-2],"split_indices":[6,7,1,7,0,0,6,2,5,2,0,6,2,6,0,1,0,4,0,0,0,0,0,3,0,7,0,0,1,5,1,0,0,3,0,4,0,5,6,3,0,0,2,0,0,0,6,0,0,7,0,7,0,3,7,0,0,0,0,0,0,0,0,0,0,0,0,0,0],"split_type":[0,0,0,0,0,0,0,0,0,0,0,0,0,0,0,0,0,0,0,0,0,0,0,0,0,0,0,0,0,0,0,0,0,0,0,0,0,0,0,0,0,0,0,0,0,0,0,0,0,0,0,0,0,0,0,0,0,0,0,0,0,0,0,0,0,0,0,0,0],"sum_hessian":[1.2254642E4,1.0746833E4,1.5078086E3,1.0713661E4,3.3171833E1,1.4676884E3,4.0120213E1,8.561014E3,2.1526475E3,2.3294668E1,9.877166E0,6.3492926E2,8.327591E2,1.620284E1,2.3917374E1,8.560006E3,1.0080996E0,2.1455571E3,7.090353E0,2.2237043E1,1.0576245E0,8.503367E0,1.3737985E0,4.727616E2,1.6216768E2,8.2462476E2,8.134366E0,2.4783735E0,1.3724466E1,8.109642E0,1.5807732E1,8.557284E3,2.721933E0,2.1440952E3,1.4617788E0,4.7169406E2,1.0675224E0,3.944564E1,1.2272204E2,8.209179E2,3.706841E0,1.4836648E0,1.2240802E1,7.055213E0,1.0544288E0,6.576291E0,9.231441E0,2.1430728E3,1.0226164E0,4.7064886E2,1.0452E0,3.8409924E1,1.0357136E0,1.0957249E2,1.31495495E1,8.187567E2,2.1611772E0,1.1163285E1,1.0775169E0,7.7343855E0,1.4970546E0,2.0441198E0,4.6860474E2,3.7098007E1,1.3119191E0,1.0762397E2,1.9485183E0,1.4619855E0,1.1687564E1],"tree_param":{"num_deleted":"0","num_feature":"8","num_nodes":"69","size_leaf_vector":"1"}},{"base_weights":[-8.116144E-1,-8.5706574E-1,-5.096797E-1,-8.6038876E-1,-1.16182216E-1,-5.192117E-1,-0E0,-8.8378304E-1,-7.630627E-1,-3.1064233E-1,7.987903E-3,-3.585762E-1,-5.742019E-1,-0E0,1.2639351E-1,-8.83896E-1,-0E0,-7.665545E-1,-0E0,-3.7915203E-1,-0E0,-0E0,1.645044E-2,-3.953564E-1,-0E0,-5.832091E-1,-7.464379E-3,-0E0,8.2094595E-2,-2.65229E-1,-0E0,-7.6697004E-1,-0E0,-1.1812318E-1,-0E0,-4.7485816E-1,-1.794381E-1,-4.7398906E-2,3.4532656E-3,-5.899717E-1,-0E0,-0E0,-1.16335034E-1,-2.3021188E-1,-0E0,-0E0,-5.1830405E-1,-0E0,-2.3367582E-1,-1.5916716E-1,-0E0,9.325353E-2,-0E0,-5.950805E-1,-0E0,-1.6479999E-1,-0E0,-9.746387E-3,-0E0,-1.5667404E-1,-0E0,-0E0,2.6349626E-3,-7.568042E-2,-0E0,-5.9432324E-2,-0E0,4.520195E-2,-0E0,-1.7943516E-1,-0E0,-0E0,-5.710422E-2],"categories":[],"categories_nodes":[],"categories_segments":[],"categories_sizes":[],"default_left":[0,1,0,1,1,1,0,0,0,0,0,1,0,0,0,0,0,0,0,0,0,0,0,0,1,0,0,0,0,0,0,0,0,0,0,0,0,0,0,0,0,0,0,0,0,0,0,0,0,0,0,0,0,0,0,0,0,0,0,0,0,0,0,0,0,0,0,0,0,0,0,0,0],"id":4,"left_children":[1,3,5,7,9,11,13,15,17,19,21,23,25,-1,27,29,-1,31,-1,33,-1,-1,-1,35,37,39,41,-1,-1,-1,-1,43,-1,-1,-1,45,47,49,51,53,-1,-1,55,-1,-1,57,59,61,63,65,-1,67,-1,69,-1,71,-1,-1,-1,-1,-1,-1,-1,-1,-1,-1,-1,-1,-1,-1,-1,-1,-1],"loss_changes":[1.23123535E2,1.5097168E1,8.867035E0,6.067383E0,2.7939284E0,5.249542E0,3.0078328E-1,5.4003906E-1,5.005493E0,1.5375476E0,4.6368193E-2,4.4821243E0,1.7267151E0,0E0,9.609083E-1,2.2998047E-1,0E0,4.9328613E-1,0E0,1.4780235E-1,0E0,0E0,0E0,1.8439255E0,5.2011788E-2,2.3255615E0,3.2721698E-1,0E0,0E0,0E0,0E0,4.5098877E-1,0E0,0E0,0E0,2.2896843E0,2.0366232E0,4.985991E-1,1.352069E-1,2.242218E0,0E0,0E0,2.2236693E-1,0E0,0E0,3.4889113E-2,2.512741E-2,9.647626E-4,8.8998604E-1,2.6085436E-1,0E0,1.9428213E-1,0E0,9.102478E-1,0E0,1.3352644E-1,0E0,0E0,0E0,0E0,0E0,0E0,0E0,0E0,0E0,0E0,0E0,0E0,0E0,0E0,0E0,0E0,0E0],"parents":[2147483647,0,0,1,1,2,2,3,3,4,4,5,5,6,6,7,7,8,8,9,9,10,10,11,11,12,12,14,14,15,15,17,17,19,19,23,23,24,24,25,25,26,26,31,31,35,35,36,36,37,37,38,38,39,39,42,42,45,45,46,46,47,47,48,48,49,49,51,51,53,53,55,55],"right_children":[2,4,6,8,10,12,14,16,18,20,22,24,26,-1,28,30,-1,32,-1,34,-1,-1,-1,36,38,40,42,-1,-1,-1,-1,44,-1,-1,-1,46,48,50,52,54,-1,-1,56,-1,-1,58,60,62,64,66,-1,68,-1,70,-1,72,-1,-1,-1,-1,-1,-1,-1,-1,-1,-1,-1,-1,-1,-1,-1,-1,-1],"split_conditions":[1.21586155E-2,9.473E-1,6.817425E-1,4.44E-2,8E-1,5E-1,7.4471526E-2,7.8877735E-1,3.7059462E-1,5.356177E-1,1.1E0,8.622E-1,3.5278225E-1,-0E0,4E-1,8.042492E-3,-0E0,1.4656936E-1,-0E0,8E-1,-0E0,-0E0,1.645044E-2,6.535256E-2,3E-1,5.322384E-1,7E-1,-0E0,8.2094595E-2,-2.65229E-1,-0E0,2.961961E-1,-0E0,-1.1812318E-1,-0E0,4.452E-1,7.29517E-2,4.1010335E-1,4E-1,1.1771081E-2,-0E0,-0E0,1.1923919E-1,-2.3021188E-1,-0E0,4.235E-1,8.042492E-3,4E-1,3.620582E-1,1.3982408E-1,-0E0,2.4955559E-1,-0E0,3.844982E-2,-0E0,1.8237924E-2,-0E0,-9.746387E-3,-0E0,-1.5667404E-1,-0E0,-0E0,2.6349626E-3,-7.568042E-2,-0E0,-5.9432324E-2,-0E0,4.520195E-2,-0E0,-1.7943516E-1,-0E0,-0E0,-5.710422E-2],"split_indices":[6,7,1,7,0,0,6,2,5,2,0,7,5,0,0,1,0,4,0,0,0,0,0,6,0,2,0,0,0,0,0,3,0,0,0,7,6,5,0,1,0,0,6,0,0,7,1,0,3,6,0,5,0,3,0,6,0,0,0,0,0,0,0,0,0,0,0,0,0,0,0,0,0],"split_type":[0,0,0,0,0,0,0,0,0,0,0,0,0,0,0,0,0,0,0,0,0,0,0,0,0,0,0,0,0,0,0,0,0,0,0,0,0,0,0,0,0,0,0,0,0,0,0,0,0,0,0,0,0,0,0,0,0,0,0,0,0,0,0,0,0,0,0,0,0,0,0,0,0],"sum_hessian":[9.685609E3,8.392783E3,1.2928262E3,8.347465E3,4.5318375E1,1.27843E3,1.4396179E1,6.6427964E3,1.7046686E3,2.9256115E1,1.606226E1,3.6264703E2,9.15783E2,2.56818E0,1.1827999E1,6.641788E3,1.0080996E0,1.6976285E3,7.0399466E0,2.8033003E1,1.223111E0,7.1520424E0,8.910217E0,3.2574454E2,3.6902496E1,8.925714E2,2.3211615E1,1.9792925E0,9.848706E0,6.6390664E3,2.721933E0,1.6966205E3,1.0081233E0,2.643787E1,1.5951338E0,2.1502133E2,1.107232E2,1.6002665E1,2.0899832E1,8.78748E2,1.3823377E1,5.9095488E0,1.7302065E1,1.6955978E3,1.0226164E0,2.7137766E1,1.8788356E2,1.1008733E1,9.971446E1,1.472078E1,1.2818836E0,8.586035E0,1.2313798E1,8.6993677E2,8.811274E0,1.3297745E1,4.00432E0,2.605561E1,1.0821537E0,1.850442E2,2.8393548E0,5.5028563E0,5.5058765E0,9.854922E1,1.165248E0,1.3667548E1,1.0532329E0,7.5280547E0,1.05798E0,8.635992E2,6.3375297E0,1.3975672E0,1.1900178E1],"tree_param":{"num_deleted":"0","num_feature":"8","num_nodes":"73","size_leaf_vector":"1"}},{"base_weights":[-7.442697E-1,-7.9761523E-1,-4.2525178E-1,-8.2969403E-1,-6.734822E-1,-4.9013814E-1,-2.3782298E-1,-8.2982796E-1,-0E0,-6.8541455E-1,-0E0,-5.099993E-1,-8.020433E-2,-4.4632982E-2,-3.7778422E-1,-8.3005244E-1,-0E0,-6.9022053E-1,-0E0,-1.3432834E-1,7.0017045E-3,-1.5332144E-1,-0E0,-0E0,-1.4512707E-1,-3.0231306E-1,-0E0,-4.0535718E-1,-0E0,-2.4908426E-1,-0E0,-6.908677E-1,-0E0,-2.1028233E-1,-0E0,-0E0,-2.0410725E-1,-1.094685E-1,-0E0,-1.5326977E-2,1.4532664E-1,-4.3782347E-1,-0E0,-2.0739192E-1,-0E0,-6.798765E-2,-0E0,-2.535034E-1,-0E0,-5.6016453E-2,-0E0,-0E0,2.7168092E-1,-4.5858702E-1,-0E0,-9.02954E-2,-0E0,-0E0,-3.5497624E-2,-0E0,1.7327761E-2,-0E0,9.1139026E-2,-0E0,-1.4025415E-1],"categories":[],"categories_nodes":[],"categories_segments":[],"categories_sizes":[],"default_left":[0,1,0,0,0,1,1,0,0,0,1,0,0,0,0,0,0,0,0,0,0,0,0,0,0,0,0,0,0,0,0,0,0,0,0,0,0,0,0,0,0,0,0,0,0,0,0,1,0,0,0,0,0,0,0,0,0,0,0,0,0,0,0,0,0],"id":5,"left_children":[1,3,5,7,9,11,13,15,-1,17,19,21,23,25,27,29,-1,31,-1,33,-1,-1,-1,-1,35,37,39,41,-1,-1,-1,43,-1,45,-1,-1,47,-1,-1,49,51,53,-1,-1,-1,-1,-1,55,-1,57,59,-1,61,63,-1,-1,-1,-1,-1,-1,-1,-1,-1,-1,-1],"loss_changes":[1.235083E2,1.4948242E1,9.403458E0,4.6142578E-1,9.139282E0,3.439804E0,6.597517E0,2.421875E-1,0E0,4.1743774E0,5.177083E-1,5.7380676E-1,6.774852E-1,2.1960757E0,3.2620811E0,9.448242E-2,0E0,5.8032227E-1,0E0,6.785197E-1,0E0,0E0,0E0,0E0,7.3318636E-1,9.592476E-1,4.7904256E-1,3.1157951E0,0E0,0E0,0E0,3.52417E-1,0E0,1.3670301E-1,0E0,0E0,8.6275744E-1,0E0,0E0,3.2249936E-1,8.6947006E-1,9.87936E-1,0E0,0E0,0E0,0E0,0E0,8.8316536E-1,0E0,6.5527576E-1,6.1938252E-2,0E0,1.8677449E-1,6.938095E-1,0E0,0E0,0E0,0E0,0E0,0E0,0E0,0E0,0E0,0E0,0E0],"parents":[2147483647,0,0,1,1,2,2,3,3,4,4,5,5,6,6,7,7,9,9,10,10,11,11,12,12,13,13,14,14,15,15,17,17,19,19,24,24,25,25,26,26,27,27,31,31,33,33,36,36,39,39,40,40,41,41,47,47,49,49,50,50,52,52,53,53],"right_children":[2,4,6,8,10,12,14,16,-1,18,20,22,24,26,28,30,-1,32,-1,34,-1,-1,-1,-1,36,38,40,42,-1,-1,-1,44,-1,46,-1,-1,48,-1,-1,50,52,54,-1,-1,-1,-1,-1,56,-1,58,60,-1,62,64,-1,-1,-1,-1,-1,-1,-1,-1,-1,-1,-1],"split_conditions":[1.21586155E-2,4.44E-2,8.055083E-2,7.8877735E-1,9.683E-1,8.939E-1,7E-1,2.2765137E-1,-0E0,3.249998E-1,1E0,4.8201513E-1,9.161E-1,3E-1,2E0,8.042492E-3,-0E0,1.209691E-1,-0E0,4.9168694E-1,7.0017045E-3,-1.5332144E-1,-0E0,-0E0,1.8237924E-2,5.356177E-1,2.7514946E-1,1.9768856E-1,-0E0,-2.4908426E-1,-0E0,2.961961E-1,-0E0,1E0,-0E0,-0E0,8.519319E-1,-1.094685E-1,-0E0,3.5931256E-1,9.313E-1,2.6232213E-1,-0E0,-2.0739192E-1,-0E0,-6.798765E-2,-0E0,1.3E0,-0E0,1.1501555E-1,9.829E-1,-0E0,9.422927E-2,1.22E-1,-0E0,-9.02954E-2,-0E0,-0E0,-3.5497624E-2,-0E0,1.7327761E-2,-0E0,9.1139026E-2,-0E0,-1.4025415E-1],"split_indices":[6,7,6,2,7,7,0,3,0,5,0,3,7,0,0,1,0,4,0,2,0,0,0,0,6,2,5,2,0,0,0,3,0,0,0,0,2,0,0,6,7,5,0,0,0,0,0,0,0,6,7,0,6,7,0,0,0,0,0,0,0,0,0,0,0],"split_type":[0,0,0,0,0,0,0,0,0,0,0,0,0,0,0,0,0,0,0,0,0,0,0,0,0,0,0,0,0,0,0,0,0,0,0,0,0,0,0,0,0,0,0,0,0,0,0,0,0,0,0,0,0,0,0,0,0,0,0,0,0,0,0,0,0],"sum_hessian":[7.749215E3,6.6166226E3,1.1325924E3,5.194245E3,1.4223773E3,8.131159E2,3.1947653E2,5.193237E3,1.0080996E0,1.3924963E3,2.9881021E1,7.6227814E2,5.08378E1,1.531031E2,1.6637341E2,5.1907754E3,2.4615202E0,1.3818374E3,1.0659004E1,2.1218458E1,8.662563E0,7.612507E2,1.0274644E0,8.006485E0,4.2831314E1,2.0518656E1,1.3258444E2,1.6344208E2,2.9313447E0,5.1880537E3,2.721933E0,1.380452E3,1.3853018E0,1.9859621E1,1.3588368E0,7.0387883E0,3.5792526E1,1.909319E1,1.425467E0,1.18296E2,1.428845E1,1.553558E2,8.086267E0,1.3794294E3,1.0226164E0,1.8787035E1,1.072586E0,3.4165894E1,1.6266335E0,1.0515775E2,1.3138244E1,3.4173057E0,1.0871144E1,1.4568431E2,9.671493E0,3.1951107E1,2.2147865E0,4.0218876E1,6.493888E1,1.5723184E0,1.1565925E1,1.5550418E0,9.316102E0,2.6007893E0,1.4308353E2],"tree_param":{"num_deleted":"0","num_feature":"8","num_nodes":"65","size_leaf_vector":"1"}},{"base_weights":[-6.705352E-1,-7.313606E-1,-3.4476295E-1,-7.6836526E-1,-5.902215E-1,-4.0405825E-1,-1.8154807E-1,-7.685185E-1,-0E0,-6.069329E-1,-0E0,-4.23012E-1,-3.364544E-2,-2.2284089E-1,1.0369656E-1,-7.687641E-1,-0E0,-3.852882E-1,-6.5481406E-1,-1.7907125E-1,4.115797E-2,-2.6053822E-1,-4.728662E-1,-0E0,-9.40239E-2,-8.202608E-2,-3.5118404E-1,1.8166628E-1,-0E0,-2.3067342E-1,-0E0,-4.05006E-1,-0E0,-6.598317E-1,-0E0,-2.541992E-1,-0E0,-0E0,2.0263478E-2,-0E0,-3.032022E-1,-4.7848958E-1,-0E0,-0E0,-1.4763443E-1,-2.414142E-1,-0E0,-3.9722717E-1,-0E0,-0E0,2.5201938E-1,-1.8231541E-1,-1.5540634E-1,-6.605148E-1,-0E0,-1.0915639E-2,-0E0,-8.0096416E-2,-0E0,-3.7129855E-1,-0E0,-4.823499E-1,-0E0,-1.9774944E-1,-0E0,-2.961137E-1,-0E0,-3.7027117E-2,-0E0,-4.1828573E-1,-0E0,1.8593198E-2,-0E0,3.3306462E-1,-0E0,-0E0,-7.7811554E-2,-1.9835348E-1,-0E0,-0E0,-1.2988467E-2,-1.13465905E-1,-0E0,-0E0,-2.4179311E-2,-1.4535008E-1,-0E0,-7.3500104E-2,-0E0,-0E0,-9.654654E-2,-0E0,-4.7851693E-2,-0E0,2.3328826E-2,-1.2949802E-1,-0E0,1.13085825E-2,-0E0,1.0634778E-1,-0E0],"categories":[],"categories_nodes":[],"categories_segments":[],"categories_sizes":[],"default_left":[0,1,0,0,0,1,0,0,0,0,1,1,0,1,0,0,0,0,0,0,0,0,0,0,0,1,0,0,0,0,0,0,0,0,1,0,0,0,0,0,0,0,0,0,0,0,0,0,0,0,0,0,0,0,0,0,0,0,0,1,0,0,0,1,0,0,0,0,0,0,0,1,0,1,0,0,0,0,0,0,0,0,0,0,0,0,0,0,0,0,0,0,0,0,0,0,0,0,0,0,0],"id":6,"left_children":[1,3,5,7,9,11,13,15,-1,17,19,21,23,25,27,29,-1,31,33,35,37,39,41,-1,43,45,47,49,-1,-1,-1,51,-1,53,55,57,-1,-1,-1,-1,59,61,-1,-1,63,65,67,69,71,-1,73,75,-1,77,-1,79,-1,-1,-1,81,83,85,-1,87,-1,89,-1,91,93,95,-1,97,-1,99,-1,-1,-1,-1,-1,-1,-1,-1,-1,-1,-1,-1,-1,-1,-1,-1,-1,-1,-1,-1,-1,-1,-1,-1,-1,-1,-1],"loss_changes":[1.17735596E2,1.7668701E1,6.408066E0,3.798828E-1,8.585999E0,2.660408E0,4.366355E0,1.07910156E-1,0E0,4.8970337E0,1.037808E0,8.970566E-1,3.5637885E-1,2.7863207E0,4.6417278E-1,3.7109375E-2,0E0,3.2608376E0,1.0773926E0,9.3688494E-1,3.3775885E-2,2.2731276E0,1.4327469E0,0E0,4.6077228E-1,1.1718049E0,2.950944E0,4.0507638E-1,0E0,0E0,0E0,1.6706123E0,0E0,3.5266113E-1,1.841346E-3,9.257412E-2,0E0,0E0,0E0,0E0,2.2762737E0,6.395645E-1,0E0,0E0,6.351353E-1,1.0571449E0,1.1894026E-1,1.1634426E0,4.5188856E-3,0E0,7.5920916E-1,1.6521118E0,0E0,3.0645752E-1,0E0,2.4274971E-2,0E0,0E0,0E0,2.8424072E-1,2.4694721E-1,6.6861725E-1,0E0,6.7756104E-1,0E0,4.5941806E-1,0E0,8.9798E-1,2.7410567E-1,1.012207E0,0E0,1.2410803E-2,0E0,7.165158E-2,0E0,0E0,0E0,0E0,0E0,0E0,0E0,0E0,0E0,0E0,0E0,0E0,0E0,0E0,0E0,0E0,0E0,0E0,0E0,0E0,0E0,0E0,0E0,0E0,0E0,0E0,0E0],"parents":[2147483647,0,0,1,1,2,2,3,3,4,4,5,5,6,6,7,7,9,9,10,10,11,11,12,12,13,13,14,14,15,15,17,17,18,18,19,19,20,20,21,21,22,22,24,24,25,25,26,26,27,27,31,31,33,33,34,34,35,35,40,40,41,41,44,44,45,45,46,46,47,47,48,48,50,50,51,51,53,53,55,55,59,59,60,60,61,61,63,63,65,65,67,67,68,68,69,69,71,71,73,73],"right_children":[2,4,6,8,10,12,14,16,-1,18,20,22,24,26,28,30,-1,32,34,36,38,40,42,-1,44,46,48,50,-1,-1,-1,52,-1,54,56,58,-1,-1,-1,-1,60,62,-1,-1,64,66,68,70,72,-1,74,76,-1,78,-1,80,-1,-1,-1,82,84,86,-1,88,-1,90,-1,92,94,96,-1,98,-1,100,-1,-1,-1,-1,-1,-1,-1,-1,-1,-1,-1,-1,-1,-1,-1,-1,-1,-1,-1,-1,-1,-1,-1,-1,-1,-1,-1],"split_conditions":[1.21586155E-2,5.47E-2,8.055083E-2,7.8877735E-1,9.473E-1,8.939E-1,3.346051E-1,2.2765137E-1,-0E0,5E-1,8E-1,5E-1,9.161E-1,8E-1,6.0481685E-1,1.1435179E-1,-0E0,3.297838E-1,9.084E-1,5.356177E-1,1.1E0,4.738E-1,4.670931E-1,-0E0,1.8237924E-2,3E-1,1.9E0,5E-1,-0E0,-2.3067342E-1,-0E0,3.486E-1,-0E0,8.1703775E-2,1.1E0,8E-1,-0E0,-0E0,2.0263478E-2,-0E0,4.7452375E-2,1.763595E-1,-0E0,-0E0,8.519319E-1,5.0265574E-1,1.7917663E-1,1.9768856E-1,1.8430911E-1,-0E0,3.3892143E-1,3E-1,-1.5540634E-1,1.2638882E-1,-0E0,9.161E-1,-0E0,-8.0096416E-2,-0E0,8.622E-1,5.8302004E-2,4.021124E-1,-0E0,1.3E0,-0E0,8.342162E-2,-0E0,1.1923919E-1,9.607E-1,6.7805946E-2,-0E0,2.912E-1,-0E0,1.2E0,-0E0,-0E0,-7.7811554E-2,-1.9835348E-1,-0E0,-0E0,-1.2988467E-2,-1.13465905E-1,-0E0,-0E0,-2.4179311E-2,-1.4535008E-1,-0E0,-7.3500104E-2,-0E0,-0E0,-9.654654E-2,-0E0,-4.7851693E-2,-0E0,2.3328826E-2,-1.2949802E-1,-0E0,1.13085825E-2,-0E0,1.0634778E-1,-0E0],"split_indices":[6,7,6,2,7,7,5,3,0,0,0,0,7,0,5,4,0,5,7,2,0,7,5,0,6,0,0,0,0,0,0,7,0,3,0,0,0,0,0,0,6,1,0,0,2,1,6,2,6,0,6,0,0,4,0,7,0,0,0,7,6,3,0,0,0,6,0,6,7,3,0,7,0,0,0,0,0,0,0,0,0,0,0,0,0,0,0,0,0,0,0,0,0,0,0,0,0,0,0,0,0],"split_type":[0,0,0,0,0,0,0,0,0,0,0,0,0,0,0,0,0,0,0,0,0,0,0,0,0,0,0,0,0,0,0,0,0,0,0,0,0,0,0,0,0,0,0,0,0,0,0,0,0,0,0,0,0,0,0,0,0,0,0,0,0,0,0,0,0,0,0,0,0,0,0,0,0,0,0,0,0,0,0,0,0,0,0,0,0,0,0,0,0,0,0,0,0,0,0,0,0,0,0,0,0],"sum_hessian":[6.295259E3,5.284515E3,1.01074316E3,4.1340845E3,1.1504307E3,7.113491E2,2.9939404E2,4.1330767E3,1.0080996E0,1.1108785E3,3.955213E1,6.629348E2,4.841433E1,2.7818362E2,2.1210419E1,4.130615E3,2.4615202E0,2.2714839E2,8.8373016E2,2.4182512E1,1.5369618E1,1.8943735E2,4.7349744E2,8.006485E0,4.040785E1,1.5669441E2,1.21489204E2,1.6256289E1,4.9541306E0,4.1290923E3,1.5226016E0,2.2478381E2,2.3645802E0,8.7270935E2,1.1020817E1,2.297342E1,1.2090927E0,6.660594E0,8.709024E0,2.666621E1,1.6277115E2,4.6852774E2,4.9697185E0,7.0387883E0,3.3369057E1,3.200403E1,1.2469039E2,1.121306E2,9.3586035E0,4.794225E0,1.1462063E1,9.672545E1,1.2805836E2,8.716992E2,1.0101348E0,8.453864E0,2.5669522E0,2.1469404E1,1.5040151E0,1.2272047E2,4.005068E1,4.6369568E2,4.832037E0,3.1742424E1,1.6266335E0,3.0981358E1,1.0226697E0,7.975391E1,4.4936485E1,1.0708695E2,5.043648E0,6.071432E0,3.2871718E0,1.0414306E1,1.0477568E0,2.7918283E1,6.880717E1,8.706377E2,1.0615661E0,1.5210559E0,6.9328084E0,1.2000334E2,2.717121E0,9.035341E0,3.1015337E1,4.623751E2,1.3205923E0,2.9527637E1,2.2147865E0,1.3899012E0,2.9591455E1,4.6783844E1,3.2970062E1,6.6076245E0,3.832886E1,1.0555918E2,1.5277747E0,4.914482E0,1.1569498E0,8.942832E0,1.4714744E0],"tree_param":{"num_deleted":"0","num_feature":"8","num_nodes":"101","size_leaf_vector":"1"}},{"base_weights":[-5.922061E-1,-6.584851E-1,-2.7610922E-1,-7.00671E-1,-5.103797E-1,-3.6815533E-1,-1.8800078E-1,-7.0481664E-1,-1.968024E-1,-5.272445E-1,-0E0,-3.7915802E-1,-0E0,-2.1417055E-1,-0E0,-7.051604E-1,-0E0,-0E0,-2.5523713E-1,-3.6875436E-1,-6.018608E-1,-1.3217832E-1,3.299915E-2,-3.991053E-1,-0E0,8.095174E-3,-0E0,-0E0,-2.2969455E-1,1.266329E-1,-2.122006E-2,-2.1159811E-1,-0E0,-0E0,-2.720003E-1,-3.8601306E-1,-0E0,-6.108058E-1,-0E0,-2.0924787E-1,-0E0,-0E0,1.671728E-2,-4.0779582E-1,-0E0,-0E0,-1.5712367E-2,-2.0168528E-2,2.607015E-1,-2.4929614E-1,-0E0,1.8122388E-1,-0E0,-1.4709347E-1,-0E0,-8.273271E-2,-0E0,-3.8705564E-1,-0E0,-0E0,1.2045162E-2,-0E0,-6.132533E-1,-6.607123E-2,-0E0,-0E0,-4.1444048E-1,-0E0,-9.4006166E-2,-9.790868E-3,-0E0,-0E0,2.8627884E-1,-1.746089E-1,-4.4817948E-1,5.6894623E-2,-0E0,2.299034E-1,-0E0,-5.985503E-2,-0E0,-1.1641354E-1,-0E0,-1.8447834E-1,-0E0,-5.8562387E-2,-1.388318E-1,-3.0784728E-2,-0E0,-0E0,9.7878486E-2,-5.59722E-2,-0E0,-1.4264487E-1,-0E0,6.0463127E-2,-0E0,-0E0,9.136202E-2],"categories":[],"categories_nodes":[],"categories_segments":[],"categories_sizes":[],"default_left":[0,1,0,0,0,0,0,0,0,0,1,1,0,0,0,0,0,0,0,0,0,0,0,0,0,0,0,1,0,1,1,0,0,0,1,0,0,0,0,0,0,0,0,0,0,0,0,1,0,0,0,0,0,0,0,0,0,0,0,0,0,0,0,0,0,0,0,0,0,0,0,0,0,0,0,1,0,1,0,0,0,0,0,0,0,0,0,0,0,0,0,0,0,0,0,0,0,0,0],"id":7,"left_children":[1,3,5,7,9,11,13,15,17,19,21,23,25,27,29,31,-1,-1,33,35,37,39,41,43,45,-1,-1,47,49,51,53,-1,-1,-1,55,57,59,61,-1,63,-1,-1,-1,65,-1,-1,67,69,71,73,75,77,-1,79,-1,-1,-1,81,-1,-1,-1,-1,83,-1,-1,-1,85,-1,87,-1,-1,-1,89,91,93,95,-1,97,-1,-1,-1,-1,-1,-1,-1,-1,-1,-1,-1,-1,-1,-1,-1,-1,-1,-1,-1,-1,-1],"loss_changes":[1.035249E2,1.8316162E1,4.2838287E0,1.4197998E0,6.9782715E0,2.821518E0,3.379753E0,5.845947E-1,1.0966331E0,5.0339966E0,5.4325914E-1,2.3162498E0,6.717751E-3,2.3859081E0,5.68763E-1,5.7373047E-2,0E0,0E0,2.9560757E-1,4.025875E0,2.4055786E0,7.283553E-1,2.470255E-2,1.8973122E0,5.7892143E-3,0E0,0E0,1.0135508E0,2.5912209E0,4.9298882E-1,4.4357252E-1,0E0,0E0,0E0,3.7486553E-3,1.2831497E-1,1.5234071E-2,6.112213E-1,0E0,6.148219E-2,0E0,0E0,0E0,1.3057747E0,0E0,0E0,1.5419649E-1,8.565081E-3,6.205082E-3,2.708521E0,9.399934E-2,5.455122E-1,0E0,3.3115217E-1,0E0,0E0,0E0,1.10565186E-1,0E0,0E0,0E0,0E0,4.794922E-1,0E0,0E0,0E0,1.0562897E-1,0E0,1.991205E-2,0E0,0E0,0E0,9.229219E-2,1.3073092E0,1.965559E0,8.3154625E-1,0E0,8.4925246E-1,0E0,0E0,0E0,0E0,0E0,0E0,0E0,0E0,0E0,0E0,0E0,0E0,0E0,0E0,0E0,0E0,0E0,0E0,0E0,0E0,0E0],"parents":[2147483647,0,0,1,1,2,2,3,3,4,4,5,5,6,6,7,7,8,8,9,9,10,10,11,11,12,12,13,13,14,14,15,15,18,18,19,19,20,20,21,21,22,22,23,23,24,24,27,27,28,28,29,29,30,30,34,34,35,35,36,36,37,37,39,39,43,43,46,46,47,47,48,48,49,49,50,50,51,51,53,53,57,57,62,62,66,66,68,68,72,72,73,73,74,74,75,75,77,77],"right_children":[2,4,6,8,10,12,14,16,18,20,22,24,26,28,30,32,-1,-1,34,36,38,40,42,44,46,-1,-1,48,50,52,54,-1,-1,-1,56,58,60,62,-1,64,-1,-1,-1,66,-1,-1,68,70,72,74,76,78,-1,80,-1,-1,-1,82,-1,-1,-1,-1,84,-1,-1,-1,86,-1,88,-1,-1,-1,90,92,94,96,-1,98,-1,-1,-1,-1,-1,-1,-1,-1,-1,-1,-1,-1,-1,-1,-1,-1,-1,-1,-1,-1,-1],"split_conditions":[1.21586155E-2,4.44E-2,3.7995674E-2,2.5180495E-1,9.473E-1,4.3660408E-1,2.8260675E-1,8.042492E-3,3E-1,7E-1,8E-1,8.939E-1,5.1359403E-1,4.086646E-2,4.3660408E-1,1.1435179E-1,-0E0,-0E0,2.5423667E-1,3.311399E-1,8.85E-1,5.356177E-1,1.1E0,8.042492E-3,9.395E-1,8.095174E-3,-0E0,8E-1,2E0,1.2E0,8.622E-1,-2.1159811E-1,-0E0,-0E0,1.9E0,1.0053115E-2,2.7E-1,4.63E-2,-0E0,8E-1,-0E0,-0E0,1.671728E-2,4.63E-2,-0E0,-0E0,1.8237924E-2,6.272E-1,3.860867E-2,1.2E0,1.8430911E-1,8.574083E-1,-0E0,8.201088E-1,-0E0,-8.273271E-2,-0E0,5.103308E-2,-0E0,-0E0,1.2045162E-2,-0E0,1.8248175E-1,-6.607123E-2,-0E0,-0E0,5E-1,-0E0,2.7514946E-1,-9.790868E-3,-0E0,-0E0,1.1E0,3.6684114E-2,1.9768856E-1,3.07E-2,-0E0,3E-1,-0E0,-5.985503E-2,-0E0,-1.1641354E-1,-0E0,-1.8447834E-1,-0E0,-5.8562387E-2,-1.388318E-1,-3.0784728E-2,-0E0,-0E0,9.7878486E-2,-5.59722E-2,-0E0,-1.4264487E-1,-0E0,6.0463127E-2,-0E0,-0E0,9.136202E-2],"split_indices":[6,7,6,5,7,5,5,1,0,0,0,7,5,6,5,4,0,0,5,5,7,2,0,1,7,0,0,0,0,0,7,0,0,0,0,1,7,7,0,0,0,0,0,7,0,0,6,7,6,0,6,2,0,1,0,0,0,4,0,0,0,0,2,0,0,0,0,0,5,0,0,0,0,3,2,7,0,0,0,0,0,0,0,0,0,0,0,0,0,0,0,0,0,0,0,0,0,0,0],"split_type":[0,0,0,0,0,0,0,0,0,0,0,0,0,0,0,0,0,0,0,0,0,0,0,0,0,0,0,0,0,0,0,0,0,0,0,0,0,0,0,0,0,0,0,0,0,0,0,0,0,0,0,0,0,0,0,0,0,0,0,0,0,0,0,0,0,0,0,0,0,0,0,0,0,0,0,0,0,0,0,0,0,0,0,0,0,0,0,0,0,0,0,0,0,0,0,0,0,0,0],"sum_hessian":[5.2181772E3,4.2943423E3,9.238349E2,3.2957217E3,9.986205E2,4.1318585E2,5.1064905E2,3.2562163E3,3.9505512E1,9.604191E2,3.8201336E1,4.087796E2,4.4062376E0,4.655562E2,4.509283E1,3.2542114E3,2.0048347E0,2.023173E0,3.7482338E1,3.4218924E2,6.182299E2,2.2691727E1,1.5509611E1,3.827984E2,2.5981205E1,2.2260134E0,2.180224E0,1.6494972E1,4.4906125E2,2.7785574E1,1.7307257E1,3.2527854E3,1.4259285E0,1.3183179E0,3.616402E1,3.386809E2,3.508351E0,6.064993E2,1.1730589E1,2.1482634E1,1.2090927E0,6.660594E0,8.849017E0,3.7777063E2,5.027763E0,9.531553E0,1.6449652E1,8.676019E0,7.818954E0,4.2185657E2,2.720467E1,2.4995724E1,2.789851E0,1.4007007E1,3.3002508E0,3.5039574E1,1.1244476E0,3.3767764E2,1.0032625E0,1.0583212E0,2.4500299E0,3.2619197E0,6.0323737E2,1.9978619E1,1.5040151E0,4.6367617E0,3.7313388E2,5.3459034E0,1.1103748E1,7.028055E0,1.647963E0,2.45397E0,5.364984E0,3.345195E2,8.733708E1,2.203905E1,5.1656218E0,2.3201519E1,1.7942029E0,1.2737013E1,1.2699939E0,3.3665625E2,1.0213737E0,6.011866E2,2.0508096E0,9.246037E1,2.806735E2,1.0084316E1,1.0194323E0,1.9778886E0,3.3870957E0,3.2967612E2,4.8433595E0,8.550795E1,1.8291272E0,1.5785529E1,6.25352E0,3.8326547E0,1.9368866E1],"tree_param":{"num_deleted":"0","num_feature":"8","num_nodes":"99","size_leaf_vector":"1"}},{"base_weights":[-5.1081854E-1,-5.798916E-1,-2.1678683E-1,-6.2412995E-1,-4.238232E-1,-2.5672206E-1,-6.5545216E-2,-6.2833506E-1,-1.5851389E-1,-4.4101492E-1,-0E0,-2.5990918E-1,-0E0,-0E0,-2.4358773E-1,-1.8860812E-1,-0E0,-0E0,-2.1741998E-1,-2.8127903E-1,-5.225E-1,-9.264201E-2,2.6247894E-2,-1.4179762E-1,-3.01686E-1,7.0694014E-2,-5.234335E-2,-3.7999925E-1,-0E0,-0E0,-7.013873E-2,-2.999736E-1,-0E0,-0E0,-5.2911687E-1,-1.7123365E-1,-0E0,-0E0,1.37971295E-2,-2.4806152E-1,-1.1983487E-2,-3.1289732E-1,-0E0,1.4486831E-1,-0E0,-1.1880628E-1,9.414795E-2,-4.4076833E-1,-0E0,1.0474051E-1,-0E0,-5.8944892E-2,-3.6957756E-1,-0E0,1.1071666E-2,-5.404062E-1,-0E0,-5.415074E-2,-0E0,-0E0,-2.760376E-1,-1.0304274E-1,4.7341753E-2,-3.2231793E-1,-0E0,-0E0,3.3047819E-3,-0E0,2.3129223E-1,-2.6472744E-1,-0E0,1.8723689E-1,-0E0,-0E0,-4.8364988E-1,-0E0,3.6239985E-2,-2.842915E-2,-0E0,-1.1133096E-1,-0E0,-1.6267213E-1,-0E0,-9.8963715E-3,-0E0,-8.4512375E-2,-0E0,-5.001715E-2,-0E0,3.701902E-2,-0E0,-9.815263E-2,-0E0,2.9748367E-2,-0E0,-0E0,7.88876E-2,-9.0382285E-2,-0E0,-0E0,-1.9465208E-2,7.254419E-2,-0E0,-0E0,-1.5782434E-1],"categories":[],"categories_nodes":[],"categories_segments":[],"categories_sizes":[],"default_left":[0,1,0,0,0,0,1,0,0,0,1,1,0,0,0,0,0,0,0,0,0,0,0,1,0,1,1,0,0,0,0,0,0,0,0,0,0,0,0,0,1,1,0,0,0,0,0,0,0,0,0,0,0,0,0,0,1,0,0,0,0,0,0,0,0,0,1,0,0,0,0,0,0,0,0,0,0,0,0,0,0,0,0,0,0,0,0,0,0,0,0,0,0,0,0,0,0,0,0,0,0,0,0,0,0],"id":8,"left_children":[1,3,5,7,9,11,13,15,17,19,21,23,-1,25,27,-1,-1,-1,29,31,33,35,37,39,41,43,45,47,49,-1,-1,51,53,-1,55,57,-1,-1,-1,59,61,63,65,67,-1,69,71,73,-1,75,-1,77,79,-1,-1,81,83,-1,-1,-1,85,87,89,91,-1,-1,93,-1,95,97,99,101,-1,-1,103,-1,-1,-1,-1,-1,-1,-1,-1,-1,-1,-1,-1,-1,-1,-1,-1,-1,-1,-1,-1,-1,-1,-1,-1,-1,-1,-1,-1,-1,-1],"loss_changes":[8.498743E1,1.7518555E1,3.5046082E0,7.285156E-1,5.1729584E0,9.900589E-1,1.7059932E0,4.248047E-1,8.8881004E-1,5.324112E0,2.6046425E-1,7.181206E-1,0E0,6.2688553E-1,2.7606375E0,0E0,0E0,0E0,2.4167013E-1,2.9968204E0,2.6331177E0,5.562538E-1,1.818093E-2,1.6555834E0,1.9985466E0,6.91063E-1,1.50965E0,1.6657085E0,1.2088064E-1,0E0,0E0,2.7635536E0,1.29077565E-2,0E0,1.8482971E0,4.0074408E-2,0E0,0E0,0E0,7.948942E-1,9.9149793E-1,2.0499878E0,1.2035768E-4,6.1106634E-1,0E0,1.3525727E0,4.9039453E-1,1.1967258E0,0E0,2.5119387E-2,0E0,4.5179623E-1,1.0506821E-1,0E0,0E0,3.5993958E-1,1.73652E-2,0E0,0E0,0E0,1.5526581E-1,6.9308907E-1,5.383537E-1,6.9319534E-1,0E0,0E0,9.2381015E-2,0E0,3.1127834E-1,6.8116474E-1,1.6373363E-1,3.4028512E-1,0E0,0E0,1.1652784E0,0E0,0E0,0E0,0E0,0E0,0E0,0E0,0E0,0E0,0E0,0E0,0E0,0E0,0E0,0E0,0E0,0E0,0E0,0E0,0E0,0E0,0E0,0E0,0E0,0E0,0E0,0E0,0E0,0E0,0E0],"parents":[2147483647,0,0,1,1,2,2,3,3,4,4,5,5,6,6,7,7,8,8,9,9,10,10,11,11,13,13,14,14,18,18,19,19,20,20,21,21,22,22,23,23,24,24,25,25,26,26,27,27,28,28,31,31,32,32,34,34,35,35,39,39,40,40,41,41,42,42,43,43,45,45,46,46,47,47,49,49,51,51,52,52,55,55,56,56,60,60,61,61,62,62,63,63,66,66,68,68,69,69,70,70,71,71,74,74],"right_children":[2,4,6,8,10,12,14,16,18,20,22,24,-1,26,28,-1,-1,-1,30,32,34,36,38,40,42,44,46,48,50,-1,-1,52,54,-1,56,58,-1,-1,-1,60,62,64,66,68,-1,70,72,74,-1,76,-1,78,80,-1,-1,82,84,-1,-1,-1,86,88,90,92,-1,-1,94,-1,96,98,100,102,-1,-1,104,-1,-1,-1,-1,-1,-1,-1,-1,-1,-1,-1,-1,-1,-1,-1,-1,-1,-1,-1,-1,-1,-1,-1,-1,-1,-1,-1,-1,-1,-1],"split_conditions":[1.21586155E-2,6.47E-2,9.974568E-2,2.5180495E-1,9.473E-1,4.8201513E-1,1.2E0,8.042492E-3,3E-1,7E-1,8E-1,5E-1,-0E0,1.2525907E-1,1.9E0,-1.8860812E-1,-0E0,-0E0,2.5423667E-1,3.311399E-1,6.67E-2,5.356177E-1,1.1E0,3E-1,1.763595E-1,7.94E-1,7.442E-1,3.7003243E-1,1.8430911E-1,-0E0,-7.013873E-2,2.307E-1,2.7E-1,-0E0,8.696E-1,8E-1,-0E0,-0E0,1.37971295E-2,3.343E-1,1.117E-1,9.829E-1,7.301587E-2,6E-1,-0E0,1.7022063E-1,2.5533092E-1,2.128E-1,-0E0,9.607E-1,-0E0,2.18E-1,4.997987E-2,-0E0,1.1071666E-2,1.8248175E-1,1.1E0,-5.415074E-2,-0E0,-0E0,1.5913328E-2,4.7452375E-2,2.4955559E-1,4.9168694E-1,-0E0,-0E0,8.85E-1,-0E0,1.01645686E-1,1.2E0,7E-1,9.905E-1,-0E0,-0E0,1.0423887E-1,-0E0,3.6239985E-2,-2.842915E-2,-0E0,-1.1133096E-1,-0E0,-1.6267213E-1,-0E0,-9.8963715E-3,-0E0,-8.4512375E-2,-0E0,-5.001715E-2,-0E0,3.701902E-2,-0E0,-9.815263E-2,-0E0,2.9748367E-2,-0E0,-0E0,7.88876E-2,-9.0382285E-2,-0E0,-0E0,-1.9465208E-2,7.254419E-2,-0E0,-0E0,-1.5782434E-1],"split_indices":[6,7,6,5,7,3,0,1,0,0,0,0,0,6,0,0,0,0,5,5,7,2,0,0,1,7,7,2,6,0,0,7,7,0,7,0,0,0,0,7,7,7,6,0,0,6,6,7,0,7,0,7,4,0,0,2,0,0,0,0,4,6,5,2,0,0,7,0,6,0,0,7,0,0,6,0,0,0,0,0,0,0,0,0,0,0,0,0,0,0,0,0,0,0,0,0,0,0,0,0,0,0,0,0,0],"split_type":[0,0,0,0,0,0,0,0,0,0,0,0,0,0,0,0,0,0,0,0,0,0,0,0,0,0,0,0,0,0,0,0,0,0,0,0,0,0,0,0,0,0,0,0,0,0,0,0,0,0,0,0,0,0,0,0,0,0,0,0,0,0,0,0,0,0,0,0,0,0,0,0,0,0,0,0,0,0,0,0,0,0,0,0,0,0,0,0,0,0,0,0,0,0,0,0,0,0,0,0,0,0,0,0,0],"sum_hessian":[4.4170347E3,3.557505E3,8.5952997E2,2.7305015E3,8.2700323E2,6.499654E2,2.0956456E2,2.6929954E3,3.7506187E1,7.898451E2,3.7158142E1,6.486083E2,1.3570837E0,1.7213222E2,3.7432343E1,2.6909905E3,2.0048347E0,2.0471182E0,3.545907E1,2.980667E2,4.917784E2,2.1531853E1,1.5626288E1,2.0878197E2,4.3982632E2,4.4782543E1,1.2734968E2,3.0375704E1,7.056641E0,1.3183179E0,3.414075E1,2.9453146E2,3.5352433E0,2.9918017E0,4.8878662E2,2.032276E1,1.2090927E0,6.660594E0,8.965693E0,9.0119E1,1.18662964E2,4.2879297E2,1.1033362E1,3.8259518E1,6.5230246E0,1.1199315E2,1.5356526E1,2.935401E1,1.0216929E0,4.018625E0,3.038016E0,8.498912E1,2.0954234E2,1.0583212E0,2.476922E0,4.746174E2,1.4169198E1,1.8818745E1,1.5040151E0,8.256086E0,8.1862915E1,7.8024574E1,4.0638386E1,4.2342334E2,5.369624E0,7.0131946E0,4.020168E0,1.608131E1,2.2178205E1,3.6266632E1,7.572652E1,1.2640766E1,2.7157605E0,1.0446637E0,2.8309347E1,1.0135697E0,3.005055E0,7.8901634E1,6.0874805E0,2.085285E2,1.013846E0,4.7258875E2,2.028663E0,8.957703E0,5.2114954E0,8.0278076E1,1.5848377E0,5.0411705E1,2.7612873E1,3.5367718E1,5.270666E0,4.172133E2,6.2100587E0,2.4072874E0,1.6128802E0,2.1026733E0,2.0075533E1,3.391081E1,2.3558254E0,4.3834335E1,3.1892183E1,1.0594906E1,2.04586E0,1.2556608E0,2.7053686E1],"tree_param":{"num_deleted":"0","num_feature":"8","num_nodes":"105","size_leaf_vector":"1"}},{"base_weights":[-4.2964432E-1,-4.982978E-1,-1.6644996E-1,-5.453288E-1,-3.5017124E-1,-2.1509708E-1,-7.0972346E-2,-5.497472E-1,-9.827314E-2,-3.658532E-1,-0E0,-2.3081985E-1,-0E0,-1.0043951E-1,9.051649E-2,-5.501126E-1,-0E0,-0E0,-1.5883248E-1,-1.6718198E-1,-4.1491026E-1,-5.2184723E-2,1.1390909E-2,-1.4197599E-2,-2.574541E-1,-1.22617714E-1,-0E0,1.4322585E-1,-0E0,-5.503108E-1,-0E0,-0E0,-1.744014E-1,-0E0,-2.593941E-1,-4.1773856E-1,-0E0,-1.4065297E-1,-0E0,-0E0,-1.667256E-1,-2.6845407E-1,-0E0,-4.683939E-2,-3.6769688E-1,1.750614E-1,-3.2013178E-2,1.6699561E-1,-0E0,-0E0,-1.65199E-1,-5.3225752E-2,-0E0,-8.3850786E-2,7.6095145E-3,-3.0582967E-1,-0E0,-4.228804E-1,-0E0,-4.4051223E-2,-0E0,-0E0,5.2325975E-2,-2.3781665E-1,-0E0,-2.748423E-1,-0E0,-2.5042337E-1,-0E0,-0E0,-4.4540533E-1,7.7574804E-2,-0E0,1.8627886E-1,-0E0,-3.3911783E-2,-0E0,7.265798E-2,-0E0,-1.0382331E-1,-0E0,-1.2754244E-1,-0E0,-9.842866E-3,-0E0,-0E0,3.4472607E-2,-0E0,-7.431872E-2,-9.759617E-2,-3.0974053E-2,-0E0,-8.1718944E-2,-3.032081E-2,-0E0,-0E0,-1.4477648E-1,6.63957E-2,-0E0],"categories":[],"categories_nodes":[],"categories_segments":[],"categories_sizes":[],"default_left":[0,1,0,0,0,1,0,0,0,0,1,0,0,0,0,0,0,0,0,0,1,0,0,0,1,0,0,1,0,0,0,0,1,0,0,0,0,0,0,0,0,0,0,0,0,1,0,0,0,0,0,0,0,0,0,0,0,0,0,0,0,0,0,0,0,0,0,0,0,0,0,0,0,0,0,0,0,0,0,0,0,0,0,0,0,0,0,0,0,0,0,0,0,0,0,0,0,0,0],"id":9,"left_children":[1,3,5,7,9,11,13,15,17,19,21,23,-1,25,27,29,-1,-1,31,33,35,37,-1,39,41,43,45,47,-1,49,-1,-1,51,53,55,57,-1,59,-1,61,63,65,-1,67,69,71,-1,73,-1,-1,-1,-1,-1,75,77,79,-1,81,-1,-1,-1,83,85,87,-1,89,-1,91,93,-1,95,-1,-1,97,-1,-1,-1,-1,-1,-1,-1,-1,-1,-1,-1,-1,-1,-1,-1,-1,-1,-1,-1,-1,-1,-1,-1,-1,-1],"loss_changes":[6.530817E1,1.522052E1,2.2622757E0,8.3306885E-1,3.8123856E0,1.4332848E0,1.6419647E0,2.850952E-1,5.975075E-1,3.781807E0,1.16530046E-1,1.2954407E0,0E0,1.0659807E0,3.1060648E-1,1.2286377E-1,0E0,0E0,1.6550708E-1,1.6028786E0,5.267868E-1,5.547744E-1,0E0,7.417394E-1,1.4417477E0,2.876491E0,1.0085242E0,1.2202877E-1,0E0,5.7495117E-2,0E0,0E0,7.5900555E-3,3.9432538E-1,2.454113E0,5.4532623E-1,0E0,2.5821984E-2,0E0,1.3108176E-1,7.271641E-1,9.5606613E-1,0E0,1.0751283E0,1.9260559E0,7.541128E-1,0E0,1.2261683E-1,0E0,0E0,0E0,0E0,0E0,5.0344765E-2,9.771569E-1,4.4647026E-1,0E0,6.0824585E-1,0E0,0E0,0E0,1.780395E-2,2.6929766E-1,4.0469527E-2,0E0,8.807564E-1,0E0,1.973567E-1,3.414282E-1,0E0,1.2241888E0,0E0,0E0,2.3855281E-1,0E0,0E0,0E0,0E0,0E0,0E0,0E0,0E0,0E0,0E0,0E0,0E0,0E0,0E0,0E0,0E0,0E0,0E0,0E0,0E0,0E0,0E0,0E0,0E0,0E0],"parents":[2147483647,0,0,1,1,2,2,3,3,4,4,5,5,6,6,7,7,8,8,9,9,10,10,11,11,13,13,14,14,15,15,18,18,19,19,20,20,21,21,23,23,24,24,25,25,26,26,27,27,29,29,32,32,33,33,34,34,35,35,37,37,39,39,40,40,41,41,43,43,44,44,45,45,47,47,53,53,54,54,55,55,57,57,61,61,62,62,63,63,65,65,67,67,68,68,70,70,73,73],"right_children":[2,4,6,8,10,12,14,16,18,20,22,24,-1,26,28,30,-1,-1,32,34,36,38,-1,40,42,44,46,48,-1,50,-1,-1,52,54,56,58,-1,60,-1,62,64,66,-1,68,70,72,-1,74,-1,-1,-1,-1,-1,76,78,80,-1,82,-1,-1,-1,84,86,88,-1,90,-1,92,94,-1,96,-1,-1,98,-1,-1,-1,-1,-1,-1,-1,-1,-1,-1,-1,-1,-1,-1,-1,-1,-1,-1,-1,-1,-1,-1,-1,-1,-1],"split_conditions":[1.21586155E-2,4.44E-2,6.7463435E-2,2.5180495E-1,9.473E-1,8.939E-1,3.0413625E-1,8.042492E-3,3E-1,5E-1,1.1E0,4.452E-1,-0E0,1.9E0,3.900442E-1,1.1435179E-1,-0E0,-0E0,2.5423667E-1,3.486E-1,2E0,5.356177E-1,1.1390909E-2,1.2E0,1.9E0,1.2E0,1.8430911E-1,9.905E-1,-0E0,3.1E-3,-0E0,-0E0,1.9E0,2.153E-1,3.7211445E-1,2.600728E-1,-0E0,1.1E0,-0E0,9.99E-2,4.122E-1,4.6268094E-1,-0E0,3E-1,7.751118E-2,3.009E-1,-3.2013178E-2,8.381531E-1,-0E0,-0E0,-1.65199E-1,-5.3225752E-2,-0E0,4E-1,3E-1,8.085E-1,-0E0,1.9613322E-2,-0E0,-4.4051223E-2,-0E0,1.1E0,2.3304014E-2,3.3E-2,-0E0,3.7995674E-2,-0E0,7.117856E-2,7.229E-1,-0E0,1.346E-1,7.7574804E-2,-0E0,1.4E0,-0E0,-3.3911783E-2,-0E0,7.265798E-2,-0E0,-1.0382331E-1,-0E0,-1.2754244E-1,-0E0,-9.842866E-3,-0E0,-0E0,3.4472607E-2,-0E0,-7.431872E-2,-9.759617E-2,-3.0974053E-2,-0E0,-8.1718944E-2,-3.032081E-2,-0E0,-0E0,-1.4477648E-1,6.63957E-2,-0E0],"split_indices":[6,7,6,5,7,7,2,1,0,0,0,7,0,0,6,4,0,0,5,7,0,2,0,0,0,0,6,7,0,7,0,0,0,7,5,5,0,0,0,7,7,5,0,0,6,7,0,1,0,0,0,0,0,0,0,7,0,4,0,0,0,0,6,7,0,6,0,6,7,0,7,0,0,0,0,0,0,0,0,0,0,0,0,0,0,0,0,0,0,0,0,0,0,0,0,0,0,0,0],"split_type":[0,0,0,0,0,0,0,0,0,0,0,0,0,0,0,0,0,0,0,0,0,0,0,0,0,0,0,0,0,0,0,0,0,0,0,0,0,0,0,0,0,0,0,0,0,0,0,0,0,0,0,0,0,0,0,0,0,0,0,0,0,0,0,0,0,0,0,0,0,0,0,0,0,0,0,0,0,0,0,0,0,0,0,0,0,0,0,0,0,0,0,0,0,0,0,0,0,0,0],"sum_hessian":[3.8234146E3,3.0123909E3,8.1102386E2,2.2465676E3,7.658232E2,4.967731E2,3.1425076E2,2.2119143E3,3.4653282E1,7.294732E2,3.6349953E1,4.573816E2,3.939152E1,2.9417947E2,2.0071283E1,2.2099094E3,2.0048347E0,2.023173E0,3.2630108E1,1.7074953E2,5.587237E2,2.728716E1,9.062794E0,7.180832E1,3.8557327E2,2.659817E2,2.8197792E1,1.8953842E1,1.1174418E0,2.2087185E3,1.1909518E0,1.3183179E0,3.1311789E1,8.009157E1,9.065796E1,5.541079E2,4.615784E0,2.5762388E1,1.5247711E0,5.1553097E1,2.025522E1,3.7406628E2,1.1506979E1,2.2511551E2,4.086617E1,2.0415867E1,7.7819247E0,1.6466997E1,2.486846E0,2.645968E0,2.2060725E3,3.0260693E1,1.051097E0,4.8768574E1,3.1322996E1,8.9491875E1,1.1660795E0,5.4359503E2,1.051285E1,2.4258373E1,1.5040151E0,1.06782255E1,4.0874874E1,1.9253078E1,1.0021425E0,3.692145E2,4.8517847E0,1.8264326E1,2.0685118E2,5.5365024E0,3.532967E1,1.684376E1,3.572107E0,1.5393588E1,1.0734084E0,2.7626333E1,2.114224E1,9.696497E0,2.16265E1,7.208114E1,1.741074E1,5.4111945E2,2.4756162E0,9.539249E0,1.1389763E0,1.7552296E1,2.3322577E1,1.399463E0,1.7853615E1,2.5792993E2,1.1128457E2,1.2517421E0,1.7012585E1,2.6424147E1,1.8042703E2,1.0151447E0,3.431452E1,1.3734238E1,1.6593508E0],"tree_param":{"num_deleted":"0","num_feature":"8","num_nodes":"99","size_leaf_vector":"1"}},{"base_weights":[-3.5353345E-1,-4.174361E-1,-1.3140759E-1,-4.6302631E-1,-2.8122583E-1,-1.4229894E-1,-0E0,-3.25794E-1,-4.9020433E-1,-2.894707E-1,-0E0,-5.2325137E-2,-1.7560455E-1,8.4758334E-2,-0E0,-3.3387238E-1,-0E0,-1.4712784E-1,-0E0,-2.9765072E-1,-0E0,3.552678E-2,-0E0,-2.6451015E-1,-0E0,-1.8717556E-1,-0E0,-0E0,1.3685776E-1,-1.00586824E-1,-0E0,-1.004192E-1,-0E0,-1.8812355E-1,-3.6783037E-1,-1.662068E-2,-0E0,-0E0,1.7909309E-2,-2.989465E-1,-0E0,5.484302E-2,-1.7879286E-3,-2.0065813E-1,-0E0,1.821303E-1,-0E0,-3.1422634E-2,-0E0,-5.5284172E-2,-2.578067E-1,-3.8638404E-1,-0E0,-0E0,-3.458926E-1,-0E0,1.0007693E-1,-4.474528E-2,-0E0,-2.0714349E-1,-0E0,2.1740152E-1,-0E0,9.861516E-3,-3.482382E-2,-8.330198E-2,-0E0,-1.1755266E-1,-0E0,-0E0,-1.1262355E-1,-0E0,4.964457E-2,-3.6107294E-2,-0E0,5.4266725E-2,-1.24837225E-2,-6.336191E-2,-0E0,7.4056275E-2,-0E0],"categories":[],"categories_nodes":[],"categories_segments":[],"categories_sizes":[],"default_left":[0,1,0,0,0,1,0,0,0,0,0,0,0,0,1,0,0,0,0,1,0,0,0,0,0,0,0,0,1,0,0,0,0,0,0,0,0,0,0,0,0,0,0,0,0,0,0,0,0,0,0,0,0,0,0,0,0,1,0,0,0,0,0,0,0,0,0,0,0,0,0,0,0,0,0,0,0,0,0,0,0],"id":10,"left_children":[1,3,5,7,9,11,13,15,17,19,21,23,25,27,29,31,-1,-1,-1,33,35,37,-1,39,41,43,-1,-1,45,47,-1,-1,-1,49,51,-1,-1,-1,-1,53,-1,55,57,59,-1,61,-1,-1,-1,63,65,67,-1,-1,69,-1,71,73,75,77,-1,79,-1,-1,-1,-1,-1,-1,-1,-1,-1,-1,-1,-1,-1,-1,-1,-1,-1,-1,-1],"loss_changes":[4.511664E1,1.16297E1,1.6050844E0,1.9771118E0,2.8262215E0,1.0448456E0,2.0888384E-1,1.4766388E0,6.893921E-2,1.1928711E0,1.4076638E-2,3.7660446E0,1.3630629E0,2.9695952E-1,1.9021195E-1,9.611511E-2,0E0,0E0,0E0,1.9017906E0,6.6591136E-2,2.1063361E-2,0E0,1.1276798E0,2.1132083E-1,1.5501156E0,0E0,0E0,3.117478E-1,1.9927174E-3,0E0,0E0,0E0,1.154458E0,2.9823494E0,0E0,0E0,0E0,0E0,6.8490505E-1,0E0,4.058761E-1,1.6172561E-1,1.0951233E0,0E0,2.8541368E-1,0E0,0E0,0E0,1.1845446E0,1.7054119E0,3.840599E-1,0E0,0E0,7.1474266E-1,0E0,7.4217254E-1,7.111517E-1,9.715218E-1,5.7159996E-1,0E0,1.9122148E-1,0E0,0E0,0E0,0E0,0E0,0E0,0E0,0E0,0E0,0E0,0E0,0E0,0E0,0E0,0E0,0E0,0E0,0E0,0E0],"parents":[2147483647,0,0,1,1,2,2,3,3,4,4,5,5,6,6,7,7,8,8,9,9,10,10,11,11,12,12,13,13,14,14,15,15,19,19,20,20,21,21,23,23,24,24,25,25,28,28,29,29,33,33,34,34,39,39,41,41,42,42,43,43,45,45,49,49,50,50,51,51,54,54,56,56,57,57,58,58,59,59,61,61],"right_children":[2,4,6,8,10,12,14,16,18,20,22,24,26,28,30,32,-1,-1,-1,34,36,38,-1,40,42,44,-1,-1,46,48,-1,-1,-1,50,52,-1,-1,-1,-1,54,-1,56,58,60,-1,62,-1,-1,-1,64,66,68,-1,-1,70,-1,72,74,76,78,-1,80,-1,-1,-1,-1,-1,-1,-1,-1,-1,-1,-1,-1,-1,-1,-1,-1,-1,-1,-1],"split_conditions":[1.21586155E-2,4.44E-2,3.5278225E-1,5E-1,1.8248175E-1,5E-1,4.8684618E-1,2.873081E-1,3.497567E-1,9.683E-1,1.2E0,3E-1,2.6119748E-1,7.442E-1,8.622E-1,4.813011E-2,-0E0,-1.4712784E-1,-0E0,7E-1,1E0,6.272E-1,-0E0,1.5490598E-2,4E-1,1.9E0,-0E0,-0E0,1.2E0,3.1593123E-1,-0E0,-1.004192E-1,-0E0,3.038E-1,8.696E-1,-1.662068E-2,-0E0,-0E0,1.7909309E-2,1.8237924E-2,-0E0,1.8237924E-2,6.7463435E-2,8.519319E-1,-0E0,8.574083E-1,-0E0,-3.1422634E-2,-0E0,3E-1,3.7211445E-1,2.528992E-1,-0E0,-0E0,3.17E-1,-0E0,8.696E-1,2.974E-1,1.0423887E-1,3.844982E-2,-0E0,7.198834E-1,-0E0,9.861516E-3,-3.482382E-2,-8.330198E-2,-0E0,-1.1755266E-1,-0E0,-0E0,-1.1262355E-1,-0E0,4.964457E-2,-3.6107294E-2,-0E0,5.4266725E-2,-1.24837225E-2,-6.336191E-2,-0E0,7.4056275E-2,-0E0],"split_indices":[6,7,5,0,2,0,5,5,2,7,0,0,5,7,7,4,0,0,0,0,0,7,0,4,0,0,0,0,0,6,0,0,0,7,7,0,0,0,0,6,0,6,6,2,0,2,0,0,0,0,5,5,0,0,7,0,7,7,6,3,0,1,0,0,0,0,0,0,0,0,0,0,0,0,0,0,0,0,0,0,0],"split_type":[0,0,0,0,0,0,0,0,0,0,0,0,0,0,0,0,0,0,0,0,0,0,0,0,0,0,0,0,0,0,0,0,0,0,0,0,0,0,0,0,0,0,0,0,0,0,0,0,0,0,0,0,0,0,0,0,0,0,0,0,0,0,0,0,0,0,0,0,0,0,0,0,0,0,0,0,0,0,0,0,0],"sum_hessian":[3.391859E3,2.6118113E3,7.8004767E2,1.916759E3,6.9505206E2,7.434468E2,3.6600857E1,3.6229178E2,1.5544673E3,6.893576E2,5.69446E0,2.4627278E2,4.97174E2,2.2076359E1,1.4524497E1,3.5788406E2,4.4076867E0,1.5533422E3,1.1251903E0,6.6507324E2,2.4284397E1,4.152887E0,1.5415733E0,5.673823E1,1.8953455E2,4.7567175E2,2.1502237E1,2.0693116E0,2.0007048E1,1.1799906E1,2.7245913E0,3.5687317E2,1.0109206E0,2.97611E2,3.6746222E2,1.4695084E1,9.5893135E0,1.2926668E0,2.86022E0,5.5517925E1,1.2203094E0,6.3116817E1,1.26417725E2,4.5148688E2,2.4184902E1,1.7647434E1,2.3596132E0,1.0519485E1,1.2804198E0,1.3140878E2,1.6620222E2,3.523398E2,1.51224165E1,1.0094145E1,4.542378E1,8.534566E0,5.4582253E1,7.398939E1,5.2428337E1,4.487495E2,2.7373424E0,1.6337389E1,1.3100446E0,2.1379438E1,1.1002934E2,1.6442355E2,1.7786721E0,3.4490005E2,7.4397597E0,2.848723E0,4.2575054E1,1.1957281E1,4.2624973E1,5.3286213E1,2.0703178E1,2.0638443E1,3.1789894E1,4.4419794E2,4.551585E0,1.4238753E1,2.098636E0],"tree_param":{"num_deleted":"0","num_feature":"8","num_nodes":"81","size_leaf_vector":"1"}},{"base_weights":[-2.8268793E-1,-3.4042123E-1,-9.666345E-2,-3.8272077E-1,-2.1931313E-1,-1.2361221E-1,-0E0,-3.8727638E-1,-0E0,-2.276324E-1,-0E0,-1.2706731E-1,-0E0,5.6603312E-2,-4.1538727E-2,-2.6262966E-1,-1.2370326E-1,-0E0,-2.981461E-2,-2.4237946E-1,-0E0,3.0775422E-2,-0E0,-1.3218968E-1,-0E0,1.3131167E-1,-0E0,-9.833911E-2,1.0247617E-1,-9.974293E-2,-3.141187E-2,-0E0,-2.4777396E-2,-1.4919561E-1,-3.1534114E-1,-1.554863E-1,1.171843E-1,-0E0,1.6265297E-2,-1.34262E-1,-0E0,-0E0,2.1109664E-1,-0E0,-1.1615183E-2,-0E0,-1.9355549E-1,5.426894E-2,-0E0,-1.8344454E-1,-0E0,-0E0,-3.44608E-1,-0E0,-2.6029792E-1,-1.3590306E-1,-0E0,-0E0,8.604909E-2,4.587694E-2,-3.1454246E-2,-2.3618639E-1,-0E0,-1.0973077E-2,-8.32411E-2,-1.004368E-2,2.4987277E-2,-1.05410784E-1,-0E0,-4.6314527E-3,2.4330022E-2,-9.334995E-2,-0E0,-4.175894E-2,-0E0,-0E0,4.3953683E-2,-7.872766E-2,-0E0],"categories":[],"categories_nodes":[],"categories_segments":[],"categories_sizes":[],"default_left":[0,1,0,0,0,0,0,0,0,1,0,1,0,1,1,0,0,0,0,1,0,0,0,0,0,1,1,0,0,0,0,0,0,1,0,0,0,0,0,0,0,0,0,0,0,1,0,0,0,0,0,0,0,0,0,1,0,0,0,0,0,1,0,0,0,0,0,0,0,0,0,0,0,0,0,0,0,0,0],"id":11,"left_children":[1,3,5,7,9,11,13,15,17,19,21,23,-1,25,27,29,-1,-1,31,33,35,37,-1,39,-1,41,43,45,47,-1,-1,-1,-1,49,51,53,-1,-1,-1,55,-1,-1,57,-1,-1,59,61,-1,-1,63,65,-1,67,69,71,73,-1,-1,-1,75,-1,77,-1,-1,-1,-1,-1,-1,-1,-1,-1,-1,-1,-1,-1,-1,-1,-1,-1],"loss_changes":[3.0610779E1,8.305267E0,1.5898275E0,1.4765778E0,2.1137638E0,4.70706E-1,4.3415102E-1,1.0307312E0,3.0701201E-2,9.514427E-1,1.0605338E-2,2.7692413E-1,0E0,6.514785E-1,1.2760072E0,1.2035866E0,0E0,0E0,1.2195751E-1,1.3122864E0,3.3022175E0,1.8510107E-2,0E0,2.6502037E-1,0E0,6.4788055E-1,1.8358432E-2,1.4797771E0,3.876134E-1,0E0,0E0,0E0,0E0,1.5945859E0,1.8301315E0,1.2538989E0,0E0,0E0,0E0,2.0021057E-1,0E0,0E0,8.907242E-1,0E0,0E0,2.9958162E-1,1.1189742E0,0E0,0E0,1.7482252E0,2.0710254E-1,0E0,1.0400448E0,1.0643176E-1,5.8062243E-1,2.7045345E-1,0E0,0E0,0E0,6.826162E-1,0E0,8.1648445E-1,0E0,0E0,0E0,0E0,0E0,0E0,0E0,0E0,0E0,0E0,0E0,0E0,0E0,0E0,0E0,0E0,0E0],"parents":[2147483647,0,0,1,1,2,2,3,3,4,4,5,5,6,6,7,7,8,8,9,9,10,10,11,11,13,13,14,14,15,15,18,18,19,19,20,20,21,21,23,23,25,25,26,26,27,27,28,28,33,33,34,34,35,35,39,39,42,42,45,45,46,46,49,49,50,50,52,52,53,53,54,54,55,55,59,59,61,61],"right_children":[2,4,6,8,10,12,14,16,18,20,22,24,-1,26,28,30,-1,-1,32,34,36,38,-1,40,-1,42,44,46,48,-1,-1,-1,-1,50,52,54,-1,-1,-1,56,-1,-1,58,-1,-1,60,62,-1,-1,64,66,-1,68,70,72,74,-1,-1,-1,76,-1,78,-1,-1,-1,-1,-1,-1,-1,-1,-1,-1,-1,-1,-1,-1,-1,-1,-1],"split_conditions":[1.21586155E-2,4.44E-2,1.01645686E-1,2.5180495E-1,1.8248175E-1,4.8201513E-1,1.2525907E-1,5E-1,3E-1,1.5E0,1.2E0,1.8E0,-0E0,7.94E-1,8.622E-1,4E-1,-1.2370326E-1,-0E0,3.0718744E-1,7E-1,8.085E-1,6.272E-1,-0E0,9.435086E-2,-0E0,5E-1,4E-1,7E-1,2.5533092E-1,-9.974293E-2,-3.141187E-2,-0E0,-2.4777396E-2,6E-1,9E-2,1.7E0,1.171843E-1,-0E0,1.6265297E-2,8.3442485E-1,-0E0,-0E0,7.52E-1,-0E0,-1.1615183E-2,6.86E-2,2.010623E-2,5.426894E-2,-0E0,3.525E-1,5.593E-1,-0E0,1.9613322E-2,1.6E0,4.235E-1,9.829E-1,-0E0,-0E0,8.604909E-2,1.9483338E-1,-3.1454246E-2,2E0,-0E0,-1.0973077E-2,-8.32411E-2,-1.004368E-2,2.4987277E-2,-1.05410784E-1,-0E0,-4.6314527E-3,2.4330022E-2,-9.334995E-2,-0E0,-4.175894E-2,-0E0,-0E0,4.3953683E-2,-7.872766E-2,-0E0],"split_indices":[6,7,6,5,2,3,6,0,0,0,0,0,0,7,7,0,0,0,5,0,7,7,0,4,0,0,0,0,6,0,0,0,0,0,7,0,0,0,0,1,0,0,7,0,0,7,1,0,0,7,7,0,4,0,7,7,0,0,0,6,0,0,0,0,0,0,0,0,0,0,0,0,0,0,0,0,0,0,0],"split_type":[0,0,0,0,0,0,0,0,0,0,0,0,0,0,0,0,0,0,0,0,0,0,0,0,0,0,0,0,0,0,0,0,0,0,0,0,0,0,0,0,0,0,0,0,0,0,0,0,0,0,0,0,0,0,0,0,0,0,0,0,0,0,0,0,0,0,0,0,0,0,0,0,0,0,0,0,0,0,0],"sum_hessian":[3.0681516E3,2.3165232E3,7.516284E2,1.675065E3,6.414583E2,5.6095355E2,1.9067491E2,1.6455698E3,2.9495092E1,6.3571936E2,5.7389545E0,5.596399E2,1.3136485E0,4.7780617E1,1.428943E2,3.2237817E2,1.3231917E3,1.957098E0,2.7537994E1,5.760842E2,5.96351E1,4.1973815E0,1.5415733E0,5.324237E2,2.7216188E1,4.0961704E1,6.8189096E0,1.2896747E2,1.3926834E1,1.9620302E2,1.26175156E2,1.2158368E1,1.5379626E1,2.9243747E2,2.8364676E2,5.4781723E1,4.85338E0,1.2926668E0,2.9047146E0,5.30602E2,1.8216752E0,1.4864458E1,2.6097246E1,1.5720158E0,5.246894E0,6.1371E1,6.7596466E1,1.1560764E1,2.36607E0,2.3845013E2,5.3987347E1,3.1860687E1,2.5178606E2,2.1230728E1,3.3550995E1,5.2853705E2,2.064942E0,4.3437486E0,2.1753498E1,5.2513214E1,8.857784E0,6.3156948E1,4.439521E0,1.1762331E2,1.2082683E2,3.8482613E1,1.5504737E1,2.5034654E2,1.4395196E0,1.2765078E1,8.4656515E0,2.7373043E1,6.17795E0,5.174537E2,1.1083396E1,2.1877928E1,3.0635286E1,6.1684696E1,1.4722495E0],"tree_param":{"num_deleted":"0","num_feature":"8","num_nodes":"79","size_leaf_vector":"1"}},{"base_weights":[-2.2233836E-1,-2.726679E-1,-6.925322E-2,-2.8790054E-1,-0E0,-3.6041524E-2,-1.7870982E-1,-1.417437E-1,-3.141791E-1,-1.1225169E-1,3.254314E-2,-6.0192335E-2,5.5461243E-2,-2.351307E-1,-0E0,-0E0,-1.7520611E-1,-1.8553185E-1,-3.4400186E-1,-0E0,-1.4623787E-1,8.9422524E-2,-0E0,-8.486496E-2,6.708214E-3,-6.5197274E-2,2.1319385E-1,-2.6361975E-1,-0E0,-0E0,8.439032E-2,-1.788137E-1,-0E0,-1.9967131E-1,-0E0,-3.6581808E-1,-1.620719E-1,-4.9883906E-2,-0E0,5.4065727E-2,-0E0,-3.242348E-2,1.6596588E-1,-0E0,-1.055905E-1,7.5688876E-2,-0E0,-1.0950295E-1,-0E0,2.697483E-1,-0E0,-2.7393273E-1,-0E0,-3.2424916E-2,-0E0,-5.420234E-2,-0E0,-0E0,-2.1242897E-1,-3.6672217E-1,-0E0,-3.4383126E-2,-3.019395E-1,-0E0,-7.996148E-2,-0E0,8.8824116E-2,1.4385179E-1,-5.5022996E-2,-1.6690323E-1,-0E0,1.4390095E-1,-0E0,-6.17161E-2,-0E0,-0E0,-1.4732608E-1,2.9144073E-1,-0E0,-8.779025E-2,-0E0,-0E0,-1.7785039E-2,-8.014448E-2,-2.5473697E-2,-1.1008708E-1,-0E0,-3.081649E-2,5.510827E-3,-9.814137E-2,-0E0,-4.9855143E-2,-0E0,6.0442936E-2,-0E0,-0E0,-3.2320697E-2,-5.391312E-2,-0E0,-1.2490121E-2,1.3366583E-2,-0E0,6.267022E-2,-0E0,-3.9810844E-2,-5.0112434E-2,-0E0,-0E0,9.474896E-2],"categories":[],"categories_nodes":[],"categories_segments":[],"categories_sizes":[],"default_left":[0,1,1,0,1,1,0,1,0,0,0,1,0,0,0,0,0,0,1,0,0,0,0,0,0,1,1,1,0,0,0,0,0,0,0,0,0,0,0,0,0,0,0,0,0,0,0,0,0,0,0,0,0,0,0,0,0,0,0,0,0,0,1,0,0,0,0,0,0,0,1,1,0,0,0,0,0,0,0,0,0,0,0,0,0,0,0,0,0,0,0,0,0,0,0,0,0,0,0,0,0,0,0,0,0,0,0,0,0],"id":12,"left_children":[1,3,5,7,9,11,13,15,17,19,21,23,25,27,-1,29,31,33,35,-1,37,39,41,43,45,47,49,51,-1,53,-1,55,-1,57,-1,59,61,-1,-1,-1,-1,63,65,67,69,71,73,75,-1,77,-1,79,-1,81,-1,-1,-1,-1,83,85,-1,87,89,-1,91,-1,-1,93,95,97,99,101,-1,103,-1,-1,105,107,-1,-1,-1,-1,-1,-1,-1,-1,-1,-1,-1,-1,-1,-1,-1,-1,-1,-1,-1,-1,-1,-1,-1,-1,-1,-1,-1,-1,-1,-1,-1],"loss_changes":[2.0069916E1,7.3804474E0,1.5625837E0,5.0312653E0,9.0798455E-1,1.3944337E0,1.7655873E0,2.3384786E0,3.2261963E0,5.169496E-1,8.7260455E-2,1.2679282E0,2.5070055E0,1.4101415E0,0E0,1.0761719E0,2.1376896E-1,1.7324924E0,2.0959778E0,0E0,3.467363E-1,4.4768056E-1,4.5929337E-1,1.119144E0,2.8581423E-1,2.5790438E-1,1.2347527E0,4.491992E-1,0E0,3.3236247E-2,0E0,1.2687206E-1,0E0,8.9868927E-1,0E0,5.8924866E-1,1.389998E0,0E0,0E0,0E0,0E0,2.3391888E-1,7.061565E-1,8.4182894E-1,2.3746634E0,6.0284567E-1,1.5808381E-1,3.1393492E-1,0E0,5.501151E-1,0E0,9.007931E-2,0E0,7.4339226E-2,0E0,0E0,0E0,0E0,3.8673592E-1,5.2246094E-2,0E0,8.6260676E-1,6.538062E-1,0E0,4.5532423E-1,0E0,0E0,6.357123E-1,1.8425182E-1,9.323683E-1,2.9473072E-1,8.406103E-1,0E0,5.0946486E-1,0E0,0E0,1.6504502E-1,5.0335026E-1,0E0,0E0,0E0,0E0,0E0,0E0,0E0,0E0,0E0,0E0,0E0,0E0,0E0,0E0,0E0,0E0,0E0,0E0,0E0,0E0,0E0,0E0,0E0,0E0,0E0,0E0,0E0,0E0,0E0,0E0,0E0],"parents":[2147483647,0,0,1,1,2,2,3,3,4,4,5,5,6,6,7,7,8,8,9,9,10,10,11,11,12,12,13,13,15,15,16,16,17,17,18,18,20,20,21,21,22,22,23,23,24,24,25,25,26,26,27,27,29,29,31,31,33,33,35,35,36,36,41,41,42,42,43,43,44,44,45,45,46,46,47,47,49,49,51,51,53,53,58,58,59,59,61,61,62,62,64,64,67,67,68,68,69,69,70,70,71,71,73,73,76,76,77,77],"right_children":[2,4,6,8,10,12,14,16,18,20,22,24,26,28,-1,30,32,34,36,-1,38,40,42,44,46,48,50,52,-1,54,-1,56,-1,58,-1,60,62,-1,-1,-1,-1,64,66,68,70,72,74,76,-1,78,-1,80,-1,82,-1,-1,-1,-1,84,86,-1,88,90,-1,92,-1,-1,94,96,98,100,102,-1,104,-1,-1,106,108,-1,-1,-1,-1,-1,-1,-1,-1,-1,-1,-1,-1,-1,-1,-1,-1,-1,-1,-1,-1,-1,-1,-1,-1,-1,-1,-1,-1,-1,-1,-1],"split_conditions":[1.21586155E-2,6.397E-1,1.2E0,3.038E-1,6E-1,1E0,1.9E0,3E-1,5E-1,6.583E-1,7.093E-1,7.229E-1,3.1391103E-2,4.9168694E-1,-0E0,2.504E-1,2.600728E-1,2.873081E-1,1.5E0,-0E0,2.2810219E-1,1.4E0,1.5E0,4.362E-1,9.241E-1,7.373E-1,7.579E-1,9.54E-1,-0E0,1.67E-1,8.439032E-2,2E0,-0E0,4.404E-1,-0E0,1.296852E-1,1.9E0,-4.9883906E-2,-0E0,5.4065727E-2,-0E0,7E-1,8.085E-1,3.1391103E-2,8.055083E-2,2.4955559E-1,1.2766546E-1,8.02E-2,-0E0,4.3841568E-1,-0E0,1.8E0,-0E0,1.03E-2,-0E0,-5.420234E-2,-0E0,-0E0,4E-1,5.356177E-1,-0E0,1.8E0,3.448E-1,-0E0,9.084E-1,-0E0,8.8824116E-2,2.4955559E-1,5E-1,4.5936772E-1,6E-1,2E-1,-0E0,1.519827E-2,-0E0,-0E0,2.6603052E-1,1.951E-1,-0E0,-8.779025E-2,-0E0,-0E0,-1.7785039E-2,-8.014448E-2,-2.5473697E-2,-1.1008708E-1,-0E0,-3.081649E-2,5.510827E-3,-9.814137E-2,-0E0,-4.9855143E-2,-0E0,6.0442936E-2,-0E0,-0E0,-3.2320697E-2,-5.391312E-2,-0E0,-1.2490121E-2,1.3366583E-2,-0E0,6.267022E-2,-0E0,-3.9810844E-2,-5.0112434E-2,-0E0,-0E0,9.474896E-2],"split_indices":[6,7,0,7,0,0,0,0,0,7,7,7,6,2,0,7,5,5,0,0,2,0,0,7,7,7,7,7,0,7,0,0,0,7,0,1,0,0,0,0,0,0,7,6,6,5,6,7,0,5,0,0,0,7,0,0,0,0,0,2,0,0,7,0,7,0,0,5,0,5,0,0,0,6,0,0,5,7,0,0,0,0,0,0,0,0,0,0,0,0,0,0,0,0,0,0,0,0,0,0,0,0,0,0,0,0,0,0,0],"split_type":[0,0,0,0,0,0,0,0,0,0,0,0,0,0,0,0,0,0,0,0,0,0,0,0,0,0,0,0,0,0,0,0,0,0,0,0,0,0,0,0,0,0,0,0,0,0,0,0,0,0,0,0,0,0,0,0,0,0,0,0,0,0,0,0,0,0,0,0,0,0,0,0,0,0,0,0,0,0,0,0,0,0,0,0,0,0,0,0,0,0,0,0,0,0,0,0,0,0,0,0,0,0,0,0,0,0,0,0,0],"sum_hessian":[2.8369392E3,2.1063188E3,7.306204E2,1.9776487E3,1.2867007E2,6.0272473E2,1.2789569E2,3.372041E2,1.6404446E3,5.8580425E1,7.008965E1,5.219912E2,8.073351E1,1.0286016E2,2.5035524E1,4.274389E1,2.944602E2,3.4978262E2,1.290662E3,2.7672544E0,5.581317E1,1.4122378E1,5.5967278E1,4.3457867E2,8.7412544E1,3.0108915E1,5.06246E1,1.0068946E2,2.1707044E0,3.6143887E1,6.6000023E0,2.8910458E2,5.3556395E0,3.4449664E2,5.286003E0,1.1216056E3,1.6905635E2,5.412455E1,1.6886219E0,1.1984108E1,2.13827E0,4.8407497E1,7.559781E0,5.5958057E1,3.786206E2,4.363233E1,4.3780212E1,2.7663189E1,2.4457264E0,4.596405E1,4.6605477E0,9.871974E1,1.9697182E0,2.4612173E1,1.1531715E1,2.869235E2,2.1810958E0,2.10362E1,3.2346042E2,1.1204291E3,1.17651E0,1.1162231E2,5.7434036E1,9.712282E0,3.8695213E1,1.92967E0,5.630111E0,2.8663744E1,2.7294313E1,2.3258643E2,1.460342E2,3.6120094E1,7.5122375E0,3.4504055E1,9.276158E0,1.0498067E0,2.6613382E1,4.4849754E1,1.1142956E0,8.669091E1,1.2028831E1,1.0033869E0,2.3608786E1,1.9353574E2,1.2992468E2,1.1193751E3,1.0539788E0,8.703019E1,2.459212E1,5.3999275E1,3.434761E0,2.0066319E1,1.8628895E1,2.6841366E1,1.822379E0,9.474844E0,1.781947E1,2.2852432E2,4.0620956E0,8.4200645E1,6.183355E1,3.3964872E0,3.2723606E1,3.5967677E0,3.0907286E1,2.5062065E1,1.5513179E0,2.65253E0,4.2197224E1],"tree_param":{"num_deleted":"0","num_feature":"8","num_nodes":"109","size_leaf_vector":"1"}},{"base_weights":[-1.7126048E-1,-2.1278714E-1,-5.0446775E-2,-2.281159E-1,-3.2867698E-3,-2.6980208E-3,-8.558361E-2,-8.866019E-2,-2.4890484E-1,-9.6860565E-2,1.9192327E-2,-1.4097537E-1,7.5292806E-3,-1.8420282E-1,-1.6992238E-3,-1.4418218E-1,-0E0,-1.33861E-1,-2.7643695E-1,-1.4124209E-1,-0E0,9.908922E-2,-0E0,-1.7549065E-1,-0E0,-0E0,5.6396034E-2,-0E0,-2.8277954E-1,3.2210347E-1,-8.1032E-2,-1.8352184E-1,-0E0,1.2949488E-1,-1.2320904E-2,-0E0,-1.5767193E-1,-2.8132537E-1,-0E0,-1.6005322E-1,-0E0,5.5520356E-2,-0E0,-3.6294546E-2,1.0283083E-1,-2.1197613E-1,-0E0,1.669924E-2,-1.0138494E-1,-0E0,1.06693484E-1,-0E0,-2.995968E-1,4.0648475E-1,-0E0,-1.1108358E-1,-0E0,-0E0,-1.951359E-1,-0E0,-4.5968104E-2,6.4960845E-2,-0E0,-0E0,-9.118856E-2,5.0591722E-2,-2.1748967E-2,-1.6488515E-1,-0E0,-3.3407003E-1,-2.0587628E-1,-0E0,-1.8065903E-1,-0E0,-7.8689076E-2,-0E0,7.388045E-2,-0E0,-2.566898E-1,-0E0,3.0851856E-1,-0E0,-1.992009E-1,-0E0,-3.0518524E-2,-0E0,2.4309282E-1,-3.026917E-1,-0E0,-0E0,1.3225773E-1,-1.338234E-1,-0E0,2.4427459E-2,-0E0,-5.9070412E-2,-0E0,1.4250225E-2,-0E0,-1.4667434E-2,-0E0,-4.1148745E-2,-0E0,-2.893678E-2,-0E0,-4.960263E-2,-0E0,-1.00577265E-1,-0E0,-0E0,-7.138846E-2,-7.346377E-2,-0E0,-4.9257144E-2,-0E0,-0E0,-8.5434854E-2,1.1331576E-2,-3.6045313E-2,1.21937595E-1,-0E0,-7.001917E-2,-0E0,5.0858017E-3,-0E0,-0E0,8.519529E-2,-9.145706E-2,-0E0,-4.4082947E-2,-0E0,2.9918015E-2,-0E0],"categories":[],"categories_nodes":[],"categories_segments":[],"categories_sizes":[],"default_left":[0,1,1,0,1,0,0,0,0,0,0,0,0,0,0,0,0,0,0,0,0,0,0,0,0,0,0,0,0,1,1,0,1,0,0,0,0,0,0,0,0,0,0,0,0,0,0,0,1,0,1,0,0,0,0,0,0,0,0,0,0,0,0,0,0,0,0,0,0,1,0,0,1,0,0,0,0,0,0,0,1,0,0,0,0,0,0,0,0,0,0,0,0,0,0,0,0,0,0,0,0,0,0,0,0,0,0,0,0,0,0,0,0,0,0,0,0,0,0,0,0,0,0,0,0,0,0,0,0,0,0,0,0],"id":13,"left_children":[1,3,5,7,9,11,13,15,17,19,21,23,25,27,29,31,33,35,37,39,-1,41,43,45,-1,47,49,-1,51,53,55,57,59,61,63,65,67,69,-1,71,-1,-1,-1,73,75,77,-1,79,81,83,85,-1,87,89,-1,91,93,-1,95,97,99,-1,-1,-1,101,-1,103,105,-1,107,109,-1,111,-1,113,-1,-1,-1,115,117,119,-1,121,-1,-1,123,125,127,-1,-1,-1,129,-1,131,-1,-1,-1,-1,-1,-1,-1,-1,-1,-1,-1,-1,-1,-1,-1,-1,-1,-1,-1,-1,-1,-1,-1,-1,-1,-1,-1,-1,-1,-1,-1,-1,-1,-1,-1,-1,-1,-1,-1],"loss_changes":[1.2019371E1,5.1201935E0,7.712258E-1,3.3778458E0,7.4363226E-1,1.2040825E0,2.016503E0,1.6831942E0,2.541687E0,7.775155E-1,1.9171153E-1,6.163914E-1,3.406269E-1,2.4865222E0,4.809566E0,3.1850886E-1,4.3175572E-1,1.492856E0,1.371109E0,3.0944502E-1,0E0,3.501817E-1,2.8492454E-1,7.2145534E-1,0E0,7.109217E-1,7.0132494E-1,0E0,7.636666E-1,1.3587265E0,7.7462983E-1,2.607131E-1,8.0305845E-2,6.465752E-1,3.311183E-1,5.518016E-1,5.971265E-1,1.4773941E0,0E0,2.7198744E-1,0E0,0E0,0E0,1.9541511E-1,5.952594E-1,5.5209184E-1,0E0,2.0020726E0,4.3255085E-1,1.6292162E-1,7.4491215E-1,0E0,7.069445E-2,4.7267628E-1,0E0,8.690419E-1,1.8302126E-2,0E0,3.7112236E-3,6.4095E-2,7.4260384E-3,0E0,0E0,0E0,3.2487065E-1,0E0,2.544067E-1,1.8092155E-2,0E0,3.0142975E-1,2.8053474E0,0E0,2.395916E-1,0E0,4.457064E-1,0E0,0E0,0E0,4.8197508E-1,1.0115254E0,1.0157013E0,0E0,3.481965E-1,0E0,0E0,5.6205224E-3,3.9319932E-1,1.600504E-2,0E0,0E0,0E0,5.4546475E-1,0E0,2.4927203E-1,0E0,0E0,0E0,0E0,0E0,0E0,0E0,0E0,0E0,0E0,0E0,0E0,0E0,0E0,0E0,0E0,0E0,0E0,0E0,0E0,0E0,0E0,0E0,0E0,0E0,0E0,0E0,0E0,0E0,0E0,0E0,0E0,0E0,0E0,0E0,0E0,0E0,0E0,0E0],"parents":[2147483647,0,0,1,1,2,2,3,3,4,4,5,5,6,6,7,7,8,8,9,9,10,10,11,11,12,12,13,13,14,14,15,15,16,16,17,17,18,18,19,19,21,21,22,22,23,23,25,25,26,26,28,28,29,29,30,30,31,31,32,32,33,33,34,34,35,35,36,36,37,37,39,39,43,43,44,44,45,45,47,47,48,48,49,49,50,50,52,52,53,53,55,55,56,56,58,58,59,59,60,60,64,64,66,66,67,67,69,69,70,70,72,72,74,74,78,78,79,79,80,80,82,82,85,85,86,86,87,87,91,91,93,93],"right_children":[2,4,6,8,10,12,14,16,18,20,22,24,26,28,30,32,34,36,38,40,-1,42,44,46,-1,48,50,-1,52,54,56,58,60,62,64,66,68,70,-1,72,-1,-1,-1,74,76,78,-1,80,82,84,86,-1,88,90,-1,92,94,-1,96,98,100,-1,-1,-1,102,-1,104,106,-1,108,110,-1,112,-1,114,-1,-1,-1,116,118,120,-1,122,-1,-1,124,126,128,-1,-1,-1,130,-1,132,-1,-1,-1,-1,-1,-1,-1,-1,-1,-1,-1,-1,-1,-1,-1,-1,-1,-1,-1,-1,-1,-1,-1,-1,-1,-1,-1,-1,-1,-1,-1,-1,-1,-1,-1,-1,-1,-1,-1],"split_conditions":[1.21586155E-2,5.593E-1,7E-1,2.417E-1,6E-1,3E-1,3.3436194E-2,1.557E-1,5E-1,3.7211445E-1,7E-1,1.5490598E-2,9.2077404E-2,1.8237924E-2,4.086646E-2,1.2E0,1.717E-1,4.404E-1,2.4967718E-1,9.829E-1,-0E0,8.085E-1,1.5E0,3.7059462E-1,-0E0,6.079308E-2,9.313E-1,-0E0,5.03E-2,6.334E-1,6.04E-1,1.88E-2,1.4E0,1.7E0,9E-1,3E-1,2.873081E-1,1.1E0,-0E0,6.04E-1,-0E0,5.5520356E-2,-0E0,7.028E-1,8.085E-1,1.8237924E-2,-0E0,4.838116E-2,5E-1,1.4955604E-1,6E-1,-0E0,1.51218E-2,2.56E-1,-0E0,2E0,9.607E-1,-0E0,2.6511863E-1,1.059E-1,2E0,6.4960845E-2,-0E0,-0E0,2.282E-1,5.0591722E-2,4.196E-1,4.310593E-2,-0E0,5.485E-1,1.2E0,-0E0,4E-1,-0E0,9.084E-1,-0E0,7.388045E-2,-0E0,3.17E-1,3.039654E-2,8.085E-1,-0E0,7.198834E-1,-0E0,-3.0518524E-2,1.124672E-1,1.0638789E-1,1.09467255E-2,-0E0,-0E0,1.3225773E-1,1.9768856E-1,-0E0,1.4E0,-0E0,-5.9070412E-2,-0E0,1.4250225E-2,-0E0,-1.4667434E-2,-0E0,-4.1148745E-2,-0E0,-2.893678E-2,-0E0,-4.960263E-2,-0E0,-1.00577265E-1,-0E0,-0E0,-7.138846E-2,-7.346377E-2,-0E0,-4.9257144E-2,-0E0,-0E0,-8.5434854E-2,1.1331576E-2,-3.6045313E-2,1.21937595E-1,-0E0,-7.001917E-2,-0E0,5.0858017E-3,-0E0,-0E0,8.519529E-2,-9.145706E-2,-0E0,-4.4082947E-2,-0E0,2.9918015E-2,-0E0],"split_indices":[6,7,0,7,0,0,6,7,0,5,0,4,6,6,6,0,7,7,5,7,0,7,0,5,0,6,7,0,7,7,7,7,0,0,0,0,5,0,0,7,0,0,0,7,7,6,0,6,0,6,0,0,4,7,0,0,7,0,5,7,0,0,0,0,7,0,7,4,0,7,0,0,0,0,7,0,0,0,7,6,7,0,1,0,0,6,6,1,0,0,0,2,0,0,0,0,0,0,0,0,0,0,0,0,0,0,0,0,0,0,0,0,0,0,0,0,0,0,0,0,0,0,0,0,0,0,0,0,0,0,0,0,0],"split_type":[0,0,0,0,0,0,0,0,0,0,0,0,0,0,0,0,0,0,0,0,0,0,0,0,0,0,0,0,0,0,0,0,0,0,0,0,0,0,0,0,0,0,0,0,0,0,0,0,0,0,0,0,0,0,0,0,0,0,0,0,0,0,0,0,0,0,0,0,0,0,0,0,0,0,0,0,0,0,0,0,0,0,0,0,0,0,0,0,0,0,0,0,0,0,0,0,0,0,0,0,0,0,0,0,0,0,0,0,0,0,0,0,0,0,0,0,0,0,0,0,0,0,0,0,0,0,0,0,0,0,0,0,0],"sum_hessian":[2.6660532E3,1.9493115E3,7.167416E2,1.7935896E3,1.5572195E2,3.6736032E2,3.493813E2,2.686703E2,1.5249193E3,6.8760185E1,8.696177E1,5.280554E1,3.1455478E2,1.2934215E2,2.2003914E2,1.7820511E2,9.046519E1,3.3746234E2,1.187457E3,6.7603775E1,1.1564107E0,1.6050154E1,7.091161E1,5.160869E1,1.1968474E0,2.087252E2,1.05829575E2,4.7393623E1,8.1948524E1,2.668314E1,1.9335599E2,1.1677113E2,6.143397E1,1.8028248E1,7.2436935E1,3.6133217E1,3.0132913E2,1.1636313E3,2.3825596E1,6.3177532E1,4.426246E0,9.8321705E0,6.2179823E0,5.9215153E1,1.1696459E1,4.9225403E1,2.3832874E0,1.5084431E2,5.7880882E1,1.969646E1,8.613311E1,1.1975722E0,8.075095E1,2.237347E1,4.309671E0,1.6239047E2,3.0965515E1,7.4479356E0,1.093232E2,3.0429565E1,3.1004406E1,1.5740874E1,2.2873747E0,3.816663E1,3.427031E1,1.1883128E1,2.425009E1,2.9690588E2,4.4232373E0,6.317357E2,5.318957E2,6.7622457E0,5.6415287E1,2.0568954E1,3.86462E1,5.621681E0,6.074777E0,9.503088E0,3.9722313E1,1.363481E2,1.4496219E1,3.717353E1,2.0707352E1,1.0953216E1,8.743244E0,6.2587048E1,2.3546066E1,7.9737274E1,1.0136781E0,1.9699957E0,2.0403473E1,1.5824069E2,4.1497836E0,2.3672201E1,7.2933135E0,1.0734235E2,1.9808557E0,2.1406862E1,9.022701E0,2.9702168E1,1.3022381E0,2.8508877E1,5.761431E0,2.193335E1,2.3167403E0,2.958902E2,1.0156754E0,6.299005E2,1.8351729E0,8.5983475E1,4.4591223E2,3.1510582E1,2.4904703E1,2.0017305E1,1.8628895E1,2.8205025E0,3.690181E1,8.208381E1,5.4264297E1,1.1532877E1,2.9633417E0,1.9574968E1,1.1323838E0,1.2556915E1,5.0030132E1,3.287887E0,2.0258179E1,7.86818E1,1.0554746E0,1.5531306E2,2.9276237E0,1.9904266E1,3.7679346E0],"tree_param":{"num_deleted":"0","num_feature":"8","num_nodes":"133","size_leaf_vector":"1"}},{"base_weights":[-1.3002649E-1,-1.5851468E-1,-1.5016655E-2,-1.7067826E-1,-0E0,1.1745189E-1,-3.511594E-2,-7.70062E-2,-1.9468425E-1,2.5246833E-2,-1.631207E-2,1.9409311E-1,-0E0,-1.3099608E-1,-3.169368E-4,-1.1087588E-1,-0E0,-4.960056E-2,-2.1340498E-1,-6.317636E-2,-0E0,2.2220224E-1,-0E0,-2.2345121E-1,-0E0,1.20023765E-1,-2.0316258E-2,-1.768345E-1,-0E0,9.553969E-2,-0E0,-0E0,-1.0911891E-1,-2.3051637E-1,-2.9606855E-2,-8.128755E-2,-0E0,-0E0,1.3687436E-1,-0E0,7.3866256E-2,-2.6610473E-1,-0E0,4.71161E-3,-0E0,-0E0,2.4218228E-1,-8.6909205E-2,-0E0,-1.9826847E-1,-0E0,-2.0724717E-4,-0E0,2.3032816E-1,-0E0,-0E0,-6.0684748E-2,5.6285285E-3,-0E0,-1.3984828E-1,-0E0,-7.038767E-2,-0E0,1.2543483E-1,-1.1380079E-1,-9.672883E-2,-0E0,-2.5266957E-2,-0E0,4.8564207E-2,-0E0,-3.1103975E-1,-0E0,3.1407957E-3,-0E0,1.3756369E-1,-0E0,-1.7737523E-1,-0E0,4.7701416E-3,-6.890576E-2,-6.155725E-2,-0E0,-4.640103E-3,-0E0,-0E0,7.7920794E-2,-3.218466E-2,-0E0,-0E0,6.542902E-3,-0E0,-5.1247355E-2,-0E0,4.1142873E-2,-4.2921755E-2,-0E0,-3.359537E-2,-0E0,-0E0,-1.6655438E-2,-9.667452E-2,-0E0,-0E0,-7.4764036E-2,9.524974E-3,-0E0,-2.4922134E-3,1.2981516E-2,-4.3598153E-2,-0E0],"categories":[],"categories_nodes":[],"categories_segments":[],"categories_sizes":[],"default_left":[0,1,0,0,0,0,0,1,0,0,1,1,0,1,0,0,0,1,1,0,0,0,0,0,0,1,0,0,1,0,0,0,0,0,0,0,0,0,0,0,0,0,0,0,0,0,0,1,1,0,0,0,0,0,0,0,0,0,0,0,0,0,0,0,0,0,0,0,0,0,0,0,0,0,0,0,0,0,0,0,0,0,0,0,0,0,0,0,0,0,0,0,0,0,0,0,0,0,0,0,0,0,0,0,0,0,0,0,0,0,0],"id":14,"left_children":[1,3,5,7,9,11,13,15,17,-1,19,21,-1,23,25,27,29,31,33,35,37,39,-1,41,43,45,47,49,51,53,55,57,59,61,63,65,-1,67,69,-1,-1,71,-1,73,-1,-1,75,77,79,81,-1,83,-1,85,-1,-1,87,89,-1,91,-1,-1,-1,93,95,97,-1,99,-1,-1,-1,101,-1,-1,-1,-1,-1,103,105,107,109,-1,-1,-1,-1,-1,-1,-1,-1,-1,-1,-1,-1,-1,-1,-1,-1,-1,-1,-1,-1,-1,-1,-1,-1,-1,-1,-1,-1,-1,-1],"loss_changes":[7.467663E0,3.6626625E0,1.0779688E0,2.713028E0,1.4275008E-1,6.595804E-1,1.0598803E0,1.5963042E0,2.4984512E0,0E0,3.4319103E-1,2.8925383E-1,0E0,1.7047056E0,5.360747E-1,2.071505E0,3.456479E-1,9.8985064E-1,2.536045E0,2.4373788E-1,4.9419346E-1,2.1709514E-1,0E0,1.3130722E0,4.5479133E-4,5.7309484E-1,3.2465073E-1,1.2583132E0,5.9040035E-6,1.3761537E0,1.8922175E-1,2.63031E-3,5.0668967E-1,7.6472855E-1,1.8445957E0,2.5136662E-1,0E0,2.3169547E-2,1.6293034E-1,0E0,0E0,7.279806E-1,0E0,1.6488491E-3,0E0,0E0,1.751003E0,9.7623813E-1,2.7998546E-1,4.0610886E-1,0E0,2.9962786E-2,0E0,3.1634414E-1,0E0,0E0,3.2707274E-1,3.605726E-2,0E0,4.9225152E-1,0E0,0E0,0E0,7.310411E-2,7.6030993E-1,2.8222442E-1,0E0,7.0804976E-2,0E0,0E0,0E0,1.786499E-1,0E0,0E0,0E0,0E0,0E0,4.9701655E-1,1.7093422E-2,3.2614124E-1,8.6610854E-1,0E0,0E0,0E0,0E0,0E0,0E0,0E0,0E0,0E0,0E0,0E0,0E0,0E0,0E0,0E0,0E0,0E0,0E0,0E0,0E0,0E0,0E0,0E0,0E0,0E0,0E0,0E0,0E0,0E0,0E0],"parents":[2147483647,0,0,1,1,2,2,3,3,4,4,5,5,6,6,7,7,8,8,10,10,11,11,13,13,14,14,15,15,16,16,17,17,18,18,19,19,20,20,21,21,23,23,24,24,25,25,26,26,27,27,28,28,29,29,30,30,31,31,32,32,33,33,34,34,35,35,37,37,38,38,41,41,43,43,46,46,47,47,48,48,49,49,51,51,53,53,56,56,57,57,59,59,63,63,64,64,65,65,67,67,71,71,77,77,78,78,79,79,80,80],"right_children":[2,4,6,8,10,12,14,16,18,-1,20,22,-1,24,26,28,30,32,34,36,38,40,-1,42,44,46,48,50,52,54,56,58,60,62,64,66,-1,68,70,-1,-1,72,-1,74,-1,-1,76,78,80,82,-1,84,-1,86,-1,-1,88,90,-1,92,-1,-1,-1,94,96,98,-1,100,-1,-1,-1,102,-1,-1,-1,-1,-1,104,106,108,110,-1,-1,-1,-1,-1,-1,-1,-1,-1,-1,-1,-1,-1,-1,-1,-1,-1,-1,-1,-1,-1,-1,-1,-1,-1,-1,-1,-1,-1,-1],"split_conditions":[2.3304014E-2,6.397E-1,2.971093E-2,5E-1,6.583E-1,1.2E0,3.860867E-2,1.45E-1,2.103E-1,2.5246833E-2,8E-1,9.473E-1,-0E0,1.099E-1,4.2555157E-2,4E-1,3E-1,9E-1,1.6E0,3.7347808E-1,9.313E-1,3E-1,-0E0,4.146029E-1,5.34E-1,8E-1,7.16E-1,1.519827E-2,7.23E-2,5.08E-1,2.367E-1,2.608023E-1,1.627E-1,2.6043755E-1,1.7E0,2.5225E-2,-0E0,1.6E0,2.522913E-1,-0E0,7.3866256E-2,1.4E0,-0E0,1.9E0,-0E0,-0E0,4.086646E-2,1E0,1.2E0,2.873081E-1,-0E0,1.21586155E-2,-0E0,1.67E-1,-0E0,-0E0,5.593E-1,8E-3,-0E0,3.51E-2,-0E0,-7.038767E-2,-0E0,2.856E-1,1.519827E-2,6.231921E-1,-0E0,9E-1,-0E0,4.8564207E-2,-0E0,3.7995674E-2,-0E0,3.1407957E-3,-0E0,1.3756369E-1,-0E0,5E-1,1.3E0,6E-1,2E0,-6.155725E-2,-0E0,-4.640103E-3,-0E0,-0E0,7.7920794E-2,-3.218466E-2,-0E0,-0E0,6.542902E-3,-0E0,-5.1247355E-2,-0E0,4.1142873E-2,-4.2921755E-2,-0E0,-3.359537E-2,-0E0,-0E0,-1.6655438E-2,-9.667452E-2,-0E0,-0E0,-7.4764036E-2,9.524974E-3,-0E0,-2.4922134E-3,1.2981516E-2,-4.3598153E-2,-0E0],"split_indices":[6,7,6,0,7,0,6,7,7,0,0,7,0,7,6,0,0,0,0,5,7,0,0,5,7,0,7,6,7,7,7,5,7,5,0,4,0,0,5,0,0,0,0,0,0,0,6,0,0,5,0,6,0,7,0,0,7,7,0,7,0,0,0,7,6,2,0,0,0,0,0,6,0,0,0,0,0,0,0,0,0,0,0,0,0,0,0,0,0,0,0,0,0,0,0,0,0,0,0,0,0,0,0,0,0,0,0,0,0,0,0],"split_type":[0,0,0,0,0,0,0,0,0,0,0,0,0,0,0,0,0,0,0,0,0,0,0,0,0,0,0,0,0,0,0,0,0,0,0,0,0,0,0,0,0,0,0,0,0,0,0,0,0,0,0,0,0,0,0,0,0,0,0,0,0,0,0,0,0,0,0,0,0,0,0,0,0,0,0,0,0,0,0,0,0,0,0,0,0,0,0,0,0,0,0,0,0,0,0,0,0,0,0,0,0,0,0,0,0,0,0,0,0,0,0],"sum_hessian":[2.5421174E3,2.0004733E3,5.416441E2,1.8502698E3,1.5020343E2,3.4117226E1,5.075269E2,4.259473E2,1.4243225E3,7.5328393E0,1.426706E2,2.556493E1,8.552295E0,9.1736534E1,4.1579037E2,3.3168918E2,9.425814E1,1.9622548E2,1.228097E3,8.8963844E1,5.3706757E1,2.3705416E1,1.8595141E0,6.1075138E1,3.0661394E1,1.863584E1,3.971545E2,1.9239496E2,1.392942E2,3.086747E1,6.3390675E1,7.810269E1,1.1812279E2,1.0969858E3,1.3111118E2,8.785254E1,1.1113062E0,3.4328094E1,1.9378662E1,2.117413E0,2.1588003E1,5.954398E1,1.5311598E0,1.34867735E1,1.717462E1,9.568304E0,9.067535E0,5.8067127E1,3.390874E2,1.836234E2,8.771553E0,1.304578E2,8.836417E0,2.5455553E1,5.411916E0,1.9008566E1,4.4382107E1,7.602657E1,2.0761182E0,9.508435E1,2.3038435E1,1.072546E3,2.4439741E1,2.4035212E1,1.0707596E2,8.6851715E1,1.0008205E0,2.9292059E1,5.0360346E0,1.8075932E1,1.302729E0,4.9230644E1,1.03133335E1,1.2192641E1,1.2941319E0,5.809606E0,3.257929E0,3.9650085E1,1.8417042E1,2.8853464E2,5.0552773E1,1.806241E2,2.9992979E0,1.1827231E2,1.2185483E1,2.244138E0,2.3211416E1,3.785823E1,6.5238767E0,1.6923892E0,7.433419E1,1.679704E1,7.828731E1,1.1860186E0,2.2849194E1,1.0231568E2,4.760279E0,8.5527504E1,1.3242096E0,5.8032346E0,2.3488825E1,4.710735E1,2.1232939E0,1.5015817E1,2.4634268E1,9.956802E0,8.460239E0,1.22537964E2,1.6599666E2,4.6947453E1,3.6053202E0],"tree_param":{"num_deleted":"0","num_feature":"8","num_nodes":"111","size_leaf_vector":"1"}},{"base_weights":[-9.586944E-2,-1.2284236E-1,-2.0229168E-2,-1.3408807E-1,-0E0,-0E0,-8.268974E-2,-8.595092E-2,-1.6490506E-1,-4.5884203E-2,3.1152725E-2,-2.0623077E-2,4.1690297E-2,-1.3205029E-1,-0E0,-1.1825193E-1,3.2258525E-2,-1.0671202E-1,-1.3365391E-1,-9.185418E-2,-0E0,1.0120601E-1,-0E0,6.0791516E-4,-4.326095E-2,-0E0,1.06415264E-1,-1.6240713E-1,-0E0,-0E0,7.437113E-3,-7.6633215E-2,-8.100306E-2,6.5379195E-2,-0E0,3.5213508E-2,-1.706907E-1,-1.1039492E-1,-0E0,5.2384086E-2,-0E0,-1.2824418E-2,7.261113E-2,-0E0,1.3431665E-1,-9.983579E-2,-0E0,-0E0,-2.3189632E-2,1.667146E-1,-0E0,-1.7215496E-1,-0E0,8.985344E-2,-0E0,-9.984195E-2,-0E0,7.541288E-2,-0E0,7.357367E-2,-0E0,-2.9309908E-1,-9.4760634E-2,-0E0,-1.2863307E-1,-0E0,-6.2438153E-2,-0E0,5.728015E-2,-0E0,-3.9009076E-2,-0E0,1.6542768E-1,-1.24643445E-1,-0E0,-2.6996294E-2,1.9508904E-2,-0E0,-5.2102476E-2,1.990274E-1,-0E0,-1.8490466E-1,-0E0,-0E0,6.0639884E-2,-3.1054502E-2,-0E0,-0E0,2.5645299E-2,2.390145E-2,-0E0,-9.17638E-2,-0E0,-0E0,-3.765621E-2,-5.3906444E-2,-0E0,-3.673482E-2,-0E0,-0E0,7.618329E-3,-0E0,-3.917072E-2,5.6889057E-2,-0E0,-5.6614142E-2,-0E0,1.5954933E-3,-0E0,-0E0,-5.1887523E-2,-0E0,2.4207579E-2,-1.6067313E-2,-0E0,8.442681E-2,-0E0,-0E0,-5.7731185E-2],"categories":[],"categories_nodes":[],"categories_segments":[],"categories_sizes":[],"default_left":[0,1,1,1,1,0,0,1,0,0,0,0,0,0,0,1,1,0,0,0,0,0,0,0,0,0,0,1,0,0,0,1,0,0,0,1,0,0,0,0,0,0,0,0,0,0,0,0,0,1,0,0,0,0,0,0,0,0,0,0,0,0,0,0,1,0,0,0,0,0,0,0,1,1,0,0,0,0,0,0,0,0,0,0,0,0,0,0,0,0,0,0,0,0,0,0,0,0,0,0,0,0,0,0,0,0,0,0,0,0,0,0,0,0,0,0,0,0,0],"id":15,"left_children":[1,3,5,7,9,11,13,15,17,19,21,23,25,27,29,31,33,-1,35,37,-1,39,41,43,45,47,49,51,-1,-1,53,55,-1,57,-1,59,61,63,-1,-1,-1,65,67,69,71,73,75,-1,77,79,-1,81,-1,83,-1,85,-1,87,-1,89,-1,91,93,-1,95,-1,97,-1,-1,99,101,-1,103,105,107,109,111,-1,113,115,-1,117,-1,-1,-1,-1,-1,-1,-1,-1,-1,-1,-1,-1,-1,-1,-1,-1,-1,-1,-1,-1,-1,-1,-1,-1,-1,-1,-1,-1,-1,-1,-1,-1,-1,-1,-1,-1,-1],"loss_changes":[4.2752304E0,2.375494E0,5.429188E-1,1.0328922E0,2.4130833E-1,4.237093E-1,8.6874765E-1,3.1517725E0,2.645584E0,4.4532E-1,1.4568338E-1,4.368735E-1,7.1240175E-1,8.149127E-1,1.5866649E-3,1.8425684E0,3.2837164E-1,0E0,5.819992E0,2.1275824E-1,0E0,2.8195685E-1,1.11438796E-1,5.5414456E-1,1.0487837E0,2.084424E-2,8.823585E-1,2.5313282E-1,0E0,0E0,2.1021864E-1,8.903959E-1,0E0,1.4344254E-1,0E0,4.7239918E-1,4.3195457E0,1.7980278E-1,0E0,0E0,0E0,1.6399246E-1,3.94571E-1,7.54383E-2,2.1971732E-1,7.573724E-1,8.057159E-2,0E0,8.140065E-2,5.1159E-1,0E0,3.4050465E-2,0E0,3.151762E-1,0E0,2.2347307E-1,0E0,1.5979147E-1,0E0,9.5436215E-2,0E0,1.4265614E0,1.6186852E0,0E0,1.5972412E-1,0E0,2.1173465E-1,0E0,0E0,1.0367819E-2,7.042156E-1,0E0,1.811232E-1,1.2053163E0,4.627224E-4,6.162415E-1,4.5012107E-1,0E0,2.7742162E-3,4.141252E-1,0E0,8.632517E-2,0E0,0E0,0E0,0E0,0E0,0E0,0E0,0E0,0E0,0E0,0E0,0E0,0E0,0E0,0E0,0E0,0E0,0E0,0E0,0E0,0E0,0E0,0E0,0E0,0E0,0E0,0E0,0E0,0E0,0E0,0E0,0E0,0E0,0E0,0E0,0E0,0E0],"parents":[2147483647,0,0,1,1,2,2,3,3,4,4,5,5,6,6,7,7,8,8,9,9,10,10,11,11,12,12,13,13,14,14,15,15,16,16,18,18,19,19,21,21,22,22,23,23,24,24,25,25,26,26,27,27,30,30,31,31,33,33,35,35,36,36,37,37,41,41,42,42,43,43,44,44,45,45,46,46,48,48,49,49,51,51,53,53,55,55,57,57,59,59,61,61,62,62,64,64,66,66,69,69,70,70,72,72,73,73,74,74,75,75,76,76,78,78,79,79,81,81],"right_children":[2,4,6,8,10,12,14,16,18,20,22,24,26,28,30,32,34,-1,36,38,-1,40,42,44,46,48,50,52,-1,-1,54,56,-1,58,-1,60,62,64,-1,-1,-1,66,68,70,72,74,76,-1,78,80,-1,82,-1,84,-1,86,-1,88,-1,90,-1,92,94,-1,96,-1,98,-1,-1,100,102,-1,104,106,108,110,112,-1,114,116,-1,118,-1,-1,-1,-1,-1,-1,-1,-1,-1,-1,-1,-1,-1,-1,-1,-1,-1,-1,-1,-1,-1,-1,-1,-1,-1,-1,-1,-1,-1,-1,-1,-1,-1,-1,-1,-1,-1],"split_conditions":[1.21586155E-2,5.593E-1,1.2E0,7E-1,6E-1,1E0,1.9E0,6E-1,8E-1,3.7211445E-1,7E-1,3.039654E-2,3.7235763E-2,4.9168694E-1,2.7E-1,5E-1,2.208E-1,-1.0671202E-1,9E-1,9.829E-1,-0E0,8.085E-1,1.5E0,2.3304014E-2,7.918626E-2,1.6549228E-2,1.4955604E-1,9.54E-1,-0E0,-0E0,1.8430911E-1,7.23E-2,-8.100306E-2,3.063971E-1,-0E0,2.589E-1,1.1E0,6.04E-1,-0E0,5.2384086E-2,-0E0,7.028E-1,8.085E-1,1.8237924E-2,3E-1,3.1075144E-1,8.163E-1,-0E0,8.02E-2,7.644E-1,-0E0,1.8E0,-0E0,7.751118E-2,-0E0,2.873081E-1,-0E0,3.69E-2,-0E0,2.716235E-1,-0E0,2.6043755E-1,1.2E0,-0E0,4E-1,-0E0,9.084E-1,-0E0,5.728015E-2,1.519827E-2,2.504E-1,-0E0,9.473E-1,9.19E-2,6.931167E-2,1.0638789E-1,6E-1,-0E0,1.9768856E-1,7.582248E-2,-0E0,1.22E-1,-0E0,-0E0,6.0639884E-2,-3.1054502E-2,-0E0,-0E0,2.5645299E-2,2.390145E-2,-0E0,-9.17638E-2,-0E0,-0E0,-3.765621E-2,-5.3906444E-2,-0E0,-3.673482E-2,-0E0,-0E0,7.618329E-3,-0E0,-3.917072E-2,5.6889057E-2,-0E0,-5.6614142E-2,-0E0,1.5954933E-3,-0E0,-0E0,-5.1887523E-2,-0E0,2.4207579E-2,-1.6067313E-2,-0E0,8.442681E-2,-0E0,-0E0,-5.7731185E-2],"split_indices":[6,7,0,0,0,0,0,0,0,5,0,6,6,2,7,0,7,0,0,7,0,7,0,6,6,6,6,7,0,0,6,7,0,5,0,7,0,7,0,0,0,7,7,6,0,5,7,0,7,7,0,0,0,6,0,5,0,7,0,5,0,5,0,0,0,0,7,0,0,6,7,0,7,7,6,6,0,0,2,6,0,7,0,0,0,0,0,0,0,0,0,0,0,0,0,0,0,0,0,0,0,0,0,0,0,0,0,0,0,0,0,0,0,0,0,0,0,0,0],"split_type":[0,0,0,0,0,0,0,0,0,0,0,0,0,0,0,0,0,0,0,0,0,0,0,0,0,0,0,0,0,0,0,0,0,0,0,0,0,0,0,0,0,0,0,0,0,0,0,0,0,0,0,0,0,0,0,0,0,0,0,0,0,0,0,0,0,0,0,0,0,0,0,0,0,0,0,0,0,0,0,0,0,0,0,0,0,0,0,0,0,0,0,0,0,0,0,0,0,0,0,0,0,0,0,0,0,0,0,0,0,0,0,0,0,0,0,0,0,0,0],"sum_hessian":[2.4476062E3,1.7522814E3,6.953248E2,1.6016824E3,1.5059901E2,5.808898E2,1.14435074E2,6.988412E2,9.028411E2,6.487291E1,8.57261E1,4.5786237E2,1.2302738E2,9.0439E1,2.399607E1,5.8208136E2,1.1675983E2,9.431828E1,8.085228E2,6.37153E1,1.1576109E0,1.6009007E1,6.9717094E1,1.2581224E2,3.320501E2,4.716068E1,7.586671E1,8.831304E1,2.1259627E0,2.3096452E0,2.1686426E1,4.9092917E2,9.115219E1,9.99515E1,1.6808327E1,1.2121104E2,6.873118E2,5.9414547E1,4.3007536E0,9.977097E0,6.03191E0,5.7595734E1,1.2121362E1,1.0209361E2,2.3718624E1,1.6188612E2,1.70164E2,1.5399378E1,3.1761301E1,5.850961E1,1.7357098E1,8.636593E1,1.9471118E0,1.9234173E1,2.4522529E0,3.7566452E2,1.1526464E2,9.860741E1,1.3440894E0,1.0963954E2,1.1571493E1,2.3025012E2,4.5706168E2,6.6314316E0,5.2783115E1,1.9805372E1,3.779036E1,5.532659E0,6.5887027E0,5.951886E1,4.2574757E1,2.4389346E0,2.1279688E1,1.5009923E2,1.1786899E1,2.3095308E1,1.4706868E2,1.0974367E0,3.0663864E1,5.187998E1,6.629629E0,7.493007E1,1.1435859E1,1.3336209E1,5.8979635E0,3.6984537E2,5.8191576E0,1.552069E0,9.7055336E1,1.0750344E2,2.1361012E0,2.2608595E2,4.164167E0,9.683856E1,3.602231E2,2.8583796E1,2.419932E1,1.8767284E1,1.9023075E1,5.0441654E1,9.077206E0,3.8426359E0,3.873212E1,1.9558529E1,1.7211603E0,9.537887E1,5.472036E1,9.359617E0,2.4272811E0,8.762085E0,1.4333222E1,7.593252E1,7.113617E1,2.961207E1,1.051793E0,2.767825E1,2.4201729E1,3.9573915E0,7.097268E1],"tree_param":{"num_deleted":"0","num_feature":"8","num_nodes":"119","size_leaf_vector":"1"}},{"base_weights":[-7.186218E-2,-9.329171E-2,-1.1549594E-2,-1.0221053E-1,-0E0,-0E0,-3.4148127E-2,-2.5971113E-2,-1.1584282E-1,-0E0,2.9048538E-2,-7.1917474E-2,2.3714505E-2,-9.620505E-2,-0E0,-6.40295E-2,-0E0,-1.2501451E-1,-0E0,-4.560799E-2,-0E0,3.9950665E-2,-0E0,-1.0775306E-1,-0E0,5.68318E-2,-0E0,-0E0,-1.862025E-1,2.4212348E-1,-4.305519E-2,-9.628935E-2,-0E0,1.20254844E-1,-6.2952605E-3,-7.547027E-2,-1.6257842E-1,7.7735126E-2,-1.35969E-1,-0E0,-1.6043633E-2,-0E0,7.681476E-2,-1.4432429E-1,-0E0,8.954317E-2,-0E0,-1.05101466E-1,3.9975308E-2,-0E0,2.2773504E-2,-0E0,-2.0420642E-1,3.1532326E-1,-0E0,-6.533136E-2,-0E0,-0E0,-1.05834536E-1,-0E0,6.0806476E-2,4.4742163E-2,-7.1049E-2,-1.0226011E-1,2.9484194E-3,-1.6682042E-1,-0E0,-0E0,9.4435506E-2,-4.8933435E-2,-0E0,1.1919774E-1,-9.211195E-2,-0E0,6.169239E-2,-0E0,-1.8276894E-1,1.1485172E-1,-0E0,-2.6629008E-2,-0E0,-1.7615083E-1,-0E0,1.354012E-1,-4.5325935E-2,-0E0,5.659796E-2,-2.0654315E-1,-0E0,-0E0,1.0209966E-1,-9.231654E-2,-0E0,2.089748E-3,-0E0,-3.8371716E-2,-0E0,2.918326E-2,-0E0,-3.1990774E-2,-0E0,-1.939224E-2,-6.8286315E-2,-0E0,8.91796E-3,-0E0,-5.0237823E-2,3.16327E-2,-0E0,-0E0,5.1783074E-2,-3.867118E-2,-0E0,-0E0,-6.213873E-2,-0E0,6.9934584E-2,-0E0,-7.326026E-2,4.7260385E-2,-0E0,-3.782224E-2,-0E0,2.2108588E-2,-0E0,-6.2534906E-2,-0E0,-3.320359E-2,-0E0,2.2217559E-2,-0E0],"categories":[],"categories_nodes":[],"categories_segments":[],"categories_sizes":[],"default_left":[0,1,1,0,1,0,0,0,1,0,0,0,0,0,0,0,0,1,0,0,0,0,0,0,0,0,0,0,0,1,0,0,0,0,0,1,0,0,1,0,0,0,0,0,0,0,0,0,1,0,0,0,0,0,0,1,0,0,0,0,0,0,0,1,0,0,0,0,0,0,0,0,0,0,0,0,0,1,0,0,0,0,0,0,0,0,0,1,0,0,0,0,0,0,0,0,0,0,0,0,0,0,0,0,0,0,0,0,0,0,0,0,0,0,0,0,0,0,0,0,0,0,0,0,0,0,0,0,0,0,0],"id":16,"left_children":[1,3,5,7,9,11,13,15,17,19,21,23,25,27,29,31,33,35,37,39,-1,41,-1,43,-1,45,47,49,51,53,55,57,-1,59,61,63,65,67,69,-1,-1,71,73,75,-1,77,79,81,83,-1,85,-1,87,89,-1,91,93,-1,95,-1,-1,97,99,101,103,105,-1,-1,107,-1,-1,109,111,-1,-1,-1,113,115,-1,-1,-1,117,-1,119,121,-1,123,125,-1,-1,-1,127,-1,129,-1,-1,-1,-1,-1,-1,-1,-1,-1,-1,-1,-1,-1,-1,-1,-1,-1,-1,-1,-1,-1,-1,-1,-1,-1,-1,-1,-1,-1,-1,-1,-1,-1,-1,-1,-1,-1],"loss_changes":[2.5600386E0,1.6822138E0,3.0137143E-1,9.116554E-1,6.583477E-2,4.6588433E-1,7.502204E-1,4.9072188E-1,1.1488552E0,1.1950399E-1,5.426036E-2,3.4460363E-1,3.165759E-1,1.5914004E0,2.4512646E0,3.439157E-1,4.505475E-1,9.0997887E-1,1.3864247E0,3.5327137E-2,0E0,7.180359E-2,0E0,4.5285982E-1,0E0,6.166392E-1,8.2325137E-1,1.9945977E-2,5.066252E-1,1.0176616E0,4.32249E-1,1.3662612E-1,0E0,4.074598E-1,5.4272175E-1,1.7108696E0,4.487152E-1,1.8231693E-1,3.4415543E-1,0E0,0E0,6.3654363E-1,7.9015845E-1,3.4515095E-1,0E0,6.6947377E-1,1.5721425E-1,1.0498159E0,1.4723538E0,0E0,9.026176E-2,0E0,3.171873E-2,2.8751373E-1,0E0,3.7904572E-1,5.9616537E-5,0E0,5.327177E-2,0E0,0E0,1.7491318E-1,4.9592915E-1,6.890216E-1,8.2992464E-2,7.861519E-2,0E0,0E0,1.3716859E-1,0E0,0E0,3.4790233E-1,1.7293087E-1,0E0,0E0,0E0,3.154087E-1,8.512254E-1,0E0,0E0,0E0,1.3436807E0,0E0,3.541746E-1,5.478235E-1,0E0,4.1117847E-2,1.726365E-2,0E0,0E0,0E0,4.6934628E-1,0E0,6.632878E-2,0E0,0E0,0E0,0E0,0E0,0E0,0E0,0E0,0E0,0E0,0E0,0E0,0E0,0E0,0E0,0E0,0E0,0E0,0E0,0E0,0E0,0E0,0E0,0E0,0E0,0E0,0E0,0E0,0E0,0E0,0E0,0E0,0E0,0E0,0E0,0E0,0E0],"parents":[2147483647,0,0,1,1,2,2,3,3,4,4,5,5,6,6,7,7,8,8,9,9,10,10,11,11,12,12,13,13,14,14,15,15,16,16,17,17,18,18,19,19,21,21,23,23,25,25,26,26,27,27,28,28,29,29,30,30,31,31,33,33,34,34,35,35,36,36,37,37,38,38,41,41,42,42,43,43,45,45,46,46,47,47,48,48,50,50,52,52,53,53,55,55,56,56,58,58,61,61,62,62,63,63,64,64,65,65,68,68,71,71,72,72,76,76,77,77,81,81,83,83,84,84,86,86,87,87,91,91,93,93],"right_children":[2,4,6,8,10,12,14,16,18,20,22,24,26,28,30,32,34,36,38,40,-1,42,-1,44,-1,46,48,50,52,54,56,58,-1,60,62,64,66,68,70,-1,-1,72,74,76,-1,78,80,82,84,-1,86,-1,88,90,-1,92,94,-1,96,-1,-1,98,100,102,104,106,-1,-1,108,-1,-1,110,112,-1,-1,-1,114,116,-1,-1,-1,118,-1,120,122,-1,124,126,-1,-1,-1,128,-1,130,-1,-1,-1,-1,-1,-1,-1,-1,-1,-1,-1,-1,-1,-1,-1,-1,-1,-1,-1,-1,-1,-1,-1,-1,-1,-1,-1,-1,-1,-1,-1,-1,-1,-1,-1,-1,-1],"split_conditions":[1.21586155E-2,6.334E-1,7E-1,3.038E-1,6E-1,3E-1,3.3436194E-2,1.557E-1,1.6E0,2.2810219E-1,2.522913E-1,1.5490598E-2,5E-1,1.8237924E-2,4.086646E-2,1.2E0,4E-1,7E-1,1.9E0,6.583E-1,-0E0,1.1E0,-0E0,3.7059462E-1,-0E0,2.557565E-1,6E-1,8.328E-1,5.03E-2,6.334E-1,5.384126E-1,1.88E-2,-0E0,2.18E-1,1.761E-1,6E-1,2.4967718E-1,3.997E-1,3.448E-1,-0E0,-1.6043633E-2,8.085E-1,8.085E-1,1.8237924E-2,-0E0,3.497567E-1,2.249344E-1,3.4749323E-1,3.3E-2,-0E0,8E-1,-0E0,1.2764042E-2,2.56E-1,-0E0,9.59E-2,2.69173E-1,-0E0,1.178E-1,-0E0,6.0806476E-2,1.7E0,2.856E-1,5E-1,5.593E-1,3.103E-1,-0E0,-0E0,2.4955559E-1,-4.8933435E-2,-0E0,6.518E-1,9.829E-1,-0E0,6.169239E-2,-0E0,2.504E-1,1.117E-1,-0E0,-2.6629008E-2,-0E0,4.159E-1,-0E0,2.757574E-1,8.857095E-1,-0E0,1.5E0,9.829E-1,-0E0,-0E0,1.0209966E-1,2E0,-0E0,8.381531E-1,-0E0,-3.8371716E-2,-0E0,2.918326E-2,-0E0,-3.1990774E-2,-0E0,-1.939224E-2,-6.8286315E-2,-0E0,8.91796E-3,-0E0,-5.0237823E-2,3.16327E-2,-0E0,-0E0,5.1783074E-2,-3.867118E-2,-0E0,-0E0,-6.213873E-2,-0E0,6.9934584E-2,-0E0,-7.326026E-2,4.7260385E-2,-0E0,-3.782224E-2,-0E0,2.2108588E-2,-0E0,-6.2534906E-2,-0E0,-3.320359E-2,-0E0,2.2217559E-2,-0E0],"split_indices":[6,7,0,7,0,0,6,7,0,2,5,4,0,6,6,0,0,0,0,7,0,0,0,5,0,5,0,7,7,7,1,7,0,7,7,0,5,7,7,0,0,7,7,6,0,2,6,5,7,0,0,0,4,7,0,7,6,0,7,0,0,0,7,0,7,7,0,0,5,0,0,7,7,0,0,0,7,7,0,0,0,7,0,5,2,0,0,7,0,0,0,0,0,1,0,0,0,0,0,0,0,0,0,0,0,0,0,0,0,0,0,0,0,0,0,0,0,0,0,0,0,0,0,0,0,0,0,0,0,0,0],"split_type":[0,0,0,0,0,0,0,0,0,0,0,0,0,0,0,0,0,0,0,0,0,0,0,0,0,0,0,0,0,0,0,0,0,0,0,0,0,0,0,0,0,0,0,0,0,0,0,0,0,0,0,0,0,0,0,0,0,0,0,0,0,0,0,0,0,0,0,0,0,0,0,0,0,0,0,0,0,0,0,0,0,0,0,0,0,0,0,0,0,0,0,0,0,0,0,0,0,0,0,0,0,0,0,0,0,0,0,0,0,0,0,0,0,0,0,0,0,0,0,0,0,0,0,0,0,0,0,0,0,0,0],"sum_hessian":[2.3851538E3,1.6958694E3,6.892845E2,1.5726766E3,1.23192726E2,3.581893E2,3.3109518E2,2.9727277E2,1.2754039E3,5.217258E1,7.102015E1,4.8658897E1,3.095304E2,1.1665431E2,2.1444089E2,1.6275397E2,1.345188E2,1.167649E3,1.0775487E2,5.0451385E1,1.7211959E0,6.824495E1,2.7752013E0,4.747364E1,1.1852567E0,1.4612943E2,1.6340099E2,4.4745636E1,7.1908676E1,2.8719421E1,1.8572147E2,1.05155914E2,5.759806E1,2.383304E1,1.1068575E2,5.7001215E2,5.976369E2,6.246881E1,4.5286057E1,3.3142457E0,4.713714E1,4.2722538E1,2.5522408E1,4.5105816E1,2.367825E0,1.315916E2,1.4537822E1,5.0127808E1,1.1327318E2,1.3286841E1,3.1458794E1,1.1514498E0,7.0757225E1,2.4295462E1,4.4239593E0,1.7797461E2,7.7468524E0,7.1205845E0,9.803533E1,1.0061597E1,1.3771442E1,1.9927233E1,9.075852E1,4.7080515E2,9.920702E1,5.834017E2,1.4235178E1,1.9542042E0,6.0514606E1,4.2268208E1,3.0178497E0,2.0129416E1,2.2593122E1,9.299525E0,1.6222883E1,9.282557E0,3.5823257E1,1.2799429E2,3.5973148E0,1.2953747E1,1.5840743E0,4.7170666E1,2.9571402E0,7.918923E1,3.4083942E1,4.05467E0,2.7404123E1,6.97513E1,1.0059291E0,1.9481405E0,2.234732E1,1.3011627E2,4.7858334E1,6.6514564E0,1.095396E0,6.816974E1,2.9865593E1,1.7180468E1,2.7467651E0,8.001006E1,1.0748459E1,4.009724E2,6.983272E1,1.1243922E1,8.79631E1,1.69355E0,5.817081E2,5.9492405E1,1.0222006E0,2.5153162E0,1.76141E1,1.8518257E1,4.074866E0,2.1286774E0,3.369458E1,8.656235E1,4.1431946E1,3.452196E0,4.371847E1,7.0943E1,8.246228E0,3.2776073E1,1.3078723E0,2.086332E1,6.540804E0,6.875105E1,1.000242E0,1.2670862E2,3.4076579E0,5.104368E0,1.5470884E0],"tree_param":{"num_deleted":"0","num_feature":"8","num_nodes":"131","size_leaf_vector":"1"}},{"base_weights":[-5.2454032E-2,-6.699491E-2,-0E0,-7.410132E-2,-0E0,8.040195E-2,-9.806322E-3,-1.9757275E-2,-8.726189E-2,2.1012582E-2,-0E0,1.3170023E-1,-0E0,-7.1722925E-2,-0E0,-3.756788E-2,-0E0,-0E0,-9.690118E-2,-3.3200193E-2,-0E0,1.5690579E-1,-0E0,-1.3855885E-1,-0E0,5.134534E-2,-8.0417E-3,-8.975904E-2,-0E0,4.120097E-2,-0E0,-0E0,5.530852E-2,-1.06813304E-1,-0E0,-0E0,-8.9599065E-2,-0E0,6.9857046E-2,-0E0,5.2365784E-2,-1.8319935E-1,-0E0,1.1481095E-2,-0E0,1.1493749E-1,-0E0,-1.22912146E-1,-0E0,-1.1139399E-1,-0E0,-0E0,1.7491031E-2,1.3134478E-1,-0E0,-2.8011939E-2,-0E0,1.1640663E-1,-0E0,-8.7879114E-2,-2.222355E-1,1.5805903E-1,-7.0660226E-2,-3.29858E-2,-0E0,-3.638917E-2,-0E0,1.22858666E-1,-0E0,-6.203114E-2,-0E0,3.9979466E-3,-0E0,-0E0,2.1971022E-1,-3.1951085E-2,-0E0,-2.3335455E-1,-0E0,-0E0,7.448861E-2,-3.5345748E-2,-0E0,7.7068983E-3,-0E0,-0E0,4.6292856E-2,-1.3282782E-2,-0E0,-0E0,5.1947843E-2,-3.3032645E-2,-4.038057E-3,-7.050095E-2,-0E0,-0E0,4.9885783E-2,-3.1124897E-2,-0E0,-0E0,-2.7956786E-2,4.357376E-2,-0E0,1.1040126E-2,-8.584892E-3,7.238924E-2,-0E0,-0E0,-2.0539105E-2,-7.726701E-2,-0E0,2.725352E-3,-1.3157937E-2,3.6687646E-2,-0E0],"categories":[],"categories_nodes":[],"categories_segments":[],"categories_sizes":[],"default_left":[0,1,0,0,0,0,0,1,0,0,0,1,0,1,0,0,0,0,1,0,0,0,0,0,0,0,0,0,0,0,0,0,1,1,0,0,1,0,0,0,0,0,0,0,0,0,1,1,0,0,0,0,0,0,0,0,0,0,0,1,0,0,0,0,0,0,0,1,0,0,0,0,0,0,0,0,0,1,0,0,0,0,0,0,0,0,0,0,0,0,0,0,0,0,0,0,0,0,0,0,0,0,0,0,0,0,0,0,0,0,0,0,0,0,0],"id":17,"left_children":[1,3,5,7,9,11,13,15,17,-1,19,21,-1,23,25,27,29,31,33,35,37,39,-1,41,43,45,47,49,51,53,-1,55,57,59,61,-1,63,65,67,-1,-1,69,-1,71,-1,73,75,77,79,81,-1,-1,83,85,-1,87,-1,89,-1,91,93,95,97,-1,-1,99,-1,101,-1,-1,-1,-1,-1,103,105,107,-1,109,-1,111,113,-1,-1,-1,-1,-1,-1,-1,-1,-1,-1,-1,-1,-1,-1,-1,-1,-1,-1,-1,-1,-1,-1,-1,-1,-1,-1,-1,-1,-1,-1,-1,-1,-1,-1],"loss_changes":[1.6920724E0,1.0123663E0,3.2819942E-1,6.450186E-1,7.220755E-2,3.2877848E-1,4.232587E-1,2.8303307E-1,1.3549118E0,0E0,8.269351E-2,2.0769817E-1,0E0,7.124425E-1,2.4667901E-1,1.0136828E0,1.2911278E-1,1.5405308E-1,8.469429E-1,1.198904E-1,1.3364926E-1,1.2944591E-1,0E0,8.334954E-1,2.6814444E-3,6.4812565E-1,6.225828E-1,6.828934E-1,4.135176E-2,4.1074413E-1,0E0,4.1445427E-2,4.0537894E-1,5.808153E-1,1.4144171E0,0E0,8.222708E-2,7.317073E-2,2.620405E-1,0E0,0E0,3.8993025E-1,0E0,7.15422E-4,0E0,7.953564E-1,2.2936745E-2,1.1018276E0,1.5176834E-1,2.1297646E-1,0E0,0E0,4.686695E-2,1.51833E-1,0E0,4.4387646E-2,0E0,2.4912238E-2,0E0,9.274349E-1,3.5260296E-1,5.8465064E-2,5.535141E-1,0E0,0E0,3.920623E-1,0E0,1.2297091E-1,0E0,0E0,0E0,0E0,0E0,4.7951754E-2,2.763573E-1,7.227632E-2,0E0,1.8368506E-1,0E0,2.7190307E-1,2.4168701E-1,0E0,0E0,0E0,0E0,0E0,0E0,0E0,0E0,0E0,0E0,0E0,0E0,0E0,0E0,0E0,0E0,0E0,0E0,0E0,0E0,0E0,0E0,0E0,0E0,0E0,0E0,0E0,0E0,0E0,0E0,0E0,0E0,0E0,0E0],"parents":[2147483647,0,0,1,1,2,2,3,3,4,4,5,5,6,6,7,7,8,8,10,10,11,11,13,13,14,14,15,15,16,16,17,17,18,18,19,19,20,20,21,21,23,23,24,24,25,25,26,26,27,27,28,28,29,29,31,31,32,32,33,33,34,34,36,36,37,37,38,38,41,41,43,43,45,45,46,46,47,47,48,48,49,49,52,52,53,53,55,55,57,57,59,59,60,60,61,61,62,62,65,65,67,67,73,73,74,74,75,75,77,77,79,79,80,80],"right_children":[2,4,6,8,10,12,14,16,18,-1,20,22,-1,24,26,28,30,32,34,36,38,40,-1,42,44,46,48,50,52,54,-1,56,58,60,62,-1,64,66,68,-1,-1,70,-1,72,-1,74,76,78,80,82,-1,-1,84,86,-1,88,-1,90,-1,92,94,96,98,-1,-1,100,-1,102,-1,-1,-1,-1,-1,104,106,108,-1,110,-1,112,114,-1,-1,-1,-1,-1,-1,-1,-1,-1,-1,-1,-1,-1,-1,-1,-1,-1,-1,-1,-1,-1,-1,-1,-1,-1,-1,-1,-1,-1,-1,-1,-1,-1,-1],"split_conditions":[2.3304014E-2,6.397E-1,3.039654E-2,5E-1,6.583E-1,1.2E0,3.860867E-2,1.45E-1,1.078E-1,2.1012582E-2,8.622E-1,9.473E-1,-0E0,1.099E-1,6.079308E-2,4E-1,4.362E-1,6.47E-2,1.6E0,1E0,1.1E0,3E-1,-0E0,4.146029E-1,5.34E-1,1.2E0,6.535256E-2,1.519827E-2,7.23E-2,3E-1,-0E0,2E0,1.4E0,3.038E-1,1.7E0,-0E0,1.9E0,5.356177E-1,2.4955559E-1,-0E0,5.2365784E-2,2E0,-0E0,1.9E0,-0E0,4.838116E-2,5.438E-1,1E0,3.0413625E-1,2.873081E-1,-0E0,-0E0,2.043323E-2,1.67E-1,-0E0,5.47E-2,-0E0,1.1E0,-0E0,1.1E0,1.519827E-2,1.472E-1,1.21586155E-2,-3.29858E-2,-0E0,8.696E-1,-0E0,1.9E0,-0E0,-6.203114E-2,-0E0,3.9979466E-3,-0E0,4.2090762E-2,2.8148723E-1,4.0022112E-2,-0E0,8.473E-1,-0E0,1.2525907E-1,3.900442E-1,-3.5345748E-2,-0E0,7.7068983E-3,-0E0,-0E0,4.6292856E-2,-1.3282782E-2,-0E0,-0E0,5.1947843E-2,-3.3032645E-2,-4.038057E-3,-7.050095E-2,-0E0,-0E0,4.9885783E-2,-3.1124897E-2,-0E0,-0E0,-2.7956786E-2,4.357376E-2,-0E0,1.1040126E-2,-8.584892E-3,7.238924E-2,-0E0,-0E0,-2.0539105E-2,-7.726701E-2,-0E0,2.725352E-3,-1.3157937E-2,3.6687646E-2,-0E0],"split_indices":[6,7,6,0,7,0,6,7,7,0,7,7,0,7,6,0,7,7,0,0,0,0,0,5,7,0,6,6,7,0,0,0,0,7,0,0,0,2,5,0,0,0,0,0,0,6,7,0,2,5,0,0,6,7,0,7,0,0,0,0,6,7,6,0,0,7,0,0,0,0,0,0,0,6,1,6,0,7,0,6,6,0,0,0,0,0,0,0,0,0,0,0,0,0,0,0,0,0,0,0,0,0,0,0,0,0,0,0,0,0,0,0,0,0,0],"split_type":[0,0,0,0,0,0,0,0,0,0,0,0,0,0,0,0,0,0,0,0,0,0,0,0,0,0,0,0,0,0,0,0,0,0,0,0,0,0,0,0,0,0,0,0,0,0,0,0,0,0,0,0,0,0,0,0,0,0,0,0,0,0,0,0,0,0,0,0,0,0,0,0,0,0,0,0,0,0,0,0,0,0,0,0,0,0,0,0,0,0,0,0,0,0,0,0,0,0,0,0,0,0,0,0,0,0,0,0,0,0,0,0,0,0,0],"sum_hessian":[2.3367527E3,1.80676E3,5.2999255E2,1.6599258E3,1.4683434E2,3.632185E1,4.9367072E2,4.0109842E2,1.2588273E3,7.7185926E0,1.3911574E2,2.8101358E1,8.220491E0,8.463858E1,4.0903214E2,3.0641312E2,9.4685295E1,9.501589E1,1.1638114E3,6.802227E1,7.1093475E1,2.6166067E1,1.9352919E0,5.4663376E1,2.9975208E1,7.82837E1,3.3074844E2,1.7372163E2,1.326915E2,6.905967E1,2.5625631E1,5.165583E1,4.3360065E1,1.0308286E3,1.3298277E2,4.9787575E1,1.8234694E1,5.0706367E1,2.0387106E1,2.1185262E0,2.404754E1,5.3107944E1,1.5554286E0,1.3342401E1,1.6632809E1,5.908035E1,1.9203346E1,3.565624E1,2.950922E2,1.6537297E2,8.348667E0,4.5268273E0,1.2816467E2,2.4293423E1,4.4766243E1,4.5819016E1,5.836814E0,3.4284966E1,9.075102E0,9.333655E2,9.746313E1,2.704496E1,1.0593782E2,1.6558369E1,1.6763242E0,4.825774E1,2.4486265E0,1.9214598E1,1.17251E0,4.93052E1,3.8027468E0,1.2127009E1,1.2153914E0,3.1519957E1,2.7560394E1,1.5467801E1,3.7355459E0,2.506819E1,1.0588046E1,2.747394E2,2.035278E1,1.624278E2,2.9451692E0,1.26673096E2,1.4915754E0,2.244765E0,2.2048656E1,3.6784363E1,9.03465E0,2.1796558E1,1.2488406E1,6.643678E2,2.689977E2,9.280524E1,4.6578937E0,1.1709862E0,2.5873974E1,9.680885E1,9.128963E0,1.6856481E0,4.657209E1,1.7585314E1,1.6292835E0,1.2940642E1,1.8579315E1,2.639965E1,1.1607425E0,2.15471E0,1.3313091E1,2.2093601E1,2.974589E0,1.4700105E2,1.27738365E2,1.9308634E1,1.0441446E0],"tree_param":{"num_deleted":"0","num_feature":"8","num_nodes":"115","size_leaf_vector":"1"}},{"base_weights":[-3.7206866E-2,-4.18223E-3,-5.577306E-2,-4.104447E-2,1.00556605E-1,-2.3399435E-1,-3.133214E-2,-0E0,-1.8188304E-1,1.1850383E-1,-0E0,-2.7647957E-1,-0E0,1.21794805E-1,-6.091007E-2,-7.953666E-2,4.10707E-4,-2.0353846E-1,-0E0,-0E0,1.5105455E-1,-0E0,-3.0171195E-1,-0E0,1.6373426E-1,-1.3724536E-1,-2.355636E-2,-0E0,-1.5899557E-1,-4.6337533E-4,9.713987E-2,-0E0,-2.381438E-1,1.5940838E-1,-0E0,-3.113664E-1,-0E0,3.7976324E-3,-1.846912E-2,1.8652096E-1,-0E0,-1.8124568E-1,-0E0,6.5946355E-2,-5.115981E-2,-0E0,3.7834037E-3,-2.2471118E-1,-0E0,-1.6093256E-2,1.6778808E-2,1.7158909E-1,-0E0,-2.4213032E-1,-0E0,1.6293892E-1,-0E0,-3.171673E-1,-0E0,9.671651E-3,-0E0,2.0165877E-1,-0E0,-1.9784659E-1,-0E0,-0E0,7.8062944E-2,9.932426E-2,-0E0,-6.316984E-2,-0E0,-7.917507E-2,-0E0,-6.4513977E-3,-0E0,3.215258E-2,-0E0,6.595923E-2,-0E0,-7.411943E-2,-0E0,4.9968094E-2,-0E0,-9.8470114E-2,-0E0,6.355346E-2,-0E0,-0E0,-6.163131E-2,-1.051468E-2,-0E0,3.9278224E-2,-0E0,3.684964E-2,-0E0,-1.762356E-2,-0E0,-0E0,-2.2752877E-2,-0E0,2.616669E-2],"categories":[],"categories_nodes":[],"categories_segments":[],"categories_sizes":[],"default_left":[0,0,0,0,1,0,0,0,0,0,0,0,0,0,0,0,1,0,0,0,0,0,0,0,0,0,0,0,0,0,0,0,0,0,0,1,0,0,0,1,0,0,0,1,1,0,0,0,0,0,0,0,0,0,0,0,0,0,0,0,0,0,0,0,0,0,1,0,0,0,1,0,0,0,0,0,0,0,0,0,0,0,0,0,0,0,0,0,0,0,0,0,0,0,0,0,0,0,0,0,0],"id":18,"left_children":[1,3,5,7,9,11,13,15,17,19,-1,21,-1,23,25,27,29,31,-1,-1,33,-1,35,37,39,41,43,45,47,49,51,-1,53,55,-1,57,-1,59,-1,61,-1,63,65,67,69,-1,-1,71,-1,73,75,77,-1,79,-1,81,-1,83,-1,-1,-1,85,-1,87,-1,89,91,93,95,97,99,-1,-1,-1,-1,-1,-1,-1,-1,-1,-1,-1,-1,-1,-1,-1,-1,-1,-1,-1,-1,-1,-1,-1,-1,-1,-1,-1,-1,-1,-1],"loss_changes":[1.1131871E0,3.34035E0,4.6304317E0,3.4887137E0,6.238904E-1,1.7346487E0,5.38983E0,3.420525E-1,1.0156589E0,7.930248E-1,0E0,6.464119E-1,0E0,1.0569837E0,2.2418392E0,7.9297143E-1,5.3010875E-1,1.2177749E0,0E0,0E0,3.757198E-1,0E0,5.553751E-1,6.707597E-2,9.145324E-1,2.3856468E0,1.864349E0,2.1097965E-3,1.068147E0,1.3314107E-1,4.738804E-1,0E0,1.7382383E-1,1.4435792E-1,0E0,2.4183941E-1,0E0,3.4992766E-2,0E0,6.36075E-1,0E0,1.3130655E0,2.2505602E-1,5.7633716E-1,6.1198676E-1,0E0,0E0,7.538264E-1,0E0,8.235136E-2,3.0087894E-1,5.2185035E-1,0E0,1.7297125E-1,0E0,1.363802E-1,0E0,3.0669975E-1,0E0,0E0,0E0,4.8290157E-1,0E0,6.4411354E-1,0E0,4.2430617E-2,3.5182002E-1,5.7573044E-1,6.886666E-2,6.9986033E-1,2.5455242E-1,0E0,0E0,0E0,0E0,0E0,0E0,0E0,0E0,0E0,0E0,0E0,0E0,0E0,0E0,0E0,0E0,0E0,0E0,0E0,0E0,0E0,0E0,0E0,0E0,0E0,0E0,0E0,0E0,0E0,0E0],"parents":[2147483647,0,0,1,1,2,2,3,3,4,4,5,5,6,6,7,7,8,8,9,9,11,11,13,13,14,14,15,15,16,16,17,17,20,20,22,22,23,23,24,24,25,25,26,26,27,27,28,28,29,29,30,30,32,32,33,33,35,35,37,37,39,39,41,41,42,42,43,43,44,44,47,47,49,49,50,50,51,51,53,53,55,55,57,57,61,61,63,63,65,65,66,66,67,67,68,68,69,69,70,70],"right_children":[2,4,6,8,10,12,14,16,18,20,-1,22,-1,24,26,28,30,32,-1,-1,34,-1,36,38,40,42,44,46,48,50,52,-1,54,56,-1,58,-1,60,-1,62,-1,64,66,68,70,-1,-1,72,-1,74,76,78,-1,80,-1,82,-1,84,-1,-1,-1,86,-1,88,-1,90,92,94,96,98,100,-1,-1,-1,-1,-1,-1,-1,-1,-1,-1,-1,-1,-1,-1,-1,-1,-1,-1,-1,-1,-1,-1,-1,-1,-1,-1,-1,-1,-1,-1],"split_conditions":[7E-1,6E-1,8E-1,5E-1,8.085E-1,7.918626E-2,9E-1,2E-1,3.4907788E-1,5.593E-1,-0E0,2.339E-1,-0E0,6.04E-1,1.1E0,3.716E-1,8.085E-1,2.622E-1,-0E0,-0E0,3.7003243E-1,-0E0,5.525142E-1,3.448E-1,1.4955604E-1,3.1391103E-2,1.2E0,1.627E-1,8.042492E-3,4.6481375E-2,9.395E-1,-0E0,6.8768585E-1,5.8732194E-1,-0E0,9.829E-1,-0E0,4.086646E-2,-1.846912E-2,9.607E-1,-0E0,2.574587E-1,1E0,2.912E-1,4.235E-1,-0E0,3.7834037E-3,2.4985956E-1,-0E0,3.5612586E-1,7.29517E-2,2.4955559E-1,-0E0,3.900442E-1,-0E0,1.296852E-1,-0E0,2.6821905E-1,-0E0,9.671651E-3,-0E0,4.7716793E-1,-0E0,1.88E-2,-0E0,3.9685723E-1,6.836E-1,2.6821905E-1,7.442E-1,1.22E-1,1.5E0,-7.917507E-2,-0E0,-6.4513977E-3,-0E0,3.215258E-2,-0E0,6.595923E-2,-0E0,-7.411943E-2,-0E0,4.9968094E-2,-0E0,-9.8470114E-2,-0E0,6.355346E-2,-0E0,-0E0,-6.163131E-2,-1.051468E-2,-0E0,3.9278224E-2,-0E0,3.684964E-2,-0E0,-1.762356E-2,-0E0,-0E0,-2.2752877E-2,-0E0,2.616669E-2],"split_indices":[0,0,0,0,7,6,0,0,5,7,0,7,0,7,0,7,7,7,0,0,2,0,2,7,6,6,0,7,1,6,7,0,2,5,0,7,0,6,0,7,0,5,0,7,7,0,0,5,0,5,6,5,0,6,0,1,0,5,0,0,0,5,0,7,0,5,7,5,7,7,0,0,0,0,0,0,0,0,0,0,0,0,0,0,0,0,0,0,0,0,0,0,0,0,0,0,0,0,0,0,0],"split_type":[0,0,0,0,0,0,0,0,0,0,0,0,0,0,0,0,0,0,0,0,0,0,0,0,0,0,0,0,0,0,0,0,0,0,0,0,0,0,0,0,0,0,0,0,0,0,0,0,0,0,0,0,0,0,0,0,0,0,0,0,0,0,0,0,0,0,0,0,0,0,0,0,0,0,0,0,0,0,0,0,0,0,0,0,0,0,0,0,0,0,0,0,0,0,0,0,0,0,0,0,0],"sum_hessian":[2.3001284E3,9.277593E2,1.3723693E3,7.2469995E2,2.0305936E2,1.3359715E2,1.2387721E3,5.889803E2,1.3571965E2,1.8867773E2,1.4381629E1,1.16400024E2,1.7197136E1,1.6964406E2,1.069128E3,4.705557E1,5.419247E2,1.3148225E2,4.2373905E0,4.049151E1,1.4818622E2,1.2675907E1,1.0372411E2,3.947631E1,1.3016776E2,3.011431E2,7.679849E2,9.160409E0,3.789516E1,4.927478E2,4.917691E1,1.5849542E1,1.1563271E2,1.4713297E2,1.0532458E0,1.02692696E2,1.0314171E0,2.891526E1,1.056105E1,1.2498737E2,5.1803784E0,2.4231264E2,5.8830463E1,1.3603581E2,6.319491E2,2.8950891E0,6.26532E0,3.662953E1,1.2656282E0,4.108075E2,8.194029E1,2.7099129E1,2.2077784E1,1.1459273E2,1.039987E0,1.4596324E2,1.1697279E0,1.0112098E2,1.5717195E0,2.7166542E1,1.7487184E0,1.2155683E2,3.4305391E0,2.3577443E2,6.5382137E0,2.8898638E1,2.9931826E1,1.1447502E2,2.1560795E1,5.654512E2,6.649795E1,3.5452473E1,1.177061E0,4.0506702E2,5.740494E0,2.1373932E1,6.0566357E1,2.4564287E1,2.534841E0,1.1261796E2,1.9747655E0,1.4430002E2,1.6632211E0,9.6800026E1,4.3209486E0,1.2025155E2,1.3052851E0,2.3483102E0,2.3342612E2,2.7540592E1,1.3580463E0,2.6652815E1,3.2790096E0,1.1058688E2,3.8881438E0,1.2955577E1,